svm_type c_svc
kernel_type rbf
gamma 0.000244141
nr_class 2
total_sv 80
rho 0.623993
label 1 0
probA -5.25186
probB -0.0825233
nr_sv 37 43
SV
0.07813609292967102 10:0.22175172 11:1.5537319 12:0.14385414 15:1.6191089 16:1.3075602 18:0.86073238 19:1.8425725 21:0.033965662 23:0.86468035 27:5.5633793 29:2.0578187 30:0.62867892 54:1.3694928 68:1.1352413 73:0.17410821 77:0.23199695 89:2.9675913 102:1.7181041 105:1.4750804 110:0.43252778 115:1.5113319 122:3.9498882 123:3.5118966 125:1.7519114 138:1.7111645 143:4.2525206 147:0.1199162 152:0.41963932 166:0.75536335 167:1.666733 169:0.085686237 170:0.90710789 172:1.1703323 173:0.35461044 179:0.83414376 180:0.64825964 188:0.74801314 190:0.085127145 191:0.412862 196:1.0601941 197:0.15766732 200:6.5221157 210:3.1544356 211:0.60325408 217:1.1041782 218:0.0044965148 220:1.8410754 222:1.9544617 224:2.2569225 232:3.3244679 236:0.042271748 239:1.9538682 240:3.2580428 241:2.6104512 247:3.4590697 256:0.87499613 258:3.6701736 262:2.5730906 266:0.27991021 267:3.2871497 269:0.54895067 274:3.6447241 279:2.1268811 283:1.3336649 288:2.9242165 292:3.1852138 295:2.7677357 301:1.3830917 303:1.3289039 305:0.70124185 311:3.6748979 315:2.189239 324:3.8135662 335:2.0255227 338:2.2146099 342:1.846409 343:0.26186264 348:0.55346948 350:3.1592066 351:0.78571266 359:0.23154333 365:3.0203762 371:0.17490739 374:0.51818609 379:0.13425758 385:1.9935579 392:1.4091656 398:0.82684135 401:1.4610256 411:1.5726117 414:0.76510286 419:1.4150804 420:4.7172098 432:1.8529557 435:0.38741845 440:0.47890127 442:3.3371303 445:1.8981466 447:0.98603547 459:1.5056264 460:0.94386196 462:1.9457937 463:3.1793156 473:4.7056699 481:0.33374017 482:0.68192494 487:0.93920946 490:0.018225908 491:1.6271721 493:2.7011309 494:0.21735713 495:1.4064178 499:0.67662871 500:2.5978596 502:0.94624299 505:2.1235018 509:0.096348472 514:0.81438947 515:0.78783303 521:1.9301732 524:5.2293968 526:1.4625165 541:0.92340624 545:0.86741126 555:1.651386 562:1.9763572 575:0.27357104 586:0.4352442 588:1.1555074 595:2.2076118 601:4.8411841 603:1.7397531 609:1.5204498 612:0.20649724 614:0.93962324 616:0.51308715 635:1.0050771 638:0.081615239 639:4.4302564 641:3.304249 642:1.2744759 643:2.2006106 646:0.9480617 653:0.75948262 657:3.4501038 659:3.086808 669:0.56494987 670:0.35132596 672:2.2913253 674:2.8492324 675:0.68342447 679:1.3962777 681:1.8577182 682:0.12131406 684:3.0233567 694:2.0675368 705:7.6006951 706:0.4913494 711:0.63039869 720:1.5017433 724:2.5508335 725:1.1949949 737:0.29214749 741:0.2393229 748:2.0623832 759:3.2943113 760:1.3213937 765:0.22859231 771:0.18410417 774:1.2019693 775:2.1725299 780:1.3380818 782:0.92694139 785:2.834151 786:0.33181229 789:1.0915514 795:1.6891129 796:3.6187305 798:2.131568 799:0.17882645 801:1.1614084 802:1.1924853 804:0.40793848 808:0.3289851 817:0.49369931 820:2.8214245 825:0.26120287 833:3.4430559 838:1.3942044 847:1.5260144 848:2.5306611 849:2.4271371 850:0.19131023 853:3.4636612 856:2.3121247 857:0.39306584 859:1.3175083 860:0.37080449 863:0.95103186 865:0.053754687 866:3.4889772 867:5.4750404 868:1.9189243 876:3.0527425 877:1.8765507 882:0.82578844 885:3.0463336 889:4.1003566 895:1.4387441 904:0.14016235 905:0.88541609 908:3.1525786 912:0.74461401 913:1.7479717 922:1.6166213 928:0.87117666 937:1.775016 938:1.7262418 940:0.45257044 941:0.2770516 942:0.39386407 945:6.8991408 947:0.33042932 957:0.62519449 960:1.1676972 968:2.2382975 974:4.6646781 976:0.065133154 979:1.5783911 985:0.077400595 996:1.399816 997:2.4165485 1001:2.9445326 1002:1.6877841 1004:1.8702481 1006:2.4195082 1011:2.1049473 1013:1.0072322 1014:3.5233939 1017:0.95125842 1018:2.6128144 1022:3.5771863 1024:1.6725659 1032:2.1760321 1036:0.33478415 1038:1.1273891 1043:1.2718866 1047:1.3310907 1049:0.42312545 1059:0.38042489 1062:2.095825 1077:1.1365232 1078:2.6606767 1080:1.1649804 1081:2.2034669 1091:0.65328777 1094:0.43852156 1095:1.4589705 1096:1.6197642 1100:0.74824017 1103:1.0955081 1105:0.77342331 1110:2.2388701 1125:6.3510361 1130:0.31973931 1136:0.88690746 1137:1.6149457 1138:2.6246455 1144:1.0326185 1147:0.72613406 1149:0.43675497 1153:1.2577901 1159:0.32302213 1165:2.7908087 1168:0.84588379 1170:2.9992685 1174:0.21513426 1176:3.8594062 1180:1.485189 1186:0.62888026 1187:1.1832682 1193:1.1176925 1199:0.22238468 1206:1.5370785 1212:0.37191379 1216:1.2286839 1221:0.61721128 1223:1.1421243 1224:0.14271647 1227:0.6143775 1228:4.6440787 1234:3.8783519 1240:3.4835992 1250:3.4885116 1252:1.7867469 1255:2.8204358 1257:0.53508097 1264:1.1376517 1271:0.58467042 1275:0.47428647 1281:0.98273861 1286:1.0123281 1288:2.9792106 1295:0.037601888 1302:0.96427715 1305:1.3243194 1306:0.18464577 1311:0.42044386 1314:0.5190928 1317:2.0226693 1319:5.0164766 1329:1.0286491 1332:1.3681083 1333:4.5812316 1335:4.9164348 1340:0.79379898 1341:3.0092578 1344:0.24762107 1347:0.0093631297 1355:0.72121781 1366:1.449163 1368:2.4899106 1369:0.83843923 1372:2.7669489 1377:1.2755606 1378:0.79372919 1383:1.031764 1385:0.55921197 1386:2.2524796 1393:1.0995041 1395:0.35105094 1399:1.0802426 1401:3.4411111 1402:0.54754674 1406:7.1161447 1407:0.51180845 1409:2.2790442 1411:3.9296613 1412:0.34444112 1423:1.9943316 1426:0.67616963 1450:1.982137 1451:2.236481 1452:3.0578775 1453:0.74104583 1456:4.0599785 1458:0.36953956 1462:2.5384927 1465:0.071047187 1466:1.6792393 1469:1.264716 1471:1.2035074 1476:1.9237453 1477:0.17317203 1484:2.8767245 1487:1.5573078 1488:0.89417219 1497:2.7081754 1513:1.1160934 1514:2.1373878 1519:2.124876 1520:0.074908018 1522:1.3738497 1523:1.9400351 1538:0.60194731 1544:3.794955 1555:0.13332362 1556:1.2992091 1560:0.27259427 1569:0.34601337 1580:0.52779424 1582:0.51330656 1586:3.457943 1587:1.0143012 1588:5.5442677 1596:2.778106 1597:0.064616889 1600:0.98500538 1613:0.32039395 1615:1.1832267 1618:2.0769415 1624:0.23086625 1625:3.5853164 1630:2.0630062 1634:0.81992555 1638:4.7335629 1639:0.25267375 1647:0.65285861 1648:1.8430978 1661:0.58266354 1662:1.4779313 1668:2.0864041 1675:4.2235408 1676:1.3990276 1677:0.41613245 1678:1.0256088 1690:1.2778566 1691:0.30183813 1697:0.072432056 1701:1.9223442 1703:2.7984724 1708:0.68932211 1718:2.0515289 1720:4.7173095 1722:3.1169086 1726:0.77351165 1730:0.72603041 1732:0.53641498 1735:0.9546293 1737:4.0157933 1746:0.97895944 1755:0.63026583 1756:1.0844935 1762:1.8028414 1766:1.0243537 1771:0.1761086 1772:0.10596523 1775:0.70890665 1780:0.70100629 1783:0.92615187 1792:0.34035009 1804:3.8569069 1817:4.9487352 1822:0.0055703521 1824:0.84597278 1825:1.0095024 1832:0.19114718 1834:0.42729145 1842:0.90973061 1844:1.9792979 1846:1.5534847 1848:5.4851847 1849:1.3093731 1850:0.6975413 1857:3.7650232 1858:0.32050052 1860:0.77789569 1863:0.39236861 1864:0.35410687 1868:0.030827224 1873:0.22477186 1879:2.9645436 1887:0.89229774 1890:4.6919527 1897:0.030573905 1912:0.68450707 1915:0.24441743 1918:2.4687164 1928:2.6652148 1936:0.6361742 1940:1.4237074 1943:2.0649774 1953:0.58071756 1959:0.25674105 1968:0.48047537 1975:0.52917314 1985:1.131556 1993:1.1827916 2001:0.24675801 2002:0.10446382 2004:0.18651676 2011:0.69631791 2012:1.1985772 2019:4.1306748 2031:1.014256 2038:1.0373759 2041:0.73601294 2042:1.3742229 2043:0.63198048 2045:0.64084721 2047:0.13962495 2048:3.620013 2049:0.95477265 2050:1.2881975 2051:2.3076396 2055:0.060188413 2057:0.54967964 2058:1.3099509 2066:1.6095569 2070:2.5739069 2075:2.1051898 2082:1.1329942 2085:0.82342917 2088:2.5870147 2097:1.4806792 2107:1.9731541 2110:1.379135 2117:3.9597268 2120:0.42095536 2134:2.7917697 2135:1.1864552 2136:1.8449647 2149:1.5959505 2151:2.4142303 2160:3.3733988 2188:4.777832 2196:0.88245964 2202:2.1439164 2211:5.3294072 2218:4.3264451 2223:2.6007004 2224:1.5010735 2226:1.3254881 2239:1.8055729 2241:0.01648742 2243:0.1363191 2246:0.22006974 2253:0.30825064 2255:0.46406785 2270:3.0362909 2271:1.075055 2281:0.20557183 2283:1.6108373 2298:1.7465119 2300:1.1929653 2317:0.6749419 2320:2.0574944 2321:0.29263741 2322:0.76240814 2332:3.9495783 2333:1.2733194 2337:1.9327004 2343:2.3415246 2344:3.3338804 2353:2.0510657 2355:1.709851 2358:4.2535362 2360:4.7744579 2372:3.518471 2376:0.46282801 2388:0.24871895 2393:2.4843407 2396:0.39807954 2414:1.221063 2416:6.1192942 2425:1.6692408 2431:4.4447818 2432:0.98126751 2434:1.2990377 2435:3.2739778 2445:1.0755743 2446:0.21948515 2450:1.2515095 2452:3.2130187 2457:1.1254349 2458:0.2206257 2459:2.2171519 2470:1.4818373 2486:1.0073566 2487:0.22245297 2490:0.86766946 2491:0.031437516 2501:0.48318619 2505:0.56309241 2509:2.6514695 2520:1.5400468 2526:4.2678742 2529:0.070925906 2536:2.9928615 2539:2.2390785 2543:0.86063027 2551:0.92948151 2560:1.7826602 2563:0.71622753 2576:1.4488277 2577:0.68679547 2579:0.06721136 2589:3.1585121 2591:1.0668906 2592:0.53021187 2594:1.6416283 2595:4.5056915 2599:1.7402834 2600:1.12896 2601:0.11659798 2604:1.3772142 2610:0.48988634 2617:1.8781823 2620:0.28184643 2621:0.93368226 2624:1.7803161 2629:0.81189591 2634:3.4273076 2636:1.5309327 2639:2.3974848 2651:2.2088552 2653:1.0884786 2656:0.021564871 2659:0.091878377 2660:1.9962053 2666:0.66570675 2668:0.3965759 2672:2.5968266 2680:1.5664853 2688:0.8286643 2690:0.81742889 2691:0.32209426 2692:1.7216336 2693:0.042798817 2698:4.4667559 2701:0.71711761 2704:1.7087083 2708:2.0688913 2714:3.6005905 2715:1.2875462 2718:4.045609 2719:1.7912452 2720:4.6215639 2723:0.75615728 2725:0.65732801 2726:0.663858 2727:0.1732704 2738:0.91352916 2740:4.087183 2743:0.22414652 2745:1.0090009 2754:0.79616475 2756:0.77505904 2763:1.362494 2765:1.7997885 2766:7.9515305 2768:0.20992148 2774:2.1270053 2777:3.6128063 2784:0.70401955 2786:2.5020413 2789:0.1434105 2790:1.0217845 2792:1.2214966 2793:0.051794961 2795:0.27135858 2808:0.46764788 2811:2.7485182 2816:0.48169908 2817:0.30183464 2819:0.046624959 2831:0.35253802 2834:4.5517254 2836:3.3576899 2840:4.2162395 2841:0.7016201 2843:0.50748277 2844:1.7926993 2846:1.9332374 2857:0.2924107 2860:0.7667411 2864:0.55503845 2865:1.4374952 2867:5.0034618 2869:2.5852983 2872:0.70626366 2873:1.2982117 2879:2.7976007 2882:2.7555299 2891:3.3891592 2894:2.3236325 2895:4.7808604 2896:3.0473781 2901:1.6330169 2903:3.0716984 2913:2.8773055 2916:0.84531409 2917:2.6774642 2919:0.67446524 2920:1.2097538 2927:0.69559622 2931:0.51703227 2937:1.0434682 2938:2.8853695 2941:0.23998326 2944:1.0173661 2950:2.7839074 2952:0.25724494 2958:3.8425341 2962:2.5929914 2963:1.303499 2974:1.4435532 2977:0.004508853 2981:3.1072934 2984:0.77853775 3010:0.022474915 3012:1.3586299 3013:0.45574111 3019:3.0548663 3021:2.7647429 3022:0.75927627 3034:1.651171 3035:1.6075722 3037:0.1268481 3048:3.2347491 3050:3.8455753 3052:2.0507896 3067:2.8984642 3079:0.67007452 3081:0.73743522 3094:0.87963259 3101:0.31855941 3105:1.6408349 3107:0.25624543 3108:0.14360738 3116:1.0169803 3118:1.6256979 3119:1.2746596 3133:1.8872097 3144:1.2814224 3147:0.51483405 3148:1.0764476 3150:2.4060581 3152:3.6938496 3153:1.1303544 3155:0.022929549 3159:2.9855559 3162:2.9934542 3163:0.95204163 3178:0.68291807 3180:1.7082324 3182:0.49732441 3195:3.4766502 3196:0.74585068 3199:1.8894819 3202:0.66025889 3213:1.1921587 3217:0.43071163 3224:0.19409743 3226:1.5075221 3232:2.3385205 3236:0.1241093 3237:4.462461 3247:1.4922178 3249:0.48065749 3256:1.0082819 3257:0.38942695 3260:3.1158462 3267:0.18259522 3268:2.8689203 3275:1.3369195 3277:0.62007594 3278:0.53799915 3280:0.93595308 3282:0.30838078 3285:1.8937994 3286:2.4483674 3289:4.7043667 3291:1.4641709 3293:3.5519793 3299:0.9333961 3307:0.22057429 3309:2.3833923 3310:2.0081561 3312:0.44582659 3324:0.43389201 3344:2.2690074 3345:0.22748524 3349:2.1891344 3363:0.16616374 3364:1.809311 3365:0.64022243 3371:1.1792607 3377:1.2008392 3378:3.1354039 3390:1.7828524 3395:0.48674205 3399:1.9472196 3402:1.3637785 3411:0.89464736 3421:0.87403744 3423:0.9313966 3424:1.0552192 3426:2.0175157 3431:1.4194363 3432:3.4416671 3436:1.5148735 3438:0.88180941 3443:2.496084 3445:1.2259547 3449:2.1991327 3451:0.81462824 3463:0.26477495 3465:2.2865219 3467:1.5839158 3476:0.75553179 3478:0.18151833 3485:0.72069591 3486:2.0185547 3488:1.6318228 3489:1.5631011 3491:3.3360257 3492:0.14682996 3493:1.4272609 3496:1.7586499 3500:2.8203311 3503:1.4253584 3504:2.6411357 3515:0.19314319 3521:1.0907717 3523:2.728827 3536:0.99509931 3539:3.1039813 3541:2.7481487 3548:1.8434422 3556:0.52540123 3558:0.91245568 3568:0.33701181 3576:3.3225567 3577:0.76872814 3586:0.90809429 3588:3.9907758 3591:1.0199747 3599:0.11247712 3604:2.7004259 3608:4.3981004 3615:2.7682238 3617:1.0023925 3624:3.3898509 3626:1.9637475 3635:0.98246849 3636:0.2220822 3642:0.98532987 3643:3.1720655 3649:2.7852821 3650:2.3348351 3653:2.9546459 3655:1.3444974 3659:0.06969744 3661:0.85415685 3666:0.35948521 3667:0.34798512 3670:0.84200734 3677:1.3246469 3681:0.58202451 3683:0.81948125 3684:3.7835221 3691:0.34907168 3700:0.45785454 3705:2.4537065 3709:0.43647021 3710:0.76033604 3711:0.058932573 3729:0.82637393 3732:3.2559743 3744:2.3826742 3751:2.7236352 3753:2.8600998 3763:2.0099893 3765:2.6181881 3766:3.664022 3771:1.4403594 3778:0.44773796 3783:0.6916011 3789:2.8148131 3792:0.54827619 3793:4.7403817 3797:0.84916162 3798:0.49131888 3806:0.61219919 3808:4.6208453 3818:1.0363522 3819:1.1958526 3824:4.5953307 3831:0.41006345 3836:2.920975 3845:1.4684583 3847:1.0500129 3848:1.4961476 3852:0.7515344 3860:1.7706022 3869:0.016567528 3872:2.4377418 3875:2.8558388 3876:0.5981456 3877:1.7109897 3879:0.10902889 3882:1.345188 3886:0.49923414 3888:0.98423743 3889:1.2710134 3892:0.039662451 3893:8.6234169 3898:2.0515075 3906:0.33725291 3910:0.80069053 3913:0.35160986 3915:0.31796595 3919:1.1533463 3935:0.13193607 3937:1.9857831 3942:0.14988944 3948:1.1020806 3957:3.4451077 3962:2.4481475 3963:4.2674332 3970:2.5438528 3975:0.57882881 3976:2.6636817 3977:0.93973553 3978:0.05542466 3980:2.9945817 3984:2.7769711 3985:1.635973 3988:0.65525091 3992:0.44521758 4000:0.028653264 4004:1.7402947 4010:3.7460172 4011:1.2912865 4016:5.2911921 4032:0.90895534 4034:0.090583943 4036:2.1703689 4040:0.33362854 4041:3.1186295 4042:0.51292235 4048:0.021707773 4052:2.1369934 4055:0.30749172 4059:0.035135105 4063:5.0132446 4067:0.051139727 4073:0.060952097 4074:1.887605 4075:0.58055747 4079:1.4005164 4084:1.1327386 4085:0.17598754 4096:5.5640192 
0.1848538479692197 2:0.70468462 15:5.9226623 16:1.827858 19:1.3467343 23:2.7063105 24:1.0825915 27:5.1124845 28:2.2360008 29:1.5100431 37:0.62027431 39:2.3554728 43:0.41434681 57:0.1174458 80:1.0137786 84:0.14848235 89:0.077929109 91:0.12702118 93:0.97221011 102:0.72043502 105:0.29811648 118:2.1060996 122:4.2375555 123:5.9639487 125:5.5876093 130:1.5904185 138:0.8096441 143:1.0131962 145:1.3425729 148:2.1410413 166:2.9729862 169:2.8072047 170:0.50778121 179:0.86041838 181:0.40711865 186:2.1347313 188:2.967267 190:0.094718665 196:3.00824 197:0.84948474 199:2.0656652 200:8.3007765 210:3.4403887 217:2.5275404 220:0.21980244 224:3.4787827 234:0.27966872 236:1.9670696 239:2.1613054 240:2.9414315 247:0.85070378 256:0.92067534 258:0.11849347 266:0.24299935 267:2.1362059 269:3.577827 288:1.6495031 292:3.3480427 301:0.84292305 306:1.4031599 311:1.9276192 324:7.9261284 329:0.30568483 335:3.1659598 338:1.2853043 339:1.0146668 342:3.016217 343:0.46591598 350:2.0493827 353:0.5085001 360:0.32072064 371:2.1229701 378:0.55461282 379:1.1466662 385:1.2841097 392:0.67778689 419:0.0060540438 420:1.0658431 422:0.91643918 424:0.48981363 427:0.31859905 432:5.6439486 435:2.742316 439:0.30201355 442:4.9167361 459:3.2942543 462:0.085014164 463:3.493824 472:3.4315808 473:1.091543 485:0.24624425 487:1.4223237 491:1.3365566 493:0.24025202 494:3.7019396 495:3.5038617 500:2.1908195 502:0.29933539 509:1.1294861 520:0.59133559 521:3.9864576 522:0.81878501 524:6.3421264 526:1.2012475 535:1.1636765 548:1.0731821 554:0.46604297 555:1.3964003 562:1.5965468 573:0.11004913 575:1.0175387 578:0.021376073 588:1.1954452 592:1.9216032 594:1.4753406 595:2.487386 599:0.58155739 601:2.832165 603:2.8705039 615:0.083817244 635:0.92884219 639:2.3742654 641:3.2798777 643:3.6154995 657:2.7330475 659:2.6560602 662:1.5891038 669:0.32218474 670:0.19659263 672:3.5875332 674:2.2479007 675:2.0364208 677:0.52085304 680:1.543772 681:1.4909985 682:0.22408678 684:3.6120758 694:2.026545 705:6.3289766 718:2.1685688 720:1.3555281 724:5.8054156 725:0.3410542 734:0.66088092 737:2.1682796 748:3.2440557 759:0.58905494 760:1.6568086 765:0.97381079 766:0.024622738 771:1.9750088 774:1.8165053 785:4.1758027 787:0.089832142 789:3.4757583 794:0.51781726 796:1.2421521 798:1.048813 802:2.1591589 803:0.26683471 807:0.071682751 820:4.868247 822:0.26473105 825:1.7704439 833:2.7849121 839:1.3140228 847:1.5999817 848:1.9405957 849:3.8876123 850:1.0298923 851:0.27122504 853:2.4777355 856:1.4955631 857:1.9512204 859:1.7494104 860:1.932555 861:0.21204388 865:1.281951 866:3.34659 867:3.905123 868:4.3391995 869:1.4449395 873:0.36774123 876:3.8592887 882:3.1215119 885:1.0112808 887:2.4760153 889:3.3482223 895:1.4511952 908:2.8223746 912:0.18412769 913:1.1335688 930:0.3170628 937:2.2227125 938:0.31414223 940:5.7993922 945:3.6285133 947:0.20722011 959:2.3670039 960:1.1686161 965:3.9852486 966:0.81200182 967:2.5303183 968:3.3341317 971:1.8196322 974:0.91532129 976:0.15145236 979:2.7681043 982:0.47335619 997:2.9229987 1006:1.6200341 1010:0.67700583 1011:3.1812427 1014:0.79678917 1015:0.66726309 1017:0.013782322 1018:2.4196661 1019:0.55937064 1024:2.2688618 1027:0.70214283 1032:1.6960018 1035:0.55604362 1037:0.63401526 1043:5.5455465 1049:1.073567 1062:1.4203901 1078:2.2027495 1080:1.0494783 1084:0.73758507 1091:0.87083596 1092:0.33469301 1096:2.3605614 1097:0.62415069 1102:0.22749296 1103:1.6383786 1105:0.18698597 1106:1.8688233 1110:0.80436742 1125:4.7217641 1137:3.4379911 1138:4.0544333 1139:1.5318158 1147:0.89526236 1149:2.0984027 1150:0.50172293 1152:2.6557946 1163:0.032368362 1165:4.0302696 1168:0.32457989 1170:3.3387611 1176:2.6509516 1180:0.94060433 1183:0.20961183 1186:1.442446 1188:1.4334617 1189:0.16057099 1206:2.6938753 1221:0.23180248 1223:2.6278284 1224:2.5362101 1228:3.7113991 1239:0.40757519 1240:4.4744778 1250:3.9953973 1255:1.6744654 1257:1.5476589 1259:1.2715893 1264:0.068915308 1269:1.3008862 1274:0.69728655 1275:1.4111463 1286:1.2234566 1288:0.20220011 1292:0.60902047 1295:0.94088411 1305:0.72573471 1317:0.58120275 1319:2.6587062 1331:0.82648826 1332:0.30443692 1333:6.1253142 1340:1.7442822 1341:0.45780021 1343:0.6824643 1347:2.6657827 1348:2.2801528 1360:0.37327853 1366:1.3727958 1371:2.822227 1372:1.9332082 1376:3.9460595 1378:3.9360704 1379:0.12015873 1386:0.49307215 1387:0.84455931 1389:0.69591886 1399:3.7852628 1401:3.1318016 1402:2.0895703 1406:6.8677573 1408:2.0749071 1409:2.5989418 1410:1.4539007 1411:1.1281377 1425:0.26919442 1426:0.62381256 1444:0.8827973 1447:1.0613048 1450:1.2081928 1451:3.2402823 1452:1.5085862 1453:2.5656056 1456:3.8673279 1458:1.0185013 1460:0.78642726 1465:1.227566 1468:0.21955612 1469:0.33470944 1471:1.4476593 1476:3.2504411 1477:1.2246925 1484:2.1400287 1485:0.72056311 1487:2.724237 1488:1.5168997 1495:0.83428544 1497:2.8942604 1511:2.213285 1514:1.869257 1519:6.1550493 1522:2.6013308 1523:2.7355287 1525:0.83166051 1533:2.0437746 1538:0.22258292 1544:2.1780174 1547:1.0305599 1556:0.50996977 1560:1.8682082 1562:1.4209261 1574:2.2454946 1583:1.0561137 1586:1.7753365 1588:5.0848217 1594:1.3488973 1596:4.3792367 1600:1.498392 1604:0.56601745 1613:2.1471603 1618:2.3414836 1625:2.5602891 1626:0.33318096 1637:0.13502148 1640:0.70246851 1648:2.4219482 1654:1.5429816 1661:1.8618976 1662:1.3122585 1675:2.2401378 1676:0.85680413 1677:0.66144603 1678:2.9646106 1690:1.793467 1700:0.39153275 1701:3.0723262 1703:6.4473767 1706:3.385247 1708:2.4924905 1718:2.9301112 1720:4.4757266 1722:2.3559828 1725:0.21020538 1726:0.99768996 1730:1.961139 1732:0.55661011 1733:2.3994551 1737:3.7113688 1755:0.26741815 1756:1.0027364 1758:1.3060005 1762:1.7193525 1766:0.49432275 1771:0.74907041 1776:0.037502348 1777:1.3370905 1778:0.64793956 1780:0.84992588 1790:1.4858055 1799:0.26547086 1804:5.648284 1817:5.8162346 1824:0.025175542 1825:1.2174954 1831:0.16412556 1832:3.2071176 1840:0.47004905 1842:0.80234897 1843:1.3779159 1844:2.9097085 1846:0.36000413 1848:6.7044296 1849:2.8177831 1852:0.52249068 1857:2.6831546 1863:2.6803308 1864:2.8626456 1867:1.4908793 1868:0.0074977875 1872:2.6751218 1873:0.25023723 1879:4.6801424 1890:7.3448286 1897:2.7009642 1900:0.91040647 1912:0.9536072 1914:0.74022603 1918:3.104557 1926:0.38416389 1928:5.8465424 1936:0.84097648 1938:0.90508091 1952:0.19955677 1953:1.3517704 1963:1.6230191 1967:0.40281254 1968:3.6892033 1975:0.46583697 1985:0.91006666 1996:0.43057626 2001:2.182235 2012:1.0260724 2015:0.58938104 2019:3.1279402 2031:1.8338898 2042:0.40759987 2043:0.64097762 2045:2.5049522 2048:2.0978858 2049:3.8521953 2051:0.4891766 2055:3.0755861 2058:1.8122637 2063:0.49098283 2066:1.872575 2070:4.4368033 2082:2.5808752 2085:2.689836 2097:0.845873 2101:1.8239927 2108:2.7654476 2116:0.2932516 2117:8.3108902 2120:0.58741707 2131:0.51476622 2132:1.2820562 2134:3.0502915 2136:2.2328982 2151:1.1647413 2154:2.0310454 2160:3.2532425 2179:0.70631576 2187:2.3425794 2188:2.3397017 2202:2.6938646 2211:2.964643 2218:0.21263757 2223:6.5927067 2224:2.5901575 2229:0.22264728 2239:4.6181936 2243:1.5618807 2262:3.1091805 2265:0.11450856 2268:0.67023838 2269:1.3372862 2270:0.57123691 2281:2.3245633 2290:2.2656665 2300:0.24663061 2315:1.7705703 2320:1.6789656 2321:0.89742607 2322:3.0749958 2332:4.9406791 2333:3.3012877 2336:0.2956847 2344:2.2556846 2346:0.65426815 2353:2.1169455 2358:2.7547894 2359:1.9127014 2360:5.5090141 2372:3.8887622 2376:1.3978782 2386:2.3125398 2390:0.45429024 2393:2.8543377 2405:2.0050423 2411:0.12303108 2415:0.6383183 2416:0.91620719 2420:0.29667681 2431:2.4631143 2432:0.20986943 2434:3.1375256 2435:4.7175894 2445:0.064862937 2452:3.6284101 2457:2.2789254 2459:1.6971362 2471:1.9699661 2475:0.52173758 2489:0.61732608 2491:2.2313519 2501:0.39305592 2504:0.21968001 2506:0.39035529 2508:0.80706692 2509:2.2485075 2514:0.78922117 2520:1.6734201 2526:7.7343287 2532:1.5534735 2536:0.22914708 2539:0.4967066 2543:0.10320777 2551:0.22230387 2558:0.50118005 2566:0.10985696 2571:2.8662395 2577:1.53562 2589:3.8440013 2595:3.5128202 2598:0.9952172 2599:0.6578595 2600:1.4911869 2603:0.027289778 2604:2.2140322 2610:1.4134841 2612:0.43037394 2613:0.78173864 2621:2.6164072 2624:1.4758198 2634:2.9105325 2636:0.97717726 2637:2.3741288 2639:3.9261029 2651:0.09320426 2653:0.14189655 2659:4.2863207 2662:2.3177662 2667:0.050090551 2668:1.220796 2672:1.0462338 2680:1.6824551 2688:0.33625537 2689:0.42793864 2691:1.1103665 2692:1.7649513 2698:1.5807273 2702:0.26919267 2704:1.9849471 2708:1.1185703 2713:0.011409432 2714:0.30131727 2715:3.9610205 2718:5.1787143 2719:0.41111836 2720:4.0725622 2723:1.6216886 2725:1.7016 2740:2.1201086 2741:1.8333802 2754:2.8302722 2765:2.4112647 2766:10.013546 2771:3.781894 2774:3.126245 2777:2.4962554 2778:0.40058011 2784:0.17657556 2786:0.758856 2788:2.0269957 2791:1.5347083 2796:1.6520107 2806:0.20118299 2808:0.12342925 2811:2.049036 2817:0.60640973 2818:0.37499154 2831:1.2959316 2834:3.7986536 2836:3.1829913 2841:1.8902582 2845:1.9516195 2846:1.9369406 2864:3.9355364 2865:1.4201186 2867:5.2479472 2869:2.5037246 2879:2.9035616 2882:5.0642457 2891:3.9266303 2894:1.1863456 2895:5.6494431 2899:2.5210783 2903:2.4169478 2913:1.4605777 2916:2.0522394 2917:2.5183301 2918:0.27888513 2920:0.2889809 2927:0.058405817 2929:0.50912213 2932:1.7842313 2938:1.8307315 2944:0.54785085 2947:1.6139529 2950:3.9242949 2952:0.069525093 2958:3.4631724 2962:2.6460891 2963:1.7042068 2968:0.81282717 2971:0.68473577 2974:2.3927135 2977:3.1400909 2981:2.1881769 2984:0.10858747 2993:3.0800121 3001:2.6971762 3010:1.622648 3012:0.42304531 3013:0.54908979 3018:0.38900778 3019:1.7114505 3021:1.1476405 3022:0.23975167 3034:1.0206267 3035:0.45400003 3039:0.015117258 3053:0.79356658 3055:0.095875621 3067:4.6787505 3072:0.18220726 3075:0.36898458 3078:0.1028035 3081:0.70541811 3085:0.35790673 3101:0.3608405 3105:2.177027 3107:1.0721302 3111:2.3245265 3119:0.89946282 3141:0.089421868 3146:0.62257946 3147:0.80061209 3150:2.6779749 3152:3.322185 3153:0.70768881 3162:1.6123209 3170:0.29319751 3178:4.4776258 3180:2.4300821 3182:0.73611152 3195:3.3739371 3196:0.51551044 3199:0.0051321983 3202:0.58197153 3213:0.43630546 3226:5.5743985 3232:1.320786 3236:1.3812846 3238:2.5977373 3246:0.069661885 3249:2.1701591 3255:0.075510859 3256:1.1101177 3257:0.2576299 3260:5.5087657 3267:3.9552779 3268:6.1228914 3273:1.5566248 3275:0.14463031 3285:3.9426107 3286:4.4432359 3289:6.8647494 3291:0.92382371 3293:4.8707747 3294:1.3829666 3299:2.8458848 3307:1.828604 3309:3.4265327 3310:0.28701261 3312:0.48954433 3327:0.88039607 3334:0.88932753 3335:1.0043256 3344:4.3228579 3349:2.0377977 3356:0.95208061 3361:2.9326532 3363:0.49116415 3364:0.16427748 3366:1.2517478 3386:0.15429343 3390:1.9226772 3394:2.1914237 3395:1.4254875 3396:2.133147 3399:1.2621462 3401:0.097311914 3402:0.40444034 3413:1.7037354 3418:0.2552774 3421:0.80962145 3426:0.1530154 3432:4.3101397 3436:2.4037323 3438:0.44311112 3442:0.93830526 3449:6.6093431 3451:1.2908 3467:0.92454904 3468:0.22198385 3486:0.56098187 3489:0.7414701 3491:7.310895 3492:1.1772348 3493:3.1520302 3497:0.97039592 3500:8.3195391 3504:2.5348029 3521:1.1203781 3523:1.35229 3525:2.4970822 3526:3.2746201 3536:1.2450888 3539:4.4867535 3541:0.68862396 3545:0.11640939 3548:0.88919741 3558:0.63156772 3560:6.008697 3561:3.1961713 3568:1.0798659 3576:1.5507112 3577:0.95542336 3586:0.39579615 3588:6.6645923 3603:0.61725539 3604:4.5725675 3608:3.6925275 3614:4.9634032 3615:1.9315233 3631:0.08341524 3635:0.34445849 3636:0.047766145 3640:2.0272579 3642:0.35674596 3643:3.2241507 3649:2.2704139 3659:0.64004064 3661:0.44416198 3665:1.4759741 3666:1.8118148 3667:0.25137994 3669:1.599107 3670:0.82500207 3677:0.11169586 3682:0.69149411 3684:2.1582823 3689:2.5709774 3690:0.057144165 3691:2.8119884 3710:1.8198758 3711:0.31761605 3732:2.785141 3737:1.3351561 3742:0.10731798 3744:2.6615057 3749:0.18178594 3751:3.4129193 3752:3.6566105 3753:1.2843847 3763:1.5943108 3766:0.54602504 3781:1.1473615 3782:1.9564097 3783:3.7028229 3793:4.3799496 3797:1.840819 3806:0.69156301 3807:2.0334356 3808:5.7052255 3818:1.3363289 3819:1.9460465 3824:2.5704916 3836:2.4790602 3837:0.18813354 3845:1.5761621 3847:1.5999244 3848:2.9620488 3850:0.66097647 3851:0.31294826 3852:1.5428963 3860:0.65254736 3869:1.7939162 3871:2.7849302 3875:4.5604315 3876:0.22841197 3877:0.24903139 3882:0.51915187 3888:2.5073009 3891:1.6972328 3893:5.590929 3898:1.361914 3906:0.037868619 3913:0.37761325 3914:2.1649077 3918:1.4345729 3919:0.65328735 3922:0.98607492 3926:1.4693571 3930:0.6066367 3933:1.0736191 3935:0.37831375 3937:1.3868486 3946:1.3346328 3949:1.2389258 3957:2.8866494 3963:3.4142625 3970:1.1202308 3975:0.56651509 3976:2.674866 3980:2.608273 3982:0.41522133 3984:2.6921141 3985:4.4772558 3988:2.3229725 4004:2.0469875 4010:6.7092547 4011:3.125854 4013:1.5401126 4016:4.891376 4032:2.1043084 4036:2.7434628 4041:1.5849272 4044:0.2927424 4045:3.0427806 4048:0.28656775 4052:1.1832111 4054:0.1029295 4058:0.30136615 4063:3.4529042 4074:2.669086 4077:0.17397782 4089:0.89679152 4091:0.040962011 4093:0.95301527 4096:5.0651131 
0.1270370326812864 11:0.25771561 15:5.3588786 16:1.1221163 18:1.5167364 19:1.9198102 23:1.3082542 24:1.6144861 27:4.1979527 29:0.4133029 39:2.5553415 43:0.90465879 80:0.017218851 93:1.4321096 102:1.8575754 105:0.97170544 108:0.023132317 110:0.43352389 115:1.3126342 118:0.18215425 122:4.1572685 123:4.2331877 125:4.5089054 130:0.40168148 138:1.1244223 143:2.308495 145:2.1484463 147:1.2122717 148:3.134572 154:0.73839331 162:0.095771685 163:0.7206412 166:1.9697092 169:2.6720724 170:2.2463477 181:0.42959744 186:1.5593218 188:1.2270857 196:2.0034916 197:2.0140898 199:1.4896832 200:6.6932516 210:1.3371248 211:0.48944214 217:1.3562728 224:3.1312623 232:2.2508082 239:2.8185565 240:2.5095978 241:2.5917401 247:0.68214422 256:0.94770312 258:1.150207 265:0.73776174 267:2.4405916 269:2.2645786 274:1.2081238 288:1.5456135 292:1.8672857 301:1.0760038 306:0.026297808 311:3.3873889 314:0.41586691 324:6.5055041 329:0.15452695 335:1.5822239 338:0.9783048 339:1.2724189 342:2.0102937 350:1.7738072 360:0.0038826168 365:2.5787115 371:1.6846811 379:1.2736099 385:0.71337402 392:0.023994103 432:5.5764065 434:0.14814989 435:1.7893361 439:0.53833711 442:3.4220324 459:2.4648585 460:0.36311957 462:1.5571451 463:2.9780159 472:2.0340395 473:2.618865 485:0.44899714 487:0.82341743 491:0.94219023 493:0.19117689 494:2.4339631 495:1.0025746 500:1.7503459 505:0.53439081 521:2.8102224 522:1.4891829 524:4.6990581 526:1.961404 548:0.2767421 552:1.1661806 554:0.60754389 555:1.3039156 562:3.0022409 575:1.5401466 583:0.16940722 588:1.7170628 592:2.1038346 595:2.2633238 601:3.2597885 603:1.8110045 626:0.37924933 635:1.6025643 638:0.0021608472 639:2.9076893 641:4.7649999 642:0.59510112 643:3.4337354 657:1.9088392 659:1.7955672 662:1.6170412 669:1.6073174 670:0.90136057 672:2.6121042 674:1.3552439 675:1.5497625 677:0.54438621 682:1.9190965 684:4.4009342 694:2.1841059 705:6.3440375 706:0.98521084 718:0.16554648 720:0.44803691 724:3.5549221 725:0.38797292 737:2.1395664 748:1.7326835 755:0.63271242 759:0.94483376 760:0.59940326 765:0.89680451 771:2.365279 774:1.3150231 775:0.88135052 785:4.3207726 787:1.0537156 788:0.48792264 789:1.7997912 791:1.1008127 795:0.88481849 796:0.52173972 802:1.6229448 807:2.6275604 809:0.0033624768 813:0.65917492 820:4.0852141 821:0.14787525 825:0.53803474 833:4.3072996 839:1.9199309 847:1.7185333 848:0.15519115 849:3.340827 850:0.052887399 853:3.418107 856:0.99875343 859:2.0317993 860:1.0284314 861:0.37236786 863:0.36880308 865:2.4687171 866:4.3560119 867:3.8362656 868:5.8289151 873:1.7794914 876:2.6681936 882:2.1235266 887:1.6322485 889:5.1050754 895:2.9456894 908:2.050386 909:1.351288 913:2.1176081 922:0.66102421 937:2.4819882 938:1.4769864 940:3.9353364 945:6.6752572 947:0.46536049 957:1.1042428 959:0.1133348 965:2.2843935 967:0.78719521 968:1.4396976 971:1.2215811 974:2.2465327 976:0.3723205 979:3.5050371 982:0.32963628 997:3.3854451 1004:0.59779143 1006:0.20658556 1010:0.54363298 1011:0.3433893 1014:2.2027421 1015:0.34946203 1017:0.19815567 1018:3.3614404 1019:0.41428497 1022:0.70884788 1024:0.32861397 1032:0.54831553 1035:1.7781836 1043:4.8361187 1049:1.0561222 1067:0.94642234 1072:0.15872496 1078:0.6855942 1080:2.226645 1084:0.48913446 1091:1.4653831 1096:2.7875412 1097:1.0073791 1100:0.04225415 1102:0.41657883 1103:3.3284574 1106:1.0512518 1110:1.8574151 1125:1.8009455 1137:4.4701114 1138:2.552357 1139:2.1173306 1144:0.93609101 1149:0.038721919 1150:1.1486048 1152:0.79125792 1163:1.0019251 1165:2.5275633 1168:0.64730167 1170:3.2938812 1176:1.2748392 1181:0.12416799 1186:2.1766944 1188:2.3179836 1206:2.2496753 1216:0.84376234 1217:0.71412921 1223:1.8063374 1224:2.4787083 1227:1.4076344 1228:2.543642 1234:0.35303885 1236:2.1063309 1240:3.6502247 1249:0.67050934 1250:2.1833386 1257:2.0728908 1259:0.86923194 1264:0.18722656 1269:0.14081717 1270:0.25361323 1274:0.71946758 1275:1.7306076 1286:2.125186 1288:0.09100914 1292:0.13906476 1293:0.33083272 1295:1.3195742 1305:0.21695733 1306:1.108114 1317:0.50262141 1319:0.26744205 1333:3.6068027 1335:0.99441999 1340:0.2046719 1341:1.2846267 1343:1.6643136 1365:0.36724663 1368:0.51256078 1371:2.0515862 1375:0.02641958 1376:1.0589899 1378:3.5539839 1385:0.49207407 1386:0.43489718 1396:0.20561436 1399:1.8851417 1401:3.8661389 1402:1.727946 1406:5.324883 1408:1.1545262 1409:3.0550699 1410:0.90057158 1411:1.171665 1419:0.28141972 1447:0.54628479 1450:3.1298647 1451:1.3895999 1452:2.2595479 1453:2.2379007 1456:3.4231594 1458:1.122503 1465:0.73615336 1468:1.3838884 1471:1.9210944 1476:4.6538391 1479:1.4734058 1484:1.6021943 1487:2.2397597 1488:1.6871545 1495:0.34639445 1497:2.4229398 1499:0.75181484 1511:0.70980477 1513:0.1686721 1514:1.9625194 1519:5.1080122 1520:0.64789057 1522:1.8656236 1523:2.0620174 1525:1.1199419 1533:1.0019834 1537:0.97775173 1544:3.2483888 1556:0.99057817 1560:0.74085599 1562:1.3587029 1569:0.49125415 1574:3.1988308 1583:0.39154404 1586:2.211947 1588:3.4886765 1594:1.8700186 1596:0.58360767 1597:0.26009306 1613:1.5096049 1618:1.5211301 1625:1.6163269 1648:0.42725548 1654:0.72877574 1661:2.2634075 1662:1.3560199 1668:4.0232644 1675:1.8056289 1676:1.1361887 1677:1.7214026 1678:3.3228846 1683:0.48734802 1690:2.7330832 1701:1.322771 1702:0.6265285 1703:4.1451082 1706:0.87877566 1708:1.2778842 1717:1.1771922 1718:1.625478 1720:4.2817726 1722:2.4023981 1726:1.650195 1730:1.8019998 1735:0.64729649 1737:2.6154952 1746:0.3446866 1755:0.075263724 1758:2.3111279 1762:1.9836633 1765:0.22588652 1766:1.0369544 1775:0.60610384 1777:2.1345754 1780:0.86367565 1790:1.2165589 1792:0.084950238 1799:0.90015399 1804:4.4351387 1817:6.28195 1822:0.56491876 1824:0.0028338134 1825:2.2680502 1832:1.0798072 1837:1.3441224 1843:0.20716757 1844:2.622932 1846:1.6058784 1848:5.8346043 1849:1.4834197 1850:0.51196867 1851:0.98880124 1852:0.50115377 1857:2.326061 1863:1.9204004 1864:2.3049765 1867:1.8177588 1870:0.15992953 1872:2.0027864 1873:0.15555722 1879:4.8525515 1880:0.23265889 1890:5.5338683 1897:1.9197919 1912:2.2072811 1914:0.57099634 1915:0.0014739633 1918:3.3281007 1928:4.7384052 1930:0.49893838 1936:1.0981624 1938:0.12715855 1943:1.2475433 1952:0.16419569 1963:1.4242315 1967:0.79837221 1968:3.6354933 1970:0.81265146 1985:1.606039 1996:0.15713076 2001:1.1206572 2002:0.74496496 2004:0.86567503 2011:0.7038362 2012:1.1277466 2015:1.6872143 2019:1.9542241 2031:2.1880426 2042:0.036558241 2043:1.5481298 2045:1.2903013 2048:2.0336139 2049:3.7120948 2051:1.2667849 2055:2.634464 2058:0.23488858 2066:0.44928554 2070:4.3361902 2075:1.5711589 2082:1.3050377 2085:1.3279204 2088:0.98351848 2097:1.3636268 2101:0.52573228 2107:0.82350838 2108:2.2429769 2110:0.32163459 2117:6.0252304 2120:1.046489 2132:1.5981101 2134:2.2537279 2136:1.4129018 2138:0.23920992 2144:0.71720064 2154:0.28499418 2160:2.9448628 2187:1.6499281 2188:2.1951473 2202:2.0124471 2211:1.731342 2218:1.0482976 2223:6.4860339 2224:0.0093427747 2239:3.6584444 2253:1.5441587 2255:0.099131607 2257:1.4343916 2259:0.29169372 2262:1.6674953 2269:1.2175643 2270:1.1073067 2281:1.3113687 2298:0.19350296 2300:0.12004054 2316:0.77876997 2317:0.25064367 2320:0.91379476 2321:1.4700918 2322:2.7564189 2332:1.4434876 2333:2.0045004 2336:1.5648513 2340:0.51776648 2343:0.6420837 2344:0.96617478 2353:1.7904739 2358:2.8792036 2359:1.1842833 2360:2.4902565 2367:0.29964006 2372:4.2085834 2376:2.8539531 2386:2.3090065 2388:0.98490882 2393:2.3752518 2403:0.25680131 2405:1.6214631 2415:1.6482127 2416:1.2837688 2431:1.7628473 2432:2.7818341 2434:2.0254185 2435:4.4239573 2437:1.54081 2452:3.1333215 2457:0.68369049 2459:2.1897383 2466:0.33335203 2470:0.46540418 2487:0.21897867 2491:1.4381031 2506:1.0815463 2508:0.7582252 2509:0.059356868 2514:0.87346923 2520:2.3091805 2526:6.3242779 2532:0.31246126 2534:0.22183307 2536:0.19287658 2539:1.4408818 2571:0.76958394 2574:0.53348899 2577:1.2023872 2579:0.25946662 2589:1.8445413 2591:0.11103175 2594:1.1643691 2595:3.1627491 2599:1.1348972 2600:0.35598606 2604:3.181694 2610:0.91449982 2613:1.414549 2617:0.54490411 2620:0.96862149 2621:0.95835018 2624:1.3001997 2634:3.9939365 2636:3.3337982 2637:0.20385852 2639:4.8739691 2651:1.4826968 2652:0.072666109 2659:3.2908683 2662:1.5785433 2666:0.63932115 2668:0.93910778 2672:1.2633967 2688:1.6803081 2691:0.99932557 2692:3.0861471 2698:2.617218 2704:0.94745779 2714:1.373688 2715:3.9054384 2718:3.565484 2719:0.17440262 2720:2.3826127 2723:2.2399576 2725:2.358063 2733:0.25920084 2740:3.361671 2741:1.1148961 2747:0.54365408 2752:0.19303927 2754:2.3924799 2766:8.3971472 2767:0.83004302 2771:1.2645999 2774:3.6766846 2777:0.43398714 2786:0.53064126 2788:0.27559808 2789:1.7328722 2796:1.2398775 2808:0.65063626 2811:2.266062 2817:0.085851043 2818:1.4764413 2830:1.3313996 2831:0.96757931 2834:3.5701551 2836:2.2556777 2840:0.96719831 2841:1.898266 2845:0.78875446 2846:1.5992563 2849:1.2036266 2860:0.19428071 2864:2.2764094 2865:0.90150487 2867:4.3072042 2869:2.0117557 2873:1.7398797 2875:0.97404367 2879:4.1917324 2882:4.3142366 2891:3.5797479 2894:1.0333812 2895:5.0911298 2899:1.6663208 2903:0.80077946 2907:0.16848005 2913:2.3156638 2916:0.79226577 2917:1.8794909 2932:2.15833 2938:1.3079677 2941:0.41913518 2942:0.11588132 2947:0.2481207 2950:3.5718875 2958:2.1792579 2962:2.9133253 2963:2.0416093 2968:0.20543486 2974:2.2470319 2977:1.0845127 2981:3.7427852 2993:1.9144289 3001:0.83761835 3010:2.7846904 3012:0.10327879 3015:0.20795143 3019:1.7205273 3020:1.9288889 3021:0.33996087 3022:0.1810613 3034:1.4807583 3048:0.72733033 3059:0.12563822 3067:4.5857468 3070:1.0251733 3075:1.4627502 3081:0.63654721 3089:0.17937103 3105:0.90583563 3107:1.195626 3111:0.70369172 3116:0.11258598 3118:0.8027786 3119:0.974913 3144:1.0542815 3146:1.7500666 3147:0.96109235 3150:1.782848 3152:2.6390278 3153:0.92487431 3155:0.92321968 3162:2.2229702 3170:0.14752461 3178:2.4199069 3180:1.3559523 3182:1.888682 3195:3.056376 3196:0.73164856 3217:0.03255032 3226:4.3864121 3232:1.452327 3236:0.20237869 3237:1.3578962 3238:2.7663574 3247:0.34583485 3249:3.5365908 3256:1.0958748 3260:4.5046334 3267:2.8248327 3268:3.3136034 3285:3.1629307 3286:4.4508014 3289:5.8738871 3291:0.035769701 3293:4.7528057 3294:0.0090699494 3299:1.7581962 3307:1.2167737 3309:1.2979491 3324:0.31735939 3332:0.50461298 3334:2.0988109 3335:1.0950409 3344:4.6551352 3345:0.60416943 3349:1.5730993 3356:0.97306228 3361:3.1398377 3364:0.39906895 3371:0.063919559 3377:0.29514527 3386:0.45365399 3390:2.7152529 3394:1.806107 3395:0.51007098 3396:0.93322194 3399:1.7215986 3402:1.9672822 3411:0.12882727 3418:0.20685753 3426:0.6617626 3432:2.1274099 3436:1.9073584 3438:0.5160377 3442:2.1144621 3443:0.37326407 3449:5.8752298 3451:0.43248457 3460:0.3679572 3463:0.27944413 3467:0.40496898 3475:0.15039003 3476:1.8346584 3478:0.83285403 3486:0.21638361 3489:0.85829395 3491:6.3285294 3492:0.13738143 3493:2.6817055 3496:0.91941309 3497:0.025773406 3500:4.4622111 3503:1.2758361 3504:2.4000592 3512:0.37371922 3523:1.8780996 3525:0.3866626 3526:0.67655319 3536:1.6514796 3539:3.0364306 3541:1.7583952 3548:1.4077456 3560:3.5414395 3561:1.8214877 3568:1.2294643 3576:1.464092 3577:0.27552775 3588:6.1171894 3591:0.46429718 3593:0.15858164 3602:0.83904874 3603:0.30709487 3604:4.0873275 3608:4.9649429 3614:3.7466464 3615:3.7022061 3617:0.8202039 3618:0.81089759 3626:1.2351098 3640:0.42044997 3643:2.089004 3649:1.7634401 3659:1.061923 3661:1.4164871 3665:0.49745998 3666:0.60321009 3669:0.89367354 3684:2.1530445 3689:1.6330953 3690:0.19547671 3691:0.95092005 3700:0.63842702 3705:0.9778285 3709:0.29356879 3710:0.73916471 3717:0.30475321 3732:1.5035188 3737:0.55376637 3744:1.9939634 3751:3.3481667 3752:3.2511678 3753:2.4802122 3763:0.5015651 3766:2.1368933 3767:0.13894436 3771:1.0462607 3783:4.7519484 3792:0.62086844 3793:4.864121 3797:3.2788396 3807:0.35430384 3808:5.0347943 3818:0.83033681 3819:2.5946817 3824:2.8237934 3826:0.077324599 3831:0.66626447 3833:0.32305145 3834:0.53980923 3836:3.6223145 3837:0.72333002 3845:1.4520202 3847:0.20941375 3848:3.2724965 3850:0.34582275 3851:0.66023242 3860:3.3819935 3869:0.26139599 3871:2.8773541 3872:0.84641814 3875:2.8321633 3876:1.4531686 3877:0.47087541 3882:1.0147495 3886:1.8216389 3888:0.63357019 3893:7.8888655 3898:0.22781622 3906:0.45864362 3914:1.2555935 3918:1.1620452 3919:0.95695001 3937:2.1302085 3957:1.3473446 3962:0.1346997 3963:3.3323321 3970:1.5174617 3975:1.1112828 3976:3.052186 3980:2.9900084 3984:2.417383 3985:4.0701289 3988:2.1763077 3992:0.24914758 4000:0.084094405 4004:1.9945886 4010:3.7900944 4011:1.0933349 4016:3.9987931 4032:2.7878366 4036:0.67637718 4041:2.2117839 4045:1.5417404 4048:0.11753166 4058:0.22217509 4063:4.3922634 4073:0.0065877736 4074:1.970827 4077:0.60269332 4084:0.76264948 4085:0.23197871 4089:1.1272576 4090:1.7040386 4091:0.60492778 4092:0.66997111 4093:1.0914518 4096:4.7355256 
0.009872036666621592 12:0.9305253 15:3.9146781 16:1.2215284 18:2.7512739 27:4.7669358 28:0.38825727 39:1.2443714 43:1.6893516 45:1.869154 54:1.8324127 57:2.6260834 68:0.51784682 70:1.5041018 73:1.8128957 80:1.2343062 89:4.886292 93:0.81439084 102:0.74652207 105:2.1521826 108:1.1326628 115:1.7814684 118:1.6381295 122:0.17006087 123:1.8007989 125:2.504108 140:0.68874693 143:1.056848 145:1.5334002 163:0.31396273 172:2.4428668 173:0.55109912 179:2.5830224 186:1.9820504 190:0.96112275 191:0.31300837 196:1.5363561 197:0.5726555 200:6.336153 210:0.31856877 218:2.0910554 224:3.5601521 229:1.058067 234:0.78568923 239:1.1861159 240:1.7157204 244:0.27603051 258:0.91751379 261:0.60519665 262:0.60870075 266:1.0051703 267:0.19498792 269:3.5714407 275:0.41820082 288:1.7895145 290:0.53674257 292:0.91246516 295:1.5447812 301:4.5141382 302:0.38629499 311:1.1153784 315:2.4874847 317:0.24618585 324:2.5394197 335:3.4124069 338:3.4376037 339:1.7410309 342:2.5474899 347:1.4078618 350:0.54175949 353:0.15660456 365:0.82825255 371:1.8199798 374:1.2565746 392:0.92943978 410:0.10570264 411:1.3301817 419:1.3872212 420:0.47421089 432:3.4879861 442:5.1188259 447:0.78963423 459:1.814694 462:2.0874686 463:0.10524648 473:0.50313914 482:0.054352596 491:2.8174901 492:0.66171396 493:1.0886917 494:3.4401762 495:1.0741549 499:1.3776755 500:2.6302938 502:2.3588195 505:1.5124084 508:0.54245257 509:1.6656685 515:1.624974 520:0.950499 524:2.5385728 526:0.52000034 535:0.065811574 540:2.8045449 545:0.41092438 555:1.7642789 562:3.0492282 571:1.7375714 588:0.45178163 594:2.311358 601:1.4110694 603:2.9127424 612:0.38379186 616:1.030802 629:0.24815586 639:0.9439193 641:2.0867784 642:0.39883241 657:2.7772655 659:0.42138332 669:0.081621841 672:2.7453275 674:3.8747561 675:0.84484524 677:0.31045288 684:3.5319908 694:0.018885195 705:7.2405877 706:0.75152457 707:0.26607978 718:1.2454338 721:0.55748045 724:4.4667058 725:3.1909277 727:2.8624468 728:0.92963302 759:2.6626549 760:3.2798851 765:1.0874106 771:1.1744941 773:0.00068113208 780:0.50795585 785:2.2749045 786:0.51092899 789:1.7836592 791:0.14617604 795:2.8740122 796:3.0288217 797:0.35453954 799:0.079717815 802:1.1011746 803:1.6553359 807:1.7715346 820:3.7194633 833:0.25302541 841:0.22028655 847:0.24197429 848:1.0019984 849:2.2249136 850:1.2894202 853:2.4530687 857:1.9460734 859:0.62915754 861:0.10577348 865:2.0041723 866:1.011986 867:4.5984788 868:1.6140873 869:1.5411606 882:3.5742042 884:1.388304 885:1.6180351 889:1.7499379 908:3.0967131 913:2.1093659 930:0.31081694 937:0.54185218 938:1.3592775 940:3.8340898 945:5.1788116 960:0.66950572 963:2.096796 965:2.6858976 968:2.6425827 969:0.56325376 974:0.70032865 979:2.4335978 983:0.41516829 985:1.3681346 996:0.76803529 997:1.9242235 999:0.22552758 1004:1.8621161 1005:0.62945873 1010:0.9602114 1014:3.7431552 1016:1.3870994 1018:4.3943658 1022:2.7591341 1024:2.2623768 1027:0.42548081 1037:0.55164009 1043:3.2277176 1047:0.44158119 1049:2.3063376 1053:2.3523514 1062:0.44735777 1078:1.2231151 1081:0.41993159 1084:0.13766173 1094:3.1989286 1096:0.4677676 1100:2.1995206 1102:1.5085911 1110:0.55251634 1125:2.5111799 1133:0.46852493 1135:0.28187698 1138:4.6060109 1147:0.52298743 1149:2.3913364 1153:0.81566286 1157:1.0919306 1158:0.091647893 1159:1.1764243 1160:2.1673672 1165:0.89830017 1170:3.2629554 1176:3.7003093 1180:3.2003086 1181:0.67913634 1186:1.1768647 1187:0.34974325 1188:0.069569662 1193:0.83425391 1203:1.3249317 1206:3.4734931 1207:0.35287562 1216:1.4118541 1221:1.9065752 1224:0.94075537 1228:6.8349714 1233:0.3550697 1234:0.23975836 1239:0.0020371825 1240:3.651402 1249:0.06208998 1250:0.059726596 1252:0.020152196 1254:0.21702291 1257:1.8448633 1259:0.57476318 1281:0.95164776 1282:1.1418321 1288:1.655251 1290:0.98026788 1295:0.50754285 1298:0.16157651 1302:0.23281908 1303:0.62820339 1314:0.5121181 1319:2.0246067 1331:0.86224198 1332:3.1184251 1333:2.7321908 1335:1.6038432 1340:1.1343179 1341:2.8312187 1343:0.60011506 1344:3.0150695 1347:1.4629625 1348:1.9187733 1364:1.4968954 1368:0.37379172 1369:2.0774736 1372:1.0318211 1376:4.9573374 1378:2.7919705 1380:0.25620651 1385:2.4556351 1386:1.2968185 1389:3.7359703 1391:0.79038084 1399:0.85749251 1401:1.2315673 1404:1.7412641 1406:2.3582842 1409:0.12323725 1410:0.062125891 1411:1.5469757 1416:0.010397255 1423:0.96105164 1429:0.28430071 1431:0.98463798 1432:0.053135335 1447:1.9462216 1450:1.2516736 1451:3.3290205 1452:1.6389589 1453:3.6159544 1456:3.1213233 1466:2.4026601 1469:3.3584299 1476:0.69361305 1477:0.57328343 1484:1.0277896 1487:1.0524287 1488:0.8235482 1495:1.8792953 1497:0.90488446 1499:0.069356829 1505:0.86906075 1511:1.6851577 1513:2.0306408 1514:3.6157489 1519:5.6706476 1523:4.3482943 1525:0.56450617 1530:0.07216455 1538:2.3416259 1543:0.033650637 1544:4.8541317 1549:1.2158962 1555:0.66845065 1588:2.1567245 1596:1.3697174 1600:2.663537 1608:0.90604365 1618:0.9300319 1623:1.6070457 1625:0.92020321 1627:0.16237009 1637:0.90014052 1638:1.7164649 1640:0.11004481 1648:0.040276736 1661:0.61157978 1662:2.8230224 1668:0.7043252 1675:3.2799728 1676:1.0607876 1677:1.9627469 1697:0.65370595 1698:1.7638286 1701:1.7846384 1703:3.6323965 1706:5.0497761 1708:2.0744941 1709:0.10287157 1712:0.38074458 1718:3.6271851 1720:4.9757128 1721:0.56783956 1722:1.8080167 1730:1.5840182 1733:1.4847809 1737:2.5161614 1742:0.28898096 1755:1.6988409 1756:2.0199239 1765:1.8274927 1767:0.073978141 1771:4.3154764 1772:2.4740834 1780:1.122823 1783:0.57606399 1789:0.1664228 1800:0.2556994 1804:5.1898127 1817:1.8068218 1824:4.0148582 1832:1.9726419 1834:0.33879083 1844:0.3367067 1845:0.20574927 1848:4.7426577 1849:1.3018129 1857:3.7789819 1858:1.1232847 1860:0.32290378 1863:3.3423252 1864:1.4009758 1873:1.7487105 1879:6.1132183 1890:1.7694359 1897:1.9473374 1912:0.72890848 1915:2.47858 1921:0.18075109 1928:1.4849861 1930:3.1753833 1936:2.0410819 1943:1.1467528 1952:0.81339324 1958:2.1125336 1959:0.23934829 1963:0.78854609 1968:1.3432639 1975:2.1675651 1977:1.2522994 1985:0.46526384 1992:0.6005432 1993:0.13572545 2001:1.9220984 2002:1.2430639 2012:6.1612377 2019:4.0980549 2031:1.1427184 2043:1.1000916 2048:0.33598465 2049:2.6424503 2050:1.3674457 2051:0.0053125918 2055:0.9665854 2058:1.3542578 2063:0.35128534 2066:0.82522446 2069:1.2205981 2076:1.0900321 2082:3.0777698 2083:0.43514711 2085:1.7790484 2097:1.0901204 2101:0.8697542 2105:0.30029029 2107:0.67720163 2108:0.41448277 2110:1.2717613 2117:3.9800744 2132:0.21152171 2134:1.4739879 2136:1.6586536 2137:0.38726163 2147:1.965431 2149:0.79427826 2151:1.392657 2153:0.36788374 2154:2.9296122 2156:1.7234092 2160:2.2782254 2163:1.0764601 2165:0.6854651 2176:1.5226831 2188:3.945817 2191:0.13943088 2194:0.87889576 2196:0.74772584 2199:1.7790532 2201:0.7733475 2202:2.8955178 2211:2.7563796 2214:0.750844 2218:0.98272544 2222:0.76761824 2223:3.9640868 2224:1.1063585 2226:3.2878089 2229:1.4754802 2239:3.336395 2246:1.1969478 2269:3.6631756 2271:1.2187169 2288:0.31550539 2293:1.1416528 2294:1.3633615 2300:0.32884258 2314:0.136489 2315:1.1590704 2320:3.673384 2322:2.2288189 2332:0.36570531 2333:1.8832855 2336:1.7203188 2337:0.71707827 2343:1.398977 2344:4.8113098 2346:3.5508049 2348:0.41454151 2358:0.47803131 2360:4.8982859 2372:1.797893 2386:0.073782831 2393:0.49126956 2416:4.7173252 2432:1.1345555 2434:2.918505 2435:7.7821684 2439:0.097741991 2444:0.59453213 2445:0.90753835 2450:2.2580793 2452:1.8381188 2456:0.5708366 2457:0.98471415 2458:0.44683039 2459:0.47380394 2466:0.74092209 2487:1.0777729 2488:0.49536455 2490:0.46112809 2491:0.47052193 2495:0.8390438 2501:3.793174 2504:1.9689778 2509:5.0644164 2514:1.0656515 2526:4.689024 2529:2.1964614 2536:2.1273603 2538:0.44859448 2543:0.24805504 2559:0.22346845 2560:1.7041895 2571:2.2771149 2578:0.15547051 2589:2.4141216 2591:1.165325 2592:3.4738581 2595:5.0544462 2600:1.6089947 2609:0.59721172 2610:0.50934958 2617:1.6968663 2620:3.5321524 2621:0.11332697 2636:0.43488917 2639:2.7420146 2641:1.5361218 2647:1.0005778 2651:0.9510057 2652:0.79785049 2656:0.60109234 2659:0.55748653 2660:1.1219097 2662:0.51954418 2669:0.29589307 2672:0.2463499 2688:0.88946211 2689:0.40140557 2698:4.1702614 2704:0.32061392 2714:1.2866797 2715:3.1875699 2718:3.9730697 2720:3.2254186 2723:2.8955123 2725:1.214438 2727:0.037382454 2732:1.7885425 2739:2.1478119 2740:4.9167743 2741:0.37692645 2745:0.34063774 2750:1.0044508 2751:0.38566342 2754:1.6152766 2763:0.90833032 2765:0.55735314 2766:6.498354 2774:2.8960009 2777:4.1485205 2786:1.1101665 2795:1.6819206 2806:0.21442944 2811:0.31302783 2816:2.7084651 2818:2.8137453 2821:0.87583196 2830:1.0962958 2831:0.11375582 2834:2.4870572 2840:1.1292205 2844:1.7110484 2849:0.29553837 2860:2.7263498 2861:0.071449965 2864:3.7801881 2865:2.6461127 2866:0.018099278 2867:3.6273069 2872:0.82925487 2879:5.6134996 2882:2.5724301 2891:4.6889224 2894:3.3037004 2895:2.7215157 2896:3.1280208 2899:1.6041214 2903:3.9190769 2916:2.4571691 2917:1.8660173 2931:0.75008672 2944:0.17485435 2947:0.7354151 2950:4.2659369 2952:0.77361608 2954:0.91525477 2955:0.67695296 2958:4.3691545 2962:1.4918044 2970:1.0102082 2974:1.6457689 2977:3.0865228 2980:0.54693282 2981:3.0727251 2996:0.17070135 3013:1.8052535 3018:0.83201647 3019:2.9481835 3033:0.67711157 3035:2.9653203 3037:0.017425358 3044:0.39679766 3048:0.46428135 3050:0.64259285 3055:0.053522825 3060:0.17983909 3067:5.7128119 3072:3.795984 3075:0.99708241 3079:0.55988693 3081:3.0240903 3085:0.03355661 3101:0.97318941 3107:2.3981304 3117:0.39812461 3118:1.0771619 3144:0.9013679 3147:1.1423949 3150:0.88982081 3152:5.8624983 3153:0.053312808 3154:0.60312545 3159:1.1669395 3163:2.2166424 3166:0.15207608 3178:2.1336598 3180:2.4305198 3183:0.59617436 3189:2.6980939 3195:0.22655296 3199:0.54244322 3213:0.038580224 3217:2.1564922 3224:0.99576604 3226:2.711607 3236:1.2150277 3237:0.73482931 3247:0.6400907 3249:2.8456757 3256:2.8589413 3257:3.8295972 3260:3.1526928 3267:0.2045531 3268:1.3664391 3275:2.1337945 3280:0.3733325 3285:0.69210756 3289:6.5980272 3293:3.6015682 3299:1.602818 3307:0.7041145 3309:5.514883 3310:1.7175179 3312:0.48412341 3314:0.30029145 3321:0.11876658 3327:0.066287696 3343:0.41652483 3344:1.3274931 3363:2.069381 3365:0.10459068 3371:0.89603513 3375:0.85239393 3377:1.1180476 3378:2.5551052 3390:1.0626559 3394:1.1831691 3395:1.2425863 3399:1.9469831 3401:0.28905278 3413:0.97312063 3418:0.42061535 3421:2.1907184 3423:0.69121575 3431:1.8418834 3432:6.551724 3436:2.5317075 3449:2.4710011 3451:1.1022595 3456:0.089506783 3467:0.85771024 3473:0.35593951 3475:0.07577008 3476:1.0768657 3482:1.0035503 3491:4.5930958 3492:1.4933031 3493:0.32133657 3494:0.97254467 3500:4.7070212 3504:1.5565169 3508:2.3566191 3515:2.6257377 3516:0.23553716 3526:0.47411087 3536:0.54862273 3539:3.1483991 3540:0.091053039 3541:0.46723238 3545:3.0530257 3548:1.1065165 3558:0.61644912 3560:0.93114203 3561:0.49914593 3568:1.343971 3569:1.3993962 3570:1.3571117 3576:2.7500172 3577:1.4005659 3588:1.9102366 3599:0.44811553 3604:0.37283522 3608:2.0426981 3615:1.3243557 3617:0.74173886 3626:1.4365759 3642:1.8800497 3643:3.0570383 3649:4.0246711 3653:0.25676066 3655:2.4344487 3666:1.5167108 3672:0.67362988 3683:1.0139221 3684:1.9872495 3686:0.54282856 3690:2.2374809 3700:1.3896838 3707:0.49263996 3724:0.72510201 3732:2.3711362 3741:1.5355563 3749:0.68914998 3751:2.27016 3752:3.2526274 3753:0.80305248 3760:0.0975786 3761:0.75038159 3763:2.6255746 3765:0.041751564 3766:3.419075 3767:1.7052898 3768:1.7908019 3771:1.101042 3776:0.50799137 3782:1.7566622 3783:1.3352768 3793:4.0181251 3797:4.0272031 3798:0.36605752 3806:0.87318456 3808:3.0076118 3813:0.66657311 3814:1.3065484 3822:0.19770688 3824:0.36074245 3825:0.63446116 3833:1.3178954 3836:2.3932831 3845:0.999219 3860:0.032437444 3871:0.97279048 3875:4.4919639 3877:1.6994387 3886:0.83580256 3888:2.686856 3891:0.87437904 3892:0.46557623 3893:5.8928556 3898:3.1196251 3900:0.92374498 3909:1.5711384 3919:0.54902983 3926:3.4312227 3933:0.091355652 3937:1.4815249 3942:0.57869518 3946:1.0543699 3956:0.66397882 3957:1.4210593 3963:2.3798916 3970:0.49930835 3973:0.15919819 3976:4.0635738 3980:3.0651793 3984:5.9222994 3985:4.3185196 3988:0.47355705 3992:1.0222427 4004:1.0883948 4008:0.18566915 4010:2.8021333 4011:0.92107993 4013:0.18827657 4016:6.6935215 4031:1.2260463 4032:0.43285981 4036:3.0185583 4041:5.2022119 4044:0.18431175 4045:3.2854407 4052:1.0251632 4054:0.33715454 4055:0.080493212 4059:0.8010599 4063:2.0829282 4074:1.1238543 4075:4.1124806 4079:1.1826435 4083:0.32749856 4085:0.84282809 4089:0.45579395 4090:0.08616662 4091:0.13616249 4096:0.75943959 
0.1613322076810381 1:0.90555978 2:1.4739056 4:0.074603349 12:0.20030674 15:1.1480749 16:0.83128428 18:3.3328986 19:2.1572216 22:1.5533571 27:3.4008467 28:2.8733649 29:1.2462215 39:0.080477118 45:0.55148017 50:0.47646576 60:0.38832149 70:2.8432877 80:0.25613469 83:0.4472369 84:1.1762246 90:1.2572196 105:0.075585693 108:1.3279735 110:0.10001063 113:0.17717248 122:2.2374401 123:2.7298427 125:1.6807262 126:0.66936284 129:0.062081993 130:3.557122 153:2.7217588 157:0.69104898 162:0.12229432 166:2.8956771 186:2.552331 187:0.17354789 188:0.39245313 199:3.2242804 200:2.9201047 201:0.88905603 205:1.0212092 212:0.2789329 229:1.0355545 234:0.80851263 239:0.029168129 240:3.7304001 257:0.55755997 258:0.79685473 262:1.2215724 266:1.8631539 269:2.0584748 274:0.14317596 279:0.30292606 288:2.8450377 290:0.34647468 292:2.5278325 295:0.91018963 297:0.61055291 299:0.39135304 301:1.8459474 302:0.6026448 306:0.6933409 313:0.89428991 315:0.88407743 324:1.425524 325:1.0965999 328:0.84566617 329:0.32999185 337:0.19399609 338:1.2478817 339:1.6494923 342:0.35994244 346:1.4995004 347:1.3392324 350:0.57912713 351:1.6577609 365:0.1399495 369:0.79136181 371:1.7782102 372:2.1436455 374:0.062470913 379:0.72958964 382:1.1180184 391:0.69138229 392:2.2971079 393:3.2940037 401:0.29411161 414:0.818434 416:2.3820524 420:0.32484201 424:0.24137007 427:2.1431763 430:1.2193589 432:2.7004795 434:0.60802048 435:0.85187948 442:0.32507169 444:0.23789562 446:0.094941527 448:0.017785609 450:1.6000729 459:3.2458081 463:1.3763158 472:1.9290813 474:1.0866598 482:1.3901483 487:2.8993661 491:0.7967236 494:2.9328856 495:1.3032635 499:2.014329 500:0.51333427 502:2.833308 514:0.88753319 515:0.7964831 522:0.12437159 526:1.7128667 530:1.1541592 533:1.7808387 540:0.48075238 541:1.1391014 548:0.27726552 555:1.5537133 562:3.9463551 565:0.8350659 569:0.072445571 575:3.3599505 578:1.4962482 586:1.6385942 588:0.371757 591:0.15974352 592:0.96697605 594:1.0113955 595:1.7139821 599:0.049175385 603:2.6089296 607:0.28845164 616:0.32758781 620:0.064716876 628:0.49205324 629:0.93935978 635:2.089292 641:1.7162957 643:1.3357872 659:0.85544306 670:0.075550258 672:1.7735965 684:3.2181089 697:0.35479328 698:0.10951996 699:0.35776415 702:0.18767473 704:1.862776 705:0.79066038 706:3.2917852 710:0.19379531 711:0.91400778 713:0.011425614 717:0.29802498 724:0.67735589 726:0.24771309 727:0.84377366 728:0.016202092 737:3.5291672 738:0.046702206 739:0.5681814 741:3.0709577 747:0.5558849 750:1.4213109 752:0.83352113 759:3.0502675 760:0.040980831 761:0.38563293 771:0.83543289 774:0.76475871 780:0.14139317 785:1.2480346 786:0.58578891 789:1.7937956 791:2.137825 795:1.2530495 799:1.3668681 801:0.65158409 802:1.850543 813:0.69256437 820:5.3231997 821:0.60589004 825:4.1027274 833:1.6278343 836:1.3062868 839:1.806411 849:2.4463453 850:1.4257015 853:3.0536041 856:1.9848632 857:1.042781 860:0.29229993 865:0.5791952 867:1.5421265 876:0.58698845 882:1.3784119 884:0.40006092 889:3.7318802 895:0.77249497 904:1.4207073 908:0.75282806 915:0.97609246 924:0.0088274181 926:0.086490691 927:0.52878827 937:1.0999742 938:0.45632389 940:2.3092642 945:2.8351636 947:0.97125119 954:0.42706662 959:1.5642927 960:0.30355072 963:0.034606412 968:0.99003828 974:2.2627187 979:2.5936496 982:1.038383 996:0.9578017 997:1.748469 1001:0.30799574 1004:2.9668691 1005:0.070409678 1006:1.8286415 1012:0.59209526 1017:3.1449506 1018:3.3322339 1019:1.3078597 1022:1.8398783 1024:0.94820279 1027:2.1259205 1028:0.65487564 1037:2.9404488 1043:1.0991428 1045:1.5264323 1053:2.2881043 1059:3.7105377 1062:3.5592172 1063:0.9154439 1077:0.49138111 1091:1.2345486 1094:0.5120886 1095:0.4012759 1097:0.53325325 1102:0.73834491 1105:0.97920811 1110:1.743903 1117:0.34228978 1121:0.66798413 1122:0.55066764 1125:2.0379198 1144:1.4077984 1147:0.29887313 1149:1.1717244 1163:0.85920829 1165:1.1296566 1168:0.79454249 1170:0.22232321 1180:0.9519242 1181:0.36287409 1186:2.7452202 1196:2.4468424 1198:1.4987307 1203:0.98614526 1206:4.0858364 1216:0.49293867 1221:1.275358 1228:4.052012 1234:1.6201507 1236:1.3106261 1240:2.2288365 1255:2.6550157 1257:2.4626029 1266:3.0513933 1275:0.1989098 1286:1.139796 1288:1.4556813 1292:0.48826531 1293:2.6381903 1295:2.1722012 1296:0.80627447 1302:1.0142545 1307:0.43323427 1309:0.26786655 1314:0.17003885 1315:0.3317138 1317:0.63823527 1323:0.1489694 1327:1.082989 1332:1.1930174 1333:2.5809627 1340:0.6075992 1342:0.30625916 1343:1.3955317 1347:0.95922518 1348:1.1840725 1352:0.17308126 1353:0.077043727 1356:0.59447324 1357:1.3247997 1363:0.44754863 1366:0.087035745 1368:0.40591922 1372:0.14896975 1373:0.1600821 1376:2.6281161 1379:0.15755001 1380:0.13359827 1383:0.17032695 1385:0.72238266 1399:2.09903 1401:0.62223017 1406:4.0984797 1408:1.2864194 1409:2.3382125 1411:0.97094977 1413:0.68548644 1423:1.4590702 1425:3.2867856 1426:1.3287771 1450:2.9113944 1453:0.085490227 1456:0.78127587 1458:1.7037566 1465:0.085072458 1469:0.81303781 1476:0.30700541 1479:2.0472991 1484:0.62256306 1485:0.28358579 1486:0.12036562 1487:3.3416348 1488:2.3191946 1492:0.96686387 1495:1.8704739 1511:1.221303 1514:0.37175614 1518:0.05345884 1519:2.9573152 1522:0.68342423 1523:2.196686 1532:1.1104267 1537:0.04507643 1544:1.3102436 1547:3.4487834 1551:0.63546515 1552:0.54597282 1556:0.53391683 1559:1.2547619 1574:1.0493971 1582:1.9388607 1586:0.72928935 1588:1.9819154 1596:4.2423992 1606:0.2711623 1614:0.20086095 1618:1.975562 1623:1.9390838 1625:1.3406276 1626:2.9663949 1627:0.9123227 1629:0.77666909 1643:0.25733513 1645:0.71012378 1647:0.0049996078 1654:1.2036625 1657:1.2543206 1662:1.9667463 1667:1.6989093 1668:2.2973585 1675:2.4991908 1677:0.18876916 1680:1.742759 1681:0.22989933 1690:1.3807541 1698:0.7436111 1703:1.6421049 1706:2.4468334 1708:0.23247263 1711:0.55497253 1715:1.1231998 1718:2.2028809 1722:2.116925 1725:3.782445 1726:0.92249036 1737:0.60108286 1742:0.68559939 1746:0.97061956 1758:0.46224123 1764:0.025868908 1767:0.087472096 1771:0.53014934 1777:2.1934204 1778:0.4628199 1780:0.69496077 1786:0.15508443 1788:0.0038392246 1795:0.52779162 1798:0.22480716 1800:0.44825381 1804:3.8172407 1817:1.8712959 1824:0.9170233 1825:0.31146467 1842:1.6208725 1844:2.476624 1848:1.6659997 1850:0.87998813 1851:1.9578276 1852:0.56707788 1857:1.9200289 1858:0.002203742 1859:0.06544283 1861:0.85306597 1862:1.4273772 1863:0.45775172 1870:0.020251736 1871:0.22416696 1872:2.5587926 1878:0.14696622 1882:1.4676552 1890:4.1367788 1897:3.3972981 1904:2.8388739 1912:1.1060979 1914:0.82315958 1918:0.60335088 1920:0.30632523 1926:0.46168813 1928:1.3306756 1930:1.0163262 1950:0.98542136 1952:1.0302835 1953:1.0037555 1963:0.5256623 1964:0.06202282 1968:0.56766105 1970:1.9374721 1977:0.32338139 1979:0.01198107 1985:1.7569689 1988:0.39579794 1991:0.26941213 1996:0.045173272 2001:0.40722415 2002:4.0097098 2012:3.6201129 2015:1.4674538 2019:1.1892898 2024:0.49548221 2027:0.45619765 2028:1.7784559 2033:0.3029092 2037:2.018559 2042:0.64730251 2048:0.36824632 2049:2.1765473 2050:3.133456 2051:0.0025245845 2052:0.64526224 2056:0.24959089 2057:0.7048437 2058:0.68609524 2066:0.65956378 2070:1.0568012 2072:0.3383832 2076:0.78477848 2080:1.0360389 2085:1.5644976 2093:1.1946521 2097:0.51308745 2105:2.7337227 2107:2.0342431 2112:0.3815735 2113:0.34538054 2117:1.1815624 2120:0.32102782 2126:0.040586255 2132:1.822946 2134:1.155812 2138:0.29558191 2152:0.84726018 2153:1.3240044 2154:0.33062744 2156:1.8314295 2160:1.3962173 2163:0.5901233 2172:0.92367458 2175:1.1623449 2177:1.6833652 2179:0.51367748 2180:2.549341 2188:2.6375003 2194:1.0591868 2201:0.049686391 2211:0.56081259 2216:0.25515607 2217:1.1164629 2223:1.1750627 2224:2.1552336 2226:0.98597467 2229:1.4646183 2246:2.2483699 2253:2.2971609 2255:0.090139471 2258:0.40065151 2262:0.53811717 2268:0.17702201 2269:0.92398816 2270:2.2175031 2271:0.39040598 2276:3.0771356 2281:3.5966721 2283:0.28078592 2290:0.021564007 2292:1.4469883 2295:2.3021722 2298:0.83955103 2300:1.4024079 2302:1.428601 2309:0.20198791 2313:0.15446341 2315:0.84166813 2322:4.1293721 2331:0.4935196 2332:1.8186609 2333:3.6707702 2336:1.2711277 2343:0.61914915 2344:0.86830163 2346:3.7895844 2350:0.33310819 2353:1.7569507 2355:0.26246229 2361:1.5793291 2375:2.2190359 2388:0.19755608 2402:1.391535 2407:1.0453515 2411:1.8082287 2416:0.88006616 2425:0.70642471 2431:1.3587736 2433:2.0401673 2435:3.9573307 2441:0.48692942 2447:1.1442811 2450:2.2442172 2452:1.569659 2456:0.83537793 2459:0.64295089 2466:2.7596247 2470:0.91828632 2476:0.6880523 2483:0.86758614 2484:0.72988093 2487:1.4335531 2490:1.3424006 2491:1.5067178 2497:0.43375403 2501:0.7995975 2504:0.96103048 2508:1.398515 2509:4.709641 2516:0.6625244 2520:0.030683011 2526:1.2467767 2527:2.0488305 2529:0.96748441 2532:0.14418732 2536:3.7389643 2538:0.21897244 2539:1.3890884 2543:0.28948158 2552:0.54673493 2571:4.8388844 2574:1.5312672 2577:0.41152164 2578:0.27235594 2579:0.17265099 2582:1.0054747 2583:2.5740242 2589:2.1308374 2592:2.7260892 2594:1.486267 2595:2.4522772 2599:1.3628466 2604:2.0008559 2617:1.8440964 2618:0.081230938 2621:0.2172755 2634:2.0377269 2639:3.7790308 2651:2.2259104 2656:0.11126193 2658:1.4785438 2662:1.1526859 2666:0.70240277 2673:0.15596347 2680:0.43174988 2685:0.087900043 2687:0.91264576 2688:0.61066777 2689:1.4855183 2698:0.37312812 2701:0.3050884 2702:0.66995227 2704:2.5207996 2708:0.94670731 2710:1.5894086 2714:3.1519513 2715:0.25399816 2718:2.3814182 2719:0.12154515 2720:3.5416298 2723:3.3965917 2727:1.4947977 2735:0.18020603 2739:1.1356808 2740:3.9995155 2741:2.8923459 2743:0.41625705 2747:0.19571918 2749:0.0038758516 2751:0.25617388 2754:1.276377 2756:0.77512813 2765:1.0222123 2766:1.4517634 2768:1.203544 2770:0.13406724 2774:4.7878308 2778:1.7361488 2782:0.81331301 2789:1.4593459 2793:1.5833253 2795:0.35440895 2796:2.2106924 2806:1.5464026 2811:0.6742264 2816:1.4655027 2828:0.32015765 2830:1.2376773 2834:1.7804459 2836:0.85171485 2844:0.039426982 2846:1.8070835 2849:1.5378227 2860:0.24832782 2864:1.8628807 2867:0.76935577 2869:3.5631492 2875:1.232583 2882:0.94123483 2891:4.7438922 2894:0.74865204 2895:4.2930894 2899:1.1498064 2903:4.1976299 2910:0.56851315 2913:0.32299632 2916:0.61777925 2917:2.1437104 2919:1.4922326 2920:0.30602667 2931:0.8448205 2937:1.4951111 2938:0.52413005 2941:0.63315886 2942:2.0005608 2950:2.7170801 2952:1.8722187 2956:0.15490353 2961:0.16059491 2962:1.0404725 2964:0.5586763 2968:2.3013196 2973:0.47466993 2977:0.92703784 2980:0.35986358 2981:4.658124 2984:0.31273693 2996:0.032901883 3010:0.25884777 3012:2.1637657 3013:4.329361 3019:0.70594394 3020:0.24222128 3035:1.1385701 3040:0.34222981 3043:1.1699697 3044:1.7330066 3047:0.31501225 3050:1.1002401 3051:0.45682788 3057:1.5361395 3060:1.0941761 3067:2.5059817 3081:1.1126745 3093:2.6549501 3101:1.6260474 3117:1.1354774 3135:0.62997162 3140:1.1979311 3145:0.70778745 3147:3.260711 3148:0.48905116 3152:1.2857683 3170:0.78002048 3178:1.8471125 3182:1.31258 3188:0.66374862 3189:2.8741262 3200:1.6288818 3202:1.9166663 3206:0.72386646 3211:1.3701296 3219:2.5864103 3226:1.0902295 3230:0.71685791 3231:1.3122391 3232:1.8817959 3236:0.89504075 3247:1.931672 3249:1.5302486 3257:0.97865492 3260:0.83479154 3265:0.35810557 3267:0.49382457 3268:2.8404486 3272:0.43401036 3275:2.791028 3279:0.8183825 3285:2.0273232 3286:2.4430103 3289:2.2965889 3291:5.2536459 3293:4.1073895 3299:1.7820845 3307:0.7755729 3309:0.17621028 3310:1.7588303 3327:1.1721835 3332:0.39536202 3334:2.8795614 3344:1.6005688 3347:0.50105858 3350:0.22414817 3351:0.36552215 3354:1.3467648 3360:0.022494674 3363:2.5143206 3365:1.5102092 3371:1.9932048 3386:1.5312045 3394:1.9470265 3402:2.3451629 3404:0.40042561 3409:1.1682656 3411:0.039830685 3413:0.77200449 3431:0.43471351 3432:2.3152719 3433:0.044304073 3436:2.7038746 3438:1.4043405 3449:1.9182169 3451:0.16425098 3456:1.6384561 3467:0.46964943 3473:2.2755132 3475:1.4455042 3478:0.61718428 3484:0.86457551 3489:0.16650477 3490:0.71741313 3493:4.9479461 3494:2.4815474 3495:1.9364623 3498:3.1609514 3500:3.7353864 3501:0.32391214 3502:1.9741328 3503:1.9582945 3504:0.75230825 3508:2.2750621 3512:0.65666544 3514:0.23423243 3521:0.44151685 3523:1.2686884 3525:1.603456 3526:1.8697025 3535:1.5591369 3536:1.0739689 3541:1.4654641 3543:0.46789148 3545:3.7445717 3548:1.0125996 3554:0.88153529 3556:3.0251288 3569:0.48034421 3570:2.0557513 3575:0.0010499805 3582:0.82871318 3588:0.77755922 3596:0.14548686 3598:0.044297636 3608:2.7663527 3612:1.446443 3614:0.83127749 3615:1.7250051 3616:0.32769474 3624:1.3190225 3626:1.9118261 3630:0.60262591 3631:1.0545232 3636:0.31427383 3642:1.1582319 3643:1.8947028 3649:0.10438904 3650:0.92846602 3651:0.0090375841 3653:1.0828638 3655:2.398814 3666:2.0795782 3669:2.7888603 3670:0.74605668 3672:3.0127113 3674:0.38723797 3684:0.2493526 3686:1.2751361 3689:0.34192568 3691:2.7088439 3692:0.96259594 3695:0.57045496 3700:0.21091986 3701:0.3018662 3710:0.18259618 3711:0.88619673 3723:0.085677743 3727:1.3826745 3732:0.37005824 3737:1.3108991 3741:0.81465256 3742:0.61843508 3744:2.1638484 3745:3.2340372 3749:1.3545125 3751:2.4493866 3752:1.7148939 3753:2.0466442 3761:1.2263975 3762:0.58513618 3765:2.3221927 3766:1.7679631 3768:1.7388862 3771:0.48001051 3778:0.10294324 3783:3.4124234 3793:1.5336515 3797:2.2443805 3798:0.14617085 3806:0.55463886 3807:1.3461685 3818:0.74131215 3825:2.0523522 3831:0.070737466 3833:1.7642316 3836:0.39677736 3845:0.60094178 3852:0.19435111 3856:0.43175867 3860:1.9246888 3862:0.59545445 3864:1.6526024 3865:1.0526303 3875:0.84716797 3877:0.10363182 3881:0.91867024 3882:0.1828064 3886:1.3161769 3891:2.9262316 3893:0.31297362 3895:0.40611622 3906:2.0517673 3908:0.660173 3919:1.3016765 3923:0.69106108 3926:1.0484018 3933:0.32266492 3934:0.79427022 3935:0.11439911 3936:0.42742226 3937:0.2255823 3938:0.94491363 3942:1.7817218 3956:0.55403829 3957:2.8811047 3962:0.21087751 3963:1.0068172 3970:1.5759879 3975:0.049833283 3976:0.12577887 3980:4.2480001 3984:4.2473841 3985:2.6298382 4001:0.14129418 4004:2.5945675 4010:0.50740194 4011:2.1325948 4016:2.633604 4021:0.11645657 4026:0.03110531 4027:1.8575166 4032:1.586333 4036:0.40184811 4039:0.42183417 4044:1.876687 4045:2.4086161 4054:1.9100505 4059:1.1983556 4063:1.1865909 4075:4.2732043 4077:0.29113072 4079:0.28827882 4081:1.3645642 4084:0.48734891 4089:2.509706 4090:2.7786508 4092:0.45037696 4094:0.08323431 4096:1.4595422 
0.05747766216205118 2:0.60592204 11:0.2433854 15:3.4086089 16:1.3133595 18:4.148941 19:0.35773617 22:2.5449793 23:0.6083082 27:2.1289635 28:2.905606 29:0.49968559 36:0.49489814 50:0.45161194 57:0.18211725 59:0.80613005 70:3.4169469 72:0.50198036 80:0.93808174 83:1.0376912 84:2.5599463 87:0.29984659 102:0.46921721 105:1.3197805 108:0.14146757 115:3.1181726 117:0.90162873 122:3.1005292 123:1.3009145 125:0.76066005 130:4.2024646 133:0.72789252 143:1.1017396 145:0.07197886 148:0.51730478 152:0.21089298 153:1.74664 155:0.095567495 157:1.2315301 164:1.7004082 166:2.2543862 167:0.84692949 172:1.5796473 176:0.91156244 179:0.51602954 181:1.3557208 186:3.3089166 187:1.3756481 188:1.5247195 189:0.46270755 199:3.7841306 200:5.7937026 205:2.1652751 210:0.81501997 212:1.3992052 217:1.2380588 219:0.26291507 224:0.85116506 229:3.0831833 234:1.0128406 239:0.67798042 240:2.3585114 245:0.35990834 252:0.32350165 258:2.3449783 262:0.84645319 266:4.4787683 269:1.7446527 274:0.20900232 287:1.9663115 288:2.9359002 292:0.7072506 297:1.0051492 299:0.28435233 301:1.0549358 306:2.6727853 315:0.6520077 324:3.0677252 325:1.0309641 329:1.5470126 337:0.81257683 339:1.4544528 342:0.41026771 346:2.192102 347:2.5069494 350:2.7302065 351:2.1877229 353:2.2492657 361:0.2347528 364:1.2381214 365:1.0512865 371:2.8647091 372:0.62071997 374:1.1673149 379:0.59231478 382:1.584166 385:0.16468644 388:1.6057537 391:1.1781545 392:2.7707782 393:0.77245063 400:0.42248487 403:0.03584522 409:1.0030488 410:0.59155124 414:1.1893878 416:2.0324721 420:1.4368986 424:1.114313 427:1.0066035 430:1.4009063 432:3.3337765 434:1.1845269 439:1.5668288 442:1.1457247 448:0.75897712 457:0.51446962 459:4.2498732 462:0.17902887 463:1.3314772 472:0.27246121 474:2.4777803 478:1.5003479 479:1.8461202 482:1.0732954 486:0.54678738 487:1.9305267 488:0.41915941 491:3.7196023 492:0.069812179 494:2.5363417 495:3.0485249 499:0.93098235 502:2.7050982 503:0.39730996 508:0.45400679 519:0.045743048 524:1.367589 526:2.7725244 530:0.24970329 532:0.30129325 533:2.2905993 541:0.22382474 554:2.0294356 555:1.1367257 562:4.1567049 575:1.8938706 578:1.1920403 581:0.99712658 586:2.2145705 588:2.2963841 589:0.027987048 592:2.8633738 599:0.35703355 601:0.94676399 603:1.7129954 616:2.102329 620:1.4683697 628:3.1530213 629:1.4292345 635:3.2220514 636:0.23213488 643:0.79566622 645:0.19865738 657:1.2381625 659:1.000121 670:1.0277977 672:1.6764336 673:0.00869748 674:0.0028574467 684:4.9382682 688:0.49582404 697:1.1875309 699:0.15541497 703:0.47635281 704:1.0581641 705:2.6969414 706:4.3447061 710:0.5562607 713:0.40477782 724:0.6491996 726:0.42234343 727:0.99313259 728:0.28485125 729:2.737052 735:0.60799432 736:0.039097689 737:2.2518935 741:1.842499 747:0.78331447 750:1.5299072 759:2.3928812 760:1.221055 774:0.66034478 777:0.8381846 785:3.0922198 786:0.90987349 789:0.29304695 791:0.93106747 795:1.0915192 797:0.21306798 799:1.1241999 802:2.3608985 807:0.94631338 809:0.30000865 813:0.79117823 820:2.549727 825:2.7755308 833:1.1406204 836:0.51239645 839:2.0214932 840:1.6797818 847:1.1694728 848:2.6862671 849:2.8115559 850:1.7198557 853:2.8100538 854:0.46437094 856:3.4722812 857:2.4104474 859:0.016076058 860:1.1310589 865:1.7731558 867:2.7280104 876:0.87199271 882:2.5367699 884:1.3387195 889:3.2130075 898:1.5507321 904:0.17871845 905:0.012267971 908:0.55173981 915:0.20636655 924:1.0998327 925:0.92422259 936:0.23608577 937:2.0261512 938:0.309762 940:4.0623245 942:0.35518378 945:5.3870859 952:0.11978012 959:2.1415465 960:0.82347536 962:1.843109 963:0.064006403 965:1.4453286 972:0.1345028 974:4.0114875 976:1.0726026 979:3.2585289 982:1.0560869 985:0.046170145 996:0.98743832 997:3.1248279 1001:1.3892117 1004:3.7088625 1006:0.44703326 1008:0.30054304 1012:0.7354362 1014:2.3033822 1016:0.21640332 1017:0.82208478 1018:2.8580768 1019:1.2495811 1022:1.3175687 1027:1.6730597 1032:0.71351004 1035:0.039378628 1037:2.2868438 1043:2.9841571 1049:0.30392325 1053:1.0479615 1054:0.51552027 1059:2.8539455 1062:1.8607466 1072:1.2578408 1081:0.64145732 1091:2.4657969 1097:0.48472258 1102:0.21062337 1105:0.45835081 1110:2.2262032 1111:0.75586253 1117:1.0081487 1121:1.2987243 1125:0.079671323 1130:1.3411981 1133:1.6502955 1138:1.0144269 1144:2.0280347 1147:1.5829298 1149:1.2977574 1159:0.22267905 1160:0.076823033 1163:1.7315227 1165:0.94269586 1168:1.1602529 1170:0.20150545 1176:0.52689022 1178:0.77200204 1186:2.1164293 1188:0.21746692 1189:1.1891922 1198:2.5750732 1206:3.8991868 1212:0.37069747 1216:0.25085062 1221:0.80978107 1225:0.7736457 1228:3.669848 1234:3.0182295 1236:1.6909807 1240:2.1273317 1257:3.1644375 1259:0.55516744 1260:1.049261 1266:0.23257729 1267:0.65224522 1282:0.49990377 1286:0.93201154 1288:1.0425204 1293:3.9305029 1295:0.85878056 1302:0.92332196 1304:0.46021703 1306:0.59817111 1311:1.4000688 1314:0.24496159 1317:0.4442389 1319:2.0930009 1324:0.6590513 1327:1.566601 1332:0.52812785 1333:3.4818859 1335:1.2604167 1336:0.16731913 1340:1.4468458 1342:0.99801105 1348:1.7621219 1350:0.52163017 1353:2.0834751 1357:0.70145059 1363:0.24144357 1366:0.78356242 1368:0.40959245 1372:0.42381436 1376:3.3464301 1379:0.39055923 1381:0.92823827 1383:1.6955618 1399:0.79031235 1401:2.983427 1406:3.3592753 1408:1.0195626 1409:0.89229125 1410:0.59056544 1411:0.68798101 1423:0.98466408 1425:2.5187569 1426:0.88869607 1429:0.27601746 1431:0.7420578 1432:0.037297279 1442:1.7081565 1448:1.3831899 1450:2.2400098 1453:1.5727791 1456:1.1386683 1458:0.42371672 1460:0.027363777 1465:0.0085947216 1469:1.753775 1476:1.7534318 1477:0.70483327 1479:3.3165364 1485:0.89596897 1487:1.0079129 1488:0.97045863 1492:0.83787692 1495:1.9317172 1497:1.6007751 1510:1.6546609 1511:1.0994582 1519:3.8555512 1523:2.5678506 1525:0.27778035 1526:0.11742556 1532:1.0767022 1537:0.97571224 1541:0.84886748 1544:3.8923616 1547:2.5701766 1551:2.2938457 1569:0.8746534 1574:2.2769096 1583:0.18258232 1586:0.71041757 1588:1.886694 1594:0.082090184 1596:3.943424 1599:0.46957684 1604:1.4995558 1613:0.25290269 1614:1.0285763 1618:0.26101005 1623:3.7202291 1625:1.1688408 1626:0.61387008 1628:0.20477879 1629:0.41095462 1630:0.0052728653 1640:0.72540164 1641:0.86906838 1643:0.5562883 1647:1.3880131 1648:1.5272493 1654:0.7191565 1656:0.4829419 1657:1.3616142 1662:0.2380425 1668:0.7761178 1675:0.63380611 1680:1.8507679 1683:0.52203566 1700:0.93971765 1703:1.3618616 1706:1.395525 1713:1.5177734 1718:4.1599655 1719:0.16981107 1720:1.0334677 1722:2.8415694 1725:0.84334379 1726:1.3440838 1732:0.61439419 1735:1.1114335 1742:2.1418455 1746:1.485651 1758:1.6994996 1759:0.74862468 1762:1.3444922 1767:0.13917051 1777:1.685564 1778:1.5542742 1780:0.89096212 1786:0.75195557 1792:1.0210607 1793:0.43140072 1798:0.23348995 1804:1.6944215 1805:0.77003908 1809:2.1083546 1817:1.5129285 1823:0.25062242 1825:0.93936396 1831:0.80790633 1842:0.57958615 1844:0.98842961 1848:1.7001476 1851:1.734112 1852:0.29135519 1857:3.8146937 1858:0.040423609 1862:0.11121093 1863:0.64409864 1879:1.1976708 1882:1.3184092 1887:0.28867739 1890:2.9322088 1897:5.0662661 1904:3.289638 1912:1.2797012 1914:2.6238832 1918:0.31067282 1920:0.091511458 1921:1.0845789 1928:2.3303366 1930:1.823845 1935:0.88820094 1936:0.56139529 1943:0.15364301 1951:0.13569692 1952:0.094978482 1953:1.7114738 1963:1.6208563 1968:0.58287364 1970:0.71918625 1975:0.88147819 1985:2.7018421 1986:0.0091358125 1988:2.3362617 1991:0.82285988 1996:0.11813268 2001:1.0433364 2002:3.241199 2007:0.032384753 2012:2.8815498 2015:1.7768406 2019:4.096859 2027:0.31619543 2028:0.75663286 2029:0.080590665 2037:1.1871893 2042:0.0073041916 2043:0.2278315 2048:1.3342369 2049:1.1568476 2050:2.5200312 2051:1.5542043 2055:0.80099511 2057:2.5527754 2058:1.8799578 2066:0.88110232 2070:1.5632787 2072:0.44221544 2076:0.075017631 2085:1.519145 2093:0.068740174 2097:0.43654981 2099:1.1419059 2101:0.29628381 2104:0.46815285 2105:0.84702426 2107:2.6292772 2108:1.682483 2113:0.24201699 2117:2.5938954 2126:0.94832659 2132:1.5373178 2147:0.62526882 2149:1.0550832 2152:0.87343502 2153:2.1552467 2154:2.8401146 2160:0.53047371 2165:0.12225394 2176:0.99625403 2177:2.0318618 2179:0.39204568 2180:2.8216507 2188:2.9060836 2194:0.26217371 2196:1.145357 2200:0.84453416 2211:2.444551 2221:1.5195136 2222:1.9253519 2223:1.904889 2224:1.9727678 2226:1.6586076 2229:1.9715877 2235:0.60027432 2239:0.43128881 2243:0.67327631 2245:0.36775142 2246:1.1549218 2254:0.50795108 2259:1.1726937 2262:0.87758029 2265:0.48074299 2268:2.6528478 2269:0.95510322 2270:0.92367858 2276:1.8298312 2281:3.3269765 2283:1.2034665 2292:1.6062844 2294:1.3332767 2295:1.2066364 2298:0.25686181 2302:2.5462346 2315:0.63542187 2321:0.069049776 2322:2.7611532 2332:0.91233397 2333:1.8552758 2334:0.096852154 2336:2.9938858 2341:0.57431763 2346:2.8433321 2353:0.018804699 2357:0.50586063 2369:0.093741834 2372:0.77771109 2375:2.4388354 2388:2.7010632 2393:0.93444109 2400:0.48801881 2402:1.6096363 2408:0.48167598 2411:2.0172577 2416:0.68172729 2421:0.76391768 2431:0.87489402 2433:1.1973803 2434:0.6134131 2435:4.7793775 2437:0.22647125 2450:0.79161751 2452:0.46625307 2456:1.2246437 2457:1.2212975 2459:2.2612984 2466:2.9876158 2468:0.13060123 2470:0.31923959 2474:0.043774784 2476:0.31921044 2477:0.18973395 2483:1.7060468 2487:1.7066431 2490:1.1875627 2491:1.0078486 2492:0.19679554 2497:1.3851848 2504:0.28661978 2505:1.3468206 2507:0.87012303 2508:3.1387753 2509:3.6359875 2512:0.00062945485 2515:0.14348346 2516:0.066659689 2520:2.2270095 2526:3.02247 2527:0.66266507 2529:1.3304899 2534:0.25404829 2536:2.6905236 2538:1.160859 2539:2.6983232 2543:1.0345197 2552:0.17016336 2560:0.43066511 2571:5.4107618 2574:2.5139799 2575:0.76724184 2582:0.11153635 2589:2.0509467 2592:1.5031347 2594:1.8988616 2595:0.21457413 2598:1.4269986 2599:3.5732191 2600:1.1609081 2604:3.1427619 2610:0.76068795 2617:1.5224043 2624:0.031436026 2630:0.96283937 2634:3.4241109 2638:0.10684144 2639:2.3339908 2641:0.32670575 2647:0.85106242 2651:2.345809 2658:1.5102794 2659:1.376527 2662:2.1470263 2666:2.2003086 2673:0.094565257 2680:2.9637837 2685:0.77334124 2687:1.4060448 2689:2.3869653 2698:1.1800159 2704:2.0707858 2708:0.98242474 2710:0.55997443 2712:1.3010352 2714:3.0484977 2718:3.8706875 2720:2.2015285 2723:4.365859 2725:1.1486193 2727:0.82165217 2738:0.24084628 2740:4.1204772 2741:2.0139699 2747:0.86531472 2748:0.74284869 2750:0.26264876 2751:0.30059019 2754:1.1643449 2756:0.61752385 2763:0.1977087 2765:0.96267349 2766:2.489867 2774:6.5108037 2776:0.5009914 2777:1.1873055 2778:0.47141704 2782:2.1712096 2786:0.49789441 2789:0.83673656 2791:1.1036291 2793:0.072384194 2796:0.78801656 2799:1.1871283 2804:0.55925894 2806:0.46454924 2816:1.1970103 2817:0.76337636 2819:0.98464167 2821:0.2758182 2830:0.040151745 2834:3.4630466 2836:1.587662 2845:0.55758035 2846:1.1128329 2849:1.1474483 2864:1.8975965 2865:2.3244057 2866:0.86667192 2867:1.9856461 2869:5.7086515 2873:0.27277002 2875:1.7144039 2882:1.6175948 2891:6.2273855 2895:3.7229159 2896:2.5381386 2899:1.2849109 2903:1.9365208 2910:1.0850096 2916:3.8916764 2917:0.87512928 2918:1.031547 2919:1.2473204 2920:0.94799703 2925:0.14673595 2931:0.59532166 2937:2.0785315 2938:0.99678802 2941:0.14100954 2944:1.660318 2946:0.014848381 2947:2.2047594 2949:0.020794451 2950:4.3066111 2956:0.12230876 2958:2.2007446 2961:1.7446845 2962:0.26196814 2963:0.94242394 2973:0.01821965 2977:0.39552262 2980:1.5346497 2981:1.7258666 2989:0.57670742 2990:0.50513649 2994:0.52176619 3001:0.36010572 3003:0.39320791 3010:0.22247148 3012:0.13656333 3013:5.4349232 3019:0.5861972 3020:0.011886099 3021:0.61075222 3025:0.33637241 3035:1.3776788 3043:0.58078319 3050:0.76565564 3051:1.0206687 3057:0.35939556 3067:3.7600996 3071:0.59121686 3072:0.37680814 3080:0.47120234 3081:1.558496 3093:2.8804035 3100:0.17167366 3101:0.86307025 3107:1.5208857 3111:0.30858108 3116:0.02849637 3117:1.503314 3128:1.1349282 3140:1.469602 3147:4.2253628 3150:2.5127938 3152:2.3730187 3155:0.11209154 3167:0.71910673 3170:2.4498696 3178:2.0417583 3180:3.2463393 3187:0.092257142 3189:0.63150465 3191:0.50566679 3195:0.50255352 3200:0.54333484 3202:2.4833241 3206:1.328481 3211:1.2080045 3214:1.1400293 3215:0.14834431 3219:0.20792237 3225:1.4581184 3226:1.059374 3231:0.23583761 3232:2.4565463 3236:1.2977085 3238:0.54047114 3245:0.91707265 3247:1.8813845 3248:0.85490894 3249:1.2341675 3256:0.49735835 3257:2.5816948 3258:0.89606184 3260:1.9684938 3262:1.220476 3265:2.060241 3268:2.2582266 3272:1.1278868 3275:2.6779981 3276:0.88055116 3277:0.36132383 3285:2.2913744 3286:2.8984194 3289:2.9299183 3291:3.1908753 3293:4.9584756 3299:1.5529571 3304:0.74676228 3309:1.1257845 3311:1.6209283 3312:0.19068921 3321:0.22998121 3327:0.64885622 3334:1.822829 3343:0.01376152 3344:0.64572299 3347:1.8756621 3350:0.2251749 3351:0.074826777 3354:1.8302252 3360:0.34965974 3363:0.73023897 3368:0.15211907 3371:2.1691182 3386:2.4816229 3394:1.8486907 3402:0.7718243 3403:1.1371268 3409:0.62857437 3413:1.0979245 3431:1.0680612 3432:0.76756382 3436:2.7156889 3443:0.10262704 3449:1.5973628 3450:0.078041561 3456:0.16865459 3465:1.3808836 3467:1.7372742 3473:0.74060804 3475:2.4705706 3478:1.0028229 3482:0.77952099 3484:0.17495406 3488:0.427203 3489:1.5226164 3490:0.81453216 3491:1.878617 3493:2.4937499 3494:1.7505099 3495:0.1839183 3497:0.057119727 3498:0.053937241 3500:3.0047836 3502:0.68548739 3503:2.8405819 3504:2.6417613 3508:1.2380176 3509:0.36811727 3520:0.8432852 3521:0.89403903 3525:1.4492024 3535:1.5027332 3536:2.6955132 3540:0.039797932 3541:1.5340502 3543:2.2710252 3545:4.2470856 3548:1.4104466 3554:1.5153154 3556:4.4246597 3560:1.0568312 3564:0.44627121 3570:1.5601335 3575:1.2699974 3576:0.59682208 3586:0.43560317 3588:3.047682 3591:0.83329725 3601:0.34460169 3604:0.00074975565 3608:1.7246648 3612:3.0707448 3614:0.16438432 3615:3.4346111 3626:1.4720728 3630:0.062252283 3631:0.68601865 3633:0.087483168 3634:0.69622064 3635:0.43351284 3640:0.62193894 3642:1.3353772 3644:0.0029273126 3651:1.5758058 3653:1.1543243 3659:0.25980496 3661:0.61824107 3666:1.863519 3667:0.15665218 3669:0.096657425 3670:1.2223837 3672:1.7895 3684:1.8616575 3689:1.6691926 3691:2.0042052 3692:0.6025188 3695:0.96459782 3698:0.012447983 3699:1.2740625 3700:0.35541087 3701:1.4853351 3715:0.8226828 3724:0.52816325 3727:1.7974933 3728:0.98281443 3729:0.48383451 3737:1.2547849 3741:0.62022203 3744:0.88541043 3745:1.559474 3751:3.9928858 3752:1.5694258 3753:1.404846 3758:0.027919888 3762:3.4658599 3765:2.2230432 3766:2.3414664 3767:0.21555918 3768:1.3199263 3771:0.65299612 3776:0.48348689 3778:0.20077369 3781:0.70220751 3782:0.25942877 3783:2.4782512 3793:2.4345958 3806:2.4755757 3807:2.0065336 3812:0.18887687 3814:0.0062179919 3818:0.61407024 3819:0.60221142 3825:1.1531001 3833:1.6055121 3837:0.04168728 3845:0.65511334 3852:0.91218883 3856:0.038948029 3860:2.4320445 3865:2.5308959 3866:0.55696166 3869:0.10948133 3875:2.9771304 3877:0.4085348 3881:0.019849241 3889:0.91993207 3891:2.5647974 3893:0.35115194 3898:0.14605683 3906:1.2252482 3919:0.74364823 3926:1.525501 3942:0.89745528 3956:0.88105428 3957:3.1697991 3970:1.8805276 3974:0.072743952 3975:1.1505976 3977:0.14900762 3980:4.1756058 3984:3.6362295 3985:1.2379751 3995:0.2024139 4001:0.2533766 4004:1.974404 4007:1.6504204 4008:0.48531491 4010:0.4225122 4011:1.7511573 4016:6.0664682 4017:0.89313149 4027:2.9759984 4028:1.5721557 4032:3.2508047 4033:0.22856724 4036:0.89557868 4039:1.9709054 4041:0.43738204 4042:0.082857504 4044:1.1100893 4045:1.6798694 4054:0.84139073 4056:0.10027686 4058:0.48434532 4063:0.41823232 4075:3.6910849 4081:0.10932647 4084:1.0519195 4089:1.9138422 4090:0.60856593 4092:1.1077176 4096:1.4163764 
0.5705875797295742 7:4.5903316 15:0.25336114 16:1.8040671 18:4.3284431 20:4.8061771 24:0.011525214 27:0.4297283 28:4.9887652 36:0.94423604 45:1.5631046 48:3.1435721 49:1.6849563 50:1.6098137 60:2.222774 62:0.13223106 69:1.3012974 70:5.4100661 82:2.2274051 83:0.78310782 84:3.4310257 87:0.10372484 90:4.6531425 108:0.90876162 111:0.010479003 112:0.97193336 117:0.060090184 118:0.23629732 122:1.1990738 123:3.260462 124:3.3387363 125:2.563679 126:3.5603735 129:1.5141639 130:3.9741137 138:0.13696635 145:0.51625866 153:0.057758272 164:0.14414087 175:0.18668997 179:0.22378869 180:0.28925195 181:0.49751866 189:1.5981251 190:0.41347215 196:2.1943042 199:1.4623741 200:5.6808019 205:1.593327 207:0.91772914 210:1.9423695 212:3.9633071 223:0.90095603 224:0.68119091 229:0.50339454 234:1.6943729 239:0.69518143 240:2.7475128 246:0.64698315 247:0.079014316 252:0.22259131 257:0.0643944 266:0.81759322 269:3.1100111 287:1.4248543 289:0.47420824 290:0.43197721 294:0.21309227 295:0.084916502 297:0.62392855 298:1.8108654 299:2.0694239 315:0.88424134 324:2.3836794 325:1.4082226 326:0.11217183 333:0.95832312 337:0.45505169 340:4.2066879 342:1.6732885 347:0.16003695 351:1.2071044 353:2.2413464 362:0.027243733 369:0.0031173825 373:2.3448565 378:0.12974335 389:0.39329359 391:2.8369865 392:0.39376879 400:0.10775313 401:0.88095164 404:0.29705113 408:1.4950647 409:1.6813822 417:0.69156194 418:0.97017747 420:1.9704508 424:0.47226399 432:2.9458537 434:1.4010155 440:0.51689559 448:0.52207673 459:0.060768664 461:0.00070863962 462:0.39920387 463:5.1593175 468:0.22166604 469:0.03562057 472:0.43960366 474:2.1663556 482:0.92468584 484:2.9917414 487:0.92770255 494:2.5573094 495:3.1454384 496:0.71933413 499:1.1485671 500:0.12010165 502:4.1194649 514:0.94583905 515:2.1720853 516:0.3484486 524:0.58706528 526:2.2738719 533:3.2337203 540:2.641233 546:0.27011755 555:0.16930461 556:0.64839637 557:0.058901452 561:0.31891093 562:2.3230107 566:0.97772956 575:1.2506443 578:4.4848166 581:2.1191556 586:0.84980023 588:1.6126059 592:1.5009952 594:2.4403656 600:1.2411474 602:0.12019196 608:3.7603862 612:0.39889491 615:0.42745453 616:3.0501888 620:2.577687 634:0.6504336 637:1.4919579 641:0.92478794 644:0.48015037 645:1.9062338 659:2.1582639 667:0.45319599 674:3.3433363 676:0.37242109 684:2.4602849 685:0.67974305 688:1.5030118 691:0.29006296 698:0.058441281 701:1.6487724 705:2.2338357 706:0.064231455 712:0.40239102 717:0.15152082 718:1.0073148 730:0.46160597 737:0.44250652 744:1.054755 747:0.76691055 748:0.27511075 782:1.4365965 786:0.46386436 789:0.93302631 794:0.73998654 798:3.2969444 799:1.3643346 802:1.0823305 805:0.76397008 807:0.51162636 815:0.44090956 820:1.2946881 825:1.9753163 836:1.0738833 838:0.12702322 849:1.1285262 850:0.99872488 851:0.74204564 853:4.6119018 856:3.9772713 857:1.4254683 865:0.27130681 867:3.499887 872:0.74767286 876:0.85848081 882:0.34027117 884:0.72991788 888:0.39185351 889:6.1903791 893:2.6119616 894:0.4752776 904:1.9953107 910:1.170249 912:0.5016945 915:0.77112532 922:1.0077581 923:0.3104682 924:1.4343753 929:3.8401644 936:1.8808634 940:2.220258 941:1.1663749 942:3.6895807 949:1.4704415 954:0.72054595 959:1.1330924 962:0.1685656 965:1.7086574 967:1.7475772 968:0.7019127 974:2.2815027 979:1.8034108 980:1.3191545 996:0.38394776 999:1.2543499 1000:0.62847894 1001:2.6455016 1004:1.7429848 1010:0.25607935 1015:0.73168731 1017:1.1564765 1018:0.63723737 1019:0.031287819 1022:1.6496481 1024:0.087956369 1027:1.2688425 1031:1.48313 1032:0.11806867 1037:4.1407008 1042:0.61529869 1053:3.0707448 1058:0.55344123 1059:2.4990819 1062:3.4046516 1063:1.2785652 1073:0.41147542 1079:0.63180113 1084:1.7164948 1094:0.64485443 1095:2.3787999 1098:0.076229393 1102:2.8681107 1105:4.3101921 1111:0.053892411 1117:2.7857122 1121:4.2860584 1122:0.46749735 1125:3.2756448 1128:0.31511578 1133:3.4532351 1144:2.4839573 1147:0.65846014 1152:0.74871701 1163:1.7077445 1165:3.8144019 1168:0.6374712 1176:2.8706477 1180:0.34116441 1183:0.34236905 1186:1.9251692 1197:1.702384 1198:1.4658065 1206:2.5728769 1215:1.4616261 1217:0.2279734 1218:0.91459042 1223:0.23188744 1224:0.81801379 1228:4.1146245 1234:0.91066843 1240:2.3069668 1253:3.351177 1255:1.6171458 1257:2.8156648 1258:1.2360489 1266:1.8627084 1267:0.087262049 1271:0.11952001 1278:0.73094773 1279:0.35145295 1286:0.28850949 1293:1.1300957 1302:1.7095559 1306:1.6630741 1307:0.46275991 1312:1.1280468 1314:3.1734009 1315:0.72761428 1317:1.8694756 1319:3.4326928 1327:1.9776554 1332:0.21436703 1340:0.65626109 1344:0.99554396 1349:0.16024029 1357:1.0928934 1366:3.3769901 1372:3.1377356 1377:2.47297 1383:1.1615109 1385:1.0277433 1391:3.4680097 1396:0.68078065 1406:3.6941645 1407:0.073821604 1412:0.19586521 1413:0.20908526 1423:0.17327367 1426:0.63684958 1434:0.61677992 1435:0.050998211 1442:2.0092552 1450:0.82339555 1456:0.53363925 1460:3.6475687 1469:1.8581113 1476:5.5505323 1478:1.2923576 1479:0.31932896 1482:2.1615243 1486:0.3518942 1487:2.287257 1488:3.0098438 1491:1.2639347 1505:0.73961234 1507:0.035185665 1511:0.59775484 1513:0.019940451 1519:2.8777361 1522:0.03791815 1525:0.61305642 1530:0.53930634 1532:1.2997376 1533:0.021860808 1542:2.3715029 1544:3.1063983 1547:0.71043563 1548:0.64401162 1551:3.9870982 1555:2.4788017 1557:0.80539423 1561:0.041024372 1567:1.9494646 1569:0.25323391 1571:0.65741378 1573:0.10468778 1576:1.0977111 1581:0.90438354 1588:1.5316344 1596:0.57648706 1600:0.1615369 1601:0.13476759 1604:0.96629709 1606:0.43402106 1614:0.035407126 1618:2.3919201 1625:0.70410132 1629:1.7176772 1630:0.87240094 1640:0.48846391 1648:4.1333127 1655:0.22859707 1658:1.2794733 1662:0.15421623 1667:0.17100301 1675:0.16230763 1676:1.6091924 1677:0.48469871 1678:1.9181695 1681:0.71787965 1690:0.30461174 1691:0.20490508 1706:1.4630718 1710:1.3660951 1711:4.6193595 1715:0.51659954 1718:0.085023761 1720:1.3234255 1724:0.36618793 1726:0.82751036 1731:1.3201301 1733:0.46311039 1737:1.565521 1740:2.0153086 1744:0.98794192 1746:1.5009894 1750:0.81499511 1754:1.3029442 1756:1.3448145 1758:0.39737302 1759:1.9839462 1762:1.7797351 1767:0.67890835 1772:0.14098266 1774:2.4090312 1778:2.5702386 1780:1.3284191 1782:1.1441419 1791:1.0886137 1792:0.41060334 1793:0.071697176 1798:0.49500656 1803:0.14188628 1818:1.2705615 1823:0.77133393 1826:0.4578616 1831:2.2881207 1840:1.3165934 1842:2.2190127 1848:1.0986459 1855:1.0695779 1858:1.3636163 1864:0.83433294 1869:2.226707 1872:1.8651497 1882:3.5252066 1890:3.1647062 1897:4.8574023 1898:2.2776079 1900:2.3714147 1904:0.62379003 1907:0.74284399 1920:1.5984639 1922:2.1646614 1927:2.1564281 1928:5.2418175 1935:1.6157726 1943:1.4105413 1953:5.8357916 1964:0.087853655 1969:0.0012422502 1975:3.2530537 1977:2.4843667 1980:0.20957346 1985:1.4771959 1987:0.84291005 1992:0.099419415 2001:1.6586279 2012:4.3167362 2019:1.6380153 2024:3.6620579 2027:0.52944565 2028:1.3692927 2029:0.13197237 2037:1.5208578 2042:0.83452725 2043:1.0382016 2047:0.67105103 2048:1.9962816 2057:0.67473012 2063:2.2755423 2064:0.16087851 2066:0.87226301 2070:5.9403963 2076:0.34209657 2078:1.4647121 2080:1.2682922 2083:0.053535193 2088:0.52644277 2093:0.26369095 2097:1.4119962 2100:3.6125557 2104:2.7962973 2107:1.4912736 2111:2.5031562 2112:0.81859285 2117:0.12658238 2118:1.4154527 2126:0.40463361 2128:0.45496225 2131:0.18999933 2141:1.6229726 2142:2.2478442 2146:0.031680912 2154:4.5027337 2155:1.6415884 2160:1.2390866 2167:0.26834914 2173:1.3898631 2177:0.2394667 2180:0.15935189 2183:1.9708745 2188:4.5122852 2196:2.4449472 2199:0.2058202 2204:2.0995507 2220:0.54089594 2223:0.86100614 2224:1.0329169 2227:2.4076331 2239:1.296469 2240:1.4279039 2246:3.4896131 2247:1.2792602 2248:1.2993211 2250:1.2704904 2267:0.35769346 2268:2.3384042 2271:1.2184328 2274:1.8146927 2275:1.8597531 2276:3.0926843 2281:0.20623741 2283:1.5667048 2292:1.2084299 2299:0.32192332 2300:0.33997199 2303:0.52483201 2317:1.9796116 2319:1.7658167 2322:3.9425807 2327:0.54483497 2332:3.6651988 2334:2.5971439 2336:2.0269818 2350:0.52691758 2354:1.6350929 2357:1.1579032 2358:1.8304601 2360:0.53667521 2368:0.57153177 2369:0.39531714 2372:2.3129492 2378:0.12383118 2381:2.1584287 2400:0.72529078 2411:0.91193485 2417:2.0926576 2426:2.1664195 2431:1.3142972 2433:0.0033847541 2439:1.1169078 2444:0.050538599 2452:3.2145998 2457:3.5085263 2459:1.4521792 2463:3.4094667 2472:0.40678892 2481:0.44603735 2485:2.7530134 2487:1.7148935 2490:1.1904113 2491:1.5752015 2492:0.081464842 2495:0.30680686 2504:3.4366033 2505:1.303485 2508:0.4590292 2509:0.6321739 2516:0.93845189 2527:1.0819197 2528:1.7464023 2529:1.6967303 2536:3.5960786 2537:1.607105 2539:2.4419761 2546:0.52503729 2547:2.3390827 2558:0.11195081 2561:1.892482 2571:1.3098391 2574:1.5288858 2578:1.5689429 2583:1.9805772 2588:0.49654281 2592:2.6076052 2594:3.6796992 2595:1.2066236 2599:0.49369377 2600:1.9386392 2603:0.82985741 2607:0.065652445 2618:2.2334294 2619:1.0889693 2629:2.1393976 2636:0.12427765 2638:0.1228351 2639:2.7646494 2640:2.4782143 2651:0.1329568 2657:0.62884015 2659:0.21660766 2660:1.2720447 2662:0.69009423 2666:1.6243088 2680:0.20438659 2687:1.023463 2688:1.0038534 2689:2.6336336 2695:0.698084 2698:1.6583834 2701:1.4452386 2703:0.23297824 2708:0.07529787 2710:0.93092644 2713:2.6375568 2714:3.7786248 2716:0.19625503 2718:5.1256804 2719:0.21179298 2720:3.2405014 2723:1.4166433 2724:0.23943423 2725:1.7764366 2732:1.3320957 2738:2.3848867 2740:1.5649722 2741:4.0458374 2743:1.5063332 2750:1.508024 2757:0.66015452 2766:6.0965719 2771:0.19382539 2774:6.2600064 2775:0.8384437 2777:1.8231044 2778:3.4012532 2786:0.20886427 2789:2.3117099 2793:3.4660277 2797:0.79629296 2804:0.76030755 2813:2.3673208 2817:5.3067245 2818:2.9596415 2820:1.0725387 2823:1.187773 2828:0.83333206 2830:0.85744798 2834:0.63416803 2836:1.9722383 2844:2.1824434 2845:0.70398438 2849:0.14647198 2851:0.52031672 2867:0.3919743 2869:2.5760744 2871:0.39192224 2873:2.8630054 2876:0.66461337 2882:1.2871847 2883:0.77428931 2885:0.03405112 2889:1.5326619 2891:1.9070464 2894:3.475173 2895:1.1628904 2898:2.3229396 2903:1.6721634 2917:0.99034238 2920:0.89921689 2924:1.0062363 2925:0.25621325 2938:0.91223156 2940:2.4495893 2947:2.1732466 2949:0.82876867 2952:1.1629009 2955:0.55219245 2956:0.67044663 2958:0.19198471 2961:0.37352595 2973:1.4884596 2977:0.21564686 2981:1.1648395 2986:4.644063 2990:2.4886618 2992:2.9060054 2993:0.13035756 3001:0.84475696 3010:0.038213164 3012:1.5517064 3013:1.9286308 3014:0.041480809 3015:2.0009913 3033:2.165298 3034:1.2587231 3037:0.26255861 3040:0.42430177 3042:0.43218991 3050:0.64393777 3052:0.42702648 3056:1.6945574 3067:2.761827 3072:3.193948 3076:0.90940797 3079:2.5512183 3081:3.0534856 3083:1.7373883 3085:1.1447504 3093:0.5122264 3096:2.0266995 3099:0.23373252 3100:2.208128 3114:0.52871954 3116:2.1232336 3118:0.14367668 3124:1.0534137 3128:0.7934972 3129:1.4887261 3147:1.8479307 3152:1.7156491 3153:1.1288416 3155:0.88597506 3159:1.2278454 3160:0.79088074 3164:0.24419889 3172:0.49733463 3178:1.9740777 3182:0.48013347 3184:0.47630936 3189:0.32977355 3191:2.2745161 3202:1.1665623 3206:1.60554 3207:0.52525616 3208:1.7284369 3230:1.8088346 3245:0.14900723 3247:0.61576301 3248:0.74822158 3249:0.63536215 3256:2.1534266 3258:4.3217378 3260:1.8590633 3268:0.028427094 3272:0.43448716 3274:1.8870714 3275:4.5212688 3276:0.25169501 3278:1.3339524 3284:2.4372051 3285:2.3468602 3286:4.4069095 3289:0.40353623 3290:0.14026973 3291:4.0589905 3293:4.8077087 3295:0.035119653 3312:2.0674484 3334:1.9797692 3335:0.5684129 3340:3.0368586 3341:0.64802301 3344:0.31883606 3349:0.53608048 3354:2.0990913 3357:0.064914294 3359:0.92735887 3363:1.3026834 3365:0.47611073 3367:2.2483721 3368:0.8879348 3372:1.1153189 3377:1.4439443 3385:0.3043077 3399:1.1938372 3407:1.0458176 3413:1.1795737 3421:2.815846 3423:4.0681353 3428:5.3177443 3436:4.7285295 3443:1.4799719 3450:1.0574428 3456:4.2170563 3482:1.8919979 3484:0.12179723 3490:0.10910824 3493:3.6094913 3498:2.2240143 3500:3.4769888 3503:3.013186 3508:1.1751277 3512:0.98858821 3514:3.0279734 3525:2.7301073 3535:0.52869046 3539:2.5620677 3540:0.28825212 3541:2.5457826 3543:1.0242547 3545:2.2914248 3548:0.5011825 3556:0.54553348 3560:2.8006721 3570:0.31960851 3577:0.22809845 3585:0.4371548 3586:1.5178055 3588:0.7007547 3597:1.9146953 3601:1.7996517 3612:0.28039417 3616:1.0892186 3629:2.3556693 3640:0.034677833 3643:1.5479794 3644:2.4835479 3649:1.3133737 3651:0.84813547 3653:1.2021554 3666:3.8131785 3667:2.5127981 3669:3.2648041 3673:0.56804967 3674:0.95587885 3677:1.2485495 3679:3.0552931 3683:0.88415444 3684:2.7719316 3686:0.90474421 3691:0.60935402 3692:0.83858287 3695:1.1699867 3703:3.5919187 3711:0.76606303 3715:1.6077098 3719:2.5685837 3725:1.4285032 3727:4.965168 3732:0.14135797 3735:1.2438838 3738:0.14333653 3741:0.30417261 3745:2.8534644 3751:2.7730641 3753:2.4372787 3761:1.7352654 3763:0.54740447 3766:0.79319811 3767:2.5552385 3769:1.2506125 3771:1.1370254 3773:0.39638978 3783:1.715727 3793:1.5196908 3800:0.2260844 3806:0.18499407 3812:0.91390693 3818:2.2621629 3822:3.2305341 3824:0.28691655 3825:2.2362211 3829:0.1757946 3833:1.5488355 3839:0.63798928 3847:0.80012745 3851:2.0092666 3852:0.20565552 3853:0.2558639 3861:0.4752588 3872:0.31292343 3877:0.088120729 3889:1.7023563 3891:1.5059308 3897:0.043242887 3906:1.102626 3919:0.42849547 3923:2.1237497 3936:3.1964426 3938:2.5487547 3942:1.0547086 3957:2.2278299 3974:1.200485 3980:1.660242 3981:1.1909826 3982:1.1360931 3984:2.4930336 3985:3.3924184 4001:0.045643747 4010:3.9424973 4014:0.18667331 4016:2.384059 4018:1.1265352 4027:0.5210076 4032:0.10710874 4035:0.54719537 4036:1.9625535 4038:0.77400899 4042:1.4756511 4044:2.3644273 4045:2.577729 4059:3.2130067 4063:1.5226682 4074:1.4247738 4075:4.2332554 4079:0.4338845 4082:1.6294515 4084:3.9450653 4085:0.22162455 4087:0.015267611 4089:0.88451391 4096:0.93542087 
