svm_type c_svc
kernel_type rbf
gamma 0.000244141
nr_class 2
total_sv 97
rho 0.467251
label 1 0
probA -5.34389
probB -0.156837
nr_sv 46 51
SV
0.3278981828007359 5:0.93250179 8:2.0136087 11:2.8867192 14:0.57158649 16:1.1969955 19:1.2844154 20:0.097958535 21:2.7672584 29:0.085689664 33:2.4410281 35:0.048395634 40:0.5292545 43:0.026218385 47:1.4601691 48:1.3122737 54:4.3637943 57:0.70868182 58:3.1910131 60:0.62172848 61:3.1783092 68:0.87323213 71:0.65454847 72:1.202968 73:2.2565515 90:0.49647731 93:1.0256643 95:1.7748675 98:1.6373122 103:0.018649071 108:1.2171577 113:0.19387662 115:0.96137989 123:3.2428927 125:3.1465654 127:0.59765375 130:2.65716 131:0.68586147 141:0.20154279 143:2.0557554 146:1.9896706 147:1.5091631 150:0.11507498 155:2.5605545 156:0.34060448 157:1.2211245 163:0.91133463 164:0.44356358 166:1.0564358 172:1.1373464 175:0.11959201 176:0.26447207 188:0.60830659 190:1.3575654 191:0.11130513 194:0.099838197 195:0.30228135 199:4.0016022 200:2.998297 204:3.5373354 205:2.3839386 211:1.6306676 218:1.0142212 221:4.6005177 223:1.8114175 224:0.070331901 229:1.8780099 239:1.9300385 240:1.0186868 242:2.5137208 244:1.5101008 258:3.7197943 260:1.2916348 262:1.8612854 263:2.3549609 267:3.1112001 269:3.0864401 271:0.13793087 282:2.2634714 284:0.020304203 288:1.5332193 289:1.7379861 290:0.37557745 292:2.2115147 295:1.0060397 296:2.0972331 301:0.42301372 306:1.9411511 315:0.24874607 318:0.22158197 325:1.2470878 329:0.1070272 333:0.8519215 340:2.6277456 342:5.040627 345:1.6160069 347:3.772033 350:2.7830403 351:3.2149861 354:1.1121056 365:1.4016166 366:0.85322189 371:0.82046497 373:1.9478617 379:1.9218774 385:0.69728923 386:2.9333973 389:1.8318629 391:2.1314566 392:0.055717424 403:0.24177086 409:1.1199064 425:1.4380273 427:1.3152776 432:0.83104354 442:1.5515572 444:1.1739322 446:1.8855252 449:0.20995483 459:0.37906009 460:1.1458588 461:2.1588883 462:1.1541297 463:0.044884503 464:0.13238111 466:0.77286404 468:0.467884 469:1.9557354 490:1.3159249 491:2.4852862 494:3.1088672 495:1.5404123 498:1.7595756 499:1.1419648 500:3.5296984 504:3.5051508 505:1.2020793 507:0.02798672 509:0.24818861 517:0.4410409 533:0.75104988 534:0.62724829 536:0.61931175 540:1.0300145 545:1.3722963 546:1.7150553 554:0.22005296 565:2.367743 566:1.2113823 575:0.9224509 578:1.520849 581:0.24457663 583:3.0799172 586:3.140301 590:0.64574522 592:4.4730573 608:1.389248 615:0.24143478 616:4.2038975 617:0.090583086 619:0.81566751 620:0.042307258 625:1.7474378 629:1.0508316 630:1.1158239 635:2.8924367 638:0.2352922 645:0.79167908 651:1.0629879 661:1.7337872 662:0.60505772 675:0.75396395 677:1.1066585 682:0.61797774 684:1.8865715 687:0.052626982 692:0.96160561 694:1.4504572 697:1.4796872 704:0.84839892 705:4.175529 706:1.4315436 713:2.4939961 723:1.980742 724:3.6851401 725:1.758352 728:0.4404332 735:0.29251719 737:1.286465 738:0.43251619 751:2.1009939 752:0.35525551 753:1.0229774 757:1.1738899 759:0.052788645 768:0.44397825 772:0.78633499 773:1.0923136 775:0.97636366 776:1.4872847 778:1.4455309 780:2.6493824 782:4.7303839 785:1.7340153 789:1.6812123 794:3.3977933 795:0.7384423 796:1.0428138 797:1.0856593 798:1.0469124 799:2.8789129 802:0.99995661 804:0.99808049 805:2.927669 807:0.77596855 813:0.2019237 819:0.45250994 820:0.67282629 827:0.4576965 831:4.3604703 834:0.15740916 837:0.80070978 845:1.06007 848:2.4981017 849:3.0529633 851:1.5792134 853:2.0699663 856:1.3782606 859:0.46876228 865:2.1167917 866:1.3867819 867:0.98039812 868:1.8851459 869:2.2848072 871:1.622507 872:0.29811466 874:0.063984141 882:2.5118458 895:2.8546085 902:1.1606362 904:0.63620651 908:2.0349612 909:3.4053209 913:2.2536125 915:3.1697955 919:3.1941397 921:1.7987825 924:1.5415939 927:0.73135757 938:3.325299 940:0.014504194 945:3.4744089 951:0.55080843 965:1.5116761 966:0.72898692 969:2.0839338 970:0.4541176 972:2.3704522 974:2.3378217 989:2.3793929 991:0.13695414 996:2.8151464 997:0.61762935 999:2.0928445 1001:4.6727128 1004:0.48947999 1009:0.95344126 1014:2.5220916 1015:0.73272622 1016:2.3089459 1019:0.039600432 1022:3.2746284 1024:0.058181774 1026:3.4770689 1027:3.8120832 1031:1.449358 1038:1.3549274 1039:0.52864254 1042:1.3389148 1049:4.8162603 1053:1.5233648 1059:1.9357234 1063:1.6540618 1073:1.0620714 1074:0.56042266 1075:0.63990605 1076:0.90002698 1077:0.092239201 1084:2.9027348 1095:2.7064321 1100:3.072298 1110:1.1404141 1111:1.9371063 1118:4.9129381 1121:1.8845919 1122:1.3361499 1125:2.1062546 1128:1.478018 1129:0.11581144 1133:4.5204082 1135:0.9110024 1137:2.8116584 1140:2.1161184 1147:2.6436279 1153:0.045432806 1158:2.1332352 1160:1.8699874 1180:2.6233046 1181:3.5841405 1188:2.565794 1193:3.6454761 1195:0.66092831 1198:1.4127823 1199:4.2364507 1204:3.5225871 1206:4.9381504 1217:1.627171 1221:4.3989682 1224:1.2258146 1227:0.32586515 1228:7.1483727 1229:1.275996 1234:2.1411433 1240:1.334675 1242:1.9926717 1243:1.4504831 1246:0.027569801 1249:3.6713512 1250:0.30632418 1264:2.0630422 1274:2.1107082 1279:1.4458678 1281:1.3148682 1285:1.4241644 1291:2.5313125 1295:0.34496033 1298:4.3501844 1302:0.36412287 1303:1.101953 1307:0.83351171 1311:0.67572659 1314:1.2089336 1317:4.4107161 1319:1.7042894 1329:0.38344079 1331:1.2532353 1332:4.2647018 1333:2.360898 1335:2.2250941 1338:3.104557 1340:6.0645103 1344:1.9728756 1352:2.2324171 1356:0.98430955 1357:4.5210595 1359:2.2300091 1366:0.40642071 1372:2.904098 1373:1.2923031 1376:1.2720863 1377:1.0722437 1385:4.9146562 1393:2.8394463 1394:3.4295752 1404:2.5754826 1405:0.32709959 1406:2.4883077 1408:2.9416223 1411:2.0747015 1412:1.0898585 1413:3.4290833 1417:1.3051126 1421:1.5131921 1423:0.85442448 1425:1.4554443 1426:2.1237466 1428:0.33743879 1429:2.3621411 1433:0.0057577789 1444:1.7065406 1445:2.9458151 1448:4.3413992 1453:1.1142778 1454:0.40224111 1460:0.90988219 1462:0.80313933 1465:1.3993297 1466:1.2723262 1469:2.12532 1476:1.0593361 1478:1.8590778 1482:0.72373474 1484:1.1327486 1485:2.1708827 1487:1.5483164 1488:1.9433675 1495:1.0843382 1497:0.77423406 1513:0.35789901 1517:1.749743 1519:1.5928484 1521:0.30196983 1522:0.22035491 1523:0.53985059 1528:1.6167884 1529:0.51280332 1530:0.42132205 1540:0.43337983 1541:3.5870616 1544:1.1214292 1548:1.213407 1551:2.9215074 1555:1.8697895 1573:2.7926242 1574:0.30599311 1576:0.93078965 1583:0.68891299 1587:2.494509 1594:0.35678041 1596:1.7342513 1598:1.6338958 1602:1.0006137 1604:1.1702154 1605:1.0506494 1614:2.58744 1617:2.2092783 1618:2.879936 1620:1.08918 1623:1.8746808 1625:1.5935951 1626:0.13879585 1630:1.1059897 1637:1.9041578 1647:6.0795865 1648:3.084676 1652:1.2475535 1654:0.80596954 1655:2.8047831 1657:0.65226752 1658:0.38523263 1661:0.85777783 1664:0.49851516 1675:2.6163499 1677:1.676265 1680:0.74199027 1690:0.51495576 1698:1.3760304 1701:0.73202342 1702:1.483067 1704:0.65370035 1705:0.18714833 1706:1.1814232 1707:1.4521013 1711:1.2828592 1712:0.4509663 1718:1.5750434 1720:1.4083781 1723:0.68036878 1724:0.48417819 1726:1.2924526 1727:0.91918683 1730:3.1579316 1731:0.45415148 1736:0.33830762 1740:0.37260664 1742:3.4220788 1746:4.411571 1749:3.0658059 1752:2.169852 1756:5.3095069 1759:1.9073566 1762:0.1739136 1765:0.15028113 1767:0.069286808 1772:2.3680038 1773:0.55385739 1774:0.89551973 1777:0.51038831 1778:2.6195719 1783:0.21194714 1786:4.1771951 1792:1.3459893 1793:3.4688225 1795:2.0782654 1799:1.0625576 1802:0.035402209 1804:0.87671268 1805:1.5309168 1807:2.3012097 1819:0.51316422 1821:1.5595105 1824:0.79922569 1826:1.3061221 1831:0.97470403 1833:0.29643857 1834:0.0010165125 1840:2.4054439 1842:0.24393469 1848:3.2037163 1850:0.67521203 1852:0.91698366 1857:1.458287 1858:0.046600617 1863:1.4739088 1882:2.8364844 1888:3.4945853 1890:1.4040444 1897:5.5321107 1900:1.8866836 1901:2.5239291 1904:1.0746291 1908:0.82432675 1911:1.7061251 1915:1.747997 1917:1.1538582 1920:0.45302543 1921:1.5939862 1922:1.1282543 1930:0.89961886 1937:0.34356451 1943:0.50688088 1945:0.3405484 1948:0.85788524 1951:0.039454222 1953:1.966907 1960:4.133574 1965:0.022139326 1968:0.80916113 1969:0.5577206 1975:3.853467 1977:5.3488503 1984:1.4514834 1993:0.32001495 1997:0.46743113 2001:1.829201 2002:3.763433 2012:2.1277661 2015:1.5792414 2019:2.2456915 2027:0.21032625 2028:1.4327185 2029:0.97353977 2032:0.49615389 2036:1.0046211 2037:0.94168222 2038:1.7504052 2042:1.0045286 2043:1.5580589 2051:2.4546328 2052:1.5596389 2054:1.9111836 2055:1.1563954 2057:0.26120716 2058:0.51348996 2059:2.4307723 2062:3.5936418 2066:0.93536156 2079:2.3583155 2082:0.49373767 2084:3.8796799 2085:0.034352832 2088:1.4264249 2096:0.59586924 2097:2.0343068 2101:0.35639679 2107:1.8992059 2111:0.99665415 2115:0.075376004 2119:0.64782256 2121:0.68329883 2125:0.80805641 2140:1.1791037 2142:0.4760083 2144:0.29584804 2145:1.5888629 2149:0.83330154 2152:2.1662054 2153:1.0287442 2154:4.9131818 2162:0.068020523 2167:0.028663993 2170:0.87493563 2180:0.27139753 2187:2.9928308 2188:2.5799165 2198:0.42503464 2201:0.8785603 2204:1.1312349 2207:1.4820329 2210:0.7880789 2220:0.21211955 2223:2.9949541 2224:2.7273164 2226:1.0985262 2229:1.0664971 2231:1.8257585 2239:0.56852287 2242:0.17761151 2246:0.70945764 2257:2.4271851 2259:0.75167024 2260:0.91607529 2265:0.54097193 2267:2.0562754 2271:0.21783951 2276:1.5459583 2277:0.22957295 2281:3.1730554 2283:0.32864171 2293:1.4723301 2303:1.8457376 2311:0.15403795 2313:2.2015779 2320:5.5733175 2321:0.71630228 2322:4.5705833 2327:1.6647522 2334:0.05931139 2336:1.5042319 2338:0.46526805 2341:0.0044239461 2343:0.55425304 2346:1.6877239 2350:1.9746597 2353:3.1516039 2358:1.129964 2360:4.7729673 2361:1.7865887 2362:0.82328737 2372:0.27223772 2389:1.9967973 2390:0.58898461 2395:3.6764436 2401:1.2535994 2402:1.8968034 2405:0.49305204 2417:2.9627662 2418:0.83188319 2419:0.9461211 2421:0.57787889 2425:0.77600521 2431:0.73469675 2433:4.4622378 2434:2.7644897 2435:3.8414607 2438:2.1184452 2440:0.63605785 2441:3.144973 2456:2.0302472 2457:1.6302636 2459:1.5731268 2463:1.7327619 2464:1.131718 2466:0.65112144 2467:1.5460615 2468:0.69188333 2484:1.9096949 2485:3.355685 2487:1.180576 2490:1.2914293 2491:1.3611772 2504:0.91140097 2505:1.9573934 2506:1.3040388 2508:2.0981836 2509:2.5798705 2514:3.1928086 2515:0.51659143 2521:0.12114434 2523:0.80346751 2525:2.3629408 2526:1.5731119 2527:2.3646102 2528:0.23781158 2529:0.63078088 2530:0.91955024 2532:2.3104491 2534:0.091902554 2536:1.091368 2537:0.073857635 2541:2.4507372 2561:0.42641401 2563:0.41044796 2568:0.52859068 2571:0.65993083 2573:0.4761225 2577:1.2373188 2582:1.0188147 2594:2.5440321 2595:1.2394159 2601:1.9093289 2603:1.0425305 2604:2.2983224 2610:1.0611109 2611:1.4468946 2617:2.6236212 2621:3.0831096 2629:1.0302186 2630:0.71062654 2632:1.0629141 2634:1.4879502 2635:0.7755937 2636:1.458045 2638:0.089814961 2639:1.5741941 2651:0.39137584 2659:0.074364386 2660:2.0638406 2669:2.1523855 2673:0.20086761 2675:0.15285502 2680:0.56309509 2684:0.4062936 2687:3.8059487 2689:3.2251329 2692:0.061416477 2694:0.36320567 2697:2.1189406 2698:2.0656178 2706:0.13225433 2710:0.087480694 2711:0.45090163 2712:0.48180199 2714:1.7692609 2715:3.6189167 2718:0.046589978 2720:3.1224771 2723:2.5390234 2728:0.51600218 2729:0.88650644 2732:0.19679093 2733:0.28991267 2738:0.9253006 2739:0.18392736 2740:1.683717 2741:0.31947774 2745:0.15342249 2747:0.49424219 2750:3.7782238 2754:2.0861921 2756:2.0609498 2760:3.2303827 2761:1.1635463 2763:0.58165264 2766:4.461256 2773:0.630077 2774:3.7813079 2775:0.34873831 2785:0.38176522 2786:4.759819 2787:0.10269275 2788:2.1542516 2790:0.91323918 2793:0.77084392 2799:1.1235528 2817:2.812474 2818:0.78283459 2821:0.44706085 2829:0.58869708 2835:0.1996353 2844:4.2296343 2848:2.5596328 2860:3.3368771 2865:1.9335179 2866:3.0282137 2869:1.949544 2871:0.36179009 2873:2.1015866 2882:1.5684675 2883:0.50252801 2887:0.79907161 2891:2.1054285 2894:1.1200635 2895:1.2888618 2896:0.026398331 2907:0.74819112 2910:2.2630455 2911:1.8560024 2916:0.035877675 2917:1.0171787 2919:5.6637917 2932:2.0144997 2933:0.59214759 2939:0.1197705 2944:3.863363 2947:5.4449797 2950:4.8701286 2951:0.17009869 2952:1.0612051 2953:2.7900748 2956:2.8317263 2963:1.3160862 2973:1.278383 2977:2.2080965 2978:0.023725182 2979:0.62434673 2985:0.53970861 2987:0.03243525 2991:2.9921372 3003:0.36662281 3012:3.2157741 3013:2.0388844 3019:0.75346678 3021:2.273195 3022:0.93178856 3024:0.38567564 3033:3.1754491 3034:2.5542819 3036:2.1548371 3037:1.4451567 3052:0.17377353 3057:1.324216 3060:4.6286716 3065:0.37504345 3067:2.244566 3072:0.39999285 3077:1.5375559 3085:1.188985 3089:2.1355128 3093:0.22880161 3094:1.8548894 3099:0.16932094 3105:0.23389702 3117:4.2541666 3118:2.7932291 3119:0.90610909 3120:0.38495666 3122:1.3258206 3124:1.3245867 3127:2.3593419 3128:1.6366056 3129:1.1342573 3139:1.4655205 3144:0.4727245 3148:0.40151107 3149:1.0084701 3150:2.3525712 3152:1.8530686 3155:2.2762957 3161:1.373688 3163:0.60992575 3178:4.5003581 3187:1.7264754 3189:0.2798408 3195:3.8003879 3196:0.47165206 3197:2.6949887 3199:1.0816584 3200:2.4554243 3206:0.61965692 3207:0.20007977 3213:0.43334258 3224:1.6616079 3231:0.7763288 3232:0.78750098 3236:0.5286597 3246:0.33307916 3247:1.9707559 3255:1.0204242 3256:1.3082881 3257:0.8456254 3258:1.6900134 3267:2.7995026 3275:5.1114864 3276:1.2527989 3285:2.1029909 3286:0.85389686 3289:4.4524274 3295:0.59124017 3297:0.73040062 3299:0.098976165 3302:1.9667994 3303:0.7584722 3306:2.3327401 3309:1.8965616 3310:0.87950563 3313:0.068246245 3315:0.8890987 3316:0.099007487 3317:1.7421988 3319:1.5999961 3321:3.1135507 3324:0.062850237 3327:2.7762549 3334:2.1599667 3346:1.1266303 3349:1.1710508 3354:3.902777 3356:1.1367173 3357:0.46691829 3360:0.061642766 3363:1.7291262 3365:2.1973166 3367:1.6440381 3376:0.0031109452 3377:4.3579464 3378:2.3295901 3380:0.15193427 3396:0.28641099 3402:5.3635821 3403:2.0660851 3405:1.9983754 3407:0.69362283 3409:0.97866082 3410:0.23732489 3413:4.9026451 3417:4.179388 3423:1.4074785 3428:1.3173926 3446:0.019969106 3447:3.275666 3453:1.5599236 3455:0.7928437 3456:1.7332518 3465:0.52428913 3472:0.31718713 3473:6.0000882 3476:0.33402383 3478:1.48955 3482:2.7337706 3485:1.5194999 3488:0.47921285 3489:3.0586214 3490:2.5233109 3491:0.134372 3492:1.2397405 3493:1.3755765 3494:0.54152977 3495:2.2666183 3501:1.8119925 3503:2.3919811 3504:1.9970661 3507:0.79240286 3515:0.89901739 3520:2.361438 3521:2.8145673 3535:1.3886957 3537:0.013227463 3539:2.0066676 3540:3.1997848 3541:0.19590268 3543:2.6093283 3544:0.35957828 3545:2.954236 3546:0.10006025 3548:0.13226268 3552:1.0578104 3554:2.4905779 3556:3.3639102 3560:3.2247863 3564:1.2826295 3569:0.32901445 3576:0.68999624 3578:1.361726 3580:4.7408924 3586:3.3155065 3588:0.19317639 3597:1.0854157 3599:0.49550581 3601:0.2454616 3607:1.1063834 3612:3.1807735 3615:1.0887012 3616:2.6386759 3621:1.7063577 3626:0.18605055 3630:1.7843444 3631:0.17965025 3634:1.116722 3638:3.3262887 3640:1.3503444 3642:0.69420946 3645:0.8209976 3649:2.9784167 3651:3.0435715 3661:0.800174 3663:1.7717133 3665:0.65003765 3666:2.0681059 3671:1.3575881 3672:2.6269581 3679:1.1818409 3680:0.41034782 3682:2.6255944 3686:0.26553306 3691:2.91608 3692:3.4464943 3699:0.35075223 3705:0.24735945 3707:0.77846491 3722:0.176606 3724:0.73246861 3727:0.16591659 3736:0.075981751 3737:2.3651049 3738:0.048210591 3744:0.4678832 3748:0.84289724 3749:0.57867104 3751:2.025317 3752:0.33567768 3753:3.0333076 3756:1.3890529 3758:3.8151588 3761:0.63755441 3763:2.2865028 3766:1.7532715 3769:1.8351667 3774:0.56348425 3775:1.0496457 3776:0.47445732 3777:0.12456512 3778:1.0202775 3782:2.0856636 3797:6.186656 3807:0.29590863 3808:1.6416132 3813:1.6528385 3814:0.95649064 3818:4.9633174 3819:1.2113452 3822:0.77744746 3823:1.1256555 3824:0.21941529 3825:1.6571606 3832:0.619151 3848:2.216701 3859:0.30471581 3860:2.1884139 3861:0.45470244 3871:0.89746845 3872:0.8922143 3875:0.39259982 3877:0.98407423 3880:0.22188073 3887:0.64303112 3889:1.1427803 3893:1.3029547 3901:1.9807539 3913:1.3342507 3919:1.3393602 3923:2.4010086 3925:0.30159786 3933:0.74209976 3935:0.86417806 3940:0.10199684 3941:0.61608845 3942:0.6605221 3948:1.9384787 3952:0.18232192 3953:0.12064566 3955:0.25595304 3956:2.7914903 3957:3.7695935 3963:3.6537199 3968:3.5056298 3970:0.45942062 3973:1.5533552 3974:1.2640539 3978:4.6555195 3979:1.3324322 3981:0.57579976 3984:0.81381851 3985:1.47191 3995:2.1512408 4000:0.19835526 4004:1.9712625 4008:0.81334078 4010:1.7179545 4015:0.062810063 4016:3.986053 4018:0.066335142 4022:0.71111619 4027:1.6534044 4029:0.82397509 4032:0.37421039 4033:1.2093561 4036:1.4821839 4043:2.9751663 4044:0.44703126 4050:0.44304475 4054:0.024294376 4058:0.98137683 4059:1.2326906 4063:2.6771774 4064:0.99287069 4067:0.73061335 4068:1.687608 4073:1.0863457 4074:2.3179426 4075:3.3492994 4076:2.6676819 4078:1.7895533 4084:1.3890393 4090:0.93900919 4093:2.1406021 4095:0.038317367 4096:3.3199651 
0.9863659359859641 1:0.70022547 5:1.0788409 8:1.9653549 11:2.738817 14:1.2684115 15:0.39697811 16:2.1374974 19:0.48441461 20:1.5074241 21:0.28787687 33:1.2185085 35:1.5926216 40:0.77961314 43:0.26159379 47:0.86635721 48:2.8966646 54:1.7589402 56:0.22450504 58:1.7773614 60:2.240448 61:0.24405563 71:1.8558769 72:1.6419863 73:0.48581946 74:0.31672293 83:1.1105357 90:1.4707611 95:0.034117758 98:1.372915 103:0.35432824 104:0.013181418 108:1.3893322 115:1.7353709 123:4.0492358 125:1.5281852 129:0.16827679 130:2.7770934 131:0.88350558 135:0.38083261 143:3.4229076 147:2.1459103 150:0.59858221 155:3.2006419 156:1.1966194 157:1.8823546 163:1.6982107 164:0.80697393 166:1.9621654 172:1.1129103 175:0.31386837 188:2.077847 190:3.7266481 196:1.372013 197:0.26976484 199:4.6290474 200:1.1348196 204:0.98341858 205:2.586621 210:1.1574156 211:2.2154913 218:1.1419722 221:1.6809493 223:1.2398928 229:0.82812673 232:0.094528347 239:1.7008907 240:1.7948767 244:2.1109703 247:0.0053359717 255:0.45323586 258:3.6938257 262:1.6601098 263:2.5046687 267:3.2947474 269:0.78317189 271:0.001861155 276:0.17008543 282:1.0204383 283:0.020404488 284:0.31584656 288:1.6498777 290:0.32840398 292:0.51100838 296:2.0527813 299:0.77616322 306:0.7198661 307:0.84582114 317:1.101195 325:0.71005285 333:2.0958698 338:0.64688629 340:1.527432 342:5.0561805 347:3.0302618 349:0.23308381 350:1.940045 351:0.85097057 365:1.9046223 366:1.8945442 371:0.66801226 372:2.5931869 373:2.1522288 379:1.1637282 382:0.78852344 385:0.47056702 388:1.531317 389:0.8513841 391:1.5533497 394:0.78276408 400:1.2078563 409:0.76828372 425:0.47866374 427:1.1975696 430:0.0044748783 432:3.337595 439:0.54008198 442:1.8495942 444:3.1988246 446:0.98184383 449:2.0560946 455:0.69367301 460:0.99720156 461:2.9474919 463:0.28836626 464:0.92708969 466:0.34304583 468:0.33591828 469:2.3333108 479:0.66211092 484:0.24760526 485:0.193533 490:2.1643519 491:0.57274079 493:0.47535574 494:0.36053023 495:0.46898475 498:1.4761529 499:2.6872673 500:1.6740241 504:2.6329255 505:0.45284274 507:0.058744699 520:1.6159093 533:1.6992588 534:0.41061574 536:1.8445767 540:1.8664869 554:1.0419492 556:0.65651691 561:0.47923443 562:0.065421462 565:3.5845273 566:2.1439011 575:0.95542097 578:0.92444009 579:0.80471861 583:2.751092 586:1.5206033 590:0.71961492 592:1.2981428 594:0.073986441 604:1.8199532 608:0.53487444 609:0.41382897 612:0.051304922 614:0.153998 615:0.37645099 616:2.1589899 617:1.1518632 619:0.31199223 629:0.35841551 630:0.18910921 635:3.6560061 638:1.5024817 639:0.19606468 648:0.043838441 651:1.3897699 659:0.93084806 660:0.56525069 661:1.1834186 662:2.2015197 664:0.2567254 671:0.15715973 674:0.078452587 677:0.37075415 682:0.84813577 684:4.2310772 687:0.037780181 692:0.78782427 694:0.67054653 697:0.49948746 698:1.3709915 699:0.92464626 703:1.7275467 704:0.96649456 705:3.5143723 706:3.9661427 713:1.2227196 723:1.2613556 724:2.9165521 725:0.83933294 728:0.5748632 731:0.24393794 735:0.71080381 737:1.0741082 738:0.22864923 740:2.1839097 747:0.47721341 751:3.0461028 752:1.1254148 757:2.3576064 759:0.31551787 772:0.74578035 774:0.77952957 775:2.0330293 776:1.0077984 777:0.35381222 778:3.3230915 780:3.0244553 782:3.2806649 785:1.3208245 789:2.1675625 791:0.59912694 794:2.414432 795:0.96779859 796:0.17313454 797:0.47637635 798:1.1945518 799:1.429415 802:1.1426411 804:0.42116404 805:1.3170744 807:1.1946605 813:1.3993198 816:0.23519734 819:0.18440276 820:1.1114471 827:1.1555436 831:3.0591908 838:0.011163056 848:0.55949855 849:2.4129238 851:0.46777976 853:1.7331229 856:0.049975008 857:0.21796981 865:3.0682001 866:0.76770961 867:2.2616599 868:0.23794375 871:0.10983992 872:0.31163475 879:0.43179485 882:0.033806369 884:1.078699 886:0.31164545 891:0.77261698 895:2.2723186 902:0.67971861 904:0.51068926 908:1.4448953 909:1.787631 913:3.1236529 915:2.5090575 919:2.9935377 921:1.9399899 922:1.6494384 923:0.28362018 924:1.3404251 926:0.61246204 928:1.1451228 934:0.072362103 937:0.66465342 938:2.1421275 940:0.58056265 942:0.1586374 945:2.6733439 951:0.12428576 952:1.4360819 954:2.9056926 960:0.42224592 963:0.22330691 965:0.20085323 966:1.3819647 969:1.0253119 972:0.8795864 974:1.3450382 975:0.24406715 989:1.5373893 991:2.7274861 996:3.5959496 999:2.5840812 1001:4.295423 1004:1.9309862 1009:1.6829433 1010:0.14658499 1014:1.7401778 1015:2.5768528 1016:0.43567252 1019:1.485842 1022:1.3584287 1024:0.47149545 1026:3.3805714 1027:2.5450807 1032:0.33489239 1038:0.46340656 1039:0.10594262 1042:2.2437594 1049:2.8012576 1053:0.74761206 1059:1.9120618 1061:0.63784224 1062:0.54153478 1070:1.7016363 1073:2.3659954 1076:0.54432994 1077:1.3440559 1080:0.12077659 1084:2.6069722 1094:0.00035817176 1095:0.0277614 1100:2.2373369 1110:1.0226339 1111:1.2183831 1118:3.5259292 1121:2.2180252 1122:2.3192322 1125:1.6470969 1128:1.8758405 1129:0.1113793 1133:0.48915416 1135:0.16628864 1137:1.429734 1139:1.1602604 1140:1.2861321 1147:1.5404098 1152:1.1712947 1153:0.87488139 1155:0.13882121 1158:2.2170618 1159:0.34473032 1160:1.8010885 1163:0.24506694 1181:2.0183747 1188:2.7322333 1191:0.038217604 1193:0.88515878 1194:1.7586948 1197:0.17703426 1198:1.4447922 1199:1.4518163 1204:0.82823157 1206:3.1253142 1217:2.5436697 1221:4.1485267 1228:3.0717521 1229:0.23571742 1234:1.3353441 1240:1.8041855 1242:0.8593992 1243:1.6576238 1248:0.49342018 1249:3.4613545 1250:0.80751526 1257:0.10774861 1258:0.33022606 1264:0.38047916 1267:0.12940051 1274:0.13567685 1279:2.8391488 1280:1.3012018 1281:1.9299701 1285:1.8288283 1290:0.43100527 1291:3.1396141 1293:0.30980805 1295:0.36961901 1298:3.6987414 1302:1.0362148 1303:0.021746039 1307:0.24433413 1309:1.7375773 1313:1.8057845 1314:0.072418869 1317:2.1256366 1319:2.7219276 1321:0.84660643 1327:0.091335535 1329:2.964479 1332:1.1610659 1333:1.8365638 1335:1.9219096 1336:0.43429226 1338:2.1022162 1340:5.3797388 1342:0.22292231 1343:0.1583795 1344:0.22469731 1349:0.27244058 1352:1.763745 1353:0.32145303 1356:1.6011493 1357:4.6146908 1359:2.1617362 1366:0.3688429 1368:1.6660011 1372:2.3594086 1373:1.7565649 1376:1.2624197 1377:2.6427896 1383:1.4907925 1385:3.6467657 1387:0.3111369 1393:3.2079949 1394:2.4641786 1402:0.21001038 1404:0.75852656 1405:0.75296956 1406:3.5099018 1408:0.97952473 1409:0.30178279 1411:1.944842 1412:0.33363837 1413:3.165107 1418:0.3039293 1421:0.047523946 1423:0.4880718 1425:2.2749879 1426:2.0617261 1428:0.82829392 1430:0.97077352 1433:1.2422189 1442:1.2655637 1444:0.16495168 1445:5.8442941 1460:1.1051085 1462:0.06691736 1463:0.13058075 1465:0.51981777 1467:0.68966979 1469:1.391974 1471:0.5847429 1472:1.4135948 1476:0.43882495 1478:0.095387131 1482:1.1624449 1485:1.3817931 1486:1.0124482 1487:2.1911733 1495:0.40508011 1496:0.385129 1497:0.30768073 1517:2.8495884 1519:1.6477457 1521:0.14217141 1523:0.58872157 1528:2.5248785 1529:0.12013145 1541:1.6777434 1544:0.39260882 1547:0.76276374 1548:1.627823 1551:2.6023026 1555:0.61651659 1556:1.9368635 1557:0.062226564 1558:0.44551781 1573:2.28459 1574:2.16552 1576:1.1839147 1583:0.29195783 1587:0.51398265 1588:0.50730336 1596:0.64208567 1597:0.11079457 1598:1.661842 1600:0.60810149 1604:0.33006182 1606:0.22252864 1609:0.36485803 1617:0.65957421 1618:2.9947991 1620:1.960618 1623:1.1432425 1625:1.6755266 1626:1.8855677 1629:0.42058656 1633:1.1333663 1637:0.29242471 1647:4.6636877 1652:1.1730226 1654:1.9043734 1655:1.5333753 1657:3.0494606 1665:0.52398676 1675:0.85059625 1676:0.25635955 1677:0.98904294 1680:1.0922673 1681:0.44366443 1687:0.13746485 1698:0.11133981 1701:0.67153805 1702:0.74002898 1705:0.4502598 1707:1.1709731 1711:3.1038117 1713:0.44759789 1714:0.22399639 1720:2.9431784 1726:2.5215559 1727:1.2252223 1730:2.9709904 1740:0.59107727 1742:1.0075721 1746:2.5625405 1749:2.6431112 1753:0.42332539 1756:2.3861313 1759:1.1883973 1762:1.5992947 1767:0.39609587 1772:0.82868242 1773:3.0716133 1774:0.12157514 1775:1.4924982 1777:2.6260917 1778:2.2592709 1779:1.9505012 1780:0.5932951 1781:2.0181296 1783:0.94382346 1786:3.7087297 1789:0.20068014 1792:0.60716164 1793:3.8311272 1795:3.6844826 1798:0.49315077 1799:1.4321989 1804:0.91756755 1805:0.74899846 1807:0.90731019 1817:0.15978989 1819:0.45393357 1821:1.8586431 1823:1.4564273 1824:0.18160036 1826:1.9822423 1831:1.1730599 1833:1.5178071 1840:0.17284688 1848:4.3664083 1850:1.0225534 1852:2.4717512 1855:0.62795609 1858:0.5127517 1882:2.6251473 1887:0.015479624 1888:1.2454178 1890:0.69883573 1893:1.0766423 1897:5.557138 1900:1.0161698 1901:1.4898207 1904:1.6094233 1906:0.13128805 1908:1.0887452 1911:1.3828174 1912:0.85525638 1915:0.12258269 1918:1.3838241 1920:0.98120511 1921:1.0308349 1922:1.794107 1936:0.25290942 1937:0.27183318 1943:0.38086843 1948:0.19103178 1953:1.3900439 1958:0.013272911 1960:1.6712534 1965:0.060375765 1968:1.119897 1969:0.90095669 1975:3.6782904 1976:1.1950639 1977:3.2241969 1978:0.17283435 1986:0.017628103 1992:0.082821429 1993:0.0057034045 1996:0.41909832 1997:0.3821097 1998:0.76122296 2001:0.16688624 2002:3.5766444 2012:1.3064051 2015:1.9338304 2017:1.3515139 2019:0.34909064 2021:0.39532095 2024:1.2828484 2027:0.35181409 2029:0.073736727 2033:0.19382405 2034:1.150225 2036:0.68490911 2038:2.0891166 2042:1.014819 2043:2.7291293 2049:0.047289062 2051:0.70487392 2054:1.3799417 2055:3.1605456 2059:1.5333143 2062:0.65998966 2063:1.1644348 2064:0.12971267 2079:2.5620122 2084:3.8554609 2088:2.0073884 2097:2.4799571 2101:0.83703214 2102:1.0933427 2104:0.15574005 2107:4.6311812 2110:0.23055264 2121:1.7599938 2129:0.5829702 2130:0.16614184 2140:0.89785051 2142:0.98595053 2144:1.0993032 2145:2.2797713 2149:0.099365234 2152:0.85793602 2154:3.1332083 2162:0.0068712234 2167:1.2739193 2169:0.62128949 2170:0.74183518 2180:1.2429137 2183:0.021673739 2184:0.62051654 2187:2.5379119 2188:4.0769191 2198:2.4699087 2204:0.9323197 2205:0.74705589 2210:1.2293499 2215:0.40860549 2220:0.46527514 2221:0.77635747 2223:1.3627001 2224:2.2988055 2226:0.83171952 2227:0.14323795 2229:1.9322864 2231:2.0770655 2235:0.27065632 2242:0.15847652 2246:0.0111835 2247:0.12404555 2255:1.6730604 2257:3.4108984 2266:0.18597609 2267:2.9080629 2271:0.18899849 2276:0.69736111 2277:2.4968824 2281:1.1472189 2283:1.223218 2284:0.49758613 2285:0.32567394 2293:0.25211886 2298:0.43774498 2303:1.9217199 2313:0.73552018 2320:2.8725221 2321:0.78057218 2322:2.3384728 2327:1.510222 2330:0.88769847 2333:0.27126288 2334:0.77928299 2346:1.5746764 2347:0.40530574 2349:0.32470727 2350:2.5906787 2353:3.5490034 2355:2.5680747 2358:0.22738791 2360:3.6917169 2361:3.0052502 2363:0.37528157 2377:0.26273119 2378:0.20071656 2386:0.15820602 2388:0.11364651 2389:0.55952811 2390:0.26339278 2393:0.29856536 2395:2.0620689 2401:1.2879295 2411:0.67813104 2415:0.35855979 2417:0.55554962 2419:0.32107592 2421:0.46570194 2425:1.707368 2426:1.6418163 2431:0.62212074 2433:2.5506451 2434:2.7804041 2435:1.6563447 2438:0.81291717 2439:0.40529037 2441:2.7508562 2442:0.7264303 2446:0.54801017 2455:0.36440036 2456:1.3471668 2459:0.93564105 2463:1.9197078 2466:0.91831535 2467:0.92154408 2468:0.62970775 2483:0.14074647 2485:3.5899029 2487:1.1850394 2490:1.9711778 2491:1.7356741 2495:1.9978051 2505:1.7494116 2506:1.7855601 2508:2.4344578 2509:0.73414183 2514:2.624752 2520:0.73622119 2521:0.19059242 2525:2.5418386 2526:0.082065493 2527:1.9779971 2528:2.0395155 2532:3.253588 2534:2.0985618 2537:0.43042257 2541:2.3405602 2573:0.5324735 2577:1.0223706 2582:2.2636125 2588:0.3117342 2594:1.7186322 2595:1.4188492 2601:0.10166049 2603:0.21299434 2604:2.6069298 2607:0.55643243 2610:0.22523147 2617:1.8193138 2618:0.87419665 2619:0.81612134 2621:1.9063714 2623:0.088903606 2629:0.84772182 2632:1.9106709 2634:0.70372558 2636:2.7015295 2638:1.3290362 2639:1.3865476 2645:0.18558505 2651:0.35469383 2656:0.072641462 2660:2.0216379 2662:0.057931677 2669:1.6031994 2676:0.53440183 2684:0.42089334 2687:3.039866 2688:0.65973735 2689:5.6969538 2691:0.45087087 2692:0.7264061 2697:3.1979227 2698:0.88079965 2710:1.4423125 2711:0.59595305 2712:1.6459674 2714:0.26440603 2715:1.8860552 2720:3.5187631 2723:0.3271656 2727:0.29578233 2733:0.28349584 2739:0.57756233 2740:1.3581793 2747:0.90107048 2750:4.1159458 2751:0.37231174 2754:1.743318 2756:2.7730241 2760:0.95854932 2761:1.4102336 2766:2.2870982 2767:0.15251903 2774:2.2387323 2778:0.317498 2785:0.397416 2786:3.0144382 2788:0.71553731 2792:0.047244333 2799:1.0801504 2800:0.46938929 2811:0.38610107 2817:3.2039244 2818:0.060274884 2820:0.88646436 2826:1.8192415 2834:1.6579231 2835:0.58089507 2840:0.58835548 2844:3.47263 2848:1.8857938 2849:0.21588902 2852:0.53818929 2860:2.9476693 2865:2.8612633 2866:3.5363407 2869:1.5307109 2871:1.6162922 2873:0.92014468 2875:1.2245448 2878:0.24165231 2882:0.57933992 2885:1.1606643 2887:0.79914963 2891:2.4620612 2893:0.23213886 2894:0.2818228 2895:0.64049411 2898:0.88206011 2903:0.28127009 2910:1.0443476 2911:2.9292359 2917:0.88276714 2919:2.4269223 2921:1.951674 2932:1.9606338 2933:1.7494702 2939:0.65940356 2944:2.0037134 2946:0.36868593 2947:2.0750833 2950:2.3020389 2951:1.19177 2953:2.5206089 2959:0.22999737 2962:1.3210927 2970:0.035058431 2972:0.081949353 2977:0.83923304 2978:2.7070746 2979:1.2336237 2985:0.87677073 2986:0.23459162 3012:4.7919779 3013:1.45656 3015:2.2925208 3022:1.8171231 3024:0.81040347 3026:0.21042815 3033:0.6315645 3034:0.97774249 3036:1.3622217 3037:0.76235795 3039:1.2351649 3044:0.49828836 3050:0.36883861 3052:0.18867785 3057:0.92026788 3059:1.156244 3060:2.9968011 3067:2.2805905 3071:0.18316935 3074:1.3194442 3077:0.61414701 3085:2.2314882 3086:0.49115327 3089:2.7527237 3093:1.7459404 3094:0.68356293 3099:0.43253344 3101:0.33139768 3117:2.2254748 3118:3.3963566 3120:0.53773373 3122:1.2609773 3124:0.48038641 3125:0.23528916 3127:0.40053436 3129:2.9678006 3139:0.29809308 3144:1.9611073 3145:0.16774788 3149:1.718413 3152:3.0360854 3155:3.566462 3161:0.92564654 3178:2.2248251 3185:0.21479782 3192:0.42929459 3195:2.7155447 3197:1.2689118 3200:5.2855887 3206:0.44148427 3214:0.31530392 3224:0.37669265 3232:0.37656072 3238:0.078556925 3245:1.1841848 3247:0.057859421 3252:0.92059541 3256:1.6004573 3258:1.3116992 3267:1.7418567 3275:5.0384536 3276:0.99972183 3277:1.0303724 3278:0.26272902 3285:1.06626 3286:1.6545168 3289:3.0006275 3295:0.86596972 3297:0.82945091 3299:0.75930846 3302:0.908678 3306:3.1625166 3309:1.3280568 3310:0.59607875 3312:0.75613129 3313:0.29516086 3315:0.87268931 3317:0.72741073 3319:2.6059144 3321:3.2276835 3327:1.810442 3333:0.43661225 3344:0.76357687 3346:0.60875094 3348:0.34541008 3349:0.95478547 3354:0.5009805 3356:0.75833225 3357:1.3192391 3360:1.157854 3363:1.9990304 3365:1.9919133 3371:1.3843648 3372:0.54992151 3377:3.9817371 3378:0.94193846 3380:0.065719754 3392:1.7662022 3396:0.5140776 3400:1.2422003 3402:3.8292394 3403:1.6145244 3407:0.54699433 3413:3.9843528 3415:0.13857523 3417:3.8212714 3423:1.934922 3428:1.8489583 3447:1.7013431 3453:2.5947056 3455:0.26638982 3456:0.025247835 3457:1.1587077 3465:0.56369305 3471:0.47082868 3473:3.0770085 3475:0.5819546 3478:1.328823 3482:2.4479659 3484:1.1337469 3489:1.3584572 3490:0.86142516 3492:1.5531094 3495:1.205426 3498:0.50443012 3502:2.010601 3503:3.5264182 3504:3.4675403 3505:2.6282172 3507:0.65770757 3508:0.26495767 3509:0.66247952 3512:0.94137061 3515:0.48952848 3520:1.3832668 3529:1.4161836 3537:0.73059046 3539:0.37080973 3540:2.3106716 3541:0.074707925 3544:1.0357096 3545:0.72592908 3547:0.23991314 3548:0.91411567 3554:3.3908281 3556:3.9418569 3560:1.4565688 3576:0.080071226 3578:0.87184942 3580:2.2446556 3582:0.09806478 3586:2.1419096 3594:1.6238531 3595:1.2652584 3597:1.9070766 3601:0.50535566 3607:2.4938784 3608:0.74605215 3612:2.6436193 3615:0.97786808 3616:0.30279213 3626:0.81230003 3630:2.4068763 3631:1.1903403 3634:0.041984916 3638:0.10586879 3640:1.0409234 3642:0.72489148 3644:1.0433758 3648:1.2471529 3649:2.7967837 3650:0.52618402 3651:2.3926485 3654:0.60822135 3658:0.47918633 3661:0.45796046 3666:1.4243932 3669:0.4990665 3671:2.0128367 3672:1.8686407 3679:1.3731157 3682:0.71756566 3691:0.99830264 3692:2.4945326 3693:0.70082414 3699:2.4552932 3703:0.66929549 3704:0.52959013 3707:0.65395725 3710:0.73139143 3719:0.70545101 3723:0.088013589 3724:1.7541158 3727:2.4479167 3736:0.5822491 3737:3.3078387 3738:0.38811466 3740:0.035513759 3741:0.69374514 3744:2.2674036 3748:0.42944145 3749:0.055942953 3751:0.60205829 3753:2.9648104 3756:2.8880234 3758:2.1868834 3761:1.1349072 3769:2.8812704 3771:0.59288675 3775:0.61322212 3782:0.72415829 3789:1.1483485 3793:0.90687954 3797:4.9910102 3798:0.56989658 3807:0.60865372 3808:1.462664 3811:0.7652154 3813:1.3615019 3814:1.4949961 3818:3.241101 3819:0.87472415 3823:1.3746258 3824:0.34257114 3825:0.51379406 3840:0.2508128 3845:0.92269158 3846:0.28148299 3848:1.293364 3851:1.0307252 3857:0.88956439 3859:0.40757447 3860:2.827214 3861:1.6286081 3862:0.07258831 3866:0.1069085 3871:0.77004206 3876:0.66137576 3877:0.12933688 3886:0.34143093 3887:1.1729937 3889:3.0931673 3893:0.24663731 3897:0.52394134 3901:1.0450494 3913:0.28398693 3919:0.84262067 3923:0.95870662 3925:0.1626761 3933:1.4773583 3935:0.021756351 3936:0.98813653 3938:0.55741048 3942:1.1100825 3948:0.034728348 3957:1.6469306 3963:4.2220178 3968:1.5957744 3970:0.078710541 3973:0.41214088 3974:0.49835992 3978:2.9486001 3979:3.0710554 3981:2.3878608 3982:0.35096878 3985:1.8958271 3995:2.9801664 4000:0.9384886 4004:0.80642545 4008:3.5349207 4015:1.0858248 4016:2.5718498 4018:0.15077418 4024:0.27149078 4031:2.8443108 4032:0.93683779 4033:0.10654534 4036:0.87759233 4038:0.53235948 4041:0.72346961 4043:3.3010387 4044:0.52405077 4047:1.1094669 4055:0.64464426 4058:1.3693769 4059:2.0437829 4063:1.7400216 4064:1.4088042 4067:0.67421812 4068:0.46355501 4073:0.34372541 4074:1.1705446 4075:1.0184075 4076:0.66257298 4077:1.7040905 4078:0.36466914 4084:0.66340595 4085:1.5758514 4090:1.0603945 4093:1.4023626 4094:0.97083902 4096:3.4714553 
0.3559624771188924 1:1.7671874 11:2.2332187 14:1.7678699 16:3.4566419 19:0.58807242 20:0.19339275 21:0.036337361 27:1.23129 29:3.1188462 33:1.5764406 35:0.98693734 37:0.10943097 45:0.56078267 54:1.4547799 56:0.2482342 57:2.4342687 58:1.0376809 60:1.2002094 61:1.0158317 71:0.89117903 72:2.3541617 83:1.3974936 90:1.76389 93:2.5009434 94:0.25419003 98:0.41458687 104:1.0345745 115:1.6183748 118:1.1846608 123:3.8323033 125:2.519592 127:0.51004803 130:1.5423905 138:0.63255006 141:1.1935276 143:3.3127983 148:2.4791818 155:3.1134818 156:1.1585803 157:0.80375969 166:3.6005888 176:0.58207136 188:2.1840844 190:2.3747087 192:0.27952096 197:0.11532412 199:2.9665222 200:0.55224752 210:1.6385431 211:2.3523066 221:2.5476372 223:2.065814 229:1.2489867 232:1.6365709 234:0.099917263 239:2.079684 240:1.3501583 244:4.6879301 245:2.36446 247:3.929404 254:0.098057747 258:4.3101649 262:3.876116 263:5.0627046 267:2.5740161 275:0.19445071 279:0.67376989 283:1.2303748 287:0.29118016 288:2.0343153 292:1.7398014 296:0.93384933 299:1.1773744 301:2.7025716 306:3.5824919 307:0.1444678 308:0.12610245 313:0.1472047 317:0.48207176 318:1.2706201 320:1.1809378 325:2.099894 338:3.0589688 340:0.64266026 342:5.2405901 347:3.1077785 350:2.3663008 355:0.025704056 359:0.05071684 360:2.133842 371:1.2667692 372:2.0888188 373:1.3221353 379:5.2521143 385:0.31766424 386:0.13262814 388:0.025903165 389:2.7652011 391:0.051242054 394:0.52157199 400:1.6759164 409:0.91233957 412:1.3425795 416:2.035249 417:0.20583799 425:0.37485704 427:0.11269009 432:2.4818592 442:3.9008803 444:1.8716215 446:0.49000058 449:3.316349 450:1.3190041 452:0.64543569 454:2.3628526 455:1.2196503 460:1.1047894 461:0.63833755 462:0.088190734 468:0.46361467 469:0.7005595 474:0.39958686 479:0.42777571 484:0.36557499 495:1.5050244 500:2.5272732 504:1.1473033 505:1.916774 507:1.5566969 518:1.7244166 520:1.1202873 530:0.64211619 533:1.3271124 536:1.5471958 537:0.66006482 548:1.0320303 552:0.0095390677 554:0.56866211 555:0.80915248 562:3.1885686 565:1.1910654 566:1.6575347 575:0.57009161 578:0.6413306 579:1.3287075 581:1.8194928 583:0.12081179 586:1.6919625 589:0.51976144 602:1.6365511 603:1.5902436 604:0.90432048 615:0.039182365 616:2.3224905 619:1.0276766 629:1.000802 635:4.295011 637:1.9325336 638:1.8594053 648:1.0157557 659:4.9465241 660:1.8345566 662:0.99267089 666:0.38589281 670:0.19068033 675:1.5240724 682:1.3591735 684:6.2575808 686:0.42837366 697:0.74819565 698:0.7608521 699:0.19672194 703:0.55464053 704:0.16604412 705:2.9829965 706:1.9237694 710:0.28383201 713:0.46478611 717:0.021496028 724:0.87449408 727:2.1199946 728:4.2550793 735:3.6879754 738:2.7031479 740:2.0458324 741:0.6984396 747:2.0787466 750:0.41227496 751:0.47124776 752:0.87659347 757:1.0814533 759:2.3207488 774:0.16378848 775:2.7779748 776:1.8430672 778:3.1858892 780:1.7606888 782:2.4247308 785:1.77661 786:0.13917413 787:0.14033182 789:2.4187264 796:2.7874186 797:1.106699 799:0.80888915 802:2.7380235 807:1.4008133 813:0.89300358 816:1.2240239 820:0.0019271076 827:0.14954157 831:1.7074686 836:0.054417014 839:1.1505108 840:0.26954561 845:0.90373981 848:1.0069017 849:4.8142691 853:0.91961443 857:2.2083936 865:0.55905509 866:0.051702321 867:4.1457844 868:0.67186618 870:0.064816684 878:3.047051 879:0.58851099 882:0.79775763 891:0.91812819 895:2.715945 904:0.42351621 909:0.4784202 912:0.31263697 913:1.5403121 919:2.3280549 921:0.71735018 923:0.54244494 938:1.0468102 940:2.6284339 942:0.77298313 945:2.8525479 952:1.6831673 954:2.2390029 955:1.004244 960:1.4975028 963:2.0763044 966:2.197866 967:1.0830898 969:0.21783644 971:2.5558689 974:2.6972859 976:0.019426227 983:0.54147679 990:2.0238314 991:4.3280344 996:1.1413286 997:0.25013685 999:1.7969265 1001:6.042954 1004:1.4003657 1009:1.6145098 1010:0.82103419 1014:1.6579899 1015:0.62952948 1016:5.4942174 1019:0.095097423 1024:1.0454656 1026:0.86913753 1032:0.55143809 1042:3.1135912 1049:1.1511006 1053:2.2261188 1059:0.22877416 1062:1.0277619 1063:0.10387087 1065:0.12536684 1076:0.2825349 1077:0.80396521 1078:1.7523291 1084:1.2960111 1094:1.7370673 1100:0.6736871 1102:0.31243142 1110:1.1762962 1111:1.4182154 1118:1.8258932 1121:0.31666186 1122:0.90465105 1129:0.89599192 1135:1.6400924 1137:3.9771905 1139:1.5731864 1143:1.0554546 1147:4.5630846 1155:0.91208827 1157:0.13458613 1158:1.9573102 1159:0.16045886 1163:0.24525228 1165:3.8524702 1178:0.0075178444 1180:1.6519735 1181:0.9552052 1184:0.21523708 1188:3.1908455 1189:1.7001806 1194:1.507664 1196:3.034246 1206:1.3198392 1209:0.0063482523 1216:1.0479825 1221:2.632462 1224:2.9010935 1228:1.69292 1229:0.46553019 1234:0.66763771 1235:0.72687238 1240:0.13279271 1242:0.86027837 1243:1.8285145 1248:0.11285037 1249:2.2704556 1257:0.75423336 1264:1.5347698 1267:2.0392609 1281:0.028886646 1291:0.77728349 1294:0.75868064 1295:0.95389861 1298:1.8601673 1302:3.0265536 1303:2.5890462 1305:0.70030159 1309:0.48893765 1313:0.48984277 1319:2.9085171 1327:0.69987822 1329:4.355689 1332:2.9576206 1333:0.067893147 1340:0.79976994 1344:2.0342512 1348:0.18187816 1349:0.4261919 1350:1.8494064 1352:5.5342994 1356:3.6224403 1357:5.6423879 1359:0.47250187 1368:2.283323 1372:2.6971798 1376:4.1352544 1377:3.7160356 1383:2.248878 1384:1.3548017 1385:3.8820224 1386:0.43660402 1393:0.79901153 1394:1.3457927 1401:2.7763 1405:0.63475358 1406:3.3329604 1408:0.94319421 1410:2.3516808 1411:1.5957271 1413:1.7800229 1418:0.083654925 1421:0.55473197 1423:2.3492775 1425:1.4912773 1426:2.0172918 1429:1.3477643 1431:1.1164103 1433:0.031130582 1442:0.28279644 1444:1.5311189 1450:0.51554847 1454:0.24075356 1456:2.1739669 1463:1.8412609 1465:0.78655326 1469:1.3921297 1472:0.48060754 1478:0.28865108 1479:2.1421273 1485:2.728313 1486:0.11790422 1487:1.2036608 1501:1.0561302 1510:2.8310242 1517:0.31890863 1519:2.1765487 1522:1.4231291 1528:0.4013474 1532:0.48129833 1541:0.17330027 1544:1.2507048 1547:0.68876147 1551:0.68907058 1556:1.4740602 1573:0.63665241 1574:1.922062 1587:2.0497191 1588:1.1441405 1595:0.96530092 1596:2.9195442 1598:1.6554236 1606:1.131613 1613:0.058330834 1614:0.46567836 1617:3.3709745 1618:3.4620647 1619:0.32674688 1623:0.41534823 1625:2.5493627 1626:1.2267122 1632:0.69000101 1633:0.72093141 1637:2.2185535 1645:0.93632954 1647:2.0669518 1652:1.8179672 1653:0.093779743 1654:1.5898304 1655:3.0721574 1657:3.3603683 1666:0.14586458 1676:0.30313674 1677:1.249161 1678:4.0741653 1680:1.0190672 1681:0.66339612 1685:0.28207055 1687:0.59658718 1701:1.7792553 1705:0.47929302 1706:3.2484829 1707:2.783988 1711:2.9967914 1716:1.6251187 1726:6.3300562 1730:0.84808284 1731:1.5525696 1742:5.205092 1756:2.2919667 1758:0.37536246 1759:1.4029596 1762:2.1599851 1764:0.059913829 1766:0.39071241 1773:1.7655255 1775:0.86803341 1777:2.713959 1778:2.3378947 1779:1.3972459 1786:0.59846067 1789:0.21050358 1792:1.2239397 1793:3.0662057 1795:1.773536 1798:0.34269488 1799:3.4313748 1802:0.45674449 1804:2.2029593 1807:1.594337 1819:0.89124823 1822:0.85297585 1823:0.87661332 1824:0.34650239 1826:2.3231356 1842:0.095998526 1848:1.0619562 1850:0.25782418 1852:3.9113524 1857:1.3004749 1858:0.95392865 1861:0.15611675 1865:1.8542469 1882:3.1165061 1884:0.64194459 1887:0.80322212 1888:2.5303073 1890:2.8117404 1896:1.6519569 1897:2.7238719 1900:1.0230154 1901:0.32981494 1904:0.078251466 1908:1.7334294 1912:3.8579631 1914:0.53446847 1918:2.1976166 1920:0.51492095 1936:0.14900458 1937:0.91838163 1948:0.60722661 1951:2.0590501 1953:0.91365135 1960:3.8712866 1968:0.4438678 1975:4.8007812 1978:0.6976859 1986:0.98854828 1995:0.0091056526 1997:0.79965818 2001:2.0488713 2002:2.5243423 2010:0.22649372 2011:0.30714494 2012:2.7327762 2015:0.83086491 2017:2.6916559 2019:0.1725173 2021:1.4699975 2027:3.7696662 2029:1.1495364 2030:0.077870548 2031:2.3589993 2032:0.28015462 2036:1.2168212 2038:1.5803825 2042:0.48888281 2043:1.5657824 2055:4.7252655 2059:1.5107754 2062:0.73374641 2066:1.1066763 2079:1.6480677 2082:1.3442359 2084:0.55803108 2088:0.37013546 2097:0.69478893 2101:0.54070652 2102:2.0936682 2104:1.2484033 2110:0.20897366 2115:0.031931907 2116:3.6885297 2121:0.56772786 2134:1.6967574 2136:0.62320548 2140:2.098541 2145:0.46009761 2149:0.66050708 2152:0.9963057 2154:1.3143616 2155:0.52671063 2159:0.848786 2162:0.020519435 2167:1.7224447 2170:1.3959529 2175:0.97242802 2184:1.7095582 2187:0.3455562 2188:3.6817129 2198:0.70557386 2199:1.6771078 2201:0.89090884 2203:0.18141088 2204:1.5149429 2211:2.0608797 2218:0.94850117 2223:0.082504407 2224:0.98785496 2226:0.50347257 2229:0.62006056 2231:3.4861922 2246:1.0205849 2255:0.43115351 2260:1.6249882 2266:1.7960894 2267:1.2749538 2271:1.3129225 2276:0.22461101 2281:1.6696516 2283:1.1938094 2293:2.4164259 2298:0.25116497 2303:2.6009266 2306:0.040398866 2311:2.3991313 2313:2.4513257 2315:0.10916612 2320:0.78177226 2322:1.1302834 2325:1.2145071 2327:2.7462399 2331:0.32905194 2346:0.11537346 2349:1.5265133 2353:1.3351943 2355:1.888754 2360:2.4152203 2361:1.7356021 2383:0.41027328 2386:1.394244 2388:2.4114828 2393:0.25552207 2397:0.64967775 2401:1.1447841 2406:0.150603 2415:0.1291241 2419:2.8914244 2425:3.8843813 2426:2.3229063 2429:2.2396774 2431:0.905357 2433:2.2664564 2434:1.7948456 2435:0.68620807 2437:0.13881093 2438:0.44413108 2441:2.3760631 2456:2.4907641 2457:0.037402749 2459:0.94445252 2463:2.5452681 2466:0.2665692 2467:0.71452427 2468:1.4006743 2471:1.2776289 2477:0.20763114 2485:4.2932005 2487:0.020731449 2490:1.6497972 2491:1.3722467 2497:0.90259546 2500:0.3750332 2503:0.69076115 2505:1.7780869 2508:0.61975485 2509:0.73664993 2510:0.070143163 2514:0.91310203 2521:1.3039241 2526:0.035968959 2527:4.5222359 2528:3.8704562 2532:2.9224465 2533:0.81874025 2534:1.4300196 2535:0.83300513 2539:1.7425778 2541:1.2775676 2547:0.81708694 2573:2.8855128 2580:2.7023714 2582:0.19355664 2600:0.25481045 2601:0.95528424 2603:0.51231551 2604:2.3500915 2610:1.0067118 2611:0.0070162117 2617:6.7093759 2621:2.5733652 2632:0.85796869 2635:0.50339097 2636:0.11262402 2638:2.5915098 2639:1.2386082 2652:1.2982963 2659:0.90946829 2662:1.057526 2667:1.0061411 2672:2.9408193 2687:2.3285742 2689:3.1752143 2691:2.1337056 2697:2.2376249 2704:0.99774563 2712:1.3132414 2715:2.2016921 2718:1.2496412 2719:2.349206 2720:6.689806 2723:1.6810368 2729:0.58400929 2733:1.2243 2739:1.1801591 2740:0.32146692 2750:0.63073689 2754:1.3412942 2756:3.3487544 2759:0.45710009 2760:0.33504695 2765:0.33912736 2766:2.577193 2767:0.68499959 2768:2.8889477 2769:0.10335627 2773:0.32271156 2778:0.73415715 2782:0.39785069 2785:0.39457753 2788:1.2983235 2792:1.3104261 2807:0.48212492 2811:0.77385223 2816:1.6954567 2817:1.2567179 2820:0.028493792 2826:0.9864735 2844:0.60230637 2848:1.1237746 2849:1.9100542 2860:1.4762458 2865:0.72716051 2866:1.5735965 2869:1.1446809 2878:0.99825609 2882:1.4266298 2885:1.1593993 2887:1.428056 2891:3.0751574 2894:0.24197641 2895:1.4349775 2902:2.782485 2903:1.1491008 2910:1.6195946 2917:1.4475133 2919:0.48914284 2932:0.1581319 2933:1.247772 2939:1.4767109 2940:0.22061193 2944:2.1657279 2947:3.5191517 2950:3.0944216 2953:3.1769919 2955:0.44637534 2961:0.60571206 2963:1.2732352 2968:0.2989803 2970:0.39475745 2971:0.15023611 2978:1.170651 2994:0.82405144 3002:1.4634449 3012:6.4160032 3013:3.5206685 3015:0.8705889 3018:0.49786869 3020:0.14712283 3022:3.4692118 3034:1.610641 3036:3.0673923 3046:1.1063898 3050:0.82473135 3052:0.64732766 3054:1.0347042 3059:0.018094003 3060:4.0653477 3067:3.0718918 3081:3.3700149 3083:1.22917 3084:1.4187832 3086:0.037481606 3091:0.5070371 3093:1.7817177 3101:0.26363873 3109:0.33748114 3111:0.55498719 3115:0.072829634 3117:4.2083931 3118:3.6798451 3120:3.4697185 3124:0.97544682 3133:1.8814818 3139:0.32909918 3144:2.7371318 3147:1.1700865 3150:0.14122841 3152:0.15015948 3157:1.4465541 3161:2.2325771 3164:0.54955995 3178:2.4096155 3179:0.08207044 3180:1.2543201 3187:0.99978751 3195:1.3662118 3196:0.83071148 3197:2.0666783 3200:1.8159288 3206:1.7943618 3207:0.72564387 3213:0.081545383 3225:1.0015895 3232:0.95978999 3245:0.69684541 3248:1.0231071 3256:1.7821157 3267:1.8705156 3268:0.27387151 3275:4.5560064 3276:0.10433853 3277:1.1297407 3285:1.2458084 3289:4.3350616 3295:0.27900583 3299:3.6465061 3302:0.62467372 3306:1.8393579 3309:2.5702281 3312:1.4542 3317:0.025409862 3318:0.22475727 3319:1.2341099 3324:0.31847006 3327:0.11705142 3333:0.20274219 3335:0.20218453 3344:3.2896442 3348:4.2920704 3349:1.0121824 3354:0.1644496 3363:1.1814896 3365:3.4883742 3367:1.3580737 3371:0.94335097 3377:4.418252 3378:2.3074818 3380:0.33462155 3396:1.2617131 3402:5.3832359 3403:3.422102 3409:0.37973294 3410:1.0298787 3412:1.2359917 3413:2.3506598 3417:0.94336128 3428:2.1641982 3447:0.44176522 3450:1.922384 3453:0.68043983 3455:0.41345334 3471:0.52952003 3473:3.3738165 3474:1.782091 3478:1.6259308 3480:0.36206105 3482:0.68348551 3484:4.6022859 3488:2.3950157 3489:1.0451144 3490:1.6319841 3491:0.048343778 3492:0.98838776 3495:2.9895308 3498:1.4444103 3500:0.92637748 3503:2.7855237 3504:2.9629583 3505:0.19408315 3508:2.5001748 3512:0.32236069 3516:0.97150731 3520:1.4571561 3525:0.63629484 3526:4.2329359 3544:0.5145666 3545:1.3456874 3548:1.0877982 3549:0.35085636 3554:2.4119849 3556:5.7674994 3557:0.17207494 3577:1.5290903 3580:1.6334789 3586:0.15045199 3588:0.98110807 3595:2.3972597 3597:0.8194679 3607:0.14649387 3608:1.4042463 3612:3.6166854 3615:0.48762295 3616:0.53428364 3622:0.92531669 3631:1.3419955 3640:0.3074134 3642:0.87907445 3644:0.54013163 3649:1.7284693 3650:0.66785473 3651:0.49877062 3653:4.4792776 3654:0.78825986 3661:0.43847451 3663:0.81245983 3665:2.1355267 3666:1.3679559 3669:2.1358654 3672:3.1448231 3691:3.3088222 3692:2.5108919 3693:4.0640445 3699:1.0844097 3704:1.5317963 3707:1.7944183 3715:1.1059258 3720:0.51216483 3724:1.1790969 3728:0.36732364 3736:1.9669245 3737:1.6547449 3739:0.9590106 3741:1.0187216 3744:0.57084322 3748:0.1206243 3751:0.064901024 3752:2.2318349 3753:2.2060614 3756:2.0923245 3759:1.2150028 3761:2.9126911 3766:0.65797853 3772:0.29801235 3774:0.40268648 3775:1.2939589 3782:2.3059444 3789:0.070577472 3793:0.69831836 3795:0.43501809 3797:4.0880113 3807:0.15396392 3808:2.8391461 3818:2.6362851 3819:0.35303426 3824:1.2760057 3825:3.531507 3836:1.4936497 3839:0.13434377 3845:3.7727618 3848:1.3852963 3859:3.6427023 3860:1.0069759 3861:0.73138523 3873:0.53564948 3877:0.20568165 3887:0.20901299 3888:1.1901631 3889:1.7596896 3891:0.072531492 3893:0.9298501 3895:2.0513127 3897:0.094037011 3900:0.15621722 3910:1.6267948 3913:2.4175088 3915:1.1458 3921:0.030114561 3923:1.3888121 3930:0.52331489 3933:3.0930641 3935:0.98763651 3936:0.66273427 3937:1.0531102 3938:1.5403764 3942:1.8770369 3952:2.7606788 3953:2.0748055 3957:2.660846 3963:2.3976095 3968:2.1963727 3970:1.2849008 3975:1.4882216 3976:0.83697772 3979:1.4265164 3980:1.893998 3982:0.40584421 3985:2.6976299 3998:0.49033499 4000:1.1037161 4001:1.3312911 4004:3.1925893 4011:0.4700934 4016:4.5567818 4017:0.498339 4018:1.2570729 4022:1.1885296 4024:0.59369874 4027:0.17988878 4036:3.1083677 4041:0.015526488 4044:0.21378252 4047:1.3437836 4059:1.176769 4063:2.845428 4067:0.34265393 4068:0.34935296 4069:2.0834432 4074:0.363677 4077:1.5441387 4085:1.4235473 4088:1.506283 4092:1.3183773 4093:2.5372989 4094:0.73620576 4096:0.67123079 
0.5938997677154627 1:2.8537734 3:0.14555144 8:0.91135323 9:1.4254802 12:0.065415084 15:1.0335374 16:2.6983938 18:1.0746684 19:2.19468 20:1.5995499 26:0.41574568 27:2.2289941 28:1.5715417 29:3.6602902 34:1.1397623 39:1.3514147 48:0.6366511 54:4.7172852 57:1.0720303 58:0.59792703 60:3.3164814 68:0.7136358 70:0.30724147 71:0.85098171 72:2.1989861 77:1.476531 80:0.98303753 83:0.26897055 84:0.28401721 86:0.22923464 90:2.1888268 103:0.33893976 108:0.45180729 113:1.077029 121:0.66183841 122:2.4667683 123:2.1605239 125:3.5864913 126:1.4220679 138:1.3126285 141:0.20576577 143:2.3416603 146:0.70926315 147:0.053853154 148:1.8715584 155:0.90647435 156:0.25537843 159:0.19138257 166:0.78439116 167:3.2024653 172:0.72215152 173:4.3044219 180:0.78294325 186:2.1649714 190:2.5096142 197:0.61057752 199:1.1190351 200:1.4825897 205:3.2871192 210:0.37396148 211:1.271082 217:0.53892171 229:0.45472947 232:2.5824404 234:2.1060381 235:1.2984066 239:3.6713264 240:4.3516102 244:0.45800281 245:1.849786 247:0.36755735 258:3.4981966 262:3.5850396 263:0.97684431 267:0.64223945 272:2.7516093 275:0.33987984 276:2.2725258 279:1.2035791 283:0.68258083 284:1.6030385 292:2.7797086 293:2.1722727 296:0.076413393 299:3.5959969 301:0.56300533 302:0.71346295 324:1.5589788 326:0.50545478 333:2.7604792 338:3.1057007 339:0.30248475 342:2.4871671 343:0.67598832 350:2.4802036 351:1.4344475 361:0.53535914 365:2.1470268 367:0.02628924 370:0.21790332 371:0.49022818 372:6.4826117 373:1.0490149 374:0.26196432 379:5.6065869 398:0.86171132 403:0.87147081 413:0.40919691 420:0.47659257 426:1.9745569 432:5.5269747 434:2.1655066 442:4.1622748 444:2.3497138 445:0.9737345 450:4.1922736 452:2.4968879 461:0.79227579 463:0.2100563 479:1.0940143 481:1.7876527 484:1.140213 492:3.330209 493:1.2390461 495:1.0003446 499:0.52133977 500:1.9246938 503:0.40137854 505:0.16131303 508:0.88537765 514:1.0094399 523:0.80050707 524:0.77083099 527:0.82803822 537:0.90409124 543:1.026722 544:0.96898669 548:0.052015603 554:1.3634455 555:2.7912014 556:1.8589863 562:2.0780606 565:0.9425841 570:0.66023183 573:2.202682 578:1.3857846 581:1.5089599 583:1.4034606 586:1.235532 602:1.0986531 609:1.2491442 612:3.2804608 633:0.57437611 634:0.87208474 635:3.3165271 637:0.25661463 638:0.75507045 639:0.071229964 662:0.7426827 667:1.5805808 670:2.119283 672:0.024318308 674:0.83876669 682:0.067036748 684:4.1552062 687:0.78119594 688:1.4182223 689:1.6779563 698:1.3894093 701:1.7149024 703:2.7654703 705:6.3423638 706:2.8601971 723:1.8709743 727:2.9183826 728:0.85873473 732:0.027215049 735:4.5448937 738:0.20005849 740:0.23596674 741:1.293017 747:2.0758474 751:0.21886384 757:1.2528977 758:1.3300074 759:0.48470917 764:0.2900039 765:1.1727128 772:1.6421987 775:0.90018326 776:0.30703235 778:1.2471886 780:1.4131397 782:4.3393607 786:0.0023963451 789:3.7843306 795:0.24880743 796:1.0106112 798:0.63997746 802:1.0469742 803:0.11582485 807:0.41991416 808:0.19626193 813:1.1372484 820:2.7564254 821:0.3150546 831:0.32305905 836:2.5120623 838:0.017662048 839:3.7572496 848:1.5994849 849:5.100379 853:1.1258231 856:0.48506135 857:4.0966105 859:0.041860521 865:0.3381263 867:3.9661679 871:0.93815798 876:3.4273012 878:0.67474437 879:1.7487439 884:0.31283298 886:0.51847076 887:0.54037595 889:0.38286448 899:0.11953228 908:2.5221057 913:2.4764743 915:3.2139084 920:0.6170885 921:0.44556433 922:3.2961156 928:1.951033 929:0.099452965 937:0.62796718 941:0.53025961 942:3.872788 945:3.5502079 959:0.5878998 960:1.3294604 961:1.5836043 963:0.45457476 966:0.85848451 971:2.8041282 974:3.0548644 976:0.62470669 979:5.51653 991:0.67034483 996:3.9275589 997:2.2899075 1001:3.7393031 1004:3.410126 1012:0.44636476 1015:0.47447449 1016:0.73326403 1018:0.36667365 1019:2.3066394 1022:0.97379482 1024:1.967366 1026:0.81119359 1027:1.7208788 1029:2.4765482 1032:1.0370946 1038:1.2792877 1042:1.6406481 1043:1.7837234 1049:2.1902595 1053:1.4454556 1059:2.6465287 1061:2.5592203 1064:0.84818423 1065:0.10315973 1077:3.8765042 1090:1.6478574 1091:0.51594198 1095:3.6816599 1100:1.1584558 1102:0.87885344 1110:1.4612856 1111:1.5752966 1117:1.7084403 1118:0.9669317 1123:0.80016798 1130:4.9909387 1136:1.2309797 1137:0.43458188 1138:1.9219356 1147:4.0023093 1153:0.14773241 1157:1.8746843 1162:0.37763619 1163:0.63776052 1165:3.664912 1168:1.3714433 1170:1.0349708 1176:1.1573288 1180:2.8544881 1184:0.63930666 1188:0.50505728 1189:2.392765 1191:1.4622082 1193:0.24304208 1195:0.17482419 1196:1.8383954 1198:0.51020205 1206:3.2910497 1208:1.9139698 1216:0.39459002 1217:0.27957487 1219:0.7402848 1221:2.8193617 1224:0.8734653 1228:4.3837709 1234:0.66896164 1235:1.6230934 1236:1.1170821 1240:0.51808155 1242:0.2697852 1243:1.3931897 1250:1.143188 1253:0.44632298 1257:3.539392 1260:0.32909197 1264:1.2076076 1267:0.13278522 1280:0.20132533 1281:0.24765438 1282:1.903792 1288:3.0997176 1298:0.76019168 1302:0.095104337 1303:0.40907359 1305:0.4774867 1313:4.583087 1314:0.24950495 1315:1.5818404 1319:3.7961307 1321:1.3840125 1331:0.073328137 1336:2.621686 1340:0.37459046 1341:0.53921986 1342:0.048278689 1348:0.05460979 1349:1.6279882 1350:0.74149472 1352:4.1518679 1356:0.88595748 1357:3.389746 1359:1.9112828 1366:0.00017127395 1368:0.02796638 1372:2.2652943 1375:0.24992365 1376:1.0168418 1377:2.3626461 1384:1.8148198 1385:0.1751796 1387:0.37661189 1393:1.6207032 1399:3.2916079 1401:0.51906466 1406:4.6094718 1408:1.2987821 1411:2.2311475 1413:0.17990717 1422:0.36693922 1423:0.22560525 1425:1.4235437 1426:0.53238153 1430:1.1371741 1432:0.33290935 1434:0.965832 1450:1.1641353 1451:1.3744603 1452:1.1702282 1456:2.4652929 1458:0.041469753 1466:0.51071793 1469:3.3944402 1471:0.14692366 1472:3.371779 1473:0.77103192 1475:1.8035878 1479:1.8675327 1484:1.9400228 1485:5.5586419 1487:2.4674201 1491:0.33389458 1495:0.87892449 1497:0.093993217 1501:0.23635852 1510:0.35407206 1511:0.55366433 1513:0.77281135 1515:0.36755055 1519:1.9852568 1522:0.98058844 1523:0.33440405 1538:0.74316925 1544:3.2652261 1551:0.38067186 1556:3.2667065 1572:0.57110453 1573:0.47498506 1574:3.0669098 1581:0.21942365 1588:1.1670556 1590:3.4021466 1596:4.3059807 1604:1.6714854 1614:1.8494862 1615:0.70585299 1617:0.60044062 1618:3.9983871 1629:0.13790643 1637:0.45999444 1647:1.1708577 1648:1.9868399 1657:4.841208 1661:3.2334282 1662:0.37945548 1675:4.2657123 1677:1.1135628 1678:2.1045909 1681:0.48482841 1683:4.1418705 1685:0.29954079 1686:0.79008615 1690:1.0363781 1697:1.9080163 1705:1.6135063 1707:0.22651966 1711:3.8570278 1716:1.5718744 1717:0.25461161 1720:2.9776149 1725:0.024367511 1726:4.1702476 1727:2.0867758 1737:1.5443137 1742:3.0367465 1743:0.84437883 1756:0.54862112 1758:3.9750588 1762:3.4662154 1766:1.4243801 1771:1.2774765 1773:1.5940959 1777:0.41163856 1778:2.125874 1779:0.98417181 1781:0.20774037 1786:1.4576442 1793:1.4452119 1795:0.93905199 1799:2.7587736 1804:2.9382105 1811:0.18058196 1813:0.34676921 1817:5.1215353 1822:0.54206562 1823:0.71827376 1824:0.09517929 1826:0.80994135 1842:1.3297877 1844:1.0983319 1848:1.7173821 1849:0.21858841 1851:0.49903619 1852:3.6260793 1854:1.1370113 1858:2.1291275 1861:1.5780915 1863:0.045424819 1864:0.97530079 1870:1.1144183 1873:0.86208153 1878:2.2460134 1879:0.80853093 1881:0.43258655 1882:2.7983556 1890:4.1984644 1897:4.7917714 1901:0.13277024 1904:1.3036791 1912:1.9312351 1918:1.1266251 1920:0.18223932 1921:0.94659114 1928:0.80021602 1930:0.70932633 1942:0.78412414 1943:2.161926 1952:0.22492582 1953:2.4324727 1959:0.027423322 1960:0.46507317 1968:0.29691976 1970:0.31138596 1975:3.9932985 1978:0.83739543 1993:1.7043229 2001:0.41511413 2002:0.99911189 2004:1.5474091 2012:1.3861194 2020:0.11742082 2021:0.0653871 2031:0.98161525 2032:1.5018759 2042:0.43039167 2043:0.45002478 2045:1.6207657 2048:0.093696713 2051:2.5265079 2055:1.4891379 2058:1.6383147 2062:0.19126597 2068:0.36144567 2070:1.5328935 2080:0.041866906 2101:2.2004287 2104:0.64953315 2105:1.3939704 2107:3.6161282 2110:1.5800586 2117:5.1519403 2121:1.0209796 2134:3.7080059 2135:1.3442743 2136:0.056992229 2137:0.52326518 2145:0.67567146 2149:3.0138259 2152:0.98888373 2153:1.2160928 2156:1.2568297 2159:0.081990987 2163:0.57401693 2167:4.859653 2170:2.3942804 2177:0.37018993 2188:3.865381 2189:4.1916633 2194:1.1080601 2195:1.3199313 2199:0.75433987 2201:0.57421279 2202:1.8431776 2210:0.81572336 2211:5.7036352 2214:1.9977553 2215:0.92008233 2223:0.87621826 2226:0.71304381 2239:0.72851056 2247:1.6156335 2255:0.33585793 2260:2.4347315 2270:1.3091724 2271:3.2716589 2273:1.2844876 2274:0.45549262 2276:1.635399 2277:0.33913666 2278:1.9582931 2281:0.83920419 2283:2.8088684 2295:0.29742223 2300:0.59893817 2303:0.17471462 2311:1.7036402 2320:1.7389295 2321:1.1190219 2327:1.0072699 2331:4.0489941 2332:3.1121535 2333:2.4976492 2344:0.10318521 2348:1.1834559 2355:6.1044593 2358:0.72660375 2359:0.36815327 2360:3.3359642 2361:1.9132326 2372:1.4757022 2386:0.051436752 2393:0.80851114 2406:0.57326782 2416:2.2877557 2419:1.0235958 2429:0.63628775 2435:0.74708396 2439:1.3578156 2441:1.1953293 2444:0.51846516 2445:0.043985873 2452:2.2794056 2456:0.051895678 2459:1.8677378 2463:1.2733345 2464:0.46333274 2466:2.5179205 2467:0.54128516 2470:1.5559174 2471:1.3820697 2472:0.53303868 2477:0.56471848 2485:0.6501773 2489:0.22243783 2490:1.494732 2491:1.2222077 2501:2.6643014 2507:3.3964977 2508:3.9449339 2514:0.50624728 2520:3.2758167 2521:0.61631691 2526:1.575972 2528:2.6500018 2529:0.14919193 2535:0.44123751 2536:1.0851762 2551:1.0354536 2560:0.81738812 2563:0.9556098 2571:0.67572361 2573:3.5055826 2576:1.3755999 2579:1.251472 2583:1.4310313 2592:4.1580009 2594:3.700932 2598:1.1933503 2599:0.89763331 2600:1.0676018 2604:0.10681883 2610:0.53612316 2617:2.5189917 2623:2.5306902 2624:0.70167023 2626:0.29997569 2634:0.55527228 2638:1.7993782 2639:2.6166296 2648:0.17247331 2650:1.0668979 2660:0.68280059 2664:1.1871879 2666:1.3597519 2672:1.6036704 2680:2.5933561 2687:3.0928354 2688:2.0727429 2689:3.1069551 2690:1.832233 2691:0.50030267 2692:2.4115791 2698:1.6561239 2701:0.7570529 2704:0.93303943 2708:0.80006647 2712:3.2313738 2715:2.3446751 2719:2.0195758 2720:4.0851436 2723:1.23703 2733:0.44832525 2738:1.8386544 2739:0.42030412 2740:0.89022768 2743:0.71618426 2744:0.3469108 2751:0.19112077 2754:2.0487306 2756:3.4921589 2759:2.765764 2766:6.9602375 2768:2.2745996 2773:1.0561335 2774:0.61423576 2778:0.092789412 2785:0.20929053 2788:0.38725689 2789:0.049572319 2792:1.3728815 2795:2.5018144 2802:0.54043227 2811:2.1204689 2816:3.9602785 2817:3.6856065 2819:1.1248955 2821:0.15358332 2826:1.5726676 2830:0.60925066 2834:0.82543868 2835:0.052782506 2846:0.24475828 2849:1.53124 2865:0.33991373 2867:3.0680664 2868:0.80011404 2869:1.3383729 2870:0.80159813 2875:0.3177675 2879:0.74518138 2891:2.6329501 2892:0.89133328 2894:0.45374951 2895:2.2088737 2903:0.61552489 2909:0.52779818 2913:3.5543945 2917:1.4025838 2918:1.3765013 2932:0.73107976 2938:2.8538494 2944:0.04256323 2947:1.894356 2950:2.8644547 2953:0.82645899 2957:0.16745326 2958:0.96449333 2962:3.1711416 2963:1.4221485 2966:1.9029517 2970:2.1418865 2971:1.5667505 2972:2.8287561 2974:2.2322001 2993:1.7068074 2998:0.54985738 3003:1.7027251 3012:2.0949435 3013:4.3384471 3020:2.0063257 3024:0.73296618 3032:0.62818468 3035:0.62908483 3036:1.6233042 3043:3.1035621 3050:2.5176005 3051:3.5295112 3059:3.9584768 3060:3.5607588 3075:1.2848794 3081:2.8865075 3086:0.15862057 3093:1.8404658 3094:0.59999722 3101:0.10478437 3111:1.3545024 3113:0.55630851 3117:0.51563191 3118:3.214534 3124:1.4860023 3129:1.0116887 3132:1.0935552 3133:0.48718882 3140:2.503155 3144:3.2063196 3145:2.7115531 3148:2.5546565 3152:3.624898 3164:2.3925638 3166:1.0977206 3182:1.1640112 3195:6.1133227 3198:0.70680785 3199:1.5940752 3200:1.1869462 3206:0.63569951 3213:1.4076397 3215:0.31970033 3217:0.43986881 3226:1.2026148 3228:0.46751076 3232:1.2198226 3237:0.14981867 3247:0.636217 3249:0.61280549 3252:1.6980038 3256:3.846791 3258:0.46721011 3260:1.1552507 3268:1.2906466 3271:1.0031643 3274:0.47116596 3275:3.8393025 3278:0.30753621 3279:0.32010764 3284:0.28754056 3285:0.5596453 3286:1.3356453 3289:1.3246169 3290:1.2574183 3291:1.5911814 3293:4.3293896 3298:0.74037999 3302:0.6685428 3307:0.13450602 3309:1.2562511 3310:0.20914409 3312:1.1144284 3314:1.0676407 3315:0.073494196 3321:2.9797387 3324:2.2684574 3327:3.2908957 3344:0.88703275 3347:0.3796097 3349:1.0926088 3350:0.59581149 3357:0.26205683 3359:1.0173246 3361:0.42870587 3365:2.8172152 3371:0.064539745 3372:1.1766838 3377:3.1908162 3378:0.34342444 3379:0.067970395 3387:0.77716911 3390:0.14876381 3392:2.0865386 3396:0.61538184 3397:1.020915 3402:2.541369 3403:0.69874167 3417:0.079436004 3424:0.41287273 3429:2.1786983 3432:3.0598454 3436:2.6634662 3445:0.5570237 3450:0.93059748 3456:1.1658359 3460:0.13332567 3465:0.97599345 3467:0.13274354 3471:0.16360947 3478:0.38155979 3480:1.3825543 3484:0.65946496 3492:0.80427444 3494:2.63872 3498:3.0670872 3500:2.9209099 3503:0.40222371 3504:4.6633649 3512:0.38079017 3525:1.4884611 3526:0.17758387 3529:1.8278935 3540:1.6496867 3548:0.89242435 3549:1.0064368 3551:0.024397211 3554:0.29868406 3556:1.6396959 3561:2.2789874 3573:0.14471969 3576:1.4248842 3580:2.8309028 3582:2.4334676 3586:4.6037107 3588:4.52074 3595:0.51371479 3597:0.47540388 3608:2.3734357 3612:2.7713981 3614:0.2374251 3615:1.0008098 3617:0.38945588 3622:1.3499537 3630:0.87634873 3632:0.16087873 3643:1.1367811 3644:2.0788634 3649:0.17252651 3653:3.4501555 3655:1.9701157 3657:0.82925808 3658:1.4884286 3666:1.2596478 3670:0.38632143 3682:0.41803977 3692:1.5791928 3693:0.1736505 3700:1.3550583 3703:0.83969438 3707:0.47319466 3715:3.5460727 3719:1.7910969 3722:0.4850812 3724:0.54047865 3732:1.6335328 3738:1.6907114 3739:0.0044054985 3741:0.52545261 3745:0.99499464 3749:1.2423704 3751:1.3235953 3753:1.0406837 3756:1.1601952 3766:1.0925997 3771:0.97436714 3778:2.1742432 3789:0.84235573 3793:3.6721907 3797:1.2952201 3798:0.85456997 3808:3.0782743 3811:1.2585975 3817:0.62640059 3818:1.7973014 3819:1.3274404 3823:0.028101116 3824:1.5917441 3825:1.927858 3829:1.6063185 3845:1.8513606 3848:1.4636786 3851:1.1660249 3856:1.243432 3859:1.7520884 3860:2.2524481 3861:2.1816926 3862:1.0086826 3865:1.2923595 3872:1.1833369 3875:1.2191505 3877:2.0298023 3881:0.53059053 3886:0.64742708 3887:1.3142114 3889:0.20498568 3891:0.27024418 3892:0.89417875 3893:2.6506429 3895:0.25344431 3905:0.72356153 3906:1.7596141 3910:2.85885 3918:0.061630651 3919:1.676018 3923:1.037497 3933:0.16262773 3935:2.8769569 3937:0.42750517 3951:0.9095152 3956:1.4138781 3957:5.4020705 3960:0.47153169 3970:1.955546 3974:0.45744199 3980:0.94187796 3981:0.79321712 3985:3.7541203 4000:0.5016256 4013:1.1188303 4014:0.080614626 4016:7.7717009 4026:0.17747405 4029:2.0304375 4032:1.8643186 4034:1.2679106 4036:1.4812379 4042:0.22818685 4043:0.78103232 4044:0.18889561 4045:0.4037196 4047:0.18148482 4048:0.13577759 4055:0.2892279 4063:7.5243144 4067:1.2918316 4077:0.16959333 4080:0.24114218 4085:1.3747869 4086:0.19021344 4089:4.4484911 4092:0.20352456 4093:1.3108585 4094:0.60298669 
0.5106619162702565 1:2.5382102 3:0.82664496 8:1.6446452 12:0.88453972 15:1.609506 16:1.4366336 18:0.87177414 19:2.4474695 20:2.6153059 26:0.17521597 27:2.1064606 28:0.67354369 29:1.7135289 34:1.3757976 42:0.94652104 43:2.1532624 48:2.4102042 54:2.1156907 60:4.2028546 61:0.45755708 62:1.1874574 68:2.5292532 70:0.74623001 71:1.0999272 72:3.6602721 77:0.13679129 78:0.065417528 80:1.713449 84:0.28513458 89:0.39441937 93:0.018735856 103:2.4083278 108:1.7055134 109:0.0065099597 113:0.070012271 115:0.2042605 118:0.88460058 121:1.57893 122:0.35912523 123:2.4187131 125:3.4631505 126:1.8040717 130:0.010912217 139:0.21602049 140:0.050800651 143:0.67084491 147:1.1574478 148:1.1553926 153:2.2855721 155:2.1361868 156:3.055557 157:0.068173662 158:0.01575464 161:0.81183934 163:0.16333038 164:1.1583658 166:0.94023931 167:1.4259367 173:3.594475 180:0.090052836 181:1.237872 186:1.4869217 190:3.0451241 195:1.7181592 196:0.44580287 197:0.094893292 199:1.3065439 200:2.9759781 201:0.49962252 205:2.2375581 216:0.36947978 217:3.3140574 218:0.40821233 227:0.052853733 229:1.2462547 232:1.0367928 234:1.2843628 235:3.7253418 237:0.79319739 239:1.0803279 240:1.5666882 245:2.374738 246:1.3766921 252:1.748687 258:2.7055614 261:1.6118083 262:1.0289586 267:4.7808213 269:2.1672802 271:0.044606447 275:5.0507188 276:1.3112628 277:0.51443762 279:0.83329195 283:2.0813506 284:0.23748565 286:0.021885529 288:1.5380504 291:0.1515712 292:1.6915247 293:0.44845021 296:0.23664618 297:0.50229597 299:0.42473504 301:0.74750519 302:1.1437762 311:0.18732411 324:0.66544855 325:0.95686752 333:0.27433193 335:2.5026221 339:0.61947495 341:0.11614257 342:3.1528981 347:1.5036862 348:0.54022598 349:2.2610822 350:1.1579601 351:0.31614068 355:0.6252386 361:1.7055414 366:1.1424996 372:3.9519057 373:0.62431991 375:0.20561916 377:3.4682906 379:2.5514178 387:0.37651277 394:0.82120484 398:2.5129263 414:0.81229949 420:0.041864812 425:0.046236336 426:0.8592298 427:0.36861533 432:6.5565395 433:2.7576613 434:0.36527997 435:0.49747252 439:0.23315659 440:0.85612941 442:0.88549405 444:1.1546654 445:0.19074935 446:0.64526296 449:0.22675306 450:2.3083284 452:0.73034245 459:1.0601218 461:1.5409939 464:0.85687053 471:0.63711983 474:0.39314425 479:1.5121546 481:2.6801729 483:0.64422137 485:2.2580733 491:0.61256862 492:1.3233656 493:0.22359622 499:0.10760096 500:2.1823976 501:1.1314048 502:3.1961143 503:0.62150377 505:2.6912494 509:0.15209952 512:1.0220302 513:0.36830124 514:3.2457888 515:0.27613199 517:0.33970323 523:2.6660149 524:2.2656417 527:1.137296 530:1.1417046 533:0.51517999 535:0.84690702 536:1.1171401 543:0.444626 546:0.097585082 548:1.0204018 554:1.9522152 555:0.71708077 556:0.3612648 562:4.1377296 565:1.5259743 570:0.46612066 572:1.4017591 573:2.7946603 576:0.48644012 578:2.6852 583:2.2255223 586:0.90915155 599:0.91593635 600:2.1215842 602:0.22208744 604:0.1585685 607:0.46582961 609:0.044052631 611:1.0086021 612:5.6160398 616:1.1745526 633:1.0741466 635:3.2846658 639:3.9831164 641:0.40146202 642:0.025624245 645:0.37905645 659:0.77653629 662:2.0290787 667:0.37104273 669:0.0080921762 670:1.4202949 671:1.2490811 672:1.7994671 673:2.1983902 675:0.049382418 677:0.64393926 682:1.4799471 684:2.871125 688:0.063389361 689:1.1935505 694:2.5899258 701:1.0093824 703:2.6871579 705:3.8931999 706:1.5280496 712:0.17647472 717:0.97345412 718:0.18492827 720:3.0564253 721:1.2335209 724:0.3695029 725:1.8014635 727:2.875433 734:0.066622883 735:2.9606242 737:0.72528541 740:2.3077023 744:0.063218474 748:1.9300601 755:0.91762143 757:0.89554441 759:1.5653427 766:0.84399283 768:1.6995099 770:0.34656495 771:0.82597035 772:2.2693584 774:0.14210181 777:0.9878667 778:0.59535336 782:2.4828758 785:1.3672789 789:4.6186123 794:0.099125192 795:0.75341117 796:1.0365782 802:0.43955204 803:1.2624542 805:1.0993435 813:2.3642306 820:2.5036283 826:0.011524498 833:1.8018053 836:2.5770509 839:1.3199692 842:2.5679581 846:0.26899713 848:0.80237639 849:4.5521998 853:2.0387712 856:1.59356 857:1.0338196 859:1.0109448 865:1.78257 866:0.1682781 867:1.6727397 868:0.92550892 869:0.81252253 871:3.1237924 873:2.6250331 876:3.3645585 878:2.1090417 879:1.7062051 882:0.84155244 884:0.6516273 902:1.3791025 908:2.8116999 910:0.20185569 915:4.4408956 918:0.41511488 919:1.447356 920:0.6073463 922:3.0939701 928:1.1624281 934:0.47466144 937:0.90688533 938:1.1302831 940:0.3546946 942:3.4792593 945:2.9553642 959:0.57561266 961:0.98440492 963:1.2644057 965:0.20417944 966:3.3302457 968:2.3005958 971:1.4244573 972:1.4114017 974:2.5509732 975:1.6463926 979:2.9857793 989:0.53865492 996:2.8185239 997:3.8035247 1001:2.2163672 1004:1.4143195 1010:0.30263364 1013:0.15200305 1015:0.44231951 1018:2.7376673 1019:1.6369257 1022:1.1656828 1023:0.83366418 1024:0.86058044 1027:1.8075587 1029:1.3242521 1032:0.96584737 1035:1.5154831 1038:0.055765316 1039:0.73872781 1041:0.49064544 1042:0.63503253 1043:0.65729773 1047:0.35455722 1049:2.8086381 1053:2.574017 1059:2.7420976 1061:1.5606427 1062:0.56095445 1063:0.34990466 1065:1.0296016 1071:0.24764404 1073:0.8168571 1075:1.1956263 1076:0.47731566 1077:0.9438051 1078:0.11486197 1080:1.6438019 1083:1.3523489 1084:0.75794172 1090:2.3015716 1095:5.2334461 1096:0.83048981 1100:0.76217055 1102:2.8416815 1105:1.0132902 1110:0.71066022 1111:2.6820576 1117:1.1430349 1118:1.6360561 1123:0.54590893 1130:4.6406045 1136:0.49787354 1137:1.3465973 1138:2.5004797 1140:1.154299 1147:2.8875277 1157:0.48455304 1159:0.58804619 1163:0.31028932 1165:1.4424847 1168:0.59436798 1175:0.086546019 1176:1.6492513 1177:2.1420557 1180:1.0585853 1181:1.5114008 1188:3.4230244 1189:2.2844179 1191:0.7067697 1193:0.08250618 1194:0.35412958 1196:0.84610695 1206:4.7907753 1208:3.4936688 1215:0.11728221 1217:0.74454486 1218:0.56706339 1221:0.13593622 1224:0.61543262 1228:5.6635637 1234:1.1654396 1236:1.9460142 1238:0.19761781 1239:0.86140865 1240:2.0924189 1242:0.96230638 1250:3.2872679 1253:1.3602895 1257:1.2919952 1260:0.74290973 1261:0.031263761 1281:0.77422714 1282:0.77051914 1283:1.8040065 1285:0.42334449 1287:0.64321494 1288:1.8210425 1292:0.79995751 1294:1.8431587 1302:1.2705383 1309:2.0943694 1313:4.4322062 1314:1.3532517 1315:0.9040336 1319:3.8530574 1321:0.24513584 1323:0.89425218 1328:1.0766503 1332:1.2787199 1333:0.20878334 1337:0.36302203 1340:3.0004613 1345:0.53475708 1347:0.58147401 1348:0.10526909 1350:0.20263891 1352:3.7797482 1353:0.45926362 1357:3.4096954 1359:1.1810234 1360:0.38960835 1366:0.16989216 1368:0.88025689 1372:1.8272514 1375:0.6423403 1376:3.5110247 1377:1.6046783 1378:0.068921134 1384:0.59026164 1385:1.4714973 1386:2.6472871 1387:2.8579063 1393:0.7450667 1396:0.46196198 1398:1.5105805 1399:0.3498469 1401:0.64129424 1404:1.2887847 1405:0.20933114 1406:3.0603921 1408:2.8534837 1409:2.4139566 1411:0.6923455 1413:0.83534789 1422:0.78604257 1423:0.84207904 1425:1.3773248 1426:0.64699334 1429:1.1212869 1430:1.8407648 1431:0.76895213 1432:0.43738487 1434:0.34988981 1440:1.0258715 1442:1.1381217 1445:0.34555236 1450:3.4263487 1451:0.51392561 1452:3.1528063 1456:0.9981944 1458:2.7516518 1466:0.16752329 1469:3.1649115 1471:2.5061793 1472:2.5420952 1475:1.7745136 1476:0.58005166 1478:0.01093924 1479:0.1610494 1484:3.3597739 1485:4.7260308 1487:2.8859053 1488:0.411237 1491:2.1946363 1495:2.4659789 1511:2.9799187 1514:1.0652521 1515:1.4834285 1519:3.5695007 1522:0.2626442 1523:2.1907861 1538:3.3254268 1541:1.0072465 1544:0.96801478 1547:2.627336 1551:0.68866616 1556:2.2808971 1557:0.055449843 1562:0.084878504 1566:0.073261067 1571:0.16777067 1572:0.026569992 1573:0.78424013 1574:0.58750057 1581:0.68224692 1582:1.0067267 1583:1.9883672 1586:1.8278956 1588:2.0835364 1590:5.3481283 1596:2.8742514 1598:0.021280766 1600:1.3226398 1604:1.8672004 1609:0.18094245 1611:0.77675754 1613:3.119128 1614:1.6089369 1615:1.0919957 1618:1.2832062 1622:0.33704454 1625:1.7917467 1626:2.4396544 1637:3.5491493 1640:0.080564171 1641:0.3542445 1647:0.91724515 1648:3.2156343 1652:0.13614857 1657:3.0467377 1658:0.049995169 1659:0.16370504 1661:4.8572598 1662:2.1104691 1664:0.057003468 1675:2.9810278 1677:0.62061417 1679:0.35868034 1681:1.4707791 1683:0.66815126 1685:1.4093114 1689:0.52179211 1690:1.1558899 1696:2.384094 1697:0.70822573 1698:0.70131266 1703:1.8079371 1705:3.149128 1706:1.3882124 1707:0.90043736 1710:2.429812 1711:2.4761753 1712:0.54656827 1718:1.2235086 1720:0.64947593 1721:0.59889948 1724:0.076531172 1725:2.9844165 1726:1.5115557 1727:2.0224211 1729:0.38284904 1733:0.39264834 1737:1.1922021 1746:2.6206055 1756:1.9557587 1758:3.2797668 1759:0.16820484 1762:4.9786863 1764:0.011549518 1766:1.5705123 1771:1.777436 1772:2.5482366 1776:1.0037632 1778:2.7806625 1779:2.2911358 1780:0.75863367 1781:0.073130906 1783:0.56316251 1786:2.4457474 1790:0.42073825 1793:0.48443025 1795:0.71280015 1799:1.4520112 1804:3.2165408 1806:0.54001093 1811:0.48169068 1812:0.54352355 1814:0.11492497 1817:3.9349804 1822:0.1808252 1823:1.072009 1826:0.23569232 1831:2.6179671 1834:0.94569188 1844:0.82621396 1848:5.0902252 1849:2.3446367 1850:0.74187821 1851:0.032191038 1852:0.049636181 1856:2.5155947 1857:0.8627007 1858:0.011859814 1860:1.1223457 1863:0.90737522 1864:1.3692814 1869:1.2923976 1870:4.9318838 1872:0.21534325 1873:0.19201392 1874:1.0685319 1877:0.42652553 1878:1.2058926 1879:0.39003521 1881:0.76937246 1882:0.33585894 1887:1.3962148 1890:3.6472454 1897:3.8899479 1900:0.89905286 1912:1.8689218 1914:0.61979765 1918:1.5526973 1920:0.80590832 1923:0.19027913 1926:2.7202711 1928:1.1845703 1935:0.28209984 1936:0.71548992 1942:0.1895318 1943:1.423082 1946:0.62151945 1952:0.97541451 1953:1.6101549 1959:1.420431 1963:0.79168451 1968:2.6960166 1970:0.96075517 1972:0.82546997 1975:4.1670341 1977:0.44386122 1986:0.90612745 1993:1.6528834 1996:0.29415625 1997:0.98466694 2002:1.9119613 2004:1.8001397 2012:1.5736876 2015:0.46792245 2017:1.1345952 2019:1.0049729 2020:2.9358222 2021:0.42149705 2027:1.7878649 2031:1.0290327 2032:2.0077884 2042:1.1514105 2043:0.062416926 2045:1.4523197 2049:3.8045819 2051:5.1463766 2052:1.1015191 2055:0.37720156 2062:1.2834125 2063:0.88644552 2070:2.6775646 2072:0.2308829 2076:0.67049241 2079:1.3368917 2086:0.96632457 2088:1.3368835 2101:2.5445616 2102:0.86499029 2105:2.1922319 2107:1.7576051 2110:1.4381472 2117:2.5003061 2120:0.4884097 2121:0.2118568 2125:2.4206805 2128:1.6422573 2132:0.022646815 2134:1.7121918 2135:0.4373886 2137:1.0310878 2139:1.4753222 2140:0.89507818 2145:0.29988912 2149:1.0686219 2152:0.83207619 2153:0.98772335 2154:1.0723503 2155:1.5376618 2159:0.67982352 2163:1.875975 2167:4.1855521 2168:0.25390154 2169:0.33994004 2170:1.5627382 2172:0.13029233 2175:0.16817778 2176:1.2230656 2179:1.2961034 2188:1.0327886 2189:0.36111322 2193:0.97206575 2195:1.0179564 2196:0.37493658 2199:1.1213205 2201:1.252316 2202:2.5380623 2203:0.15294364 2210:1.2809831 2211:3.4517074 2215:1.99462 2216:0.6380024 2221:0.22978677 2223:2.0793774 2224:1.4741268 2226:0.75447094 2229:2.5132892 2239:0.81332082 2243:1.9429909 2253:1.2320127 2257:0.69740891 2260:2.2730336 2262:0.13093375 2267:3.6375344 2270:0.067152381 2271:1.0049398 2273:0.53400385 2274:1.4778696 2275:0.91201496 2276:0.51481533 2278:1.9629725 2281:1.5174804 2294:0.97647119 2295:0.16145727 2298:0.61904085 2300:0.51009679 2303:0.52394092 2307:0.38905311 2320:2.3151968 2322:1.4628242 2328:1.430639 2331:4.6428766 2332:1.511187 2333:3.1218238 2346:1.8031605 2347:0.021379799 2348:0.77527916 2353:1.8516163 2355:3.142662 2358:2.9013619 2359:2.0952168 2360:4.3719363 2361:1.3832661 2362:0.34765166 2372:1.209034 2381:1.270561 2386:0.83732069 2389:1.3623805 2395:2.2234247 2401:0.51811755 2405:0.32191572 2406:1.3977848 2407:1.0119278 2408:2.3751388 2411:0.59356046 2414:0.048032016 2416:1.3858522 2422:0.82550538 2432:1.5589139 2433:0.68219858 2434:0.74248791 2435:2.1647139 2439:1.5358746 2441:1.7733169 2444:2.84409 2445:0.572173 2446:1.4761356 2452:4.8322377 2456:0.17336285 2457:1.7492198 2459:0.49155319 2463:1.1862785 2465:1.1172552 2466:1.1579272 2467:1.1683969 2477:1.0350291 2485:0.13396201 2486:0.42859703 2488:0.64436066 2489:0.36890858 2490:0.47714218 2491:0.51086456 2497:0.056894735 2501:3.8784332 2503:0.23704441 2504:0.771281 2507:2.9246025 2508:2.9346287 2509:1.4424036 2511:0.36073869 2512:0.96784794 2514:1.4735196 2518:0.17055261 2520:4.0683904 2521:0.61365569 2522:0.42858079 2525:0.091115177 2526:3.4368076 2529:1.500092 2531:0.34381402 2532:1.7317315 2536:0.84078038 2537:1.1666164 2551:2.5018959 2557:0.056750566 2563:0.81935716 2571:0.46589816 2573:0.20176947 2575:0.26859701 2576:1.8011956 2577:0.39563429 2578:0.68184829 2579:2.3147941 2582:0.56924009 2583:0.79133964 2585:0.2164157 2589:1.4587851 2591:0.72559112 2592:3.682502 2594:2.1618776 2600:1.7335471 2602:1.9983288 2604:1.0037231 2614:0.429084 2617:0.72744381 2620:0.14181164 2621:2.3181789 2623:0.62322533 2634:0.90863752 2637:0.94123769 2638:0.89586639 2639:3.3542447 2644:0.39467323 2650:0.29850066 2651:2.9121757 2652:0.95403248 2659:0.6455518 2660:0.57376039 2662:0.88674337 2664:2.0844715 2666:1.3242257 2668:1.1866223 2669:1.0516181 2672:2.7673872 2680:2.0697114 2684:0.78853917 2686:1.0691692 2687:3.0325747 2688:1.2086723 2689:2.6020775 2690:0.94371259 2692:1.2298449 2693:0.28292248 2695:0.71242166 2698:1.8425596 2701:1.0595859 2704:1.3938679 2708:2.8373206 2710:1.9138961 2712:3.7439747 2714:1.64801 2715:2.6810737 2719:1.1442455 2720:1.3049071 2723:1.846786 2725:1.5578597 2732:1.9851549 2733:1.4379162 2738:1.8820076 2739:1.076107 2740:4.3620534 2741:0.6573534 2743:0.3298277 2747:2.4021833 2750:1.38431 2751:1.2733446 2754:1.9631783 2756:1.5443448 2759:0.62371898 2763:1.3569512 2766:7.196929 2771:0.70527172 2774:0.80177963 2775:0.85361433 2777:0.38311529 2778:4.2577043 2782:1.0451994 2786:0.8278628 2787:1.3189402 2789:2.036341 2790:1.407218 2795:2.2841787 2800:0.56868339 2811:0.93425328 2816:1.4722414 2817:3.8876333 2818:0.33316779 2819:0.99670571 2826:0.89780217 2829:0.87375486 2830:1.8084557 2831:1.6570485 2834:2.0034177 2844:0.87611741 2849:0.68832159 2856:0.5564059 2860:0.73797292 2864:1.6986536 2867:4.2835226 2869:0.82259393 2872:0.65092182 2873:0.59651685 2875:3.1687453 2879:0.43672657 2885:0.66141313 2891:1.760536 2895:0.90997058 2898:0.82893038 2903:1.1785051 2907:0.093236893 2909:1.4369472 2913:0.20238909 2917:3.7120152 2919:2.1512828 2920:1.7363086 2927:1.0162691 2931:0.69653499 2932:0.59655464 2938:2.0721624 2941:0.37767127 2942:1.1844059 2944:1.4802287 2947:0.99189669 2950:4.2602725 2953:0.068012863 2957:0.15808293 2958:1.4962215 2962:3.2218499 2963:0.96524483 2965:0.628025 2968:1.0492976 2970:0.24698418 2972:0.27783602 2974:1.9280751 2976:2.5161636 2977:0.38600144 2991:0.91338426 2993:1.4161785 2998:0.33730793 3000:0.86414325 3001:1.8957123 3003:5.3022056 3008:1.5519527 3011:2.0774753 3012:0.91893995 3013:1.0430231 3019:1.1488214 3020:0.19380389 3024:0.80201697 3032:1.2987536 3035:1.8074954 3039:1.0340207 3040:2.1650522 3041:0.5788188 3043:0.84886646 3044:0.63705051 3050:0.73499012 3051:3.5855091 3056:2.3402765 3057:0.54332769 3059:1.5417168 3060:2.5557401 3065:2.7961299 3067:2.6167946 3070:0.96139193 3075:3.0838256 3081:1.0540695 3085:0.33508977 3094:2.7720115 3105:0.04626476 3111:1.310727 3114:0.42554727 3116:0.55722696 3117:3.9684453 3118:0.72017956 3124:1.1058558 3129:0.1188035 3132:1.3716861 3133:0.34327811 3137:1.7217298 3141:2.1517444 3142:0.23239067 3144:2.8619158 3145:1.6009703 3149:1.2980969 3152:3.4557612 3155:0.13949823 3164:3.6310258 3167:0.1604307 3169:0.037900001 3170:0.97654384 3178:0.18801323 3180:1.2725561 3181:0.27099535 3182:1.8534179 3185:0.12002089 3186:0.80398357 3188:2.3644795 3189:0.56207836 3195:6.0042553 3196:0.70112896 3197:1.1170293 3198:1.6530178 3199:1.8990196 3200:3.5597205 3205:1.6628871 3206:0.075830787 3207:1.1666287 3213:1.9567933 3215:2.6209738 3220:0.41731641 3224:0.03558293 3225:0.28272778 3226:3.714277 3228:2.2058492 3232:2.4149556 3236:1.0771332 3248:2.1922779 3249:0.68038094 3252:0.81575227 3256:0.74087238 3257:2.1102118 3258:0.10420129 3260:0.72146356 3267:2.5326722 3268:2.0475571 3271:1.8916229 3274:1.1265541 3275:2.1659338 3279:2.1864626 3285:2.2939448 3286:1.5075599 3289:0.79996121 3291:0.31339398 3293:1.1392637 3295:1.0408936 3299:1.3835807 3309:2.5266526 3310:2.2297573 3314:0.065053731 3319:0.90141964 3321:1.1381171 3322:0.37793103 3324:0.27874535 3327:3.0809419 3328:0.47885942 3334:0.66217703 3344:2.0311344 3347:1.9182308 3349:0.60368341 3355:2.3283746 3361:2.9200847 3362:0.44517121 3365:1.4439588 3366:0.10936052 3374:2.4060671 3377:1.4540008 3386:0.31580281 3387:0.60913956 3388:3.4429646 3390:1.8961465 3392:0.29188633 3395:0.63953352 3396:0.27287894 3402:2.4884112 3410:0.60222995 3412:0.17388779 3413:1.625564 3415:0.035439342 3418:1.8379867 3424:1.5801458 3428:1.9390969 3429:0.60774028 3432:2.777395 3436:0.91394001 3437:0.69417775 3438:1.1935921 3446:0.20277882 3447:0.54892898 3449:0.56040317 3450:0.094827317 3457:0.23703362 3462:1.0808717 3465:1.9568344 3467:0.63239622 3473:2.6226692 3475:0.78504288 3478:1.9923114 3480:2.6005154 3481:1.3408015 3484:0.30957994 3486:0.55903471 3492:1.3701538 3493:0.057958364 3494:2.4672256 3498:1.0963414 3500:3.9708476 3504:2.1058578 3506:0.13418445 3507:3.926228 3510:0.2265625 3514:0.062016964 3515:0.92197835 3521:1.808387 3523:0.27807173 3525:3.014214 3526:1.603861 3538:2.5646405 3539:1.0446919 3540:0.15989766 3544:0.3945176 3545:3.151042 3548:0.65773726 3549:1.2562873 3556:0.38931084 3560:2.0887828 3561:1.8342888 3564:0.32072493 3566:1.6496564 3569:2.4326773 3576:0.54234147 3577:1.2353474 3580:1.1309161 3582:1.4778461 3586:4.1960115 3588:1.7936704 3595:0.21489155 3603:0.91984087 3604:0.92116612 3607:1.3471711 3608:1.8042979 3614:3.0280383 3624:0.17507285 3629:2.4659333 3630:4.1486111 3638:1.0936868 3640:1.5673628 3643:1.4534024 3649:0.6372366 3653:0.9427911 3655:0.48994064 3657:1.1060954 3658:0.26128328 3665:1.6397412 3666:3.6203532 3667:0.94330549 3669:2.0389891 3670:2.1436789 3679:0.97494882 3682:3.7742527 3684:1.3426114 3686:3.2471704 3687:0.20471846 3689:1.0903655 3690:1.0488801 3691:0.77766854 3692:0.22761068 3703:0.080879807 3704:0.67094892 3710:2.8209257 3711:0.24892856 3715:2.5187469 3719:0.89854813 3722:0.6746043 3723:0.27998406 3724:0.14455222 3727:0.093808807 3729:2.0768209 3732:2.3321648 3737:2.3100095 3738:1.9410915 3740:0.42255658 3741:0.57838464 3745:0.55745989 3748:0.76978511 3749:0.21715868 3753:1.4873621 3755:1.8312536 3757:0.41953894 3765:0.32511821 3766:1.5630449 3771:1.0098746 3772:0.95099115 3773:0.98079699 3775:0.026902035 3778:1.6576179 3781:0.31171149 3789:1.3199222 3793:3.0315118 3795:1.6665374 3797:4.0273166 3798:2.3077102 3806:1.0806434 3807:0.96888542 3808:3.2030904 3811:1.4621181 3813:2.1988542 3814:2.0790691 3818:6.1598763 3819:1.5244207 3823:1.8627126 3824:0.40650019 3825:2.2731023 3829:2.8866284 3831:0.73987627 3833:1.2708222 3836:3.3084743 3837:0.2335116 3848:3.2372277 3851:1.9412398 3859:2.2515576 3860:0.74477059 3861:1.3430499 3862:0.78804219 3872:0.081213266 3874:1.8560278 3875:1.6890844 3876:1.8365084 3877:2.0907981 3881:1.6944003 3886:1.699492 3888:1.0854865 3892:1.8247405 3893:0.16676325 3895:1.6048418 3906:2.9014995 3909:0.54764134 3910:0.33332634 3918:0.15426169 3919:1.2909977 3921:0.73331767 3923:0.39598566 3925:1.9691741 3926:2.0992486 3927:0.48632938 3933:2.1129551 3935:0.7990675 3936:0.12155026 3937:2.2723186 3942:0.82043105 3948:0.91851127 3949:0.10837854 3951:0.20999688 3952:0.64723319 3954:2.0903208 3956:1.8373623 3957:5.169425 3960:0.0056869239 3963:1.9376917 3966:0.11310802 3969:0.30632803 3970:0.6043272 3974:0.50090736 3975:0.70228338 3976:0.74742126 3978:1.2900369 3980:0.97388631 3982:1.2889794 3984:0.059496276 3985:4.0024271 3986:0.84079432 3988:0.70404673 3996:2.7429285 4000:1.7492712 4011:2.6491489 4013:1.817324 4016:5.2384853 4023:1.0924559 4026:0.86778402 4029:2.0446968 4032:3.3149929 4034:0.74192315 4036:1.5800478 4040:0.1742053 4043:0.25722349 4044:0.7954061 4045:2.5501742 4055:0.35911015 4061:0.34167889 4063:4.604537 4067:2.8941038 4075:0.42386833 4079:0.77359354 4084:0.71299219 4085:1.7563317 4086:2.2944486 4092:0.34636489 4093:1.9530609 4094:0.83286309 4096:1.1867867 
0.1702453417328485 1:3.843003 3:0.026010543 8:0.60441548 15:2.6256928 16:1.178206 19:2.2113605 27:1.6143922 28:0.82177401 29:0.65704042 43:1.4270853 44:1.0432556 45:0.39546332 54:2.1893983 60:2.084995 62:2.1846447 66:0.45784825 68:1.4084134 72:2.6788454 77:1.3997998 80:0.66717637 84:0.31456447 93:0.39901146 94:1.2618883 108:2.0869281 113:1.2922024 115:2.1364443 123:1.7418964 125:4.2767224 126:0.4859727 130:1.55159 144:1.0502057 145:1.1112735 150:0.094120592 153:1.1372195 155:0.62693906 156:1.3124503 157:0.54971302 161:1.892172 163:0.52303106 173:2.7925646 176:0.27221453 186:1.7764643 188:3.4911127 190:2.2192047 196:0.39848697 197:2.6695313 199:1.6711384 200:4.9283524 201:1.8243577 205:2.0086465 210:2.3877265 216:1.4581596 217:2.968735 218:1.6287369 229:2.6051087 234:1.7226354 239:2.0901887 245:0.98731828 246:0.35942453 247:1.9871619 258:3.3248467 261:0.24600351 262:0.99122357 267:7.1499372 269:3.6491992 271:0.82325208 275:5.0886612 279:0.8071118 283:2.1908746 292:0.02506274 297:2.0346975 299:1.3938105 306:0.1076628 311:0.27650338 314:0.030434728 323:1.5360681 324:0.67963457 335:0.28065211 338:0.86887753 339:1.2066308 342:5.7183108 347:0.38554275 349:1.4600017 350:0.97794855 353:1.6529458 366:0.43981767 372:1.0050342 375:0.022415876 377:3.488462 379:2.3187587 388:1.6018662 394:1.4783974 398:1.0889499 425:0.33421087 426:0.04900375 427:0.3575089 430:0.20192841 432:6.462636 433:0.92250115 435:1.295023 436:1.5328541 442:0.6168021 444:1.0721669 450:0.38350552 459:2.2779331 463:0.41966552 464:0.21741316 471:0.063625813 472:0.17074966 485:2.8327909 486:0.12921983 491:2.2001724 495:0.69379616 500:0.67278564 502:2.7925892 503:0.0090099573 505:3.4783409 514:1.6798166 517:0.921377 521:1.4963305 522:0.56202435 524:0.29674888 529:1.0667226 533:3.5732031 536:1.6250153 554:0.48326737 555:2.2663255 557:1.6044861 562:1.5852556 572:0.11095777 573:1.9077423 574:0.98025662 576:1.7303946 578:5.5370016 581:0.10167527 583:3.1540146 590:0.34235728 592:1.17291 599:3.2818606 607:2.0725706 609:0.68038064 612:2.6440639 617:0.61035234 633:1.8477477 635:3.5540214 639:4.0257597 642:1.2970537 645:1.2117418 651:0.49015296 659:0.2553857 662:2.7507799 669:0.91791141 670:2.9152188 672:3.1734188 675:0.21256933 679:2.1648965 682:0.89336383 684:4.6228995 694:1.1966883 697:0.63508791 703:5.1241069 705:5.8595648 706:1.0873456 717:0.60511708 720:2.2521594 721:1.0215727 724:1.5179803 725:0.63749248 735:0.20484906 737:0.52763379 744:0.054928213 748:2.4177163 757:0.21664333 759:3.299613 765:0.85493565 768:1.1007676 771:1.6455498 774:0.82092375 777:1.4549985 782:3.0791788 785:0.14598434 795:0.18456149 802:1.6075858 803:0.96210873 805:2.3294284 807:1.0512499 808:0.94084769 812:1.8800811 813:0.15533879 820:4.1362944 833:1.7873478 836:0.55845082 840:0.12673874 842:3.3542609 848:0.41245762 849:4.6202207 853:3.2988472 857:0.022847638 859:1.0264246 865:3.0404429 866:0.52595967 867:0.9912203 868:3.3764777 871:0.3479479 873:3.648658 876:2.1687412 878:2.7418928 879:3.165822 882:3.2190647 887:0.38023302 902:0.60487509 906:0.047389567 915:3.0015299 919:1.8058414 922:2.7548206 928:0.34847087 937:1.0438966 938:2.3370605 942:1.7886696 945:1.8020225 949:0.23027568 954:0.96020764 958:0.62393671 959:0.78365862 963:2.0176198 965:1.5233938 966:1.4086564 968:0.9852376 971:2.3055844 972:0.49178261 974:2.7816837 975:1.9742033 976:1.2918961 979:0.24949943 989:2.076705 996:1.3490418 997:2.0532157 999:0.24682206 1001:2.5125875 1012:0.84473795 1018:3.7806356 1019:0.92772764 1022:2.0777888 1023:1.7119226 1024:0.93801069 1027:2.1692739 1029:1.9696409 1030:0.53699446 1032:2.4787796 1035:0.58041674 1041:1.8813691 1042:1.0808965 1049:1.3466475 1050:0.90617692 1059:1.643919 1061:2.2265818 1062:2.1983752 1064:0.43473005 1071:0.79961467 1073:1.677274 1078:1.2455577 1080:2.9489994 1083:1.7817394 1084:0.04332006 1090:0.83917141 1095:4.0823302 1096:1.3159747 1102:3.9119916 1110:0.2667242 1111:3.11922 1124:0.57835007 1130:3.5789952 1137:4.8188405 1138:0.018798113 1140:0.6745221 1141:0.65582663 1149:1.1918973 1155:0.0021147728 1157:0.91195893 1159:0.39174336 1163:1.1585881 1165:1.7893696 1176:0.074588135 1177:0.92683434 1180:0.24881855 1181:1.2204133 1188:2.7772822 1189:3.5003688 1194:0.26854801 1196:0.27357244 1206:4.3710885 1208:1.0960388 1221:0.79452777 1228:4.9713798 1234:0.36679649 1236:0.93499613 1240:1.7731169 1250:3.1343734 1253:3.9084859 1257:0.66460758 1260:1.0903196 1274:0.0078817457 1282:0.32713947 1283:0.48475879 1286:0.40975046 1288:0.12585852 1292:0.99797153 1294:0.16655195 1302:1.9448268 1309:1.8578391 1313:1.9114294 1319:2.125855 1323:1.0956712 1328:0.47657335 1331:0.88934058 1332:2.5733159 1336:0.082302622 1340:4.2636747 1342:0.87956929 1343:1.1521108 1345:0.36021018 1352:0.52918392 1356:0.0078647733 1357:4.6425405 1366:0.6079582 1372:0.99410135 1375:0.33540413 1376:5.3981166 1378:0.27222538 1385:0.33725542 1386:2.5053337 1387:2.3451762 1393:1.4892738 1394:0.27384987 1401:1.5210371 1406:3.8059092 1408:2.161973 1409:0.90013111 1410:2.548826 1411:0.40250704 1413:1.1833427 1425:2.5493636 1426:0.37758654 1430:0.075694025 1431:2.5539634 1433:1.9122046 1440:1.0291635 1442:0.66113961 1456:0.22466847 1458:3.6381207 1465:0.52120477 1467:0.19208418 1469:3.3167315 1470:0.31143874 1471:1.2894416 1476:1.7725173 1479:0.26770112 1484:1.9159353 1485:3.4892378 1491:1.3340594 1495:1.1867021 1497:1.0785873 1506:0.16534802 1511:4.0510678 1512:0.28612569 1514:0.19578542 1515:3.0969739 1519:3.8746948 1523:2.1889615 1526:0.30245903 1528:0.70522654 1537:0.020327151 1538:2.9278908 1541:2.0824606 1543:1.5350164 1547:2.8582959 1551:2.1798925 1556:2.3969102 1574:2.7606168 1583:2.0577657 1586:3.6785212 1590:3.4668849 1592:0.37287933 1594:1.7901467 1596:2.6035814 1600:1.4531991 1604:2.9517488 1609:1.1139764 1613:2.1830237 1622:0.10314316 1625:1.503554 1626:2.4182944 1629:0.54010183 1634:0.57377392 1637:0.77162194 1641:0.44082904 1646:0.52847469 1647:3.1464005 1648:2.3803077 1652:0.29336071 1654:0.60751104 1657:1.4688537 1658:0.707739 1659:1.3706452 1661:4.0094714 1662:0.76252306 1663:0.088268459 1664:0.2212958 1675:0.95444947 1677:0.01229167 1680:1.229039 1683:1.6309276 1685:1.1560073 1690:0.51162779 1696:1.2817417 1697:2.2193227 1705:5.5522003 1707:0.054517999 1710:3.7024002 1711:2.4268298 1717:0.091806054 1725:0.93231738 1726:0.83530521 1729:0.76415992 1733:2.7515142 1742:0.82409275 1746:0.10895443 1752:0.92264748 1753:0.38629478 1754:1.3961869 1758:4.3064914 1762:6.7903466 1771:0.89731091 1776:0.13136765 1778:2.3956664 1779:1.2364144 1780:0.70590103 1786:1.1418595 1789:1.8539376 1790:1.6849724 1794:2.8432255 1799:2.3583646 1804:3.3449564 1806:0.77215707 1817:2.8211708 1819:0.62047243 1824:0.11177173 1825:0.43818191 1834:1.4006977 1842:1.5339832 1844:0.77706367 1846:1.3533947 1848:3.4099445 1849:4.3479953 1850:0.071310759 1851:1.7488902 1852:0.77424586 1856:0.37186491 1857:0.92374408 1863:2.0191793 1864:0.56176388 1870:4.6790152 1872:1.1515217 1874:1.0361508 1877:0.14319706 1878:0.79080147 1880:2.4997535 1881:0.93604898 1887:0.38798928 1890:4.2273016 1896:0.49516559 1897:3.3438051 1900:1.966257 1901:1.5807943 1904:2.2256339 1911:1.5525452 1912:2.6981134 1914:1.5936048 1918:0.60483456 1923:3.0392938 1926:1.3188853 1928:2.2895381 1935:0.47319037 1936:2.1758509 1945:2.6236978 1963:0.63185251 1968:3.2181861 1975:3.8553348 1977:0.22013605 1986:2.0992775 1988:0.067679375 1997:0.84657925 2005:1.0230707 2012:1.303287 2013:0.039807692 2015:1.2616119 2019:0.74557316 2021:0.88848817 2027:0.95626891 2032:0.4603906 2033:0.2632888 2042:1.3029001 2049:6.3060594 2051:2.2260547 2052:4.4057765 2058:1.1624637 2063:1.7780184 2070:2.6656375 2072:0.24978776 2079:0.38776979 2085:0.65842485 2086:0.37533665 2088:1.3242444 2101:0.62133038 2102:2.6217484 2107:2.1657653 2116:1.6408883 2117:3.1090159 2120:0.93247223 2121:0.34711045 2132:0.17397854 2134:0.4431302 2145:0.43027744 2152:2.6521921 2153:1.0869273 2154:0.72509688 2155:2.3050611 2163:1.6216508 2167:3.7104008 2169:1.8685286 2176:4.247035 2177:0.020952404 2179:0.6874727 2187:0.7364167 2188:0.31976104 2193:2.8706937 2203:0.21641743 2215:1.2935315 2216:0.68947196 2223:1.8624997 2224:5.6630707 2226:3.1273618 2229:1.9354157 2255:0.42479482 2257:0.3371844 2260:1.1122848 2262:0.67256659 2267:0.74073088 2270:0.15882784 2271:0.26768166 2275:0.079903275 2278:0.062952429 2281:1.3328332 2286:1.0513723 2288:0.25548768 2294:0.51612747 2295:0.32675973 2300:0.39889786 2303:0.32426775 2307:2.1514935 2313:0.088612705 2315:0.053365082 2320:1.0770749 2331:2.7239079 2333:4.4022317 2346:2.3375025 2353:4.7863922 2355:2.1506915 2358:0.93950921 2360:3.4066093 2372:0.46942604 2381:0.24279651 2395:0.72293383 2399:0.34626946 2406:1.4423248 2416:0.69999051 2422:0.50935662 2431:0.41228929 2432:0.83825052 2434:1.4966135 2435:3.1667058 2444:0.46519941 2446:1.8735402 2447:0.41319016 2452:3.6390862 2459:0.19528177 2463:0.96845049 2466:0.41401535 2470:0.72655439 2471:1.150842 2485:0.10329342 2486:0.52967417 2491:1.5628579 2496:1.7938043 2497:2.4379671 2501:1.4954162 2504:0.82649755 2506:0.11771005 2507:0.14459863 2508:4.5822182 2509:1.8390534 2511:0.012211502 2512:0.018511862 2513:1.408807 2514:1.2308619 2518:1.9129333 2520:3.6310265 2522:0.88257456 2526:2.2985029 2529:1.8410245 2533:0.22895315 2536:1.3811471 2543:1.0070579 2560:0.41812247 2563:2.7675929 2571:2.1141942 2574:1.674381 2578:0.51074815 2579:2.093066 2583:0.30622652 2589:1.1453414 2592:2.026504 2594:2.1609674 2595:0.013154715 2599:0.30154121 2600:0.68678296 2604:0.6783036 2614:2.5524318 2617:1.1740774 2621:1.6737552 2626:1.0050297 2632:0.033158213 2634:2.8199091 2637:1.3660785 2639:4.5860224 2643:0.16700397 2650:0.68960631 2651:0.51120257 2659:3.3719299 2662:1.7316824 2664:2.3240047 2667:1.4936024 2669:2.2948623 2672:4.7529168 2686:0.24420153 2687:2.9863653 2688:1.4298506 2689:1.5779301 2692:0.91228783 2695:0.4341037 2701:1.6419368 2702:4.1064482 2704:1.6701484 2708:1.4042507 2710:0.1913988 2712:1.6839691 2714:4.2414083 2715:3.7251272 2719:0.65944099 2723:2.4544992 2724:0.26064008 2725:1.6144669 2739:1.5328028 2740:1.7373176 2741:4.0104609 2747:0.072628111 2750:1.7191546 2751:0.78158557 2752:1.3957144 2754:0.15644041 2758:2.3343658 2763:0.22454849 2765:0.58202201 2766:5.3022871 2777:0.22080791 2778:4.5653319 2786:0.78222847 2787:2.3093808 2789:1.3317059 2790:1.2610348 2791:0.70332402 2796:1.2617754 2800:0.5460428 2802:1.1605208 2803:0.58448678 2816:2.4553132 2817:2.9189303 2821:0.5054307 2830:3.5002835 2834:3.1856174 2836:0.20479149 2837:0.49458396 2848:0.78657329 2849:3.2020369 2860:2.7155678 2864:1.9965817 2867:0.6716007 2869:0.85627282 2870:0.64156359 2872:1.0444591 2875:3.7063105 2878:0.067603409 2885:0.93596315 2889:0.81361806 2891:0.16450816 2895:0.42661989 2898:0.69465685 2899:3.4784172 2907:1.7672935 2909:1.5910324 2916:1.1645784 2917:3.2735696 2919:3.3601911 2920:0.048451252 2927:0.34459251 2931:2.3862865 2932:2.0525723 2938:1.7595606 2940:0.76334912 2942:2.27178 2944:1.9225723 2947:2.0997839 2950:5.6032424 2953:1.5683039 2955:0.46375403 2956:2.080287 2957:0.3768712 2958:2.1055634 2959:0.82968783 2962:1.755006 2963:2.0310585 2968:2.154259 2970:1.7119061 2971:0.26888704 2974:1.2377534 2976:4.0788646 2991:0.42069131 2993:3.6516731 3001:2.7433331 3003:5.925827 3008:1.6225019 3011:1.4192296 3012:0.41020435 3013:1.3160253 3019:0.55889809 3032:1.2087879 3034:0.70177341 3035:2.7009001 3036:0.74186385 3040:1.358559 3043:1.9119518 3045:1.3262761 3047:0.2652998 3051:1.6960754 3053:0.53808385 3056:1.4343692 3057:0.34728676 3060:2.38888 3065:2.1726558 3067:2.9485457 3070:2.7831175 3075:0.30408287 3094:0.65256828 3105:0.37649825 3116:0.75045282 3117:2.1475079 3118:1.0932488 3120:0.94535029 3124:0.718189 3133:0.062835619 3137:1.6412125 3144:5.3450713 3149:1.0992374 3152:0.77453387 3161:1.8351548 3162:0.74848145 3164:2.9872591 3166:2.3736985 3174:0.60336107 3178:1.7475548 3179:0.95381021 3182:1.3075953 3185:1.1486356 3188:4.9464536 3192:0.17395687 3195:5.7149429 3197:1.434507 3199:1.5279742 3200:0.69097596 3205:1.5609214 3210:0.093873173 3213:0.42871448 3215:0.77070904 3225:1.5717335 3226:3.7893901 3232:2.6337471 3237:0.094416156 3245:1.1365272 3256:0.12953758 3257:0.50232852 3260:2.5685196 3267:4.2692213 3268:0.88364488 3275:1.8873575 3279:2.2057617 3285:2.1193888 3286:2.8963189 3289:0.12610227 3293:2.5044918 3295:2.7075455 3299:2.1165233 3309:2.4836645 3310:2.8720887 3321:2.1186728 3322:0.86026502 3324:0.77093047 3327:0.23421028 3331:0.082994729 3334:0.92231882 3343:0.11315662 3344:2.7048292 3347:2.4812279 3348:0.75658953 3349:0.43202636 3355:1.6271127 3361:1.7298574 3364:1.3350322 3365:0.66190517 3374:1.2538928 3377:0.20782423 3385:1.2663534 3386:0.79939902 3388:4.2195868 3394:0.49225032 3396:0.56153286 3401:1.1526245 3413:2.6325924 3424:0.21244231 3428:0.24844292 3431:1.9824225 3432:1.2030091 3438:1.8530636 3442:0.78121686 3446:0.088468254 3448:0.60204327 3449:3.7196484 3450:1.0402248 3457:0.54429293 3467:0.58036309 3473:0.25347561 3475:3.1913605 3478:0.70789832 3480:0.53895378 3484:0.21498451 3489:1.0823734 3491:0.32899424 3493:1.6595627 3494:2.8147879 3500:3.5650611 3504:1.1869123 3507:3.4540298 3521:2.3912623 3523:0.46135274 3525:2.7466254 3526:2.2087779 3529:0.4122985 3536:0.094662607 3538:3.3751035 3539:0.27912429 3545:2.9630859 3548:0.017189264 3549:3.4854538 3556:1.758882 3560:1.8302931 3561:1.2155156 3564:2.1746168 3566:1.0993381 3569:3.1681893 3570:2.2796896 3573:0.48645002 3576:0.25456378 3577:0.89813828 3586:2.9910064 3588:2.0425708 3591:0.62567258 3603:0.47082841 3604:4.2766538 3608:3.2616131 3614:4.0371127 3617:0.2846356 3624:0.24151486 3627:0.14303914 3630:1.8384237 3631:0.85309815 3640:0.28501013 3643:0.98703051 3650:0.9879685 3653:2.4307771 3655:2.3976555 3658:1.6355603 3665:2.1267376 3666:3.9212475 3667:1.8754827 3669:1.153319 3670:1.3691535 3671:0.45761427 3672:4.9115391 3682:2.2589743 3686:3.3772697 3689:1.816433 3690:1.5748644 3691:1.703383 3692:1.1976405 3695:0.80668724 3703:0.32835335 3704:2.0125933 3705:0.24573267 3711:0.95582545 3715:2.833431 3719:0.1096659 3722:1.2327973 3723:3.0694444 3724:1.5665455 3727:0.93850619 3729:1.8083926 3734:0.52382362 3738:1.2096741 3745:2.5502884 3748:1.8676118 3749:2.0281463 3752:0.50481224 3766:0.5817138 3772:1.429408 3783:1.0375456 3789:1.4477726 3793:2.9908304 3795:1.1696628 3797:3.3363137 3798:1.7691481 3806:0.49909559 3807:0.0020896792 3808:2.7476115 3811:1.0705098 3813:0.8655045 3814:2.3864217 3818:5.7461252 3821:0.18392423 3823:1.8789489 3824:1.1420668 3825:1.835192 3829:1.3285897 3831:0.2714678 3833:0.3761366 3836:3.5703404 3837:0.52340972 3848:2.5573266 3850:0.30900735 3851:2.9742196 3860:1.1799054 3861:0.61174476 3862:0.58559489 3871:1.0657828 3874:1.0985546 3875:1.0324421 3876:2.4561903 3877:3.4205534 3886:0.96570337 3888:2.0212579 3892:3.049495 3906:2.1929722 3913:0.11055082 3915:1.53745 3918:0.72083783 3921:1.0185914 3925:0.49195078 3926:2.0492918 3930:0.38710266 3933:1.0150222 3936:0.44947207 3937:1.0506458 3942:0.96264791 3948:1.8722436 3951:1.6571393 3952:0.77249628 3956:0.32807186 3957:5.2879968 3963:2.7302008 3966:0.61908722 3969:0.85153645 3974:1.5444243 3975:0.79901868 3976:0.95440066 3978:3.5407226 3980:0.94923151 3982:3.4274859 3985:2.5991049 3986:0.35087052 3988:2.4554219 4000:2.1819599 4005:1.5322404 4007:0.12781669 4010:2.3506663 4011:2.1680896 4016:4.501173 4023:1.232771 4026:0.62218738 4032:4.5675735 4034:0.50252247 4036:0.54828084 4044:0.30749613 4045:1.6879442 4050:0.10064815 4057:0.93851912 4059:1.0101495 4063:3.5279999 4067:0.23068099 4070:3.0011854 4073:0.14171454 4075:0.30840832 4077:0.082227111 4085:1.710568 4086:0.010249026 4090:0.48020083 4092:0.74643743 4093:1.6780672 4096:2.5658138 
