svm_type c_svc
kernel_type rbf
gamma 0.000244141
nr_class 2
total_sv 77
rho 0.884198
label 1 0
probA -5.04059
probB -0.0815488
nr_sv 34 43
SV
0.4885756098495849 10:1.8303608 15:1.9228412 16:0.043318361 18:1.5333467 19:0.80351973 27:3.9115961 28:0.30315626 35:0.47940576 36:0.11621472 38:1.0530065 39:1.7463267 45:1.6284058 48:0.47937143 57:3.6452935 60:1.8099852 65:1.2528026 70:2.6113071 80:0.15202221 84:0.87214828 93:2.841809 94:1.5815952 105:1.4596877 115:2.5865057 118:0.93014544 122:3.3564954 125:1.4493067 126:0.927203 143:1.2005279 145:0.12588346 151:0.67136127 156:0.65981841 161:2.6308365 163:0.61349547 165:0.54032195 167:1.9499876 169:1.6442804 170:0.046250433 176:0.99130011 180:1.64178 188:0.21060777 189:0.46914437 190:0.44609973 196:1.9082898 199:3.491785 200:1.6705934 210:2.3077874 217:1.026106 222:1.0278431 224:1.2508807 229:1.1342001 240:3.7499547 248:0.80311471 256:0.33400553 258:0.86219037 266:1.2289538 268:0.0324568 274:0.12758398 275:1.2152357 277:0.03400898 288:0.40649465 290:0.71870732 297:3.0457299 299:1.4502788 306:2.4183278 315:0.4860304 317:0.48048866 318:1.2085565 328:2.4022384 333:0.95538837 335:0.11855191 339:0.55898285 340:1.330835 347:1.9911104 348:2.1014049 350:1.3037784 353:0.57325029 359:0.77776575 365:0.56543308 366:2.0208664 371:3.179193 375:1.2200062 378:1.763155 397:1.0569911 399:1.5792772 408:2.6728427 412:0.70561659 420:0.2809782 424:0.91850591 432:2.7501545 442:2.2792346 450:1.038535 459:5.41956 462:1.1570059 463:1.1426134 472:1.1801798 479:0.52368641 495:0.56560671 502:0.70647627 514:0.368604 520:0.20506126 521:0.73503029 524:3.9022076 526:2.9170322 535:0.34720963 548:0.31347969 560:0.19341254 562:0.74442267 565:0.49710649 570:0.14652541 575:2.1456974 578:0.2540262 586:0.32331479 588:1.1467911 594:0.98422337 603:2.1373894 612:2.932483 626:1.9318416 628:1.25919 629:0.70599437 641:1.2020335 643:0.13136044 644:2.2661505 660:0.55809367 667:2.9076908 669:3.1106505 670:1.2185459 672:2.1633725 674:1.0816007 675:1.8547997 684:5.346736 688:0.82043505 691:1.91769 696:1.5545841 697:0.29766747 698:1.9665892 702:2.7367675 704:1.7633451 705:2.2078409 706:3.8351407 711:3.0742645 717:1.2036816 718:3.2518551 723:0.9496063 728:2.4943433 739:2.6050093 741:0.95177293 747:0.54626215 751:2.9196689 755:1.2361859 759:4.0232873 760:0.1144488 771:3.136795 785:2.4952071 789:4.6585979 791:1.9690496 794:1.883052 796:0.57568395 799:0.58442158 803:4.2773519 807:1.7942474 809:0.45231599 810:0.54112273 813:2.765132 820:1.5235089 825:0.095093876 836:0.44740224 839:6.0643148 840:1.8254806 843:0.39480788 846:0.45116919 847:1.2106957 848:0.73085606 849:0.39785233 851:0.38019311 854:0.65480435 856:0.33906189 857:0.80549181 859:3.8662651 865:2.9594636 868:3.4770777 876:1.1859959 882:0.69901723 889:1.7303215 895:0.97557539 899:0.062122628 904:1.2453324 908:1.7268435 912:0.5050751 913:2.4002085 924:0.012780398 930:0.23353547 937:2.631073 940:2.6454113 942:0.24531019 945:2.9319248 957:0.66453797 959:0.4702583 960:4.4709377 961:0.77200282 963:0.10209896 965:1.3643574 971:1.6086482 974:1.3041852 976:1.5019938 979:1.977283 985:0.46541443 991:1.0738429 997:2.375715 1001:1.9416654 1004:2.3965867 1010:3.3658161 1018:1.2664382 1019:1.2828221 1024:0.83710921 1025:0.65571785 1029:1.1769277 1030:0.79067588 1035:1.1582985 1037:0.26742071 1043:0.62422192 1051:0.9454242 1062:2.4789608 1076:0.62464666 1078:3.8043504 1080:2.3282344 1095:1.2640467 1096:4.2488484 1097:0.48693699 1100:0.29973203 1102:0.40505812 1106:0.41326514 1110:1.7143281 1111:0.65939695 1125:0.637788 1126:1.4887909 1137:2.5979347 1142:1.3065746 1154:0.91277546 1156:1.7112085 1163:0.072381943 1165:9.0188513 1171:0.10125586 1175:0.62555844 1176:1.1016482 1180:2.5475843 1183:0.67972922 1186:1.2350601 1188:0.44398832 1189:2.2794199 1198:2.1795146 1204:0.13296327 1206:3.4905653 1214:0.99022388 1216:4.043293 1217:1.1175764 1227:0.77320629 1228:1.3066672 1229:0.70716423 1233:0.38001764 1240:6.1487622 1246:0.56200701 1249:3.327879 1250:1.4140556 1257:1.7547942 1258:0.50389123 1259:0.34957787 1269:0.68313551 1275:2.6772578 1281:0.28023601 1285:1.8359815 1286:0.45442826 1292:1.4656495 1297:1.6827971 1302:0.71765387 1305:1.3768914 1306:0.41810197 1311:0.48694649 1313:2.5946791 1314:1.8986304 1315:1.5686462 1316:0.18230119 1333:1.344615 1336:1.4064295 1340:1.8476967 1341:2.1846106 1342:2.0843463 1348:1.9280726 1350:1.0239104 1356:2.0019898 1357:1.3239036 1363:1.7458433 1366:0.042480975 1368:1.1914468 1371:1.0979431 1376:2.4157341 1378:1.5171072 1383:0.3535617 1386:2.2877481 1387:0.054544002 1394:0.15009102 1395:0.1367802 1396:0.59319627 1401:2.18153 1402:0.67783618 1406:0.11317897 1410:3.4855785 1419:3.9831483 1425:0.62089026 1429:0.5588755 1431:1.6239321 1438:3.9869828 1444:0.20225257 1453:0.56209475 1454:1.3795869 1456:2.4043825 1465:1.0560752 1467:0.47832274 1476:6.415 1478:2.3035169 1479:3.3769693 1485:1.7819163 1487:3.4465663 1490:1.6034715 1497:4.2786794 1498:3.2136893 1503:1.8789955 1511:2.7194359 1513:3.4646785 1519:1.7256604 1522:0.87740874 1523:0.028868139 1534:0.10618705 1538:2.5052123 1540:0.3637698 1544:4.2004209 1555:0.14038996 1556:6.5965734 1557:0.27200466 1560:0.77267647 1571:1.4336331 1573:0.71913332 1574:3.5395043 1586:2.2267017 1588:1.2139523 1590:0.61156642 1592:1.9396868 1594:1.597412 1595:0.37726781 1600:2.4812608 1613:1.9339845 1619:0.091138542 1623:0.45372304 1625:2.5731146 1630:1.3536232 1640:3.1019847 1648:2.9783809 1653:1.4679083 1654:2.6380928 1657:1.7697825 1661:0.10392919 1662:2.1617088 1672:1.7170318 1675:2.9635305 1676:2.4875004 1677:3.1682642 1678:3.2220159 1680:1.7442766 1681:0.48169827 1689:0.71951568 1695:0.072120696 1697:0.63436484 1699:0.57857722 1706:0.80643505 1711:0.00060626864 1715:2.3413582 1720:1.5887153 1725:2.672034 1726:4.3785191 1737:2.0902698 1742:1.4138391 1746:3.2828012 1750:1.4162972 1753:1.9735996 1758:2.0494597 1759:2.1540785 1762:1.4970458 1766:1.7924063 1767:1.3240364 1775:0.14467627 1777:2.2718132 1778:0.44932345 1780:1.784252 1783:4.2314644 1790:3.3413007 1792:0.25394261 1795:2.5934937 1801:0.34894115 1804:0.036919057 1806:0.38000673 1807:0.31895614 1812:0.35697448 1823:2.9257693 1824:1.047019 1825:1.6646203 1826:1.394489 1828:0.094149679 1832:3.6383729 1842:0.38457638 1848:1.5354692 1849:2.2113831 1851:1.0518446 1857:1.1576228 1858:0.74206239 1861:1.3640927 1863:0.58139944 1864:1.6757509 1871:0.88457644 1890:6.4575477 1896:0.4995569 1897:2.5087283 1912:1.2829986 1914:1.9664195 1922:1.4071841 1928:0.4342646 1935:2.0995162 1943:0.62135851 1968:2.1086981 1970:1.3844012 1972:1.750105 1975:2.7738886 1980:0.082394771 1981:0.42981297 1985:1.1645623 1995:1.0490597 2001:1.8652347 2002:0.97056204 2007:1.2340775 2011:1.1435723 2012:3.4183397 2019:2.166029 2030:2.0454659 2031:4.5122371 2043:0.70197225 2045:1.5905808 2047:0.17693573 2048:2.793364 2049:0.65774113 2050:0.45801574 2052:1.8017908 2059:0.084811181 2082:0.38866016 2088:0.62640417 2091:1.623908 2097:0.96675849 2099:0.72753966 2101:2.7934463 2107:1.3624377 2108:1.594872 2117:0.13330138 2119:0.97499174 2121:0.60207731 2132:2.2877054 2136:0.55336314 2149:1.0391588 2153:0.34824684 2154:3.9725659 2168:0.96132731 2172:0.7336762 2176:3.1898847 2177:3.3765221 2183:0.60033214 2187:2.0298188 2188:0.15737589 2194:0.050797462 2196:0.23344028 2201:1.6408622 2202:2.7242424 2203:0.1015669 2218:0.34093779 2219:0.24209404 2222:2.9528291 2223:2.1830654 2239:1.549207 2245:0.62820518 2253:0.75769222 2257:0.65807307 2262:1.7756503 2267:0.58413339 2269:0.63758177 2271:0.92283714 2275:1.809072 2282:0.1401403 2283:0.75806534 2286:0.57726985 2290:1.2625791 2293:0.067637563 2295:1.1468327 2298:2.3941946 2302:6.1380777 2303:1.3170487 2304:0.6317296 2314:0.1923835 2316:0.44306713 2318:1.0173345 2319:2.5698876 2320:1.1521283 2321:0.63850886 2322:1.7060441 2323:1.0604286 2325:1.5647018 2333:1.1959293 2336:0.47964221 2341:0.90783381 2344:6.1677294 2349:1.1683031 2350:2.9360256 2359:3.2803459 2360:6.7534995 2362:1.614337 2367:0.041774869 2372:3.1521568 2378:1.8725415 2383:0.99613285 2390:5.6546412 2393:1.1137097 2400:2.4265034 2422:1.3368834 2432:0.7288661 2435:1.3725073 2437:1.7560239 2442:1.3139554 2444:1.3609865 2452:2.5426486 2457:1.8154322 2459:0.56757998 2467:0.42841318 2473:0.28860882 2477:1.0884557 2485:0.51391667 2487:0.99052024 2488:3.7368147 2490:1.90008 2492:1.1304178 2505:0.3548156 2509:0.44218314 2514:2.3599584 2516:0.54904807 2520:2.1535728 2526:6.541647 2528:0.7921108 2529:1.2691822 2532:2.4745409 2533:0.29602224 2536:1.6319804 2539:1.7665037 2543:0.64834511 2577:0.5760231 2579:1.0005035 2589:0.35642463 2592:0.46011615 2598:0.83600694 2599:0.046334922 2605:1.3622249 2617:1.4827771 2618:0.74263346 2621:0.24569392 2625:1.0697722 2626:2.4090049 2634:1.3304535 2637:1.3272116 2639:2.0533328 2649:0.80493504 2652:1.332298 2656:1.4409437 2658:0.14871302 2674:2.435796 2685:1.0272818 2688:0.25179562 2710:1.9079237 2715:2.5169787 2718:2.2496185 2719:0.22081128 2720:3.5856223 2723:4.5855269 2725:0.79422516 2727:0.033181489 2732:0.56542242 2740:2.5317674 2741:1.3129998 2756:0.91201156 2763:2.5508504 2765:1.1715078 2766:2.3762052 2774:3.7474482 2777:0.21426928 2778:2.8992536 2789:1.9033778 2793:0.18843473 2795:0.6263206 2800:0.28901795 2806:1.2744172 2811:2.5711732 2813:0.73055542 2825:2.8210418 2834:2.2232137 2835:2.3648171 2840:0.33750522 2841:2.060704 2845:3.173285 2849:1.1290259 2856:2.1644549 2860:2.8199017 2864:0.8730278 2865:1.6175365 2869:2.4304843 2870:2.6497836 2879:1.4275851 2882:1.6793288 2887:0.48027751 2891:3.6046484 2894:1.6822119 2895:1.7095613 2898:0.49230641 2905:0.27445453 2907:3.0767422 2909:1.6939635 2916:0.13074863 2921:0.28245029 2929:1.0437158 2941:1.4381542 2943:1.7310233 2944:0.3400687 2947:1.2844349 2949:0.88000572 2950:3.8264961 2951:0.67715508 2955:0.32073411 2958:1.1516597 2968:1.6106224 2970:2.3400486 2974:1.8500423 2979:0.28888026 2985:0.95873809 2990:0.24535987 2994:1.0592806 2995:0.76877093 3000:2.0289645 3001:1.561983 3010:1.0826561 3013:2.9324763 3015:3.9865279 3019:1.2430966 3024:0.13719785 3033:1.1614758 3034:0.96856463 3035:2.9442301 3036:1.3334732 3041:2.178503 3044:0.39104134 3053:0.33463591 3057:4.266232 3061:0.044139057 3067:5.9239616 3074:0.048609614 3079:1.1646031 3081:0.72139466 3085:1.7359635 3089:0.59678954 3094:0.84202743 3107:0.41832203 3111:1.7305547 3113:1.2580953 3116:0.30055851 3117:1.2546797 3122:0.95728779 3135:0.11246645 3150:4.0336494 3152:4.4549761 3155:0.28891683 3163:2.7963071 3178:2.5725279 3195:1.2409571 3196:0.87657869 3202:0.54203761 3207:1.2737409 3214:0.20541748 3226:0.8670277 3236:0.16570258 3238:2.1828189 3242:0.53221405 3245:2.026413 3247:3.2054176 3252:1.4901692 3256:1.1222155 3258:0.45828009 3259:1.2557487 3260:2.4951296 3267:0.36745089 3268:1.2170031 3276:0.22207221 3285:2.695987 3286:1.7290093 3289:0.40264276 3293:1.8243169 3299:1.9015579 3312:2.2894976 3327:0.53177983 3334:2.2772696 3343:0.02201736 3344:1.7437272 3348:0.086070657 3349:0.45150825 3351:1.4720936 3359:1.4011824 3361:0.22181427 3363:0.017035961 3366:0.48433283 3367:0.25742984 3371:1.1607049 3377:0.18068984 3378:0.37194514 3390:0.17518571 3397:0.10823712 3399:2.2308633 3403:2.3365762 3408:0.9663918 3411:0.10709846 3412:0.51560724 3413:0.50212127 3421:0.1320608 3432:2.7261984 3436:0.76076353 3438:4.2011962 3449:4.913929 3456:0.98151809 3460:0.46594694 3475:1.1279795 3480:0.31186399 3482:2.6176369 3484:0.66538846 3486:0.67308605 3491:3.1557775 3493:3.820271 3494:0.52134824 3497:0.59270847 3504:0.67722583 3507:0.47564647 3514:0.2845903 3525:2.7833109 3526:2.6016126 3536:1.509658 3537:2.3284278 3539:3.0581377 3541:0.66428924 3548:1.5698445 3556:3.6691408 3560:1.5526836 3577:0.55222416 3580:2.5325289 3582:1.3694626 3586:2.4569888 3588:5.4883757 3597:1.5344687 3607:3.278863 3608:0.62586391 3612:5.6000438 3614:0.90904593 3617:0.37933314 3629:0.55368233 3631:1.173547 3635:2.8266225 3643:4.0681667 3653:3.703408 3657:0.61418331 3665:1.6591129 3666:0.44195777 3667:2.083411 3677:0.12931687 3690:2.1294611 3691:0.11931521 3692:2.1664572 3696:0.54673958 3697:0.25084066 3714:0.37889779 3715:1.3899267 3717:0.31384423 3719:0.73535061 3721:2.0764792 3726:1.5262492 3739:0.14927563 3741:3.97156 3744:2.001179 3749:0.52128452 3752:6.0076499 3753:2.3786297 3755:0.41919684 3756:1.0924184 3759:2.5798821 3761:1.7563692 3762:3.6393189 3765:1.050112 3768:0.0040051639 3781:2.0708508 3782:1.6452124 3793:2.130903 3796:0.97044516 3797:3.7534871 3800:1.8901913 3803:2.5776904 3808:3.242801 3810:0.24307168 3813:0.14514905 3816:0.88400626 3819:0.46025199 3822:1.0974753 3824:5.5639491 3829:0.2855739 3845:2.9515486 3847:2.3872008 3848:0.40797809 3851:3.0293405 3859:0.33832437 3860:1.7499173 3861:0.12897849 3871:2.2228909 3875:2.9721241 3876:0.44360399 3877:0.21367192 3881:2.7304025 3885:1.9215207 3888:3.3137054 3889:0.57453966 3891:2.3991306 3893:0.23491466 3898:1.6189132 3905:0.0021060705 3906:0.12984592 3908:1.2447016 3910:0.68154979 3915:2.0578535 3919:0.47391421 3928:0.29731286 3930:1.3884808 3933:0.12166305 3935:4.1441751 3942:5.3852639 3957:2.030916 3963:1.2142413 3970:4.2799854 3974:1.3001325 3976:2.074435 3979:1.4434662 3980:3.681623 3981:1.6232278 3982:4.532732 3984:1.5855824 3986:0.16842273 3993:1.4992673 3997:0.8264997 4001:0.90489483 4010:2.024323 4011:0.071998358 4014:0.58676076 4016:2.9531054 4017:2.3098321 4021:0.0088145733 4039:1.2784196 4040:0.85519838 4041:0.971035 4044:2.368916 4045:4.2429342 4050:1.3237895 4057:1.8645118 4058:3.2663209 4059:2.198808 4061:0.24973515 4065:0.49639225 4066:1.163769 4067:1.3566607 4074:3.7166972 4080:0.35274363 4081:1.1567715 4082:0.9400962 4085:1.8503168 4089:2.9771731 4090:2.3919492 4091:0.99518955 4092:2.08936 4093:0.34035584 4094:0.17220727 4096:0.30788344 
0.5766428185390964 18:1.7289603 19:3.3312786 27:3.7092927 29:0.21601883 38:1.4901388 39:3.1063738 45:0.085501164 57:3.4513547 60:0.16146338 68:0.16195691 69:0.65860981 70:2.2086077 80:1.6867498 84:4.0560575 93:3.2218034 94:0.78706777 105:0.55118704 108:0.37720725 115:2.0036066 122:1.030254 126:0.47759789 143:3.3388939 148:0.2644881 167:1.3263385 169:0.040440798 172:0.1934177 188:1.6940835 193:0.086517066 199:2.8129025 200:0.73295116 210:2.9090748 222:0.84131384 224:1.5228317 259:0.014081664 262:0.74038148 266:1.525301 274:2.1296172 288:0.11388794 290:1.2962427 297:1.8115065 299:1.2372829 315:0.65795171 317:1.4161857 328:1.4337546 340:1.1732208 347:0.44519943 348:0.86830121 350:1.1800259 361:0.042054035 365:1.5415401 366:0.32871687 367:0.63744992 371:3.7903399 391:0.1330514 408:2.3381381 416:0.36309698 420:2.0023808 432:0.96538603 434:0.79872578 436:0.117311 442:3.6445515 450:0.41742393 452:1.8999743 459:4.1788931 462:1.4539497 463:2.0910759 472:2.6337819 482:1.5791185 486:0.15826136 491:0.51104885 495:0.53173935 499:1.0079415 502:0.65676218 521:2.0181475 524:1.8712556 526:2.1294701 562:3.4129853 565:0.68561119 569:0.18837878 575:3.5704672 586:0.72581971 592:0.52503717 593:0.26952183 603:1.7548989 607:0.15030901 612:0.074131504 628:3.3782179 641:0.19281909 644:1.1203429 657:0.049857914 667:0.83963382 669:4.9521418 672:2.5059063 684:6.087841 691:2.2303815 696:0.033462733 697:0.015307546 698:2.3438261 702:1.2239053 705:1.59989 706:3.1134915 711:3.2895648 717:0.053789407 718:0.041287363 723:2.0648289 725:0.36478838 728:1.4649377 732:1.4168047 736:1.4035935 739:2.113343 741:2.2347736 749:0.055506289 751:1.3279625 755:1.2052586 759:4.5260587 761:0.45021242 771:0.67265785 775:2.0899649 780:2.3668971 785:2.9302483 789:2.4506524 791:1.9668609 792:1.3861327 799:1.6897932 803:2.2343924 807:1.8108786 810:1.0885047 813:2.4156542 820:3.1394019 833:1.4771947 839:7.0735836 840:1.8055086 841:0.9711886 846:2.5040443 847:0.17541724 849:0.91595149 854:1.7298999 856:0.51683867 857:1.3710024 865:1.6893196 867:2.9506321 868:1.0081661 876:0.26771334 882:0.42875391 889:3.6806669 895:2.6195054 899:2.5088453 904:0.78964722 909:1.2706751 913:1.8044708 916:0.65466958 927:1.0827615 930:0.071199358 937:0.5454402 940:0.36964384 945:5.3947377 957:0.54792351 960:2.6778142 965:1.015699 971:0.22603551 976:2.2792225 979:3.7708881 985:1.5938402 991:0.1460149 993:2.2698073 997:0.6257478 1001:3.2931213 1004:1.2181369 1018:4.4619741 1019:5.1530275 1029:2.7466514 1030:0.50391293 1035:0.060906053 1037:3.0298245 1043:2.2807524 1054:0.24265654 1062:0.94735038 1076:0.40397573 1078:2.2256267 1095:1.7492266 1096:1.0400909 1104:0.2466152 1110:1.4204247 1111:0.7393983 1125:1.4501486 1126:1.4269133 1130:0.82886016 1137:0.30690116 1156:0.7672807 1163:0.61699194 1165:7.4823842 1170:0.71019858 1171:2.5342581 1180:1.3298433 1186:4.2895546 1189:1.0174332 1198:3.0911858 1206:4.1598473 1216:0.31878167 1228:2.1024165 1231:0.050153196 1233:0.48692101 1240:2.8924344 1249:2.82986 1252:1.0694214 1255:0.7768473 1257:0.99613309 1264:1.1199861 1267:1.0559174 1274:1.6929849 1275:4.3762221 1282:0.29399666 1285:0.5277952 1286:1.523345 1292:3.2157395 1297:0.12321869 1298:0.13353252 1313:0.62087679 1333:1.840049 1336:1.7899168 1341:2.1091621 1342:1.3292137 1348:1.69159 1356:0.74541306 1357:2.3836038 1359:0.16453281 1363:0.7386927 1365:2.1619425 1368:1.2389728 1369:0.069604546 1371:1.3482959 1376:2.4764831 1378:0.20878164 1379:1.2226079 1383:0.42034152 1385:0.073750138 1386:0.13417345 1396:1.5883236 1401:0.13559353 1410:2.2759202 1419:4.9570942 1433:0.1215277 1438:1.0729896 1447:0.11721098 1453:1.061851 1454:0.80558169 1456:0.15444154 1465:1.6521274 1476:6.78018 1478:2.2771654 1479:2.9680059 1487:4.3049335 1488:0.015868902 1490:0.47644371 1497:2.1235344 1498:1.0897579 1503:4.9423418 1511:0.56301057 1513:2.2182629 1514:0.36335289 1519:2.5075223 1522:0.54991615 1538:1.6687498 1544:2.3635643 1551:1.8779749 1556:3.2863994 1569:1.19807 1571:0.50097233 1573:0.42935619 1574:3.5088208 1582:0.59674472 1586:0.24753858 1588:0.93946898 1594:0.34354419 1596:0.83890504 1600:0.82039523 1605:2.7597032 1613:1.4797118 1625:2.671025 1648:0.72008669 1657:1.3431337 1661:0.82894278 1662:2.7309976 1667:0.51384318 1672:1.9985648 1675:3.1703186 1677:2.9831548 1680:2.2995551 1689:0.89418912 1695:2.1892996 1699:2.8879776 1711:0.62307745 1715:2.2221737 1721:1.0550103 1722:0.0087556094 1725:2.7012339 1726:3.1400034 1746:2.2974243 1753:0.10835344 1766:1.5748467 1777:1.9016004 1780:1.5605105 1783:1.4723164 1790:3.4859488 1795:3.0008953 1800:0.70252961 1801:0.054064631 1804:1.43613 1818:0.23505571 1823:1.5481337 1824:1.0960901 1828:0.20688471 1832:2.9939337 1837:1.118082 1851:0.21313944 1852:0.49635196 1858:0.34022421 1861:1.5159124 1862:0.039369896 1870:0.61662161 1871:1.2101095 1890:4.6352129 1896:0.59721863 1912:1.7393067 1922:0.75332618 1926:0.38482454 1953:1.1371356 1970:3.0107441 1972:0.5929153 1975:0.85514021 1985:0.25885773 1988:0.070145369 1995:0.30268002 1996:0.66579497 2000:0.59328473 2001:1.5561575 2002:0.60009205 2007:0.7132926 2012:1.9613786 2019:0.31347999 2031:2.8817441 2038:0.59361005 2041:0.47270915 2042:0.0037132502 2043:0.12514867 2050:1.2374418 2055:1.0479748 2065:1.9225197 2097:0.0207223 2101:3.0417993 2107:1.424186 2112:0.76164824 2117:0.80399597 2119:0.20959055 2121:0.38702983 2128:0.62043399 2132:1.9113731 2134:0.94562912 2136:1.3227836 2138:1.9709693 2149:0.98224849 2154:0.43358606 2168:0.7728458 2172:2.3064232 2176:2.3108802 2177:2.5316617 2179:0.7166394 2195:0.13120192 2196:1.7404437 2201:1.4549665 2202:4.4077425 2222:2.3337924 2223:5.0243058 2239:0.28618133 2245:0.59694028 2269:1.2212669 2270:0.26361132 2275:0.14845765 2278:0.025512606 2282:0.33119011 2283:0.087974414 2290:2.4808633 2295:1.6650705 2298:1.1967347 2302:2.8594146 2303:2.6010945 2313:0.24737471 2315:0.63294053 2318:1.2081571 2320:1.2410839 2322:0.39015472 2333:0.42207527 2344:6.3584423 2349:1.7673134 2350:0.51973599 2360:4.4390988 2362:2.5406852 2372:1.1636471 2378:2.0492797 2383:0.1291334 2390:2.7729261 2393:1.2585047 2400:2.0081699 2411:0.45009351 2422:0.81411111 2435:3.5196102 2437:2.1036868 2442:1.9095789 2450:0.67685521 2457:0.42384925 2458:0.22700593 2459:2.5717778 2466:0.43449163 2467:0.45224044 2471:1.5403291 2476:1.7486535 2477:0.2923421 2487:1.1717366 2488:2.6696582 2490:1.963064 2506:0.21884274 2514:0.72224796 2520:2.822927 2521:0.018106565 2526:5.6142755 2529:0.27410561 2532:1.3948038 2536:2.1576638 2539:1.1674391 2559:0.45102918 2561:0.68954617 2571:0.66386342 2574:0.24828769 2595:0.89360356 2599:0.71512073 2605:0.18047078 2612:0.58488321 2617:3.0462558 2625:1.5292449 2626:0.74294323 2637:0.32668376 2639:0.27798653 2647:1.5735744 2649:0.26302117 2651:2.448848 2652:2.152982 2656:0.81032127 2658:2.952848 2669:2.6510897 2674:2.4566529 2685:0.1029323 2688:0.84161758 2692:0.036105484 2695:0.12624586 2704:0.9211278 2714:0.67871779 2718:1.3429877 2720:3.6300049 2723:4.3246922 2727:2.0397129 2745:2.5959363 2763:0.17969605 2765:0.82546324 2766:1.7519042 2774:4.0466452 2777:1.8785477 2778:4.0025773 2789:0.034180939 2792:0.44412798 2795:0.35506138 2796:1.0766144 2802:0.11553812 2806:0.46601668 2811:2.1597834 2814:1.4660219 2825:2.9544365 2834:2.3524423 2835:2.4696136 2836:0.71076745 2840:0.80153674 2841:0.60793716 2845:0.58185041 2846:1.2047575 2849:1.8459997 2856:0.024740428 2864:2.1575227 2865:1.5763309 2869:2.7250335 2879:1.7617555 2882:1.6237592 2887:0.97082329 2891:2.5933425 2895:0.70043534 2898:0.87130916 2910:2.3130639 2911:0.72112668 2929:0.8278662 2937:0.9212302 2941:2.544594 2947:1.8598292 2950:1.2511733 2958:2.4848428 2966:0.67785621 2970:1.3774723 2974:2.9195611 2979:0.124845 2981:1.9319836 2994:0.41810721 2995:0.16570243 2998:0.38506156 3000:3.488981 3001:1.2681123 3010:1.9589844 3013:2.3065157 3015:3.0001087 3019:4.5846987 3021:0.42185986 3033:0.7125864 3034:0.15232813 3035:1.9765297 3036:0.54989231 3039:0.050186634 3041:1.2198203 3046:0.92840576 3050:1.8366556 3057:0.79025459 3067:5.5117445 3077:0.14529145 3079:2.6621852 3081:0.92412984 3085:0.78712595 3109:0.72950953 3111:2.934139 3133:0.42592269 3145:0.21273357 3148:3.1313624 3150:1.9281956 3152:4.323463 3163:2.549839 3164:0.11571282 3178:2.0178015 3183:0.68580914 3195:1.0598779 3211:2.288991 3226:1.1718476 3236:0.73298275 3238:1.6591575 3245:0.9462142 3247:4.1776648 3252:3.3547332 3256:0.05305177 3259:2.1681781 3268:2.2364624 3277:2.9577973 3285:2.4832137 3286:0.40933442 3289:2.6016393 3291:1.6538023 3293:2.7559047 3299:3.756376 3327:1.2039073 3332:0.54723674 3334:3.1032832 3344:0.41866645 3349:2.2610602 3351:0.80211353 3359:0.84572768 3361:1.0865695 3362:0.70730901 3371:2.369571 3399:1.6399252 3403:4.4068127 3413:0.51394337 3417:0.29470748 3424:0.52498245 3432:1.1011368 3438:4.7340755 3449:6.0901318 3460:1.149127 3467:0.74553037 3475:1.3129947 3476:1.188394 3482:0.98202562 3484:0.039751232 3489:0.00057260692 3491:1.823791 3493:5.683054 3494:3.548914 3502:0.50263101 3503:0.035201058 3504:2.0917611 3525:1.9270464 3526:2.5573072 3535:0.28960538 3536:1.1632339 3537:1.073981 3539:6.5207829 3541:2.4137011 3548:1.6085176 3554:0.11285305 3556:3.4341044 3560:0.68950564 3569:0.16265073 3573:0.98541689 3586:1.8503914 3588:2.5432491 3597:1.4568427 3607:0.050798059 3608:0.42465666 3612:7.6936393 3614:1.8680656 3617:0.82954544 3631:1.6068995 3635:2.6229947 3643:2.3726938 3644:0.46139315 3653:1.6894138 3657:1.3669747 3666:0.93861794 3674:0.28821135 3690:2.3286102 3691:1.5561411 3692:0.73115069 3696:0.72294235 3697:0.87809998 3722:0.44225568 3726:0.20020902 3732:0.57630891 3741:4.6851792 3744:2.1681547 3745:0.55898297 3751:0.34123382 3752:3.5328979 3753:1.9513443 3756:0.12171131 3761:2.8423443 3762:2.7573605 3765:0.7113806 3782:0.49168891 3793:0.86566734 3797:4.9869862 3800:0.24015744 3803:0.75763083 3807:0.35050333 3808:0.40741685 3813:0.34074634 3824:4.3821306 3845:3.3846149 3847:1.9606725 3851:0.36998811 3859:1.665424 3860:3.8021832 3869:0.40270466 3871:2.8825488 3875:1.3697683 3881:4.5871582 3885:0.52242452 3888:3.3955448 3889:0.043391913 3891:2.6517103 3893:2.5694697 3903:0.19070742 3906:0.055598736 3908:1.0026538 3910:0.89263368 3915:1.6075603 3919:1.6673145 3930:0.021138199 3933:1.9512699 3935:5.1171265 3942:5.9593959 3957:4.1244197 3960:0.21041973 3962:0.38124838 3970:3.0559561 3976:1.3542105 3979:1.1166753 3980:4.4270906 3981:1.892138 3982:1.4688299 3984:3.3454244 3989:2.0563226 4001:1.5184753 4010:1.198396 4011:0.25853986 4013:0.11246692 4016:1.2795719 4017:0.14910384 4021:1.2608788 4031:1.7732686 4032:0.24023286 4039:2.1912265 4040:1.0372113 4041:0.87249273 4044:1.5152507 4045:1.204756 4050:3.0368786 4058:1.7830639 4059:1.0070415 4066:0.089761376 4073:0.23706892 4074:2.3887825 4081:4.1382065 4085:1.2733189 4088:0.19562444 4089:3.7383094 4090:3.1983652 4091:0.86391032 4092:0.35055026 4093:0.48125106 4094:0.29724586 
0.6030339772726506 4:1.547853 11:0.63657969 18:0.72244072 19:3.5188224 25:0.0056414008 27:1.9051167 29:0.95289969 31:0.2265055 34:0.56112045 38:1.4089923 39:4.0424824 41:1.6416336 44:0.12182465 51:0.12067066 57:5.5681505 58:0.50797212 65:0.19092026 69:0.20560163 70:1.0289946 71:0.98045933 80:0.80889356 84:3.0837202 93:1.4553616 94:2.1053109 104:0.17398402 105:2.2086389 115:1.1656357 116:2.3666101 127:0.28433713 129:1.4368536 143:3.6617196 146:1.6969893 151:2.4787393 161:7.0244074e-05 163:0.76920807 165:1.804059 166:0.80238903 167:0.0063731968 172:1.1652813 180:2.6659114 195:0.40609717 199:0.54343319 210:1.0787574 218:0.23712313 219:0.58033389 221:0.11606635 222:2.0648818 224:1.2020164 230:1.0716459 232:0.0133183 237:0.39240512 259:1.160327 262:1.6216645 265:0.8416152 266:0.59001666 270:0.63983428 274:2.9785476 287:0.77335 288:1.0330626 290:1.2104256 291:2.2560174 297:0.021996737 299:0.49569824 306:0.5326997 313:2.4547865 315:1.3237906 318:2.7774668 328:1.2215619 336:1.1294092 337:0.7791481 347:4.317461 348:1.6070677 351:0.48810565 359:0.53015298 365:3.9545777 367:0.89808196 371:1.9549325 376:0.98576039 378:2.5581446 379:0.9012233 382:0.73045504 391:0.42915732 397:0.3256163 400:0.51156795 408:3.5266707 412:3.3599613 413:0.81273633 420:0.14158669 432:0.63976401 434:1.3014216 442:0.78324151 450:0.60764253 452:1.955977 455:0.16328657 456:1.8410912 459:0.40456927 462:1.1046817 463:0.97272265 467:0.060505807 472:0.94734412 473:0.86781323 479:0.75760317 482:0.44867581 484:1.5579954 491:1.4344686 494:0.15599555 496:1.3139549 499:2.1084201 522:1.2198477 523:0.93061912 524:0.26469201 526:4.0124016 541:0.31360793 558:1.5342069 565:1.5753829 569:0.0058402717 570:0.55166769 575:3.6574605 583:0.26876754 585:0.30354214 586:0.5991292 592:0.14794388 603:2.7099915 612:0.37153077 616:0.46848053 627:0.19433966 628:3.2338884 629:0.94809496 637:0.35204282 640:0.85391247 641:1.1944003 644:2.7140281 656:1.6406556 657:0.57748878 667:3.2918606 669:2.8110993 673:0.45875382 675:0.83355719 682:0.29252046 684:3.2884147 686:0.48409459 688:0.18534017 691:0.73850787 697:0.51885557 702:2.3926644 705:1.4696003 706:1.5557266 710:0.37936032 711:5.5464678 718:0.25222862 723:3.6213231 726:0.25632426 728:2.1700323 730:0.048674658 738:2.4684935 739:1.1605287 749:2.6047277 750:0.18755111 751:2.1958787 755:2.0687096 759:3.4677773 761:4.7964153 765:0.1239534 771:1.1208407 773:0.67411852 775:2.8484101 776:1.8966696 779:0.14715903 780:2.3085127 785:0.0019007474 787:0.73472708 788:1.2985573 789:1.2800258 791:2.2070382 792:1.6740185 795:0.53610396 799:0.34677714 809:0.48787507 813:1.8525127 814:0.97046256 819:1.7248793 820:1.2948796 829:1.2993124 833:1.2676276 839:7.2606416 840:1.869454 841:0.14512932 846:1.4955797 847:0.31409338 848:0.26668614 851:0.24786174 857:2.2831841 859:1.2141618 860:0.60426021 865:0.17979205 867:1.0865841 868:2.1324646 887:0.26872373 889:2.1985331 891:0.68291837 895:1.9623394 896:0.30042818 899:0.76822102 903:0.50499386 904:2.5701303 916:0.52674145 919:0.14678875 921:0.55793035 928:1.4226735 931:1.0172291 936:0.031046152 937:1.6553633 945:4.3696198 952:0.71112859 954:1.5612872 959:0.57413089 960:0.48676646 976:0.57036954 979:2.4175758 991:0.72269398 993:1.0271038 1001:1.4413366 1003:1.0824413 1006:0.66970372 1015:0.21967015 1016:0.59608424 1018:2.9444671 1019:3.854362 1025:0.88404787 1027:0.46291336 1028:2.8660262 1029:0.96586978 1030:0.7118696 1041:0.47889447 1043:0.84724796 1045:0.82058525 1054:0.71471488 1063:0.29856256 1076:0.047908396 1077:0.8006348 1078:1.3658013 1091:0.21294904 1095:0.78955054 1096:0.13588656 1097:0.0076332092 1103:1.1689364 1110:2.6160483 1125:0.046918213 1137:0.79492688 1142:0.092438221 1153:0.19136941 1156:1.2973875 1163:0.055499911 1165:4.0164614 1170:2.2172458 1171:4.0611668 1180:1.8470588 1182:0.22150931 1186:3.6507666 1189:2.7001455 1191:1.3097634 1198:1.8688911 1206:0.91405821 1214:0.57369548 1216:1.9568574 1219:0.63740826 1221:0.18681516 1231:0.56345737 1235:2.0219846 1240:1.24696 1243:0.80728024 1246:1.0696568 1249:3.8319795 1255:1.8875386 1257:0.74483758 1264:2.3034582 1267:0.47719365 1274:2.4193122 1275:1.5511779 1281:0.43343732 1282:1.1948828 1286:1.380543 1292:2.6757851 1294:0.41866723 1295:0.22526413 1296:0.29261982 1297:1.5320251 1302:0.41061783 1305:0.46489152 1306:0.21625027 1311:0.84708893 1327:1.1800647 1333:1.6449757 1336:2.2102842 1342:1.5654256 1348:1.9579283 1350:1.1448419 1356:0.75730896 1357:0.25251108 1358:0.86125046 1359:0.96355188 1363:1.6562386 1368:0.72108281 1373:0.051574111 1376:2.0897007 1379:2.1821051 1383:0.59877288 1391:0.63486791 1394:0.24073836 1396:1.7681962 1401:1.1981428 1412:0.71420884 1414:1.1517831 1418:0.85481924 1419:4.7469392 1426:0.82857698 1428:0.24163513 1429:0.46513113 1432:0.8807106 1438:1.2923735 1441:0.32794791 1444:0.087238193 1447:0.97520363 1454:0.38316113 1456:0.65148419 1463:0.10620832 1465:0.15026322 1472:0.076417267 1476:3.3876359 1478:2.0286393 1479:3.0363793 1485:0.2534565 1487:2.6593387 1490:0.035018981 1497:0.23134357 1503:3.0141511 1508:1.2226115 1511:0.28889033 1513:0.98858637 1518:0.087955937 1519:0.80891383 1522:0.93379402 1523:1.1351476 1539:2.2822514 1544:2.2315977 1551:0.26287153 1555:0.38006258 1556:3.1719785 1560:1.2033511 1569:0.80655509 1571:0.8127417 1573:2.4505513 1574:4.5287986 1586:0.80210465 1590:0.29921487 1593:0.17866473 1596:0.59788609 1604:0.99883324 1605:0.88350487 1606:0.064583421 1616:0.6956538 1617:0.97574234 1620:1.0740781 1630:0.61670387 1636:0.2743687 1657:2.2008259 1662:1.5067966 1667:1.8978221 1668:0.86384279 1672:2.4948378 1675:1.5566585 1676:0.8432883 1677:4.2350588 1680:0.30034485 1687:0.73758459 1689:0.58677185 1690:0.21764547 1695:2.761519 1699:1.9352164 1711:1.4506743 1715:1.3462161 1721:1.0158155 1725:1.6995213 1726:3.4447598 1727:0.25471786 1736:0.70388478 1742:1.515103 1745:1.6499861 1746:0.21318272 1748:0.10488146 1759:0.49517825 1766:0.48055506 1777:0.35441583 1780:2.2330289 1781:3.6613228 1788:1.3554461 1795:2.6934204 1807:2.312083 1814:0.44351599 1818:2.4029663 1822:0.10184932 1823:0.39604482 1824:0.63145459 1825:0.11796018 1828:2.4952059 1832:1.0516171 1833:1.6544335 1837:1.5991875 1844:0.01230529 1851:0.48264036 1852:0.76649505 1862:0.60130614 1870:1.5361731 1871:1.0563434 1878:1.1254854 1890:2.2779682 1896:2.0810137 1898:0.47747785 1904:1.2832139 1912:3.7791262 1916:0.21355163 1922:1.5505188 1950:0.72577113 1952:0.13103294 1953:1.3512213 1970:4.1830392 1978:1.5159167 1981:0.60593349 1982:1.4468898 1985:1.4645714 1995:2.7643847 1996:0.69758266 1998:1.4078963 2000:2.4075365 2002:0.22605628 2003:0.20628873 2007:2.030875 2011:3.2277737 2012:0.56262922 2025:0.10925788 2029:0.53924632 2030:0.42185846 2031:1.8836886 2038:0.57506919 2041:0.14156672 2043:0.15389358 2048:1.5733337 2050:1.1075377 2052:1.9168092 2055:0.041893244 2080:1.0830442 2081:0.45276988 2084:0.13598345 2107:1.2993085 2112:1.587355 2113:1.3373791 2114:0.0023645163 2121:2.9974601 2125:0.27725881 2132:1.4855255 2136:1.5146099 2138:1.3412164 2142:0.70002824 2149:0.71406579 2154:0.37066787 2160:0.26361609 2165:1.3212501 2177:0.96265125 2179:0.80051243 2180:0.2387194 2184:0.50514942 2189:0.88667822 2193:0.3884123 2194:1.0626963 2196:2.2767153 2202:0.42899266 2214:0.7115702 2217:0.03442473 2218:0.070651926 2221:1.4406772 2222:2.3191986 2223:0.94143617 2225:0.064398885 2233:0.86573374 2246:0.096364647 2247:0.17286986 2262:0.79291224 2270:1.6655273 2275:2.0406215 2278:0.32430932 2282:0.18304427 2283:0.64574873 2290:0.48206419 2295:0.65483838 2298:0.79907459 2302:6.0513954 2303:0.79673529 2304:0.17283258 2313:0.7266379 2318:2.8089731 2319:0.62039614 2320:0.20455077 2327:0.4631184 2340:0.33522496 2341:0.76754636 2343:1.1839929 2344:5.3488474 2346:0.14358786 2349:2.5899382 2350:0.37464875 2354:0.63675261 2357:0.68356586 2360:2.9585347 2362:1.0735347 2372:1.5971091 2376:0.55651402 2378:1.4658206 2388:0.80521464 2390:2.01174 2393:1.4234431 2400:3.3029199 2402:0.0080808699 2406:0.40623644 2413:1.3810047 2422:2.5103936 2431:0.44602856 2435:1.746707 2437:0.39639315 2440:0.11633074 2442:0.42678598 2450:0.87368244 2458:0.27866969 2459:1.7078326 2467:0.44995359 2468:0.80110204 2471:1.9391519 2473:0.088787049 2476:2.8088515 2477:0.22082883 2487:1.3469981 2488:1.773544 2490:2.1514287 2497:0.18540908 2514:0.71763802 2520:0.59663546 2526:1.3610126 2528:2.2356484 2532:1.2702326 2533:0.33303869 2539:1.9382138 2559:2.0973139 2561:1.99376 2571:0.10085942 2574:0.0044992566 2579:1.0441192 2582:0.18542263 2594:1.7778375 2599:3.6480625 2604:0.18112466 2612:0.98810256 2617:2.6354675 2618:0.77764726 2625:2.7456336 2626:1.0261617 2634:1.4111679 2639:0.52346313 2649:0.5304569 2651:1.8461556 2652:2.5951068 2656:1.2235359 2658:3.0401428 2663:0.74240613 2673:0.17531304 2674:1.9592135 2676:2.5908427 2687:0.0052446127 2688:2.8033264 2692:1.1575137 2695:1.6100672 2704:0.67845058 2713:0.078827173 2714:0.83596319 2720:1.4222592 2721:0.30807135 2723:3.7247448 2724:0.22252573 2727:1.5148342 2732:0.43454742 2735:0.425163 2745:1.9051603 2766:0.90801835 2774:2.5561755 2778:1.3521453 2783:0.37347555 2785:0.74164277 2792:3.2317278 2796:0.52209067 2802:1.3419788 2806:0.064445853 2811:1.8059893 2816:1.0120108 2825:3.3661053 2826:0.21942936 2835:2.2559519 2836:0.40898895 2840:1.9228907 2842:1.3697226 2844:0.11737132 2846:0.27581683 2849:1.3855498 2851:1.1149403 2856:0.23046193 2865:2.4095788 2866:0.3083218 2868:0.51504052 2869:1.1345081 2870:0.18307348 2873:0.10776058 2878:0.89016378 2882:0.39211097 2889:0.4408665 2891:0.91134012 2895:2.5151961 2898:1.5805349 2904:0.11245199 2910:0.91236007 2911:0.63680434 2914:0.81320989 2917:0.26956731 2943:2.3500631 2947:0.58003533 2950:2.1442251 2951:0.46751216 2952:0.53675872 2964:0.52619344 2970:2.1528356 2972:1.7032 2979:0.65514827 2985:0.16135833 2998:0.49153876 3000:0.45032874 3004:1.7034113 3010:0.93069863 3012:1.2181699 3013:2.3762496 3015:3.2757492 3018:0.31752732 3019:3.5361719 3033:1.592468 3034:2.1696844 3035:0.62162042 3037:0.14699733 3038:0.12402806 3039:0.33490682 3050:0.42760712 3060:1.4764926 3067:1.0426439 3071:0.30104649 3077:0.31766111 3079:1.3831737 3081:1.6674304 3085:1.0348628 3089:0.54390454 3099:1.3211697 3117:0.64339644 3122:0.075090349 3138:0.21289533 3145:1.0910087 3148:4.7203264 3150:0.48420367 3152:2.767909 3154:0.36628765 3155:0.60520351 3163:0.75226796 3164:2.9216003 3170:0.17671122 3178:1.2078004 3179:0.65575206 3182:0.31307203 3198:0.96131134 3211:3.6721065 3213:0.73318505 3214:0.18544009 3226:0.072631896 3236:1.3449585 3238:2.0476992 3242:1.433943 3245:1.5273497 3247:5.1631517 3252:3.3554075 3259:3.0813513 3276:0.93985605 3277:0.042171896 3286:0.8485384 3289:1.9019064 3290:2.2212093 3291:1.0897555 3293:1.4335859 3298:2.4033933 3299:1.1567436 3312:0.19261384 3327:2.2410948 3331:1.3217931 3332:0.82848561 3333:0.93447918 3334:3.4126198 3345:0.52342296 3348:0.32883629 3351:0.64452821 3358:0.6804893 3359:1.2135497 3362:1.0426368 3378:0.4459973 3399:1.689024 3402:2.2165914 3403:4.692502 3404:0.64107728 3407:1.1820283 3425:0.69519281 3431:2.1050668 3438:2.9556653 3444:0.58044261 3449:0.46174508 3455:0.49952012 3456:1.3888109 3460:2.1584377 3482:1.3298223 3493:2.7996812 3494:0.94315445 3495:0.82096505 3498:0.40788084 3503:2.6115367 3504:1.0960053 3521:2.4311786 3525:0.99067819 3526:2.2337666 3528:0.16463995 3534:0.26696223 3535:2.655164 3536:2.2214079 3537:1.7386823 3539:2.7220566 3541:0.0045509934 3546:0.99373579 3548:1.7780917 3554:0.41171497 3556:3.5222449 3582:0.17112517 3588:1.0924485 3593:0.098870561 3597:1.6766033 3601:0.85451621 3607:0.5010078 3612:6.5126634 3615:0.52635121 3622:2.5384979 3624:0.21988159 3632:1.7517534 3635:1.9230673 3644:2.0619159 3650:0.37554646 3653:2.3985121 3657:0.74138057 3674:1.2179096 3677:1.491389 3681:2.0955338 3689:1.4918476 3690:1.0588274 3691:1.0382102 3692:3.4581423 3697:1.4071997 3700:0.41724882 3701:0.28659081 3715:0.92294765 3726:0.67562503 3739:0.08865878 3741:1.3329082 3744:0.29566631 3752:3.2148428 3753:3.1377442 3756:1.1646595 3761:2.1152177 3762:5.1041756 3764:0.0024128556 3768:0.18170023 3774:0.46163651 3783:0.12833439 3789:0.98897719 3796:0.23563975 3797:4.5637679 3798:0.40632957 3800:1.2857676 3802:0.85934979 3807:0.55830282 3813:0.58403111 3816:0.32410729 3819:0.2822293 3822:0.97307527 3824:2.7955549 3828:1.9430952 3834:0.51433277 3845:3.1569705 3849:0.081780821 3860:1.8307736 3861:1.4614457 3865:0.85838991 3869:0.12587446 3871:1.2552755 3875:2.4049187 3881:4.9502954 3885:0.75712341 3887:1.3643266 3888:1.0490465 3889:0.6523543 3891:2.1662512 3893:2.653414 3896:1.4108527 3901:0.067714512 3906:2.2146101 3908:2.2402296 3910:1.3174632 3912:1.1773033 3919:2.3607619 3927:0.031872436 3935:4.0973773 3942:3.3522313 3945:1.7118137 3957:1.3515711 3960:0.54204327 3962:1.1648834 3970:2.1367767 3972:2.1536036 3974:1.136302 3976:0.32928929 3979:1.7502129 3980:4.148993 3981:3.5403137 3984:5.1869435 3989:2.4942546 3995:1.5197564 3997:1.736173 4001:2.273669 4004:2.1953683 4011:0.050401002 4015:1.5409795 4016:0.4659217 4017:2.4822943 4021:2.6071091 4028:0.42481691 4035:0.55604607 4038:0.8114239 4039:4.2993379 4044:1.5818369 4045:0.80494899 4049:0.3301613 4050:1.1190683 4055:0.38823408 4057:0.72795773 4058:0.62831104 4065:0.16902488 4069:0.1431933 4073:2.5644536 4081:3.7497091 4084:0.59682298 4085:0.92831647 4089:2.8421767 4090:3.8792391 4092:0.77468097 4094:1.3800607 4095:0.049957022 
1 4:1.3922434 19:0.91281462 27:2.3891454 29:1.3630445 31:0.43295705 34:3.1280074 38:0.55003941 39:3.7672477 41:0.66954041 45:0.56775784 47:0.76154697 48:0.020404756 57:3.3941424 60:0.43576121 65:1.1940588 69:0.77521658 70:0.93171692 71:2.2771215 80:2.4986916 84:0.96198618 90:0.74519277 93:1.1524081 94:0.25766867 105:0.15768555 115:2.7075233 116:3.4297037 122:0.41034022 126:0.16572057 127:1.1432642 129:2.5910273 130:0.87524217 143:0.71453321 146:1.5080663 151:2.0758448 163:1.4233887 165:1.8757471 166:0.39458653 169:0.051325858 180:2.945751 192:1.0147283 199:0.75687933 205:0.93988448 207:0.38626897 210:0.4251847 211:0.45371607 218:0.84631872 219:0.6416595 221:0.85589802 222:1.3695818 237:1.0446478 244:1.2609093 248:0.13377017 259:0.10839117 262:0.39365733 263:1.0259631 266:2.2909112 270:0.84873825 274:0.87302107 283:0.20408076 287:1.1309083 288:0.2339665 290:3.340193 291:4.1560645 299:0.69264054 306:0.81473112 313:0.48267347 315:1.7877022 317:0.56265998 318:1.3160962 320:0.40292245 325:0.19801499 328:3.1450739 336:2.1894231 337:1.6002697 347:4.5030079 348:0.70860356 351:0.8918376 365:1.7630148 371:0.33786079 378:3.5245781 379:0.96875972 381:0.18725443 382:1.8452351 384:0.19804484 391:0.88981664 393:0.074437901 397:1.4799373 408:4.0530434 412:0.37364924 413:0.61535519 420:1.2688177 422:1.3861021 428:1.3613262 432:1.6363721 436:0.90554976 442:1.2236944 450:2.3907444 452:0.42507416 454:1.0516088 455:0.27812445 459:1.7994512 462:1.1222973 463:0.21486628 467:0.30216548 482:1.2332433 484:2.844101 491:0.31721902 494:0.30163202 496:2.4649062 499:0.39684322 514:1.3779484 521:0.86675924 522:2.3467219 523:0.32420701 524:0.24985288 526:3.7085602 558:2.219105 562:0.086388588 565:2.0006781 570:0.34224209 575:4.4576468 589:0.39489734 603:2.5791264 609:0.57634497 612:0.082155302 616:1.9782071 627:1.5507653 628:3.5902178 629:0.85637146 630:2.012104 637:0.61321765 641:0.38292024 644:2.9830852 656:3.0306668 659:0.052769467 667:2.8276455 669:2.0308771 675:0.4355318 684:0.77781868 688:0.0016051829 691:0.61657369 695:0.54987764 699:0.13542777 702:2.4326754 704:0.37282974 705:0.93009537 706:1.1079388 710:0.561203 711:5.2793164 723:4.148293 728:1.8515794 730:0.54231954 738:1.3865241 739:2.8526087 749:0.50934094 751:1.7906336 755:2.9851637 759:3.1418653 761:4.5725589 765:0.51191318 771:1.5318305 773:0.62925208 775:0.025813818 776:1.0521559 779:1.3057191 780:1.3550436 785:0.17084424 787:1.2736802 789:0.66008908 791:0.74085397 792:0.66362494 799:1.1760912 800:0.68654901 802:0.48816481 803:0.39654496 809:0.67166835 811:0.21408273 813:1.3044786 820:0.58544374 822:0.17593589 825:2.1682849 829:0.41784275 831:1.5008364 832:0.35005146 833:0.68790674 836:0.22185379 838:1.4857153 839:6.4636521 840:0.88293141 841:0.078212798 846:0.77419603 855:0.081806123 857:1.2191277 859:0.41075534 865:1.8810885 867:0.65500492 868:1.1270614 874:0.6994983 876:0.49570498 887:0.22414237 899:1.5691208 901:0.65424579 903:0.69006574 904:2.2291555 913:1.5599209 921:1.4223558 928:1.121172 931:0.5946694 937:0.14876822 940:0.10882899 945:4.4471121 949:0.22997206 952:1.0102348 954:1.987987 960:0.71887255 961:0.66287255 963:0.60881442 971:0.6138972 979:1.2549016 982:0.022372976 991:2.4220572 993:0.089695483 1001:1.7455432 1003:0.011960626 1006:0.42276275 1018:1.5224316 1019:3.8317113 1028:1.2551963 1029:0.16902754 1032:0.32567272 1041:0.66001213 1042:1.3096521 1045:0.20288092 1053:1.2364953 1054:0.023183361 1062:0.26968747 1063:0.91294432 1077:2.7671378 1078:4.0654631 1090:1.1734123 1104:0.69127405 1107:1.694647 1110:1.7700167 1111:0.067777611 1118:1.1072545 1122:1.6069356 1125:0.47769254 1136:0.0051286966 1137:1.1992847 1140:0.43643856 1142:0.78003007 1155:0.80350006 1156:2.3174284 1165:3.3829801 1168:0.22533181 1170:0.91740316 1171:1.0553424 1180:1.4081347 1183:0.42414823 1186:3.2992957 1189:3.9155045 1191:0.91611016 1206:1.2790467 1214:1.2105783 1216:1.9704001 1219:0.091710746 1225:0.2367851 1231:0.080047071 1235:2.034467 1243:1.9463497 1249:2.0132158 1255:0.69663203 1257:0.57153064 1264:2.0947857 1267:1.3908619 1269:0.80454868 1275:1.1995803 1281:1.6454128 1282:2.8349636 1286:1.8899779 1292:1.6869771 1294:0.29846466 1296:2.5067642 1297:2.292644 1302:2.0864387 1303:0.77675259 1306:0.63538921 1311:0.33356428 1313:1.5915425 1314:0.030006766 1315:0.35342011 1323:0.69308805 1325:0.92881948 1327:1.5404956 1328:1.1958151 1331:0.45773789 1333:0.82196134 1336:1.396989 1342:0.18539694 1348:0.51277238 1350:0.76408923 1352:1.1584895 1353:0.053584024 1356:1.6156018 1357:0.42263412 1358:1.8658075 1359:1.9076254 1363:1.6580582 1365:0.86598599 1368:0.96489459 1371:0.2040928 1372:2.1220582 1373:0.51166928 1376:2.2100441 1379:0.63637519 1383:0.96667314 1386:1.2981391 1391:1.2873144 1394:0.98537838 1396:0.15146258 1401:0.35252327 1414:0.92523366 1418:0.79076821 1419:2.2736986 1421:0.025669247 1423:1.2014284 1426:0.87388206 1428:0.33987805 1429:0.67784351 1432:1.0163119 1438:1.5492983 1440:0.51952201 1456:1.7563677 1463:0.050701678 1465:0.48965663 1476:3.714704 1478:0.78188276 1479:2.9281073 1486:0.67085445 1487:4.3504276 1497:0.6621511 1503:4.6631117 1504:0.01584816 1508:1.7256556 1511:0.20150515 1519:0.57765651 1522:3.4991822 1523:0.60465479 1539:1.3768252 1544:2.543612 1551:0.25536177 1555:1.072999 1556:3.3585982 1557:0.16896918 1560:0.85958052 1562:0.77212942 1573:3.7862847 1574:2.3593757 1584:0.6550808 1586:2.5351977 1588:1.0894667 1590:1.2174776 1596:2.1464305 1604:1.3149302 1606:0.55775344 1610:0.8735261 1616:0.57848525 1617:0.85740817 1618:2.5809548 1619:0.35371435 1620:0.60390955 1625:2.0629554 1626:0.92010587 1630:1.7418494 1639:0.74520051 1654:1.9100823 1655:0.57825744 1657:1.9736826 1658:1.9846463 1662:1.1872114 1663:0.016488284 1664:0.27535018 1667:1.603915 1672:1.1683078 1675:1.9252969 1676:2.9416881 1677:4.763391 1678:0.028383851 1682:2.4512525 1689:0.96652514 1690:0.083598763 1695:1.1107124 1696:0.020884592 1699:0.42109346 1711:3.9399312 1715:1.9498527 1716:0.87347907 1721:0.72619742 1725:2.3586345 1726:2.4956791 1727:0.61676002 1736:0.15585774 1740:0.17417362 1742:0.58077961 1744:1.0675555 1745:1.9548339 1746:0.39603767 1759:1.0805504 1760:0.61570692 1766:1.612293 1771:0.24233824 1777:3.6321013 1780:1.9738308 1781:4.2426138 1783:0.15398753 1788:1.7405574 1795:2.3218689 1801:0.90634489 1807:1.2506647 1814:1.0983962 1818:3.5335224 1821:0.22877143 1822:1.4401311 1823:2.6489415 1825:1.5062274 1828:2.3204324 1832:0.48753455 1837:2.0615597 1842:0.4411363 1844:1.1800251 1851:0.82678318 1860:0.83587909 1865:0.054762721 1866:0.95072138 1870:1.6681461 1871:2.2110224 1872:0.38540787 1878:1.2706633 1890:2.4488964 1896:3.2270541 1904:2.1784215 1912:2.0405519 1921:0.68006641 1935:0.38176185 1943:0.28380555 1950:1.3711499 1953:2.4117508 1965:1.9290727 1968:1.9456078 1969:0.78054899 1970:2.455368 1978:2.1704888 1981:1.0689192 1982:1.9925547 1985:1.7490419 1986:0.2557089 1988:0.71013331 1995:3.2143898 1996:0.23636056 1998:1.6455456 2000:0.87961251 2002:1.314842 2003:0.29383707 2007:0.74980247 2011:4.29878 2012:1.7958899 2019:2.5482516 2021:0.45205495 2025:1.1205385 2029:1.2389781 2030:2.2832289 2031:0.44229537 2042:0.080802947 2043:1.67382 2045:2.0531363 2048:0.50524843 2052:1.8334018 2055:0.31345072 2058:0.24595918 2059:0.085687876 2063:1.1366584 2074:1.8811506 2079:1.6236733 2080:1.5467681 2097:1.1586525 2101:0.44856834 2107:1.6150923 2112:2.3831289 2113:2.2479873 2114:0.21864462 2121:3.9470313 2125:0.53845865 2132:1.5525509 2134:0.16436896 2142:2.3141856 2149:0.37667 2150:0.50835371 2152:0.11111826 2154:1.8949263 2156:0.10030027 2160:0.69847125 2162:0.21620691 2165:1.0516672 2167:2.0852926 2168:0.37395409 2173:1.42513 2177:1.0622123 2179:0.3703326 2184:1.2914474 2187:0.47244662 2193:3.342453 2194:0.79532844 2196:1.0495235 2204:0.19676512 2210:0.95780736 2219:2.0385954 2222:1.008657 2223:0.24724586 2225:1.7623295 2226:0.83714485 2228:0.32216716 2233:0.47536111 2246:2.3606465 2254:0.79413307 2255:0.415023 2257:1.3292037 2262:1.1359563 2270:1.244699 2274:0.82714874 2275:3.6965511 2276:0.21720794 2278:0.58371377 2283:1.3001785 2285:1.7560116 2298:0.97057849 2302:3.0018382 2303:1.9481522 2304:1.8958832 2311:0.25170431 2316:0.15726876 2319:0.61291301 2320:0.78359389 2321:0.45027339 2323:1.0385586 2325:0.139056 2344:5.6567283 2350:1.2594794 2360:3.8456755 2361:2.7293863 2362:2.1010134 2367:0.032148361 2372:2.2099946 2378:2.6420197 2388:1.3601943 2390:1.4326557 2393:2.3726585 2396:1.5229644 2400:1.2334787 2406:0.50298095 2413:1.0491266 2420:0.52802628 2422:0.55382729 2429:1.3838713 2435:2.6400709 2442:0.69911993 2445:0.38629103 2459:1.9020052 2463:1.8021491 2468:0.61325276 2471:0.7634269 2473:0.21666929 2476:4.1404166 2477:0.48615333 2481:0.55834967 2485:0.013542034 2487:1.1038094 2488:1.2280422 2490:2.8296428 2503:1.5841458 2509:0.44095391 2521:2.2763441 2526:0.97508347 2528:1.7834573 2532:2.5207913 2533:0.73754847 2539:0.58169591 2541:0.029886335 2559:2.0403619 2561:0.28587765 2567:0.075221553 2568:0.17757991 2570:1.311012 2571:0.59767455 2573:0.059766054 2579:0.56371868 2585:0.67958415 2591:0.24596119 2594:0.84932131 2595:0.013103724 2599:1.9679027 2606:0.54941398 2617:4.2618475 2618:0.33595169 2621:0.6664443 2625:0.72502571 2626:0.7061764 2630:0.050446868 2637:0.11829659 2639:2.5792527 2645:0.12346441 2649:1.2989789 2651:1.1015278 2652:3.2985518 2656:2.471911 2658:1.8762351 2663:2.5577908 2666:0.56103182 2671:0.88906479 2672:0.27459669 2674:0.92781329 2676:3.6387591 2684:0.93708766 2687:1.7000407 2688:4.5655422 2693:0.54488218 2695:2.2451797 2697:0.3252264 2714:0.60875756 2719:0.27321389 2720:0.26616395 2722:1.1087961 2723:2.1536803 2727:1.846904 2732:0.43381596 2745:1.3627622 2751:0.023179293 2756:1.9657549 2757:0.90910316 2766:1.220506 2768:1.8409038 2774:1.7860225 2778:2.0453801 2781:0.02116105 2785:1.1649929 2792:0.60730308 2806:0.33891916 2811:2.270505 2813:0.72087002 2816:2.4812503 2825:1.4981681 2834:0.73272038 2835:3.1428187 2836:3.0272937 2840:0.88279039 2842:0.9930656 2856:0.12670216 2865:0.90863979 2869:0.41476321 2870:1.915949 2878:1.1455191 2889:0.19423378 2891:1.0085496 2894:0.99953365 2895:1.0578241 2898:1.7064924 2911:0.66474867 2914:0.16376624 2917:1.7930255 2921:0.32578304 2939:0.16493139 2943:2.1238723 2947:1.7598141 2950:0.23534149 2951:0.18800858 2952:2.6677518 2964:1.7801553 2965:0.56169355 2970:3.3209531 2972:0.64171261 2973:0.21206534 2978:0.50845724 2979:0.81985259 2986:2.3550911 3000:0.28052258 3001:0.963184 3004:2.5157208 3010:0.0091945827 3012:0.92359579 3013:2.4849169 3015:3.2536507 3018:0.60443372 3019:0.99736452 3029:0.48638865 3033:1.212531 3034:1.6591927 3035:2.1487486 3039:3.0704975 3041:0.11581218 3050:1.989732 3060:0.056840431 3061:0.15567344 3067:1.5307268 3081:1.6821892 3083:0.029895991 3085:0.020855427 3093:1.3881806 3094:1.5040432 3099:1.7121544 3101:0.5586645 3109:1.5056162 3111:0.83290648 3115:0.72023237 3117:1.1385585 3121:0.77118242 3129:1.6966802 3140:0.70569789 3148:1.7121555 3152:3.3752062 3154:1.0186555 3155:1.1573825 3164:3.7832541 3170:0.31769967 3179:2.1524525 3182:0.96497566 3195:0.0016329288 3198:1.6234457 3206:0.28128821 3211:2.3497939 3214:1.1770712 3232:0.7545979 3238:2.4790158 3242:1.7658116 3245:1.4850291 3247:2.9629478 3249:1.2333915 3252:3.9319041 3256:1.4406047 3259:3.6525331 3275:0.68211323 3276:0.65072018 3277:0.079103053 3281:0.26341799 3289:1.7200795 3291:0.77448964 3293:1.9516023 3295:0.95424324 3298:1.4759285 3299:1.027353 3312:0.0075900555 3327:2.9132974 3331:1.740454 3332:0.96805686 3333:0.38322291 3334:3.3082221 3344:0.28533566 3345:0.26358947 3348:0.53319395 3359:2.5550342 3362:1.5241898 3363:0.036735386 3367:0.097123712 3371:1.3211147 3372:0.7419889 3377:1.1933484 3378:0.84417802 3389:0.72755349 3397:0.2252171 3399:0.15448439 3402:0.86970496 3403:2.9525869 3404:1.5001478 3407:0.98113179 3412:0.64846742 3413:1.1193243 3420:0.24505979 3429:0.427001 3431:0.50047457 3432:0.27427527 3438:2.9112275 3444:0.05908525 3449:0.86566597 3450:0.44144559 3455:0.18535319 3456:1.124297 3460:1.3676772 3464:2.1897697 3482:0.49397808 3484:0.55080307 3486:0.1051378 3493:1.4665718 3495:0.38158682 3498:1.1101351 3499:0.22516571 3503:1.7369685 3521:2.0261564 3526:3.123564 3535:0.94919401 3536:4.2405386 3537:1.3138185 3539:1.8295829 3541:0.81163567 3545:0.21580181 3546:0.73361313 3548:1.1845145 3552:0.29625425 3554:1.1959435 3556:0.70991236 3567:0.45057923 3569:0.1578896 3572:2.1840966 3573:0.56902516 3582:0.72714007 3586:0.36242124 3588:2.618283 3593:1.1824133 3594:0.95314616 3597:0.74440491 3602:0.69403851 3608:0.41918263 3612:6.8101048 3616:1.2326334 3622:3.5994213 3624:1.4547136 3629:1.23269 3630:0.060385525 3631:0.53632694 3632:0.23515421 3635:0.68026549 3644:0.94955522 3648:0.11702886 3650:0.21830428 3653:0.78199852 3655:1.0020066 3657:0.60779929 3669:0.35210454 3674:2.6498311 3677:2.044848 3681:1.6376867 3690:0.69913203 3691:0.38967362 3692:5.0021243 3693:0.70595145 3697:1.4347459 3700:0.048799992 3701:0.084023476 3715:1.2254128 3719:0.32693568 3721:0.55522376 3722:0.14900398 3726:1.0577426 3727:1.0193231 3733:1.0231119 3739:1.2092326 3741:1.8300138 3749:0.28617209 3752:0.80857539 3753:3.2968912 3756:1.8010583 3761:3.7525291 3762:2.7917755 3768:0.4010103 3771:0.1197629 3773:0.10123229 3774:1.4421887 3783:0.49663717 3789:0.94979572 3797:3.1443753 3798:0.046429336 3800:0.93108207 3807:0.86190647 3810:0.20196468 3813:2.3562946 3816:1.1096069 3822:1.750214 3824:3.5970833 3825:0.73267138 3828:1.6248769 3835:2.0844831 3842:0.38667613 3845:3.2013395 3847:0.040774424 3849:0.7442832 3857:0.11546316 3861:3.5964332 3869:0.13564703 3871:2.8955483 3875:2.7011533 3876:0.76995504 3881:3.607064 3887:0.77958167 3889:0.96740615 3891:1.623704 3893:2.6152222 3896:1.2170651 3901:0.54264081 3905:0.23939231 3906:1.8957393 3908:0.52968407 3910:2.113282 3919:2.2369711 3927:0.99541771 3930:1.3904957 3933:1.1874148 3935:3.2982011 3942:2.5016661 3945:0.35317963 3955:0.28075477 3957:1.8371197 3962:1.1877506 3963:0.36503837 3970:1.4221487 3972:1.637074 3974:1.3280911 3979:1.9617695 3980:3.7259755 3981:3.4550586 3984:1.988973 3989:1.3381217 3994:0.39549756 4001:3.2412608 4002:0.27221251 4004:1.505857 4011:0.82702267 4013:1.4497491 4015:1.7221473 4016:0.48699841 4017:2.6630902 4020:0.21557185 4028:0.98556054 4035:0.97153544 4039:2.4720912 4040:1.487978 4042:0.06016371 4044:2.8065286 4045:1.727978 4046:0.18350193 4047:0.6374985 4050:1.7324206 4057:1.3029865 4058:1.2762749 4059:0.88065273 4065:0.11418682 4067:0.65480667 4070:1.5208302 4073:1.8604363 4081:3.031733 4084:0.1821568 4085:0.38424546 4089:3.5399992 4090:2.9742615 4092:2.2034223 4094:0.96282947 4096:0.6195454 
0.5955082941438432 16:0.82608551 18:0.98539054 27:1.9579793 29:2.2595038 34:0.88528985 35:0.329907 38:2.1082776 39:3.7328124 57:4.9389129 60:0.20720989 80:3.5640149 83:0.18976597 84:1.3015834 93:1.3021946 94:1.1048974 104:0.67040813 105:1.3846966 110:0.88031161 115:1.1534383 116:0.9451586 118:0.68878233 119:1.2079207 122:1.669929 123:0.90099609 127:0.79151583 130:0.34705079 140:0.20409879 143:3.9334891 163:0.27128834 166:1.1965467 167:0.53103077 169:1.0889127 170:0.94350773 180:0.23629022 186:0.40987101 188:1.0454441 190:0.18847761 199:2.9666047 218:1.802038 219:0.73563695 222:0.51118004 224:1.2107086 234:0.098459452 248:0.74812984 254:0.16065025 256:0.63826746 262:1.945542 266:2.7914946 270:1.1657752 273:0.35799649 274:1.7137724 283:0.95094615 290:1.0995424 291:0.065307364 303:0.53978395 306:0.30114955 312:0.28128004 315:1.1539717 317:1.1016443 318:0.1983754 328:3.4211855 329:0.0018092692 337:0.90095222 347:3.224869 348:0.5352692 359:0.62748325 365:1.9117155 369:1.1165881 371:1.9431742 376:0.023223102 378:0.83270663 379:0.11266387 382:1.4908521 391:1.0211318 393:0.73190922 408:4.5234437 412:1.6642747 420:0.77634156 422:0.2352632 428:1.0874339 432:2.6635523 434:0.77806395 436:0.45780346 442:2.3787081 450:0.44820231 454:0.20256552 455:0.93285465 459:4.8659887 462:1.6035649 467:0.11253327 472:1.7479767 473:1.0089824 481:0.40680182 491:1.4103543 499:0.67295635 500:0.44686395 505:0.52717394 514:0.59012401 521:1.4810996 522:2.2186475 524:0.64933807 526:3.8194587 536:0.31543958 543:0.63764977 562:0.68611658 565:0.54302967 575:2.4108512 591:0.49874792 595:0.7477411 603:2.8458076 619:0.69795632 627:0.21011788 628:2.3774548 637:1.3916458 641:2.5672252 644:1.011989 656:1.2294494 667:1.8496116 669:4.3334308 675:2.3700538 680:0.14805907 682:0.96498173 684:3.2636664 688:0.22331539 691:2.7135236 696:0.62976229 698:2.1437833 702:1.7817121 704:0.098652661 705:1.4801363 706:2.2420282 711:3.7538962 723:1.101944 728:0.12505126 738:0.70227951 739:4.340292 750:1.0270417 751:1.0771065 755:2.5004263 758:0.31269467 759:4.4934621 761:2.3667819 771:0.93268692 776:0.45680532 780:1.261501 785:3.6094279 787:0.32261974 788:1.6171776 789:0.86034161 791:1.4632927 792:0.97366643 796:0.079868197 797:0.053897001 799:0.94021261 802:0.53989732 803:0.16742891 810:0.69499093 813:0.37372747 814:1.1489824 819:0.33306968 820:0.43435925 825:2.5680325 831:0.29800144 833:1.8017451 836:0.19146603 839:8.7899742 840:0.0032790154 846:1.23499 848:0.59012425 849:0.30978629 859:0.482243 865:1.7180901 867:1.5924321 868:4.5944352 870:0.29453388 876:0.14565897 889:1.192065 895:0.66350144 899:0.25930786 903:0.88982749 904:0.78805423 913:2.631381 922:0.097219646 928:0.030391097 937:0.99036181 940:0.78142095 943:0.17418694 945:3.6428828 952:0.11084503 954:0.32187885 957:0.42978227 960:1.6433001 963:0.37645918 976:1.3267703 979:2.532187 982:2.5954847 985:1.3787068 991:0.48224893 993:0.49410614 1001:0.82042575 1003:0.89358556 1015:0.31315261 1018:1.9985979 1019:2.7567525 1025:0.18944311 1028:0.81677723 1029:1.4367205 1041:0.73439068 1043:3.4132757 1053:0.32395789 1067:0.17708814 1072:0.72863615 1077:0.72274566 1078:1.925601 1080:0.67432606 1096:2.0663872 1102:0.65002578 1103:2.7405295 1104:0.908687 1106:0.026269913 1110:1.1650307 1111:1.2866273 1126:0.65540683 1136:0.88349152 1137:2.6416025 1150:0.015610039 1155:2.1608772 1156:2.8570518 1163:0.66860819 1165:4.2515101 1170:1.4315284 1171:0.91698796 1180:0.093276761 1182:0.11385876 1186:2.9448173 1189:3.3238361 1191:0.91269124 1198:1.6527148 1206:1.3388537 1216:1.3396866 1240:1.518865 1246:0.53853428 1249:2.465925 1255:1.6302234 1257:2.2482142 1258:0.80533969 1259:0.13932914 1264:3.4676857 1267:0.80719435 1274:0.10855196 1275:1.4489557 1281:0.42283827 1282:0.23125106 1286:1.0841827 1292:1.0615448 1295:0.97996378 1296:0.71460116 1297:4.1847291 1302:0.84803176 1305:2.2824223 1327:1.4315969 1333:1.5556798 1336:1.4729979 1341:0.82206327 1342:0.65313739 1350:1.5836625 1358:1.176666 1359:2.7891233 1363:1.0378219 1365:1.8832954 1368:1.6224796 1371:1.2359145 1372:0.45560259 1376:2.6072621 1379:0.031427145 1386:5.4224877 1387:0.12426651 1401:1.6658655 1402:0.21391401 1406:0.39520621 1414:1.4654515 1419:3.80053 1429:1.55559 1432:0.65241593 1433:0.17652407 1447:1.1095318 1452:0.10267049 1456:2.3962109 1465:1.6697522 1476:2.592113 1478:0.67587972 1479:3.8537121 1485:0.23013948 1487:3.8092074 1503:4.1161714 1508:0.78612626 1514:0.0014413744 1519:0.46242306 1520:0.14157471 1522:1.1986804 1523:0.76281619 1539:0.48207906 1544:2.4883802 1556:3.840744 1560:1.9561049 1574:2.5279353 1586:0.5615871 1590:1.8052955 1596:1.2857618 1600:0.65956318 1617:0.10389334 1618:2.3871949 1619:1.3547736 1620:0.50068337 1624:0.11349344 1625:1.9281865 1630:0.13571705 1653:1.5078362 1654:0.079432845 1657:0.98330009 1662:0.1806688 1667:0.22449346 1672:1.4320798 1675:1.2362093 1676:1.3328724 1677:5.3418698 1680:0.81945622 1681:0.16543794 1682:0.65816689 1688:0.96800423 1689:0.50216013 1690:3.2190375 1695:1.3822495 1699:2.5470407 1711:0.18607432 1715:2.0654249 1721:1.1836838 1726:5.8154759 1742:0.80000758 1745:1.4514983 1746:1.7035118 1766:2.9646626 1777:4.0909495 1780:1.7858422 1781:2.1356809 1788:1.025408 1795:2.722218 1818:1.6886778 1822:0.73587 1823:1.8132205 1825:2.6598105 1828:1.6254807 1832:1.1849773 1833:1.2186208 1837:2.7219973 1844:0.39094383 1851:1.5305095 1861:0.57697213 1867:1.1425653 1870:1.2273417 1871:0.80594862 1872:0.22030489 1878:1.4083347 1879:0.40429008 1890:4.1224065 1891:1.4475164 1896:2.0171828 1897:0.00011754036 1904:0.43329799 1912:1.82357 1922:0.51601285 1926:1.1308447 1943:0.34898275 1952:0.44599524 1953:0.9108268 1965:0.83535361 1968:1.64066 1970:1.0679784 1978:0.33367288 1981:0.33890146 1982:2.0690768 1985:1.6910919 1988:0.64220071 1995:4.3957353 1996:0.92883009 1998:0.0050798208 2000:0.29253238 2002:1.4055402 2003:1.1659324 2011:1.5192529 2012:0.46628082 2019:0.9814961 2022:0.16647503 2029:0.37743527 2031:2.4945819 2043:2.4663265 2045:1.108922 2048:0.33714771 2050:0.56459099 2052:0.36033005 2055:2.620841 2065:0.46292529 2074:3.7785609 2075:0.73873401 2079:0.46080759 2097:0.91870034 2101:2.5233915 2105:0.49765164 2107:0.12156227 2108:0.23472431 2109:0.21189719 2112:1.0826548 2113:3.568743 2120:1.0339057 2121:1.5504305 2131:0.16619091 2132:2.5292995 2134:2.5423241 2136:0.83925658 2138:0.48402888 2148:0.29960248 2154:1.7008548 2160:0.75681782 2168:1.9370369 2173:1.3724986 2176:0.4727715 2177:2.6345429 2179:1.0939605 2193:0.76527101 2194:0.17723018 2196:0.6011591 2200:0.21095324 2202:0.3985199 2203:0.5989635 2222:1.3768563 2223:0.052493885 2225:0.41427827 2246:2.0998342 2253:0.17454347 2257:2.4890091 2262:3.2430201 2269:0.15757018 2270:1.8852441 2275:2.0520844 2278:2.9422224 2283:2.3307056 2290:0.57666588 2298:1.819663 2302:3.4641829 2311:2.9438267 2313:0.07116589 2316:0.8712405 2318:0.98640591 2322:0.011436865 2343:0.4831419 2344:4.1936622 2349:1.0140287 2359:0.13744062 2360:4.3768935 2361:0.71585608 2362:1.0991763 2372:1.5239716 2376:0.3199169 2378:1.3504128 2383:0.2402468 2388:0.99369192 2390:2.2192733 2392:0.64824247 2393:2.7686186 2400:2.3349409 2413:0.022896931 2422:1.8842291 2435:0.89010942 2437:2.4809017 2442:1.4029068 2452:0.53063989 2458:0.80321997 2459:1.1739483 2471:2.4708591 2473:0.19779405 2476:2.3209958 2477:0.23557308 2483:0.18919748 2487:0.92907989 2488:2.4696522 2490:2.1183383 2503:0.23776779 2506:1.2442243 2509:2.9027953 2514:0.70786738 2520:1.7715544 2526:3.8960032 2528:0.035275951 2532:1.6477046 2534:0.15288049 2539:1.9715744 2559:1.4846333 2570:0.47072482 2571:0.27029026 2579:3.0972607 2586:0.60512102 2589:0.22532368 2594:0.52201051 2595:0.67970204 2598:0.81086373 2599:1.8231884 2604:0.24084333 2617:3.6756265 2618:0.39662415 2625:1.1354623 2626:2.1293914 2634:0.20859376 2637:0.10637841 2639:1.8179874 2649:1.0947361 2651:0.3114748 2652:3.1213138 2656:0.093184561 2658:1.129396 2659:0.28378111 2663:0.52931511 2672:1.0485474 2674:1.6648594 2676:1.4372528 2688:2.9110966 2692:1.5190986 2697:0.69256556 2719:1.0133013 2720:1.3115017 2723:2.7404094 2727:3.3902199 2745:0.052734867 2752:3.5083671 2756:0.5228641 2763:0.76790905 2766:1.7894776 2774:0.90979636 2778:1.05391 2785:0.034479231 2792:0.95644987 2806:0.85422599 2811:2.285784 2813:0.070384979 2816:1.6997128 2825:1.2719742 2834:1.6126422 2835:1.5558796 2836:2.1905384 2840:3.1656115 2841:2.2703402 2842:0.45020306 2845:0.71194756 2846:0.26979002 2856:1.3778436 2864:1.1550297 2865:1.6121044 2869:2.9754579 2878:0.17770812 2882:0.88430816 2887:0.35944715 2891:0.83357191 2894:0.53329355 2895:3.5041509 2898:0.95303696 2903:1.7225469 2904:0.29026076 2905:0.051825225 2914:0.11956957 2917:0.31676161 2921:1.3593782 2938:0.59429419 2939:0.8123709 2941:0.62041271 2943:1.4020321 2947:2.0101795 2950:0.83858621 2958:0.67172331 2968:0.4389962 2970:0.43141225 2974:0.026264727 2979:0.14970669 2981:0.043423444 2984:0.54921079 2994:3.1076019 3000:0.28573021 3001:0.3153038 3004:1.8119453 3010:0.67910099 3013:2.0361242 3015:4.8850188 3018:2.1960423 3019:2.3541176 3022:0.011017293 3033:0.31967103 3034:1.9445417 3035:2.0575643 3037:0.11118257 3039:2.6306982 3041:0.97620797 3050:0.88097858 3057:0.039696872 3060:0.31253004 3061:0.25157544 3067:3.3108706 3081:3.2820001 3085:0.17898476 3093:0.29281515 3101:0.75445551 3107:0.63655615 3109:0.53844935 3111:2.2385178 3140:0.96058595 3145:0.93926823 3148:3.1501098 3152:3.3748255 3164:1.7113057 3178:1.0255332 3179:1.0989231 3198:0.71277779 3203:0.61281526 3214:0.48299703 3219:0.48195973 3236:0.89652336 3238:2.0331531 3242:1.3035703 3245:1.1798652 3247:3.893683 3252:1.2425702 3256:0.42235041 3260:1.9431678 3268:1.0719259 3277:0.83636439 3286:0.89647448 3289:1.6226641 3291:2.0165601 3293:2.1648231 3298:1.473923 3299:3.0243242 3334:1.3396778 3344:2.798043 3348:0.78124744 3349:1.7589333 3359:3.3997302 3361:0.91941667 3362:0.49575403 3371:0.8458547 3378:1.1245768 3381:0.27431691 3397:0.94567072 3402:1.461521 3403:5.1444168 3411:0.95748299 3424:0.91739219 3425:1.3859646 3429:0.070003927 3431:1.4093413 3432:0.83930624 3438:5.0044494 3449:3.3779926 3456:0.18556926 3476:0.28356153 3484:1.1607659 3486:0.64077687 3491:2.1953967 3493:3.3401501 3495:0.22700527 3498:1.1781876 3503:0.73203862 3504:2.6663775 3525:1.2047896 3526:2.5747073 3536:2.7151041 3537:0.67876464 3539:1.1613486 3541:1.0961231 3548:1.8493636 3552:1.1906935 3554:0.51311183 3556:0.7042951 3573:0.56794238 3576:0.66561413 3588:2.4288054 3602:0.51830053 3608:1.7575288 3612:6.4960132 3614:1.9246186 3615:0.82271254 3622:1.4048874 3635:0.44505039 3643:1.4178652 3650:0.38388234 3653:2.2967391 3655:2.0214922 3657:1.4797941 3670:0.36613315 3677:1.9449496 3690:1.9856267 3691:1.4586289 3692:1.4958971 3693:0.052463949 3700:0.11001627 3701:2.1097927 3714:0.53324425 3715:1.6473135 3726:1.4114521 3739:1.0505338 3745:0.23120351 3751:0.47446594 3752:3.4017282 3753:3.6200888 3756:1.6425803 3759:0.04545138 3761:1.1255908 3762:1.9589338 3782:0.26074362 3783:0.024922609 3789:0.64861715 3793:0.54858446 3797:1.4592916 3802:0.17782754 3807:0.54232925 3816:0.96027803 3817:0.93039036 3824:4.5438046 3835:0.74969244 3836:1.6379781 3845:5.1960402 3847:1.3657165 3859:0.79707164 3860:0.88939422 3861:0.83015156 3871:2.393894 3875:3.0350809 3876:0.73124218 3881:3.8581655 3885:1.5369705 3887:0.5037806 3888:1.1100502 3889:1.4489355 3891:1.7265755 3893:2.7279236 3895:0.022885621 3908:2.2339945 3910:0.63463533 3912:0.15922478 3915:0.8155371 3918:0.28210935 3919:1.6843357 3930:1.6068194 3933:1.0237421 3935:3.3050156 3942:1.9321756 3955:0.65511787 3957:1.882461 3962:0.63198596 3970:3.2318854 3972:0.13767114 3976:1.3954172 3979:2.637423 3980:5.0772839 3981:0.22271699 3984:1.7644826 3989:1.0818276 4001:4.1282263 4004:1.3675703 4011:1.745856 4016:0.75382888 4017:2.0075858 4021:0.43489334 4028:1.1131992 4031:0.98078966 4039:1.5921866 4040:0.3546651 4041:1.6364031 4044:1.8646467 4045:0.69537008 4050:1.7864054 4057:1.4252534 4058:1.4540262 4065:1.437238 4068:1.2217628 4073:1.4079717 4074:1.937116 4081:4.3721437 4085:0.53625947 4089:1.9583931 4090:1.5738164 4092:2.5960093 4093:0.45656341 4094:1.3336471 4095:0.5884757 
0.5900753753510359 3:1.9093561 11:0.80237538 14:0.42779338 18:0.3535454 27:5.2510552 29:1.3076394 38:2.4374886 39:4.4090285 57:5.6193304 80:2.8040867 83:1.4263538 84:1.4914405 93:0.94091487 104:1.0266045 115:1.0042989 122:2.3189106 123:1.2265592 126:1.6216102 143:3.8687146 144:1.3742206 154:0.42994094 163:1.0138086 166:0.1314356 169:1.3130193 172:1.2653346 188:1.7961044 197:1.0476859 199:2.3991141 210:4.4729595 217:0.010821432 218:0.88229883 223:0.33619457 232:0.6871649 234:1.2124563 240:0.52482158 248:0.4672181 265:0.48884985 270:2.9354188 271:0.5840646 283:1.1641936 288:1.3058206 299:1.452144 301:1.028191 303:0.30749154 318:0.25113648 320:0.55952132 324:2.3104141 329:1.2394886 336:0.34450227 337:0.3986932 339:1.2622322 346:0.55582905 359:1.1794844 365:0.37110043 371:1.7818263 375:0.59181124 378:0.8932063 379:2.7737021 385:0.27081206 391:3.6293473 393:2.0767448 400:0.4438169 408:0.37859002 412:3.6793773 416:2.4175906 420:0.62187958 426:0.022745013 428:1.6777406 432:2.7252069 434:0.38285702 442:1.7376593 456:1.8968745 459:3.9589891 460:0.41202426 462:1.209162 463:1.609975 472:2.1090071 473:4.2286758 491:0.62631136 494:0.41617951 500:0.30250657 526:4.4304538 531:1.6361952 537:2.967473 548:0.41602775 554:0.13937271 562:2.693197 570:0.36937663 575:3.7559409 578:1.4073187 591:1.7364584 592:1.3550726 603:0.053213805 612:0.55204052 619:0.24295193 629:0.72549093 633:0.02258113 635:2.6982241 641:2.1049695 654:2.3346567 656:0.2295132 657:2.682296 664:0.80263114 667:0.10189901 669:5.1424613 670:0.65618587 672:0.078837126 675:3.3169017 682:3.0816872 684:4.6127381 688:1.6611123 691:1.0692546 698:0.46568769 702:1.8494914 703:0.51297611 704:0.29448959 705:2.7982404 706:3.6111374 711:3.339536 723:1.590369 726:0.95162815 738:1.7664427 739:4.3549132 750:3.0925884 751:0.29336366 755:2.3195384 759:1.8189868 761:0.13850051 774:0.25855321 780:0.81469375 785:2.9270921 788:0.38330701 789:1.6807634 791:2.2193089 792:0.10276327 799:1.0727673 802:2.0088611 809:0.48725623 814:0.089011312 820:3.0219789 825:0.30649757 833:1.053596 839:7.7448597 849:2.918385 854:1.6681671 857:0.53802061 859:1.8648895 865:2.4347334 867:1.786323 868:7.5771694 873:1.3820908 876:1.1670139 887:0.99256146 889:0.47441509 895:2.4410059 903:2.4165771 904:1.1077049 908:0.62818253 913:0.53993779 922:0.96781278 925:0.80499196 928:4.4041243 937:4.2109528 943:0.45639265 945:4.5029345 960:0.16454376 961:2.1006169 976:5.4826217 979:5.4606447 982:0.29625791 987:0.70867664 989:0.57019365 1001:2.3020861 1004:0.095909208 1014:0.52626312 1018:1.4965127 1019:1.6467333 1028:0.91489339 1029:2.6596422 1030:2.4803898 1037:0.84828544 1042:0.9225778 1043:5.534574 1051:0.27182934 1059:1.0505921 1067:0.10268033 1076:0.89918905 1094:0.37388918 1096:0.44692287 1097:0.86285776 1103:1.3944697 1126:0.52085245 1137:2.8126073 1139:2.4589295 1150:0.87994927 1156:0.024026696 1163:1.2261424 1165:5.3174682 1168:0.49107039 1170:2.7853582 1186:3.9092538 1188:0.90327376 1189:1.1077118 1191:0.91808331 1206:0.3509742 1216:3.863477 1223:2.0564406 1240:0.087070696 1242:0.59143937 1244:0.27035826 1252:1.2596636 1255:1.3842416 1257:3.172389 1259:1.7670484 1274:1.7471424 1285:0.56865305 1288:1.735462 1292:0.66576672 1295:1.5701103 1305:1.1054723 1336:0.56903285 1342:1.3468411 1346:0.9467653 1350:1.7146249 1358:0.69256097 1359:1.9061826 1361:0.81492132 1368:0.06737709 1371:1.226899 1372:0.99163049 1376:2.3779953 1379:1.0957478 1383:0.0053510666 1401:2.7372127 1406:2.1260695 1410:0.88505292 1419:3.3904152 1432:0.13571423 1456:1.6367989 1458:1.1018085 1465:2.6876493 1468:0.89879215 1476:0.78838277 1479:2.1515143 1483:1.3856509 1485:0.83253944 1487:1.9788184 1518:1.04356 1522:2.3362098 1523:1.2097704 1544:1.7414529 1556:2.4998584 1560:3.0464396 1569:0.96448904 1574:6.6424613 1580:0.065962791 1582:2.1520097 1583:0.35068473 1586:1.354205 1588:0.75910079 1594:2.122752 1596:1.3274927 1613:1.3042688 1616:1.1903458 1617:0.45160627 1618:1.6482992 1624:1.3415678 1625:2.3711653 1628:0.29767677 1636:1.5512345 1640:0.25175783 1653:1.4885811 1657:0.48885757 1661:0.0053046346 1663:1.4493954 1670:0.16500881 1672:0.95035559 1675:1.9661556 1677:2.3513412 1678:3.7449188 1680:3.5784845 1688:1.9090676 1690:1.1228904 1695:2.097275 1703:0.61178291 1711:0.40849981 1717:0.24433368 1720:1.5485438 1726:8.6700783 1730:3.2069693 1737:1.2910177 1742:0.76064974 1745:1.0494202 1758:1.6110401 1762:0.74450833 1766:3.2074001 1777:0.070155561 1780:0.62554795 1788:1.0859753 1795:0.51662743 1799:2.6008253 1822:2.3813167 1825:2.5264895 1826:0.4846738 1832:0.45092502 1833:2.4846973 1842:2.7079694 1851:1.5519531 1852:0.60703868 1857:0.78306282 1861:2.088856 1867:1.2486715 1872:4.28057 1890:2.6425877 1898:1.7779373 1904:1.0391663 1935:1.0661863 1936:0.52652705 1938:0.055364817 1943:3.285949 1950:1.9267734 1952:0.31551567 1953:1.4108791 1963:0.36192116 1968:0.39212835 1975:0.24962358 1978:1.0321305 1985:0.033777405 1988:0.84508312 1995:4.3579645 1998:2.4041967 2001:0.83974278 2003:0.056655794 2011:1.5204974 2025:0.19863178 2031:1.5151268 2034:0.43500316 2048:2.0375011 2050:0.86609936 2055:1.0828125 2074:3.8391509 2099:0.021290451 2101:0.34604836 2105:0.35188693 2117:1.1494819 2131:0.90000409 2132:2.7983267 2150:0.6565851 2160:0.46524847 2162:0.10852087 2177:4.2926235 2179:0.53464043 2188:0.11880849 2200:0.64972663 2203:0.69013059 2210:0.50588489 2223:1.8942899 2238:2.950412 2253:0.63713729 2257:0.78698778 2262:1.7882206 2263:0.041755736 2270:4.1135836 2275:0.26202619 2278:1.2887039 2282:1.16889 2283:2.6564507 2290:0.91064078 2298:3.2664831 2302:3.832798 2311:2.5713711 2318:5.0786304 2319:0.50990009 2322:0.41681963 2324:1.0482695 2337:0.0043143369 2340:0.44238371 2343:1.2971218 2344:3.1444485 2349:0.24240683 2359:1.5538301 2360:1.8465835 2362:0.48675409 2372:4.0827618 2376:2.8905144 2378:1.2494786 2383:1.3916315 2393:4.3010511 2400:4.0157514 2415:0.51255965 2425:0.38465726 2429:0.72071725 2431:0.4671286 2435:1.9097538 2437:2.7557044 2459:0.4677684 2461:0.026083976 2470:0.63331211 2471:4.5214753 2476:0.73160255 2491:0.31655234 2503:0.97332931 2506:2.0829499 2509:0.49184787 2516:0.42556047 2520:2.0086045 2526:2.3124156 2539:1.3783538 2552:1.3185562 2554:0.36963853 2559:0.62134355 2563:1.443463 2571:0.3213082 2574:0.63217604 2578:0.014928836 2594:1.514838 2598:0.9972108 2599:4.5797319 2613:1.0875174 2617:2.8707125 2625:3.9160922 2626:5.2561059 2634:3.2696533 2637:3.1248674 2638:0.32210511 2639:1.0228045 2652:0.02222997 2659:0.67507672 2672:0.80654025 2674:3.0209689 2687:1.079814 2688:3.3347425 2692:3.1613274 2704:1.6810263 2708:0.8314569 2715:0.17015694 2718:2.2842879 2719:0.18478945 2720:0.63552463 2721:1.0453496 2723:5.0417562 2724:1.6984725 2727:1.7261639 2740:0.1438971 2752:3.2750726 2763:0.71428883 2765:2.5643377 2766:2.8069756 2767:0.75674301 2768:0.27425018 2778:2.2325742 2792:2.8207784 2806:0.67399824 2811:2.5230565 2816:0.58281136 2831:0.11863941 2836:3.2095327 2840:0.78697628 2841:2.4716215 2849:1.260108 2860:1.1354141 2864:0.51925832 2869:1.4157255 2870:1.4378508 2878:0.51042193 2882:1.8163896 2887:0.33964366 2891:0.85101271 2904:1.1224594 2907:1.7289523 2917:0.65451527 2918:0.2149554 2932:2.9100075 2934:3.4489596 2938:0.18479291 2939:1.700633 2949:0.78534985 2958:1.0582688 2962:0.51108271 2964:0.21463935 2970:1.3260187 2971:4.3725247 2972:1.4680095 2990:0.13266155 2993:0.33270162 2994:1.6163597 3010:1.2348236 3013:0.3127346 3015:3.0291147 3018:1.4644564 3019:0.58361381 3020:1.1114086 3021:0.8447721 3022:1.7586743 3034:2.3328609 3036:1.2079761 3060:0.78034633 3067:0.58952194 3081:0.02093184 3085:1.0771651 3089:0.10234249 3111:2.9789336 3118:1.1653261 3119:0.5107258 3120:0.10945327 3123:0.21695241 3133:0.80980533 3148:1.6793234 3150:0.71785027 3152:0.51217514 3164:1.2013737 3170:1.5478429 3177:0.71047622 3179:1.5381913 3195:0.57950795 3198:1.8195348 3211:1.032752 3219:1.2622982 3222:0.565534 3226:0.23999345 3238:4.5000167 3242:1.7397312 3245:3.241581 3249:0.59201407 3260:3.0601015 3265:1.9676659 3268:2.6761837 3276:0.68138266 3285:0.089804798 3286:3.1712022 3287:0.6611166 3291:4.1391153 3293:4.7540622 3298:2.5422373 3299:3.54967 3327:2.0505016 3334:2.4259136 3344:2.6239891 3348:0.48895609 3349:1.6571462 3351:3.0869424 3359:0.85485494 3361:0.79980934 3394:2.6864207 3396:1.5511206 3397:1.2199759 3402:0.40389949 3411:0.73507804 3418:0.08671391 3422:0.032229558 3429:1.2810471 3436:1.3028039 3438:1.9091825 3443:0.74881375 3449:2.0864251 3460:1.7361957 3475:0.77396637 3478:1.4345551 3491:5.1021261 3493:1.1049926 3494:1.2913576 3498:3.3437185 3500:3.1170282 3503:1.5616084 3504:5.5141783 3508:0.10938364 3512:2.4249635 3516:1.0912067 3525:1.305041 3526:0.87555331 3528:0.86502206 3535:1.0781665 3536:1.060552 3547:0.29730469 3548:2.7296753 3556:2.6081393 3576:1.2262418 3582:0.50064838 3588:2.7721303 3598:0.62320787 3604:0.11763681 3608:2.4773211 3612:4.6558957 3614:6.860558 3626:3.7645135 3627:4.3296571 3632:0.036751822 3633:0.18064532 3635:1.921715 3644:1.8262644 3653:3.3363011 3670:0.25296408 3677:1.1139998 3683:0.65098369 3689:4.6920671 3690:0.42200664 3692:1.3252822 3696:0.60169494 3697:0.45487434 3700:1.6405894 3715:0.098693028 3717:1.2326543 3724:1.4892333 3726:0.03253749 3737:1.0562655 3739:1.026507 3744:2.4710569 3745:1.1680886 3751:4.3128719 3752:2.9506111 3753:1.3262134 3756:1.5295048 3759:0.01507435 3761:0.91044778 3766:0.50984251 3768:0.38134393 3769:0.12657893 3771:1.3561597 3793:3.1826103 3797:0.72676283 3807:1.0479846 3819:0.027073979 3822:0.21236032 3824:4.3092227 3831:1.3424779 3834:1.0630909 3835:0.0384565 3836:1.3399475 3845:5.6484547 3848:0.6487627 3860:1.2102678 3871:2.9021029 3872:0.31684723 3875:1.4650626 3881:3.0478914 3888:2.1458318 3889:1.5686527 3891:1.9103643 3893:5.5800018 3903:2.0390418 3910:1.5942826 3915:0.27440536 3918:5.4044499 3919:1.0710859 3930:0.07619936 3933:0.36084804 3935:3.393095 3942:1.8828732 3957:4.2796636 3958:0.26939809 3970:1.2216212 3980:2.6169667 3981:1.6717386 3984:1.1652389 3989:3.6050954 4000:2.7922888 4002:0.7337321 4004:3.8122621 4011:0.82679194 4013:0.71944034 4017:0.86870778 4018:1.7050216 4021:4.3285503 4026:0.37424564 4031:0.53834438 4032:2.0227091 4036:0.27509511 4038:2.4780517 4039:3.2678189 4041:0.025907025 4044:0.25717628 4050:0.2539407 4052:0.27121174 4058:1.5414288 4063:0.42152351 4073:0.35457358 4074:1.0080726 4077:2.3296003 4081:1.8462327 4084:1.8732889 4085:1.5140712 4089:4.466433 4092:4.3410296 4093:0.84747082 4095:0.23494075 
0.5778963818661254 3:1.9192771 4:0.60556823 16:1.2169781 18:0.41349936 27:3.872915 29:0.21853706 38:3.0141017 39:3.4266603 44:0.92135477 45:0.56013441 57:4.1194725 80:1.2049069 83:3.2963274 84:1.2375276 93:1.5935614 94:0.8058641 104:0.098733336 122:1.9916511 126:2.6635809 143:4.4040313 144:1.6883585 148:3.6234455 163:0.16385144 169:2.2592559 172:3.5127552 180:2.7738395 188:4.3053536 199:0.37411714 200:2.076606 210:5.1071725 217:3.0403101 223:2.0985346 232:0.57403052 234:0.70207298 240:3.6443357 247:3.1845474 254:2.8121569 262:0.18169349 263:0.37980595 265:1.4424731 270:0.15452532 274:0.63422787 286:0.63669407 288:1.1751988 299:0.28437945 301:2.3389163 302:1.3485203 311:2.5836163 318:1.0534595 320:0.65573168 324:3.5325191 326:0.62545002 329:1.4521981 336:3.9478481 338:0.32781881 339:1.0297461 359:0.24364951 360:0.51454341 371:0.93629563 378:0.54274052 379:6.1381006 408:0.021489352 412:2.6249313 416:3.3294258 420:1.9176888 428:0.36717325 432:6.35602 434:0.74036229 442:2.4571357 459:4.5644593 460:1.5501667 463:2.055922 466:0.098915815 472:2.2313933 473:0.88102978 495:0.94549787 500:0.22212625 526:1.9190075 531:1.378377 537:0.76495665 548:1.4784715 554:3.0694919 555:0.15218663 562:2.9887209 575:1.4578471 592:1.8129135 601:1.6596864 603:3.036202 612:0.10601343 619:0.84883893 628:0.89800704 629:1.948675 633:0.22958897 635:2.9349816 637:2.5469027 641:0.17357242 642:0.29691061 657:1.8219078 662:0.39030096 667:1.7499217 669:1.1671911 670:0.70851409 675:4.0001488 682:3.2211814 684:8.5656528 688:0.692173 691:2.309433 698:1.7097614 702:3.9820197 706:2.1492424 711:3.5620463 723:0.91698515 724:1.1373754 726:1.7498071 734:0.014869228 735:0.5280062 736:1.5288272 738:2.9606893 739:1.6738384 749:1.148927 750:2.3312614 751:1.7122176 754:1.5359159 755:3.4677615 759:3.43958 761:0.42812747 780:0.30134171 785:3.8703642 786:0.14038041 787:3.4515338 789:0.10990932 791:1.0014554 792:1.0029929 796:0.67212963 798:2.1921201 799:0.25901216 802:4.4629698 807:2.6850157 813:0.52288818 820:4.7563491 833:1.6866721 839:6.703793 846:0.022435203 848:0.25159329 849:2.6234231 854:1.7772352 857:2.1568213 859:2.5443776 860:1.8541791 861:0.095966041 863:0.096421659 866:1.6911154 867:0.85548162 868:7.7774091 873:2.0315704 876:5.9846053 878:0.25420907 885:0.40780157 887:0.096594274 889:3.5001144 895:2.942862 899:1.1556815 903:0.39845422 904:0.71005523 908:2.5153496 912:3.1089234 913:0.036095321 922:0.10795081 925:0.90675175 928:4.9584112 937:3.3448551 945:2.1485023 954:0.61198711 965:0.88759136 971:0.15370193 974:2.3314252 976:4.7713308 979:5.5570889 983:0.68554705 991:0.52588975 1001:3.188323 1004:1.20191 1016:2.1570103 1018:2.1417077 1019:2.4498177 1021:0.88476837 1028:1.8627628 1029:4.0800633 1030:3.3895195 1042:2.8831296 1043:0.29842401 1076:2.0900071 1092:1.6923681 1096:3.8787334 1097:1.0875618 1103:4.7715511 1110:0.540079 1137:4.1519651 1139:2.2548356 1156:0.46648818 1159:0.82857889 1163:1.0941141 1165:8.4095221 1170:5.2738376 1176:1.8467672 1186:4.8196273 1216:2.1951113 1219:2.5045106 1221:1.940068 1223:6.5138483 1228:0.63600808 1234:0.85899389 1240:0.47234303 1242:0.69131148 1249:0.014316797 1252:3.0656426 1255:0.91614628 1257:2.0134559 1259:1.1754451 1264:0.34100479 1270:0.12926459 1286:1.4989903 1288:2.401298 1292:4.9224148 1295:2.5126519 1302:0.19054496 1305:2.9641573 1341:1.6154906 1342:0.31134972 1343:3.6570909 1345:0.95335263 1346:2.4199176 1349:1.8746076 1350:0.21321082 1356:1.1137922 1358:2.5030246 1366:4.5140777 1371:1.2909737 1372:1.982219 1375:2.5293372 1376:4.0009627 1378:0.20313154 1399:0.5472616 1401:3.6268864 1406:3.866132 1410:3.2184465 1419:7.1238537 1426:1.4924451 1432:0.26680839 1444:1.9736044 1447:1.3650078 1456:4.4336681 1458:0.20869642 1465:5.5149183 1469:0.067269072 1476:3.1382623 1479:3.4001384 1483:0.70734799 1485:2.7640886 1487:0.018848032 1490:0.23445159 1503:0.38130853 1518:2.2527621 1519:0.29721817 1522:2.5147433 1523:1.1610184 1544:2.9637465 1556:3.0159116 1569:0.91486996 1574:6.908628 1582:1.7944176 1583:2.2136161 1590:1.6792517 1594:0.83362997 1613:3.6585534 1616:0.51478338 1617:2.4661539 1618:1.2370119 1625:2.863549 1628:2.2492588 1636:3.4426003 1640:1.7766662 1653:1.8230999 1657:2.5122528 1661:3.8709621 1667:1.7537782 1670:1.0487152 1675:2.8110886 1677:3.3006597 1678:3.3284175 1680:1.3035723 1683:1.6551363 1688:1.0363039 1690:1.3151382 1695:1.2699703 1701:0.78892887 1703:0.6742698 1708:0.88394892 1711:1.5095817 1720:0.19565591 1726:6.7590227 1730:1.6584668 1733:1.8709651 1737:3.7078462 1742:1.8104224 1744:0.11553527 1758:2.2041204 1760:1.6442637 1766:1.879391 1777:1.159137 1780:0.64039636 1788:0.83735281 1793:0.56554669 1799:8.83533 1804:1.338695 1808:0.38012269 1822:2.3580093 1832:5.4414334 1833:0.50242049 1837:0.61645091 1842:4.0234051 1846:1.1140925 1851:0.23580912 1852:1.230256 1855:0.36688399 1872:5.8184977 1878:1.2115577 1890:5.077611 1898:1.2486271 1904:1.7885568 1912:2.3410149 1918:0.48071873 1928:0.29760137 1936:1.4449373 1943:2.2343729 1950:4.0045419 1953:0.60962379 1967:1.9140241 1970:0.1912199 1975:1.26018 1978:0.90535796 1990:1.741443 1995:1.0997986 1998:4.0571961 2003:0.64606369 2011:0.32842451 2022:0.065875173 2031:1.3654565 2041:2.9445546 2048:1.6625395 2050:1.87869 2055:3.2651498 2058:2.1502712 2070:2.7266259 2074:1.5214251 2075:1.5789633 2082:0.53992474 2085:0.25295639 2099:0.31898853 2105:1.6774565 2113:2.6046224 2117:5.3788905 2131:1.9649475 2132:1.9226342 2134:4.0046754 2136:1.8855288 2150:2.9075465 2159:0.51716173 2160:0.53278565 2163:0.48667008 2165:0.23063637 2177:2.9318004 2188:1.9744176 2194:0.027892947 2196:1.9955627 2203:2.711473 2210:1.4728494 2211:0.6167053 2223:2.0898161 2231:0.97024035 2238:2.1858521 2262:1.0116713 2270:7.1298361 2278:2.8055575 2281:0.20475927 2283:1.6192449 2298:1.8272269 2302:3.7129517 2303:0.5498668 2311:4.5443692 2318:5.4723039 2324:0.98835182 2337:1.9670882 2340:0.74806166 2343:0.76131016 2344:3.7592158 2349:3.8668003 2359:1.8280392 2360:1.1134762 2372:2.8026745 2376:2.7798836 2378:0.28085828 2383:2.4338427 2386:1.8013397 2390:1.7089863 2393:3.7758684 2400:6.7315149 2422:0.72559005 2428:0.23241527 2431:0.28343001 2435:1.9375212 2437:3.3751392 2459:0.58371556 2461:0.90083504 2470:1.988492 2471:6.1085467 2473:1.2722999 2487:1.3593552 2503:0.031681299 2506:0.97113013 2526:3.4124742 2531:0.99964333 2539:0.30108023 2554:2.442771 2561:0.12536377 2563:2.0016801 2566:0.16294041 2571:1.7453085 2577:0.46334386 2579:0.78574371 2589:1.2065856 2594:1.0181572 2598:2.8806791 2599:4.0066447 2613:1.1153281 2617:5.0053239 2625:3.4025567 2626:1.8642964 2636:0.82752168 2637:5.1328154 2639:3.2346871 2642:0.41588253 2662:1.4506851 2672:0.20643774 2681:0.45557961 2688:3.3967576 2692:1.396956 2704:3.5002124 2708:3.1763279 2715:1.4810206 2718:2.6436598 2720:4.9729614 2721:2.3918629 2723:2.8297114 2724:2.0385418 2745:1.4727819 2752:1.7173893 2754:0.21530579 2766:3.6781127 2778:3.3307381 2788:1.6415777 2789:0.22441441 2792:4.2707634 2811:3.3430786 2816:0.80252016 2826:1.6469076 2834:2.5885038 2836:3.7432513 2841:2.0395582 2846:4.1416907 2849:1.8309302 2864:1.2727937 2869:0.68194723 2870:4.5689001 2873:0.093378931 2878:3.1140447 2882:6.5798678 2891:0.67350316 2894:0.29260948 2895:1.8791239 2903:1.9773645 2918:2.380863 2932:0.76988387 2934:0.83941895 2938:0.91749132 2940:0.51507926 2971:3.2889988 2972:1.9023801 2974:2.4064152 2985:1.848498 2993:0.14267552 2994:1.6940483 3010:1.1282777 3011:1.5871552 3013:0.58981299 3015:0.84657717 3019:0.53943753 3020:0.65138298 3034:4.7982912 3035:0.59331882 3036:1.0107518 3060:0.54329711 3068:0.1978015 3071:0.79340386 3079:1.5852489 3081:1.3821702 3085:0.40013543 3101:0.73877978 3111:5.3609042 3120:1.5600433 3133:0.57965028 3135:2.2968841 3145:3.1356609 3146:0.33624101 3148:2.0357563 3152:0.9062838 3164:2.0319324 3166:2.0106933 3179:3.4911864 3182:1.6295294 3195:0.95868194 3198:1.8864777 3211:2.3583591 3217:0.98768544 3219:2.8277924 3226:0.9727999 3238:1.2427669 3242:1.0779822 3247:0.87443852 3249:2.3132966 3256:2.0546889 3260:3.9892788 3265:0.60663301 3267:0.81130612 3268:2.5148315 3275:2.4570093 3285:0.33058396 3286:1.1692855 3291:6.0731001 3293:2.7830501 3298:3.1134853 3299:4.1232643 3327:0.39635819 3334:2.147717 3343:0.59243459 3344:5.84973 3348:3.7793577 3349:1.5291741 3351:3.6865571 3356:0.97105372 3359:2.7526298 3367:0.3713814 3396:1.6337826 3402:0.41648179 3411:2.815032 3418:1.8637314 3422:0.039406016 3424:0.29688895 3436:2.3733747 3438:2.8531253 3448:0.47259763 3449:4.9029522 3450:0.070662744 3456:0.85771745 3460:0.037571162 3468:0.23331627 3471:0.24704656 3491:5.572659 3493:5.2142224 3494:1.0733176 3498:5.3718491 3500:3.8967395 3503:1.269657 3504:3.9751372 3508:1.9517732 3512:1.1774187 3516:1.9113597 3520:0.20553666 3525:2.8403611 3526:1.6343546 3535:1.4862632 3536:0.56588322 3537:0.084226727 3540:0.54334748 3548:2.7085631 3554:0.51617837 3556:6.0690084 3576:5.1703048 3582:3.7603092 3588:2.8091462 3596:2.2420831 3604:3.954664 3608:2.3253503 3612:4.819056 3614:9.2884674 3626:2.8338614 3627:6.2728691 3631:1.3441294 3632:1.1000272 3643:0.56421471 3644:4.8234477 3653:6.7853117 3669:0.99746621 3677:0.15522066 3681:2.1934872 3689:4.0243196 3690:1.6190648 3692:1.1088384 3697:0.77213103 3710:1.959956 3715:1.0258565 3717:1.0825022 3724:1.2269502 3732:0.22486167 3739:1.6968527 3744:1.1720158 3745:0.6343261 3751:5.2942843 3752:3.24828 3753:0.29399329 3761:2.6005197 3771:1.0032403 3783:1.2558002 3793:2.5451891 3798:0.61088866 3808:0.61251998 3819:0.53445029 3822:1.405857 3824:4.9197631 3834:0.055312291 3835:2.5816584 3836:2.113749 3845:7.0079203 3848:0.60702115 3860:2.6021276 3862:3.4164963 3865:1.857839 3872:0.24793676 3875:2.3129587 3881:0.18647629 3885:1.5154368 3888:2.8709576 3889:0.28275388 3891:1.3091358 3893:4.7915316 3903:4.2340937 3908:2.484313 3910:4.8729773 3914:0.38374099 3918:7.5967531 3933:0.65406632 3935:5.1654606 3942:2.5997548 3957:3.1200354 3970:1.4369084 3980:4.9126396 3984:0.25503927 3985:0.46300501 3988:1.0526346 3989:0.35541224 4000:1.4884055 4001:0.53635007 4004:5.7277808 4010:0.63007247 4011:0.31252077 4013:0.33085585 4015:0.75731552 4018:0.62270039 4021:4.0150423 4024:0.52393961 4036:3.8438315 4038:2.7207789 4039:0.27044711 4045:1.6222694 4052:1.5091516 4063:2.9124923 4074:0.82039666 4077:2.0291524 4081:0.96561813 4084:1.7287025 4085:1.7857883 4088:0.75930214 4089:3.476186 4091:0.25896582 4092:2.1216836 4093:0.54950452 4096:0.3157672 
0.2471468496220305 3:0.60402894 10:2.2086828 15:0.2013492 19:2.5699341 26:0.64253712 27:2.3974097 34:3.0362177 37:0.13909045 38:3.0336151 39:1.859493 43:1.018986 44:0.62610847 45:0.84268141 68:1.9676805 69:0.41709092 80:3.1059539 84:0.41725647 87:0.28163552 94:1.6445429 105:2.8708975 108:1.6133691 116:0.27446783 121:0.29107085 122:0.70502996 125:0.49544367 126:0.80754989 143:3.3127592 144:1.4736265 147:1.3634365 163:2.22472 169:0.25380039 172:4.6691308 178:1.8157126 180:3.1949534 186:0.1451301 188:0.8843798 190:3.6504087 192:1.326978 196:0.45202279 197:1.0331495 199:2.9537554 209:0.00074084103 210:3.437345 217:0.22749183 218:0.7028141 221:0.48744553 222:0.090919286 223:1.9117364 237:2.041147 238:0.50831366 240:1.037962 241:2.2867327 252:0.030930758 256:0.5404563 262:1.6645037 265:0.020856529 267:3.4998004 270:0.6699034 279:0.3398698 283:0.16410828 288:1.267364 290:1.0028405 291:0.15908657 297:0.29380015 301:0.21557236 302:0.28550932 312:2.076314 318:0.70570046 324:3.1858132 335:1.0549932 336:0.47020406 338:0.34917074 347:2.7215676 348:3.3866627 365:0.16981351 366:5.0265136 371:1.7375159 375:0.63703156 378:3.0895658 379:5.3807378 391:2.5209177 393:0.50630981 397:3.4660003 408:0.68852365 412:2.6078606 414:0.15930203 416:0.70296526 432:5.3150015 434:0.55553102 436:1.7569903 442:0.09517999 450:0.74910235 456:1.8363779 457:0.018862575 459:3.7466569 460:3.3783486 470:0.39928758 482:1.0098892 485:1.743598 491:0.78268147 499:1.2093666 500:1.7790112 514:0.46157756 520:1.2441025 526:1.6234803 527:1.0890818 536:0.74517071 538:0.41401309 560:0.68670905 562:1.1452887 565:0.98290694 567:0.21570018 570:0.69931352 575:1.1194891 592:3.1469033 601:0.81793272 607:1.8149363 612:2.6415343 616:1.6630156 619:3.4758987 624:0.99342048 626:1.1920681 628:0.52939045 629:0.93134689 641:0.68519109 642:3.0571485 654:0.8809945 657:1.1199062 659:0.050790623 662:0.68248212 664:4.1866703 669:2.7114992 670:0.00010555983 672:2.7212403 674:0.14614922 675:2.1628489 684:6.6044302 686:2.3494396 689:2.3251457 696:0.2473866 697:0.095460802 698:0.57509327 702:3.7966135 705:1.9230026 706:2.6515365 711:3.1905501 717:2.8161955 718:0.34507477 721:1.257319 723:6.3097854 725:1.6222575 726:0.69075465 728:1.1011842 732:0.22410797 736:0.33357814 738:1.0939577 739:4.4187961 742:1.9240124 749:3.8043163 750:0.68169898 751:3.4338403 754:0.9930191 755:0.91808283 759:4.178195 760:0.050915226 785:2.5483553 787:0.76559216 788:1.6013182 789:0.49183905 791:1.603189 796:3.3377457 799:0.5643664 803:0.66001058 806:0.031125098 809:0.53383738 814:1.6361892 820:2.2520361 826:1.8146682 839:3.2230701 841:1.5755153 854:1.2540414 857:0.92652142 859:2.0148559 860:0.023409069 865:0.987665 866:1.0289741 867:1.0356604 868:7.6029396 873:0.34093434 874:0.8708421 876:1.9668275 878:0.26699716 881:4.8339739 883:1.1522087 885:1.1551411 889:0.52524316 895:0.29687095 899:0.21569797 901:0.90516359 904:0.26282334 908:3.5768256 909:0.23689549 916:0.86995929 919:0.85256511 921:1.0072391 928:4.8361511 931:1.8643394 937:2.422241 945:5.8856373 948:1.9669052 954:0.29936546 961:0.092118919 963:1.3848953 965:2.4751174 968:0.20495775 971:1.1473273 974:2.8166125 976:1.092777 982:0.15965895 985:0.13095942 991:2.6218276 993:2.4922333 997:3.1581788 1001:3.5444276 1003:1.9956532 1004:1.1484793 1009:0.2359229 1013:0.78546154 1018:4.8100014 1019:1.1879425 1025:0.14543337 1029:3.8151569 1041:0.60832357 1042:1.5739374 1051:1.1587566 1053:0.32059932 1062:0.061075091 1071:0.23183993 1078:2.3936453 1080:3.4199953 1091:0.94213408 1092:0.32273686 1094:2.6005611 1096:4.9225411 1102:0.98492581 1104:0.24927565 1105:0.34788555 1110:0.46337786 1111:1.245232 1114:0.43569049 1125:0.11785823 1137:4.2187958 1139:2.8220696 1140:0.071473651 1154:0.70518523 1155:0.68012762 1157:0.1421878 1159:1.140132 1163:0.99635792 1165:5.3503242 1170:5.4307299 1171:1.4405042 1176:2.0185485 1181:1.3547456 1182:1.8919693 1186:1.5058699 1188:1.2853611 1189:1.8444772 1216:1.4006436 1221:0.82467949 1223:3.387002 1224:1.0680993 1227:1.0249445 1228:0.84779745 1233:0.022648662 1235:0.61895239 1236:0.11198959 1240:3.7915201 1242:1.5474159 1246:1.2995144 1249:3.9251039 1250:0.30808717 1252:3.7368281 1257:2.1216071 1260:1.0132921 1265:0.22026703 1274:1.987502 1279:1.9434171 1281:0.77795291 1285:0.3254922 1291:0.45164764 1292:1.7872424 1305:0.24176154 1309:1.9632841 1313:1.0910201 1340:0.36912638 1341:5.2863283 1342:0.71483397 1343:1.5788143 1349:1.9184045 1356:4.5661316 1358:0.079261124 1359:1.7483145 1363:0.054248631 1365:1.0916394 1368:1.4241647 1369:0.65318513 1372:0.74555665 1376:3.8740628 1383:0.25778723 1385:0.12486079 1386:2.2992427 1387:0.30306455 1391:0.79885471 1396:0.80134857 1397:0.066093445 1401:4.1069674 1404:0.65075421 1406:3.6886113 1410:3.0655713 1412:0.39596865 1419:6.5165124 1426:1.3778074 1432:0.37841797 1433:3.6505187 1435:0.015385509 1441:2.2017202 1444:5.4633975 1447:1.1550508 1452:0.98709732 1456:3.4218345 1458:2.6470184 1463:4.0533271 1465:2.102098 1470:2.1368356 1471:2.4994392 1476:3.5034885 1479:0.98671412 1483:0.62175202 1488:1.6270924 1490:0.69470751 1497:0.063088685 1498:0.24779837 1503:0.66184902 1508:0.37019193 1513:2.1976249 1514:1.5848967 1522:1.6104215 1523:3.1584523 1534:0.30087283 1551:0.061210692 1556:4.0044408 1565:0.96612376 1574:4.1629529 1583:0.35326335 1586:0.81043404 1587:2.029618 1588:1.3518091 1590:4.0016756 1594:0.2122245 1595:0.89696217 1598:0.73861969 1600:4.0422707 1606:0.59214199 1613:4.3322396 1616:1.4741355 1620:1.1052444 1622:1.7208723 1625:0.5410344 1633:0.85248524 1636:1.7477643 1647:0.75019491 1650:1.2370489 1653:2.6441531 1654:0.73349679 1657:1.5041828 1659:3.5796027 1661:4.645277 1663:0.15377936 1667:2.2818966 1668:0.48227566 1675:3.0161986 1677:8.4480858 1678:2.4492512 1680:2.6407413 1690:2.5051842 1695:1.3176918 1697:0.076294675 1699:1.3063989 1700:0.22212669 1701:1.6724166 1703:0.1317946 1705:0.0090477616 1714:1.1466016 1716:0.17524844 1721:1.293748 1725:0.79545546 1726:3.7608261 1730:0.0036266893 1737:1.7454085 1742:0.065995708 1758:0.37877399 1762:0.69158214 1766:1.9084866 1767:0.95154208 1777:1.3058404 1780:0.22057772 1781:0.07614705 1783:0.71523869 1794:0.89432532 1795:1.0739635 1799:4.8078084 1804:0.70794725 1806:0.24382721 1808:1.3739119 1812:0.30223638 1814:1.3544114 1817:0.63758236 1822:0.58362329 1823:1.6376115 1824:2.7127783 1825:1.1536348 1832:2.5647242 1833:2.5463653 1842:3.7215981 1849:0.44973439 1850:2.0845211 1851:0.74551713 1855:1.2788886 1856:0.59905362 1862:3.2194035 1865:1.1607718 1872:2.2898669 1890:1.7023065 1898:2.1795051 1904:1.3027511 1912:1.1119146 1918:0.86099285 1928:0.60117292 1943:0.70919466 1950:0.1415543 1963:1.2167197 1967:0.11202355 1968:2.8870471 1972:0.9639895 1986:0.88521719 1988:0.53482527 1993:0.080585495 1995:0.60556424 1996:1.7658465 2000:0.61344814 2002:0.22913677 2004:1.9985598 2006:0.50079358 2011:1.7784536 2012:1.4531466 2022:0.9182983 2031:0.85288399 2032:0.46570507 2034:0.67203563 2043:0.26048362 2046:0.5426085 2048:0.29153907 2050:1.2954433 2055:2.4001217 2057:2.3098884 2060:0.31413099 2074:3.592943 2102:0.98038799 2105:1.5090985 2107:1.6223763 2112:0.11726731 2113:2.1035221 2117:4.8075767 2120:1.0950804 2132:1.5269873 2136:0.14112127 2138:2.0558872 2144:0.10604939 2156:0.066224054 2165:1.4665129 2166:1.5855571 2168:1.2809581 2172:2.3953233 2175:0.980075 2176:0.97065794 2177:0.77729738 2178:0.37392825 2179:0.53526545 2180:0.11596626 2186:0.33897391 2187:3.9066305 2188:2.2093108 2189:0.4306224 2196:1.5735821 2202:1.2754214 2203:2.5887778 2210:0.97655576 2212:0.92988133 2223:3.138319 2226:0.43923709 2229:0.022954553 2244:1.0126916 2250:0.34783608 2253:2.4646564 2257:2.4864492 2267:1.9399846 2270:3.6644936 2275:1.2287352 2278:3.879379 2281:0.057739269 2282:0.94269502 2290:1.4951422 2298:0.53816098 2300:0.0040073991 2302:3.2074456 2306:0.83525121 2311:2.5238516 2314:1.33846 2316:0.026366591 2318:0.14953703 2322:2.0584702 2324:1.2244319 2329:0.63416773 2335:0.78330779 2343:2.0727468 2344:5.2261066 2346:2.5969622 2349:1.6339692 2360:2.6015337 2361:2.6481225 2364:1.3490752 2370:0.72138965 2388:0.35793999 2390:3.8159587 2392:3.6012533 2393:0.5206486 2400:3.8212245 2406:0.117796 2422:1.2331942 2423:2.1275406 2425:0.8109985 2431:1.7103161 2435:3.652915 2437:0.59805453 2442:1.4896609 2452:1.101284 2458:0.69748712 2459:1.0977395 2466:0.60365051 2467:0.3862938 2470:1.6297717 2471:3.6721849 2477:1.1259528 2493:1.3046451 2503:1.905359 2504:1.2566257 2506:2.3609068 2507:0.54035258 2508:0.60816848 2509:1.1555451 2514:3.2033815 2521:0.7341572 2526:1.3531111 2532:1.8598967 2552:3.2029366 2554:1.2466302 2561:1.8131481 2566:1.1813753 2570:3.4588542 2577:1.1048203 2578:1.2327073 2583:0.44399342 2589:1.9450331 2591:3.23733 2595:1.1589389 2598:0.30470961 2617:2.4982905 2620:0.39136335 2621:0.21477398 2625:1.105202 2634:0.64697528 2635:1.9165154 2637:5.9571543 2639:1.894668 2642:0.1516712 2649:3.0189083 2652:2.9681032 2669:2.1879754 2672:0.67338848 2676:1.2458329 2684:0.22763976 2688:3.9521778 2695:1.224745 2697:0.7356956 2704:2.9092124 2707:0.6372686 2708:0.1984835 2715:1.3597226 2718:3.02158 2720:0.55346346 2721:1.4086144 2723:2.1432142 2727:2.1490984 2731:0.64441586 2732:1.6304927 2740:2.7183337 2745:4.514709 2752:0.77077997 2756:0.40818608 2758:0.72253579 2763:2.6762784 2766:0.45074296 2775:0.08306241 2778:3.3161595 2785:1.7675878 2792:5.0554056 2795:1.193898 2796:1.3491868 2805:0.74085283 2811:2.8634751 2816:0.16067451 2821:0.62138021 2826:1.1341958 2828:1.6917604 2834:3.8850861 2840:2.2038081 2842:0.74339372 2846:0.50985384 2849:1.9786918 2860:0.74057537 2864:2.2348733 2870:4.1096034 2878:3.3273878 2879:1.8025299 2882:4.06317 2887:0.1529126 2891:2.4294541 2894:2.1318614 2895:1.514694 2903:2.0371475 2909:1.7835747 2911:0.60879213 2922:0.0057768822 2929:0.08291629 2932:1.3484657 2943:0.53787518 2950:3.7795064 2953:2.5343184 2962:0.52911824 2963:0.47243476 2964:0.56308657 2965:1.2407808 2966:0.30957642 2971:2.2235191 2972:1.2605013 2974:4.7569818 2979:2.6530561 2981:0.99918139 2985:0.86751974 2994:2.3561959 3010:0.67985582 3012:1.3936353 3018:0.23574038 3019:1.9704374 3020:1.5366256 3033:0.91669476 3034:0.8606993 3035:0.54554713 3036:0.098719448 3037:0.028471172 3038:1.0375663 3041:2.3835688 3046:2.3437028 3057:1.0168836 3060:0.64455676 3061:1.6253583 3067:3.5618351 3077:1.0026855 3081:1.9698048 3085:0.69223928 3091:0.79853809 3094:1.0464615 3101:0.34216204 3110:0.017029196 3111:2.3742709 3117:1.0629251 3120:2.6389487 3133:1.1795464 3135:0.22635847 3145:3.2624795 3146:0.369533 3148:2.4700656 3152:2.8307474 3154:2.0844719 3155:1.2917874 3163:2.0861511 3164:1.2525548 3166:0.023983195 3170:1.2925848 3179:3.1905046 3183:3.0925834 3195:1.4194763 3198:3.2925045 3200:0.57301581 3210:1.3523756 3211:3.1371534 3219:0.38669091 3232:1.3855368 3235:1.8704913 3247:3.216238 3256:2.124459 3259:0.40137696 3260:3.4728262 3268:1.6734326 3277:0.52874112 3285:0.97894835 3287:0.81519306 3291:3.4453256 3293:4.0939465 3295:1.3954256 3298:2.4257956 3299:5.3439732 3310:1.3509282 3327:0.58592904 3334:0.48640311 3344:3.5853069 3345:0.054834187 3348:2.3359382 3349:2.6905282 3351:5.1072292 3355:0.8355512 3356:1.416501 3358:1.6641705 3359:1.1641955 3367:0.96924645 3377:0.47764507 3396:1.2487502 3397:1.8096746 3399:2.278079 3413:1.5804855 3418:1.3321882 3422:0.90361375 3424:1.9962103 3437:1.3568282 3438:2.7371721 3442:1.9903687 3449:2.4864023 3450:0.29316938 3455:0.42410204 3456:0.061885633 3460:0.36256602 3463:1.4360715 3467:0.070798665 3468:1.4465575 3482:1.5165386 3486:0.84100688 3491:4.0546761 3493:1.5508716 3494:2.6652098 3496:2.4140627 3504:2.2921495 3508:0.38519591 3517:0.36815083 3525:1.5427129 3526:3.7951274 3531:1.4960403 3534:0.011571527 3535:0.76699013 3536:1.0935338 3544:1.4008449 3548:1.441468 3554:0.18374678 3556:0.65951288 3568:0.57099533 3569:1.2860479 3576:2.2752483 3582:3.2877123 3586:2.9507055 3588:3.1712198 3592:1.3482502 3602:2.2197585 3604:3.3280411 3608:2.2461545 3612:0.35188311 3614:3.9671805 3615:0.43893519 3617:0.82669944 3619:1.1811819 3621:0.071811438 3622:0.63747078 3624:1.630651 3626:2.107142 3627:2.9375317 3632:0.17837 3636:0.26758403 3643:1.0991462 3644:1.4791557 3653:3.3119678 3655:0.75700414 3658:0.46695584 3665:0.54413825 3684:1.4479989 3689:0.89591533 3690:3.9014759 3692:3.2971296 3717:3.4531159 3720:0.50281692 3724:0.51751953 3732:0.85837424 3734:1.1547635 3739:0.96057868 3745:0.020672906 3749:0.19977739 3751:0.88401842 3752:6.3292818 3761:2.3334975 3771:0.32606387 3782:1.8917683 3783:0.77287996 3793:1.9814044 3796:0.058713406 3797:1.3586786 3803:1.450021 3807:0.32861698 3808:1.7136817 3811:0.62466532 3813:2.2160683 3815:0.50250059 3822:0.024810672 3824:5.0240512 3828:4.0072818 3831:0.96732193 3835:1.5806102 3836:1.3912389 3845:4.9514298 3860:1.7560501 3862:0.36240387 3864:0.58624196 3875:1.2305026 3881:2.1409123 3885:1.1737354 3886:0.32919279 3888:2.0156708 3891:3.8890383 3893:2.0859754 3903:3.7279308 3907:0.86824465 3908:2.0351152 3910:2.7287455 3912:0.0098932683 3918:4.5683732 3919:3.0721393 3923:1.7816976 3927:1.3220309 3935:4.567009 3942:1.1461227 3950:0.5704006 3952:0.52899802 3957:0.86793047 3970:2.905617 3972:2.8694832 3976:0.74465251 3979:1.077123 3980:2.4820051 3981:0.61628056 3988:0.64112175 3992:1.074564 3995:0.16517203 4000:0.58311594 4001:2.4583323 4004:3.8383102 4011:1.6702666 4013:1.4523314 4014:1.1857226 4018:0.32402772 4021:3.3652844 4026:0.37424836 4031:1.2353292 4032:2.8288541 4038:0.8377142 4044:0.076187372 4050:0.82491922 4058:2.2099934 4067:1.5404819 4068:1.2962254 4070:1.3655281 4085:0.865785 4088:0.88987887 4089:1.9185777 4090:3.3645916 4093:0.099016368 
