svm_type c_svc
kernel_type rbf
gamma 0.000244141
nr_class 2
total_sv 104
rho 0.6719
label 1 0
probA -4.3423
probB -0.57454
nr_sv 42 62
SV
1 9:0.18826133 10:1.5159763 15:0.73962772 16:0.11120617 19:2.082242 21:0.53582084 25:2.4262865 26:0.76920718 27:0.99195051 29:0.31840399 34:3.2548635 38:3.386945 54:1.2214786 66:0.13243908 68:0.038001955 69:1.1803252 71:0.022738814 78:1.8584259 80:1.550207 94:2.0384557 110:2.6258426 114:0.2169777 115:0.54156065 122:0.78886259 123:1.3306639 127:2.3074019 140:0.98153579 143:1.7044568 144:0.85078263 147:3.7949879 150:1.0891269 154:0.37126386 156:0.49817309 159:0.12676203 163:1.010987 172:2.9305263 180:0.028252847 190:4.9101429 192:1.3364273 197:1.2865437 210:2.1013877 211:2.1498168 214:2.2139468 218:2.7427144 222:1.1129185 225:0.89569813 239:0.04363095 241:0.42457509 244:0.14704368 248:0.40839654 257:0.37493676 258:1.3906922 259:1.0983514 261:1.329757 262:3.0114186 263:1.3359376 265:1.7881242 267:0.16865101 276:2.2824275 283:2.6044681 288:1.2773029 297:1.5278667 312:2.3848686 315:0.21649252 317:4.524827 318:1.8665926 323:0.89374614 328:1.2226442 338:1.0824656 348:3.1340921 353:0.8808707 356:1.0128578 359:2.8376269 363:1.0858667 365:2.7622089 378:0.55653608 388:0.8328495 390:0.48656103 391:1.2585936 394:0.57786834 397:5.2324872 411:1.0895621 412:2.0520976 413:1.1662832 426:0.72136253 432:2.4809203 434:0.72865421 436:2.0164804 442:1.948203 444:1.361356 449:1.3484986 450:5.2180886 452:1.2218466 453:0.88613772 454:1.0496806 456:0.23608615 459:2.5561409 460:1.314625 462:0.36461577 473:1.4832395 481:2.2199016 482:0.28431469 484:2.5752211 485:0.80524111 487:1.6355228 492:0.1114946 493:0.1562551 496:0.50993687 499:0.44542432 500:2.765106 511:1.081624 520:0.1865446 521:1.0668571 527:2.7370143 536:0.80470407 538:0.45750958 552:1.5342367 555:1.8108079 557:2.4777272 558:0.7528882 560:1.111182 562:0.50629544 565:2.4329686 572:0.86281514 575:0.22167541 580:0.0018061399 581:1.70268 592:0.67871851 605:3.6770709 607:0.11449277 609:0.86637986 616:1.3538964 619:1.8131464 624:4.7305017 635:0.66314942 638:1.0763302 639:1.3835793 642:1.871048 647:1.370711 650:1.7529497 655:3.9527977 659:1.7012805 661:0.68865281 662:0.47165242 664:2.6435962 666:1.9610848 669:1.206071 671:2.8165743 672:0.78448653 675:0.23455079 682:0.74153024 684:3.5941648 689:2.3533316 702:0.47883499 703:0.32610193 705:2.6201093 706:1.6070849 711:0.46533713 717:0.29114747 721:0.51272821 723:2.0557463 728:1.8634412 731:2.8259237 739:2.697432 742:2.1969731 749:1.2197378 750:1.8955152 751:1.6375006 759:3.8121393 764:0.55080122 766:0.94037938 770:0.44831693 788:4.2271008 791:0.34067622 795:0.97285318 796:2.18642 799:0.76438415 803:0.68623704 806:0.027788371 808:0.27740759 809:0.038972557 823:0.59451026 826:1.6853139 831:0.60062361 835:0.55653131 839:3.0381646 841:1.6040695 846:2.1789134 855:1.1221545 857:1.3890711 866:0.4650906 867:2.1858759 868:2.0820742 874:2.251461 878:3.433959 881:2.1198373 886:0.10588863 895:0.50337648 905:0.35198104 909:0.51550364 911:1.2418792 916:0.89697176 919:0.018101253 921:4.2721615 922:0.5608508 923:0.57187974 928:1.6259756 937:1.0002017 943:0.92195535 944:1.2404814 945:2.5027294 948:1.7020507 953:0.068441451 958:2.2356987 963:4.7589746 966:1.6824234 972:1.6261501 974:3.7252142 976:0.62207532 978:1.6155902 982:0.409872 991:2.8054085 992:1.1696746 993:0.88644671 997:1.8189565 1001:3.2438843 1002:0.59183818 1003:1.4748034 1009:1.5616056 1013:1.7786266 1014:0.20106471 1018:3.1339242 1022:0.89934492 1023:1.6630237 1028:0.30198169 1029:1.2493285 1032:1.7726113 1041:1.0215471 1042:0.90410912 1053:1.7419541 1071:0.10901257 1077:1.3409009 1078:1.0899673 1080:2.07127 1087:2.6632829 1094:0.3379114 1096:1.127795 1102:0.91078758 1103:1.8035107 1104:0.10298049 1105:0.276012 1107:0.36814553 1111:2.1638629 1114:0.39658684 1131:1.7739948 1139:0.21889949 1146:0.37063417 1153:0.4042747 1155:1.4842637 1159:3.1711102 1160:0.3446078 1163:0.38568842 1170:2.7284076 1173:0.75735736 1176:0.95599109 1181:2.8419662 1189:2.1079197 1206:1.8443862 1208:0.38593885 1210:0.16315876 1213:0.73941642 1216:1.3098457 1220:1.1216913 1221:2.2594068 1233:3.3425663 1235:0.92393315 1236:1.881094 1240:4.4738798 1242:1.6897806 1243:0.39196333 1246:1.1156417 1249:0.37839115 1250:2.3568497 1257:0.71415615 1274:0.5884496 1279:0.72360069 1281:3.1203179 1297:1.1852268 1299:1.5262316 1302:2.5028172 1303:0.72688562 1305:2.5773168 1309:3.2066083 1313:0.81248868 1318:0.56508172 1320:0.50665796 1325:2.6086278 1326:0.3994019 1332:0.60484731 1340:0.70517921 1341:2.0788176 1342:0.8183465 1343:2.2881918 1349:0.7552492 1351:0.080368906 1352:1.0361376 1356:3.4728484 1357:1.4046445 1359:0.11258118 1361:0.78243411 1365:0.74631619 1368:6.9378228 1372:2.0127001 1375:2.4710038 1379:2.2061625 1385:1.6602659 1386:5.2274084 1387:0.92851299 1393:2.2611501 1395:0.1663164 1404:1.3512954 1410:1.542774 1411:2.047996 1414:0.29616189 1419:0.40231085 1422:1.1927171 1426:2.1587396 1429:3.8470097 1430:0.71062195 1433:1.6667383 1435:1.5525039 1438:1.0655099 1441:0.24934898 1444:3.6366613 1446:0.14601672 1450:2.0904362 1452:0.23423585 1456:1.9408379 1458:0.23401099 1463:4.4752941 1465:1.6882639 1467:0.69252092 1470:5.9874964 1471:1.708024 1475:4.1045923 1476:0.30457205 1479:3.0574386 1480:0.060140878 1484:0.15203309 1486:0.75434762 1490:0.802306 1499:0.50693643 1502:1.5326955 1506:0.3916122 1513:2.4098673 1515:3.8958302 1522:2.6853442 1523:1.6078081 1526:0.74666035 1556:1.8545119 1557:0.98815179 1560:0.39003706 1562:0.26644802 1580:0.426507 1582:0.37614954 1586:0.1771241 1590:1.7299685 1600:2.9473493 1602:0.080575883 1604:0.5245434 1605:0.46076471 1606:0.29768327 1612:0.60125583 1613:0.36272007 1616:0.91598696 1618:2.9775219 1620:0.36562961 1622:2.702013 1624:2.8928816 1625:0.40716898 1629:0.10185135 1633:1.0605688 1636:2.0002525 1637:0.19029514 1653:2.0653222 1654:2.0507984 1657:0.15844315 1658:0.80808485 1659:2.1610091 1662:0.57717425 1663:2.490257 1667:0.30997974 1669:1.1717906 1675:0.018845022 1676:0.87535036 1677:5.4227505 1680:0.96360612 1682:1.0461062 1688:1.1459072 1690:0.74802673 1695:2.6440368 1696:0.16225153 1697:3.0251319 1699:0.78889829 1701:0.47372532 1705:0.78982174 1707:1.0803354 1711:0.89515376 1712:2.7272968 1714:1.5117676 1721:1.8577807 1722:1.1068981 1726:2.236619 1727:1.5598915 1733:0.54686874 1737:0.66625082 1748:0.024541136 1756:2.4353201 1768:0.53535485 1773:0.89182556 1777:2.2913678 1780:0.80064797 1781:1.1684247 1785:0.089653902 1788:0.28746936 1790:0.017807961 1794:1.8209107 1795:0.6864233 1799:1.0424277 1804:2.6356816 1807:1.1838059 1808:1.1213298 1817:2.0672035 1822:2.1102202 1823:0.14950141 1825:1.07824 1832:0.3213715 1833:3.3567328 1834:1.373485 1838:0.95439649 1844:0.96983999 1846:0.13383785 1848:0.12396935 1849:1.7721796 1850:0.17687893 1851:0.67248559 1852:0.5612722 1861:0.67048478 1865:0.29966319 1881:2.6712449 1882:0.84188497 1888:3.4295797 1891:0.11012328 1895:2.2468038 1898:0.66323578 1904:1.2228062 1912:1.8189199 1918:1.2416598 1938:1.7578425 1943:0.64313066 1950:0.84918708 1951:0.75468338 1958:1.6285166 1959:1.1058071 1968:2.3835964 1972:0.41857126 1975:0.00092437863 1982:0.91247076 1988:1.1845328 1990:0.40281075 1995:1.9214071 1997:0.26156664 2000:1.1095922 2002:0.60050666 2004:0.86257237 2005:0.38817555 2006:5.2541847 2008:0.019274443 2011:1.8798655 2012:1.0978321 2020:1.4125172 2021:1.7766985 2022:0.52937579 2027:0.173464 2032:1.4124786 2042:0.29531133 2048:0.54766589 2049:1.8418548 2051:0.40635875 2055:2.0878055 2057:0.21482511 2061:0.00304088 2075:3.7700038 2079:0.068929642 2084:1.2289767 2088:0.198333 2092:0.039817501 2094:0.32342553 2102:1.5573097 2105:1.5415496 2107:4.2907681 2110:0.32450539 2113:0.081003472 2117:2.1717601 2120:3.5060806 2140:1.5839437 2144:0.30257851 2162:0.095546812 2166:1.4810957 2168:0.48667377 2170:0.33463612 2177:1.1367586 2178:1.813888 2179:1.290809 2181:0.63073719 2186:2.0454614 2187:1.9364879 2188:1.0527263 2198:2.7032471 2200:1.1525357 2202:4.3463984 2203:2.6282818 2214:2.8046296 2226:0.030163139 2229:2.1946905 2231:0.86705267 2233:0.13396105 2238:0.88743079 2239:0.91875482 2241:1.7566457 2245:0.51885331 2246:0.6565209 2253:1.6712888 2257:3.1071458 2267:2.2099023 2274:0.09511178 2278:4.6904149 2280:1.4728973 2286:0.37410378 2288:0.23057029 2290:0.19569586 2292:0.16105078 2296:0.86239415 2297:0.8338263 2298:0.2360865 2300:0.99093705 2302:0.18953629 2305:3.3265839 2307:2.8969972 2311:3.7496259 2313:0.57927418 2314:0.021667659 2321:0.11906022 2322:1.0891606 2324:0.64582288 2325:1.3239554 2337:0.83458048 2343:1.6095985 2344:0.24608651 2348:3.0210011 2360:3.8186409 2361:2.803364 2364:1.3082607 2383:0.8174237 2388:1.0147946 2390:0.30735376 2392:3.8198998 2393:2.9896874 2396:3.0781178 2406:2.3833656 2413:0.055960461 2416:0.41280487 2422:1.8406286 2425:1.304132 2432:0.84537297 2435:3.3569977 2441:1.6441375 2445:0.12222713 2446:1.2769939 2452:1.0213768 2453:1.9141641 2455:0.11373934 2458:0.91900265 2459:1.0785868 2466:0.14826185 2471:5.2328472 2476:0.37692666 2477:0.2303969 2487:0.66568702 2488:1.2242521 2490:1.3097618 2498:0.3385554 2503:1.5082873 2507:1.1198728 2509:0.033411622 2514:2.1766071 2520:0.66712004 2522:2.5855539 2526:1.0861733 2527:1.651155 2528:0.58900368 2532:0.50416481 2535:0.11382245 2539:0.33689672 2545:0.67377162 2552:1.9634826 2558:0.90005291 2562:1.4930924 2567:1.2946082 2570:1.0651512 2574:0.12363181 2579:1.8963532 2583:0.54321432 2586:2.9481151 2589:2.8202236 2591:1.244862 2598:0.07043004 2617:3.6598554 2625:0.88437748 2630:2.8011913 2634:2.8027301 2635:0.20785877 2637:2.4420168 2639:0.53869569 2643:1.4383124 2646:2.873378 2649:3.1594465 2651:3.1982291 2652:2.4242477 2656:2.3698795 2659:1.3586937 2664:0.89770907 2669:1.7198777 2672:1.7028517 2674:0.069886148 2676:0.056117315 2688:2.474525 2689:1.1969228 2690:0.72726345 2695:0.11899617 2697:1.1886278 2698:0.33434576 2704:1.0711892 2707:0.50341123 2708:0.14963359 2715:1.5323004 2720:0.0016278327 2727:3.5498848 2731:3.5096641 2736:0.33609298 2740:3.7089992 2746:0.71697342 2750:1.8529849 2752:1.6578075 2753:0.19489746 2756:0.35196733 2759:0.968027 2763:0.28934819 2767:0.61910039 2775:0.25299585 2778:1.226521 2785:2.2228949 2792:4.892313 2795:0.22497845 2800:3.2093043 2802:0.34155154 2807:0.98567498 2811:2.4622507 2812:0.50450242 2816:3.0365472 2821:1.6457798 2826:0.081234246 2834:1.9423249 2837:1.7664692 2840:2.4681897 2842:1.6145288 2849:0.44600132 2853:0.51419127 2860:0.6593408 2864:0.36358315 2865:0.79619259 2866:0.1096362 2878:1.0159838 2881:1.0327752 2882:0.88044024 2885:1.5411119 2888:3.2866151 2891:1.6477346 2894:3.7337737 2896:2.0591109 2903:0.35334599 2917:1.3657136 2920:0.27311724 2931:1.2614295 2934:0.11600113 2937:0.46066231 2940:0.68578678 2947:0.61762458 2948:1.6446288 2950:4.2979088 2953:0.64080966 2955:1.418768 2957:0.66671914 2958:0.63358784 2962:0.41042718 2967:0.66063666 2970:0.45455241 2971:1.3522289 2974:0.18547621 2978:0.90938711 2979:0.19967164 2982:1.5514441 2994:2.7934775 3001:1.7096969 3010:1.076773 3015:0.39519945 3018:1.3080313 3019:1.0860167 3020:1.8824531 3032:0.28876883 3035:0.41580209 3037:0.038114905 3038:0.069037735 3041:2.169874 3046:1.6410173 3051:2.4702878 3052:2.5652184 3057:0.57191473 3059:2.4382243 3060:3.9183893 3061:0.34850848 3067:2.479964 3070:1.1892589 3073:0.55049777 3077:2.0671272 3081:1.0746022 3084:1.1656866 3094:3.7014573 3103:0.33214834 3107:2.2235777 3118:1.9638413 3120:0.98232532 3121:1.0879133 3124:0.65393865 3125:0.89046973 3129:1.8887669 3133:1.9041709 3145:2.3471122 3152:0.010464609 3157:0.67686117 3160:0.087937266 3161:0.93226159 3163:4.8206077 3164:1.5576396 3166:0.37162042 3169:0.32330146 3177:1.2548567 3179:2.3287597 3190:1.2418245 3198:0.43428114 3200:4.0993557 3209:0.42480764 3210:0.94469678 3220:0.92019284 3229:0.46131861 3232:2.6282253 3233:0.80669403 3245:0.86972952 3247:0.49193257 3249:0.077731311 3251:1.9748341 3253:1.8853562 3256:2.0997181 3275:0.51912016 3281:0.08981362 3282:1.7129333 3290:2.1294568 3291:2.2016025 3293:4.5212784 3298:2.4724565 3299:3.4884875 3310:4.5789704 3319:2.2224519 3325:1.2572128 3333:0.73761761 3334:1.3286641 3344:4.5451922 3348:2.6738729 3349:1.7464064 3358:1.2075075 3359:2.502779 3360:0.41251656 3361:1.1293848 3364:1.2367615 3365:0.80681992 3370:2.7418361 3375:0.40821469 3377:0.1645281 3381:1.7638121 3383:0.26205122 3387:0.21688874 3388:0.44336224 3394:0.88915741 3397:4.0668993 3401:2.1992526 3409:0.016994536 3415:0.38775182 3422:0.4050554 3424:1.2036743 3425:1.2568097 3427:2.1663215 3437:3.216259 3438:3.2998393 3442:0.51880515 3443:0.30480397 3446:1.4328871 3448:0.51798874 3450:2.1712563 3452:0.19241217 3455:0.69824189 3458:2.8208139 3460:0.44818184 3471:1.5883853 3475:1.6917763 3478:2.7203634 3484:1.2544055 3486:0.60281634 3494:2.3601604 3495:0.59409153 3496:1.7881967 3504:1.4524314 3505:1.9581817 3508:1.6524234 3513:0.13243268 3517:0.11962584 3526:2.2010832 3531:2.0267689 3536:1.9599595 3537:1.0828567 3548:1.954139 3554:1.1634583 3556:0.39812934 3564:0.46782556 3568:0.31283581 3569:1.3977703 3576:1.1085644 3582:2.3656549 3595:0.60739267 3598:0.083717152 3601:0.12930614 3602:1.7760944 3608:5.0455189 3612:1.2760497 3615:0.32287678 3616:1.283496 3618:0.97368908 3622:2.398972 3623:1.0889068 3624:1.2048278 3626:1.0319611 3627:3.7911553 3629:0.094985157 3636:0.92489064 3643:1.6301196 3644:1.3585318 3650:4.7353797 3653:0.172473 3665:0.78771949 3671:0.58674896 3672:1.6570959 3690:2.7420812 3692:1.0592958 3693:1.9527414 3702:0.76141733 3704:1.3011804 3710:0.068861276 3712:0.77526414 3717:2.098712 3719:2.5020733 3722:0.63197708 3723:0.069859147 3724:3.4642117 3728:1.1947535 3729:0.40763372 3731:0.125844 3745:1.5251476 3752:2.2335446 3756:0.90436721 3767:1.4967297 3771:0.10016301 3775:2.4200273 3782:1.5494287 3785:1.4412141 3789:1.2514387 3793:1.2727525 3795:0.36993349 3796:0.84366941 3802:0.034034252 3808:1.1259859 3810:0.29939461 3824:2.2279389 3828:3.0372257 3831:2.9447455 3835:2.3096228 3836:0.54172075 3845:0.89528388 3848:1.1327875 3849:1.0967647 3856:0.14519331 3859:0.11914811 3860:1.3003516 3861:0.49543947 3864:4.1001863 3867:0.019732922 3875:1.5569813 3881:0.81378937 3882:0.0068886206 3886:3.0012209 3888:0.21806838 3889:0.043116122 3895:0.5453589 3900:0.33562487 3907:4.3044429 3908:2.4882054 3910:1.3895786 3912:1.1066465 3913:0.67271483 3918:1.1567682 3919:0.87523502 3926:0.62229365 3927:0.51622176 3929:2.0874805 3936:1.7195952 3937:0.18549122 3938:0.80278122 3941:1.4788983 3942:1.3168942 3950:2.5025542 3951:1.4247756 3952:1.5766585 3955:3.9271131 3959:1.0514715 3962:1.2391322 3963:0.67240608 3971:0.4018704 3972:0.6446079 3979:0.99107647 3980:2.3155537 3988:0.29709709 3994:1.3226272 4000:3.0750721 4001:3.4988656 4003:0.34383121 4004:1.9155746 4005:2.4768834 4011:0.39510781 4016:0.92098343 4021:2.8458483 4023:0.62680691 4024:2.1716187 4032:1.5905417 4034:1.7198386 4050:0.81033295 4051:0.13106449 4063:1.2052593 4068:0.67582214 4070:0.15513903 4072:1.2306669 4085:0.31745857 4088:3.0041668 4089:1.6156707 
1 5:1.3303304 8:0.43811965 16:0.6529088 19:2.5388296 27:2.3270698 32:1.1822782 35:3.6429479 37:2.1257741 43:0.76157033 52:4.5505776 56:1.8270099 70:0.45004082 72:4.6770816 78:1.9567866 85:0.046160813 97:0.91295779 103:1.5074849 121:2.6036782 127:0.2714569 140:3.5460112 146:4.7381034 149:0.29263455 152:2.1465256 155:4.2975316 157:2.6433885 163:3.7420449 167:1.5183899 176:2.9671848 183:1.4719924 190:1.3555177 194:2.4419308 198:3.9017675 199:1.8710607 213:0.16393226 217:3.3730321 218:0.84554696 221:2.5416276 229:2.3087134 230:3.9532206 232:2.202945 239:1.6326691 241:0.71619284 242:0.32522637 243:2.0608063 255:0.71120811 258:4.3191295 259:8.038765 267:3.9651287 275:1.3993821 276:2.4622471 279:0.10570412 288:3.8850656 290:3.8644605 296:0.59903443 303:2.4123249 317:1.2995737 319:5.7303734 328:0.16201371 332:0.29070222 347:0.61898947 348:1.2916156 349:4.7438459 350:4.1597509 365:4.3970833 384:0.6067428 391:3.3303928 404:1.7326891 406:0.92085767 411:0.56579721 424:0.015642498 425:0.5367564 431:0.37287772 436:0.27785105 442:3.3968451 444:1.1918522 446:2.5326824 460:1.5515604 461:1.6264987 462:2.4919708 466:2.9831367 471:1.7822133 482:1.3367704 486:0.90586209 490:2.1969361 491:0.36024162 493:0.17392224 496:3.0716355 501:0.2945427 509:0.9235307 515:2.3641496 527:1.0724655 530:0.27220008 533:1.9188384 536:0.49020699 546:0.22155763 558:1.7207992 562:0.16206977 577:0.50202149 590:1.4460635 611:2.8072093 625:5.029284 635:2.9911129 638:2.7410743 639:5.7519674 647:0.88801277 650:0.85358036 657:0.43242741 663:0.16602054 665:0.33644664 671:1.6920143 673:5.8029928 676:0.29035637 692:2.1149442 697:3.8551354 705:0.41511217 706:2.3288183 709:6.7000184 713:5.3224826 718:0.067495137 720:0.51970339 723:2.7910194 735:7.275969 740:2.2121224 743:1.9658208 747:0.35216057 751:2.4363933 753:0.27461356 767:1.4926211 771:4.3469901 773:1.1971501 774:2.4891925 775:0.63424319 777:0.051999867 782:1.1853955 789:2.0852978 794:0.13527325 800:1.4196013 811:0.4915238 813:9.2617092 820:1.5850326 829:0.1362561 830:0.56106728 833:2.0063958 839:3.0663772 842:1.1668378 845:0.52944839 856:0.92401433 859:0.58779031 865:0.24779226 871:1.2203249 882:1.8652016 886:3.232295 887:0.45264295 889:1.1222026 895:2.60238 902:0.96627408 909:0.41622692 911:5.5687613 912:1.4054118 915:5.0685925 919:3.7902818 921:0.30712426 922:0.61331916 924:0.17998995 927:0.60254365 930:0.014677346 939:0.79806638 943:3.2496638 944:6.6405907 947:2.8693497 960:2.7422118 961:0.57428843 966:3.6122584 972:2.3227417 973:2.8500583 988:1.4838309 989:8.8265839 993:4.2822375 997:2.8494 998:3.0413904 1003:1.2142127 1004:0.72390097 1009:2.4605942 1014:6.0937877 1019:0.6403985 1022:2.2683716 1026:1.0446395 1031:1.7049723 1035:3.9390724 1041:5.6510825 1049:1.9727201 1060:1.9473698 1065:1.0835087 1072:2.4079633 1080:5.8909545 1095:2.2751708 1098:1.0743835 1105:0.1733034 1107:1.5042701 1111:0.46975997 1118:0.091030151 1125:0.85057139 1130:2.4623768 1132:0.51157516 1136:0.081301115 1137:1.7326208 1139:0.58730018 1146:1.3465488 1151:0.25133958 1157:2.4510396 1158:2.7706869 1163:0.11849853 1167:0.50361437 1174:0.15523589 1175:3.1907899 1180:1.7046901 1181:1.0722706 1186:2.226269 1188:1.7982205 1189:2.0062282 1193:3.1693387 1198:0.22799093 1199:3.6380656 1200:0.28830954 1203:1.5097752 1204:1.6861906 1206:7.1969748 1211:1.1251881 1217:4.4725866 1221:0.75048167 1233:0.4346078 1242:3.857892 1244:0.8447265 1249:0.50519085 1250:1.8091636 1269:1.3386245 1274:0.076126382 1276:5.7915945 1279:4.785687 1282:0.80381179 1284:2.6478686 1291:6.8798084 1295:2.8895757 1299:0.66743892 1306:0.50881934 1309:4.634131 1313:1.0881858 1314:3.9205251 1315:4.1915941 1328:0.65767336 1331:1.9147105 1334:3.6908026 1335:4.2570267 1336:3.7057357 1342:1.9881957 1352:4.4054618 1353:0.52499086 1363:0.96671879 1373:0.62445635 1374:3.233706 1378:0.022875339 1385:2.642591 1386:1.3051083 1395:1.5234118 1398:0.19623344 1400:2.4254699 1402:0.69359636 1406:0.20447898 1408:2.2773027 1409:5.9878497 1410:0.10615802 1411:0.68170214 1417:2.2995992 1419:3.4514787 1424:1.1050365 1425:1.825587 1428:2.769527 1429:2.442452 1433:0.32057422 1438:3.1083338 1439:2.4097838 1450:0.095294878 1453:0.47939935 1461:1.4617835 1467:1.1575987 1469:2.0860441 1471:3.4251039 1483:0.65438008 1487:3.7782061 1497:1.3622763 1504:1.1190449 1515:1.281631 1523:0.14615104 1528:2.1138775 1530:1.1320978 1537:1.1217964 1538:1.9221044 1554:4.739881 1555:8.2555552 1562:0.042068273 1568:2.0190728 1573:1.113005 1574:1.1769561 1580:3.1266422 1587:0.24474572 1588:3.3044727 1590:5.160409 1592:0.7259618 1593:2.4409497 1594:0.94048208 1605:0.95305616 1613:3.8995056 1620:1.4762061 1623:1.3732781 1627:2.8276558 1632:0.054969136 1633:0.050974011 1647:2.3246181 1658:0.17961574 1661:0.17942119 1667:2.6646369 1668:2.1074829 1669:3.2200468 1672:1.3878344 1675:7.3682499 1682:5.5370345 1689:1.8547032 1698:0.087764561 1699:1.9818704 1701:2.2633843 1718:1.5910339 1720:2.8934004 1723:4.099474 1725:6.3870249 1726:0.38235429 1727:7.6759968 1729:1.4951042 1730:2.2171388 1746:6.8050542 1749:1.0411501 1753:6.602962 1756:3.8033133 1758:2.1361122 1762:1.9495621 1763:0.2318987 1764:1.2210032 1766:4.8678484 1773:0.9896338 1774:1.4017879 1778:1.2805494 1780:0.43484306 1783:1.546868 1784:0.44660574 1785:0.7160145 1786:7.1964192 1793:2.0494988 1795:0.44241422 1805:1.5819434 1806:4.2932363 1822:3.2172675 1823:0.57024777 1824:0.055755943 1832:3.0147986 1833:3.2521107 1835:1.2044559 1848:0.54717362 1850:0.96092916 1852:0.10766441 1858:0.17286618 1860:5.3237433 1863:1.3587199 1870:3.6088827 1871:1.5628235 1890:0.71664673 1893:1.4197365 1897:2.3558199 1901:1.6151114 1914:2.1178696 1915:0.89293033 1918:0.52362305 1926:0.83046091 1932:1.0638046 1937:3.5892353 1948:3.928086 1960:1.8501565 1965:1.9794542 1968:3.7114244 1970:1.7927086 1973:2.6388996 1987:0.64392459 1988:4.5920196 1999:5.3540783 2000:1.2867026 2002:1.6072378 2004:0.63871533 2006:1.5763179 2013:1.3141789 2015:0.73804402 2021:2.2456903 2028:0.20396377 2035:0.63349891 2038:1.5334378 2039:2.9834421 2040:3.6924076 2042:0.55333692 2043:2.3733053 2052:2.6877706 2053:1.9227694 2060:2.1043096 2087:1.0450431 2091:3.4856999 2094:0.13526604 2101:1.1161481 2107:2.3229914 2109:0.71740967 2115:4.2968698 2118:0.82916272 2120:0.61850309 2125:2.3140929 2137:1.15503 2152:0.080823123 2153:3.2040536 2154:2.1509926 2162:2.9393802 2164:2.8154192 2172:0.83055753 2175:0.0058468878 2176:3.254494 2177:3.6182935 2183:4.3306694 2187:5.6466665 2189:2.3200564 2190:0.30977517 2191:0.38061377 2196:0.68462962 2202:6.5764985 2205:0.65690923 2211:1.3594725 2223:6.1870694 2229:0.75641954 2230:1.5635328 2233:4.0831223 2254:1.6746429 2255:0.94426674 2257:8.8931646 2267:4.3927073 2271:1.3464227 2281:3.3695829 2295:0.63524306 2298:6.6747379 2305:0.87257022 2313:2.6755686 2314:0.072844416 2318:0.097388327 2320:1.0272672 2322:6.0691299 2325:0.22862327 2326:0.10582421 2329:0.23866218 2331:3.5507891 2336:2.0550973 2338:2.8816547 2341:5.1927214 2343:1.8309422 2345:0.54539168 2347:1.2600837 2351:1.6132855 2353:2.7211914 2357:1.6852261 2360:5.2931914 2361:1.7718073 2362:5.0070148 2367:2.3701465 2369:0.0047341287 2377:2.8577604 2378:5.2562327 2386:0.45499229 2388:0.30032817 2389:3.5783629 2395:3.0821593 2408:1.979338 2417:7.1201735 2421:0.088044554 2432:1.1015942 2433:1.6617892 2435:4.1778898 2436:2.0001419 2442:5.3662953 2443:3.6563299 2447:0.5547545 2452:0.99769515 2459:0.56808084 2468:1.1821365 2470:0.021947116 2471:0.18323985 2479:0.34835848 2484:4.4816365 2486:0.92879319 2487:0.024984241 2488:2.4111102 2490:1.4068246 2496:0.19107093 2504:1.9357136 2506:3.2477872 2507:3.8853662 2508:3.176441 2512:1.8245453 2514:4.5586305 2515:1.6656601 2520:2.1316347 2525:1.8776528 2526:2.0477264 2531:1.267886 2537:4.3476467 2551:2.0986085 2568:3.1665206 2570:0.22111481 2576:5.5857091 2594:1.6441708 2601:6.028718 2611:6.6591468 2613:0.77049315 2620:2.2139103 2621:0.37099385 2630:4.0601625 2636:1.2960207 2651:7.3223586 2652:1.9620206 2659:4.23803 2676:0.48032501 2679:2.6500928 2686:4.2246161 2687:1.9765159 2689:1.0156243 2690:4.3919868 2691:1.3757517 2698:0.75609654 2710:0.82215345 2714:1.6432972 2715:1.3831511 2722:3.8504436 2733:3.8121982 2738:1.2586589 2740:1.3094391 2754:3.9331753 2756:3.0051742 2760:3.1907463 2765:0.75690168 2768:4.3646145 2773:1.1585041 2778:0.22555652 2787:2.2204673 2791:1.0912387 2793:0.14371619 2800:5.5561366 2804:1.3874664 2806:0.14695567 2820:0.44613391 2822:2.323561 2824:1.872251 2833:0.19856104 2837:1.0574732 2840:10.714149 2842:3.7748532 2844:0.86605895 2851:0.47013393 2852:0.028124034 2854:3.2469003 2859:3.3022909 2860:0.65127236 2863:0.60371625 2864:0.62733138 2865:0.95409745 2867:1.9809865 2879:1.6304141 2887:1.338102 2888:0.91097915 2891:0.2513774 2893:1.6057601 2896:1.1982909 2907:0.76797879 2919:1.2153347 2921:0.28893414 2930:2.6570082 2937:2.0472744 2946:2.2007945 2947:2.172147 2951:0.47365293 2952:0.82843316 2957:2.8599308 2958:0.59812725 2972:1.2089077 2973:1.4955415 2978:0.80515146 2979:0.48874074 2986:1.8319241 2990:0.84672874 2991:5.235127 2993:0.74186021 2994:1.4590877 3003:0.32369351 3004:3.2673388 3010:2.2891414 3014:5.0043125 3022:0.35022137 3030:1.2428659 3043:7.9728823 3053:1.8861799 3067:4.009006 3070:3.7877893 3086:6.0872526 3094:3.395184 3102:1.4630626 3104:1.4759215 3110:3.2576232 3120:2.8211305 3125:0.92006016 3127:3.2752206 3129:1.4823987 3130:1.3838346 3132:3.9636109 3134:4.0180144 3152:1.7202337 3154:1.8555579 3157:0.98056453 3170:5.8153472 3178:6.8434124 3179:6.7502279 3200:2.3487465 3207:2.0941579 3210:0.47164294 3215:1.9362407 3220:0.4672699 3224:0.31582782 3225:0.035780042 3235:0.21352968 3236:1.1841768 3246:1.1586112 3256:0.92254651 3264:1.1646502 3268:2.6267784 3276:1.4260294 3283:3.4205463 3285:1.1618627 3287:0.41241002 3289:0.14498177 3291:3.0678356 3302:0.20040682 3308:0.15706535 3310:4.3939867 3327:1.084096 3331:0.048046827 3334:3.4666562 3352:0.5745827 3358:1.6445998 3369:0.51498467 3371:2.3171425 3376:0.90023464 3377:2.9568741 3394:1.4170218 3396:1.288016 3397:1.1823941 3404:3.0124497 3408:3.6610386 3409:2.188623 3410:0.95608592 3413:1.635209 3417:2.0397539 3425:0.81682801 3427:0.13134076 3438:1.3570125 3442:0.65859252 3465:1.2378745 3467:0.85390383 3475:1.0983121 3476:1.9066172 3481:0.45942754 3486:3.3736413 3491:0.87855953 3492:2.0216899 3493:1.8988216 3494:4.2823768 3507:5.3617773 3509:5.241992 3521:3.1036928 3525:2.418896 3534:2.0673511 3535:1.262428 3537:1.6582227 3554:1.5904694 3555:2.4329755 3564:2.1508639 3569:7.6320114 3578:0.37321991 3580:1.7677227 3582:3.3275723 3586:0.58077323 3588:0.23314962 3593:0.68446231 3602:1.9219569 3606:0.96906245 3608:0.063905455 3613:0.44025704 3615:1.1637802 3622:0.19919547 3629:3.6294518 3630:3.7289038 3631:4.9772758 3634:2.7843204 3640:1.785078 3648:0.12646514 3650:0.14831205 3651:0.044785887 3652:1.1102455 3653:1.4278361 3657:0.53545225 3667:1.7109165 3672:3.0360446 3690:0.43983138 3691:1.7525039 3700:1.538231 3708:1.6175561 3715:4.6786242 3721:1.4208549 3732:1.7228498 3734:1.7292391 3735:1.2589569 3737:5.3663464 3744:0.84953493 3745:0.99346471 3756:3.2483189 3764:2.6936414 3766:0.83729529 3768:0.40697238 3773:0.65114963 3775:5.3005047 3777:5.3367248 3778:2.3258135 3793:0.076398663 3800:1.3810068 3802:0.16727825 3805:0.34603602 3829:2.684432 3848:1.7989073 3860:3.2934344 3862:2.4101481 3864:0.3826313 3867:4.4343543 3869:1.09802 3871:5.0051141 3872:2.2434125 3873:2.4391162 3881:5.7147865 3883:4.7510824 3885:0.0062670112 3887:0.86054182 3888:0.83900189 3893:1.8487819 3900:0.48106068 3901:2.9406567 3903:2.0423317 3905:0.28891721 3907:1.9202573 3913:3.509335 3919:3.6639555 3948:7.1691642 3952:0.10163654 3956:7.0086846 3963:5.5854559 3970:6.2268953 3973:0.12956788 3974:0.7132526 3978:2.5718482 3981:1.2566739 3982:0.61104161 3984:2.2114027 3985:0.27147889 3988:3.3619537 3996:3.3295238 3997:2.815491 4002:2.3616371 4011:1.5318701 4016:0.11906516 4018:6.7697291 4020:0.19021606 4021:3.9601231 4032:6.725739 4043:4.7659364 4050:4.4326248 4051:0.69877708 4056:0.99169123 4059:0.24465375 4063:1.9090794 4074:2.3749466 4076:1.3376435 4080:0.63653183 4087:2.8906596 4089:1.2095182 
1 1:0.21318208 3:2.6572063 9:1.5204405 11:0.35491651 14:0.33144966 15:0.27208301 16:0.33830857 18:1.4245896 19:3.8557057 21:0.25404602 27:0.82444382 33:2.043936 34:3.4705443 35:0.99937719 38:3.2502785 43:2.7146864 54:0.41330749 57:1.0805486 65:0.40033612 66:0.29385704 68:0.11983097 77:1.2450943 94:0.567384 105:1.5880308 109:1.7699387 121:0.63986886 127:0.97023451 128:4.0724998 130:0.30296397 140:0.79783952 144:0.90097266 147:2.9592495 148:0.26411736 154:0.0044360757 155:0.52595556 156:3.1908238 163:1.8601116 165:0.040250652 172:5.3577733 178:2.2431245 190:8.0575666 192:1.5474617 198:1.5374755 199:1.4456145 201:1.8879223 202:0.40279362 208:0.17765285 210:0.10073537 218:0.99647278 237:0.10026705 238:0.26859468 247:2.7963197 248:1.5451052 258:4.5316334 259:5.8070784 263:0.95588565 265:2.3539793 267:1.6658762 271:0.74045742 276:2.8740668 278:1.0826437 279:0.12406445 283:2.7835321 288:2.2531259 290:1.0907836 297:1.6206847 304:0.9005239 308:1.3276645 312:0.63827825 318:2.0898213 319:1.9035326 326:1.5900871 338:0.28697041 342:3.5974391 347:0.34597865 348:4.3140264 349:2.7882674 350:0.71530265 355:0.73630476 365:3.0233812 366:2.5781856 371:0.52271622 372:1.418198 379:1.6452239 388:1.1450992 390:0.249235 391:3.2321508 394:0.92279834 412:1.2284875 414:0.0097076595 416:2.8700371 425:0.96616256 432:5.2027974 436:3.9764562 442:0.92241645 450:3.0981736 453:0.63928235 456:0.28916982 459:2.2185347 460:4.8448353 461:0.35583526 466:0.91927868 471:0.64122796 482:1.1950024 484:3.644398 485:1.1430919 486:1.4641464 488:1.4215095 491:1.7455759 499:0.62335837 500:6.1729198 505:0.24232081 511:0.24859482 529:1.4640009 533:0.52729011 536:3.1890481 555:4.0815802 558:1.9712059 560:0.27071995 562:0.41165316 565:0.21231091 567:5.8077321 575:1.9130343 577:3.0016584 581:0.64043617 583:0.87215185 592:0.85426915 609:2.3283305 611:1.004209 616:1.7304672 618:0.73768342 628:0.099218607 629:1.3857173 635:2.4866431 638:2.3575978 639:3.9804451 642:4.0443826 647:3.5590637 651:1.4785355 653:0.76817292 654:2.9792991 660:1.8648589 666:0.2739327 671:0.9110359 675:1.6203485 684:5.9800873 686:0.66299981 689:2.103107 692:0.51308787 698:0.42433295 703:1.2020749 705:1.7566236 706:0.56002688 709:1.7652656 717:1.8229332 723:2.2405307 725:0.74774134 728:0.074742407 735:1.7272182 739:1.1347933 742:1.89442 743:2.9381425 749:0.61346543 750:0.41421175 751:3.0118382 762:0.4877421 770:2.0189333 777:0.62805206 778:0.91803896 783:1.6295171 785:0.79043955 795:1.6811087 799:1.12238 806:4.9453425 808:0.81902516 809:0.41911632 813:5.7399588 820:2.0537179 833:1.6796635 840:0.87344819 841:2.5402932 842:1.64289 853:1.7278334 859:1.0456338 866:4.0067863 867:0.50795263 868:1.4604526 873:3.7785933 878:0.39436883 879:1.0628887 881:2.2231622 892:0.67982382 895:3.063355 899:0.82262653 905:1.2324119 909:2.1688926 916:2.7320817 918:1.6233609 919:3.8617582 921:1.5138693 922:2.6790347 926:0.34498954 928:4.3976421 933:1.4799514 934:0.95422179 937:2.632313 943:2.3192024 953:1.5230328 956:2.1129022 958:0.036934406 961:3.0292087 963:2.2778046 966:0.69662321 971:3.0302231 974:0.3675617 975:0.12969312 976:4.9920459 982:1.3267161 988:2.0639753 989:3.1846061 992:1.97574 993:4.6603971 997:5.2779503 1001:2.064322 1003:1.341253 1004:3.0671885 1009:4.5420103 1014:0.78831768 1022:1.4552523 1041:3.7052817 1042:0.010843515 1043:1.0854867 1051:1.9548166 1060:1.3006048 1067:1.4683058 1071:0.048847057 1072:2.6139681 1075:1.010169 1078:3.7413001 1080:1.5927856 1081:1.3066939 1087:1.5409249 1096:1.6363611 1097:1.101218 1103:0.077052653 1111:2.4260473 1113:0.42528379 1114:0.30553192 1131:2.8952467 1137:1.1891856 1139:1.0525212 1154:0.81922406 1157:3.9646995 1158:1.8767511 1159:2.4443099 1163:1.1447794 1166:2.5429745 1168:0.95076728 1170:3.7612197 1173:0.44591272 1180:1.8201176 1186:4.1576576 1188:0.99608833 1189:1.5153985 1194:1.0866247 1204:1.087887 1206:1.4721178 1211:0.001156047 1221:6.283 1226:0.33530435 1227:0.21487708 1233:0.55972934 1236:1.4362289 1240:0.18489781 1242:3.5504503 1249:2.738632 1250:2.8723605 1252:2.2031221 1257:0.48386264 1260:2.0843749 1269:1.0317757 1274:2.4932108 1276:0.98325944 1279:2.1974311 1280:1.0827117 1291:0.030089643 1299:1.1128095 1309:3.8282475 1313:0.58871186 1315:1.1685908 1325:1.6178046 1331:0.057798028 1334:1.0891292 1335:0.71640825 1336:1.3866299 1340:0.18354455 1341:3.3940682 1342:0.23749736 1343:3.3764842 1352:2.1429999 1355:1.134169 1356:3.3688157 1357:3.7811878 1361:1.6143372 1362:0.030493036 1368:0.89098877 1372:1.5549661 1374:3.1697092 1375:0.77021515 1376:0.69074684 1379:1.0673729 1385:1.9173625 1386:0.83083659 1395:1.703601 1396:0.43991268 1400:2.4042399 1401:0.090783387 1404:1.8400913 1406:2.1635902 1408:1.1668537 1409:3.176239 1410:2.5393319 1411:0.92124724 1412:0.10750127 1414:1.3438981 1419:5.0173235 1422:1.3598889 1423:1.2162746 1425:0.6690793 1426:0.45337462 1428:2.3104928 1433:3.9027362 1438:0.55381495 1441:1.2218618 1444:3.6010587 1456:0.68319899 1459:1.3863204 1463:3.3596008 1467:3.0166519 1469:1.4191223 1470:0.76369226 1471:3.4371068 1476:0.6514563 1479:5.3035674 1483:2.7428319 1485:0.93790978 1486:1.3511851 1496:0.57883823 1509:0.73561263 1515:1.5792987 1522:1.5383203 1523:4.0307493 1526:0.60013556 1537:2.4731116 1554:3.0997272 1555:1.9227436 1556:2.9925365 1558:0.10147312 1574:0.98438168 1583:0.1940344 1586:1.9893941 1590:2.101501 1592:0.6670028 1597:0.85788214 1602:0.15772316 1604:1.197093 1613:3.1407757 1616:1.302973 1617:0.74980199 1620:0.88312966 1621:0.079173535 1627:0.73992771 1629:1.0508674 1647:1.9671381 1653:2.8315272 1654:0.93465173 1658:0.1077009 1659:1.8213985 1661:3.1389098 1667:3.5361013 1668:1.4181173 1669:2.8795049 1670:1.8549844 1675:0.16510232 1677:2.2164054 1682:2.6541402 1683:1.9791842 1690:1.8061945 1695:2.0460351 1699:1.7314472 1701:1.5940704 1716:1.1793365 1721:0.81724882 1723:2.1046941 1726:1.7498109 1727:4.654613 1730:2.7951541 1742:1.9131801 1751:0.52053916 1753:5.6635137 1758:7.3155422 1762:1.4915915 1765:0.78163272 1766:0.0017766356 1768:0.13121283 1773:2.5582204 1777:2.4990819 1778:0.73121536 1780:0.69339079 1782:0.52881795 1789:1.5948483 1790:1.400032 1793:2.0592871 1804:1.8452027 1806:4.9112415 1808:1.5734738 1817:1.724226 1822:0.51361597 1823:0.20411316 1824:2.2340531 1825:1.7607603 1830:0.96770668 1832:1.5545824 1833:4.1890059 1835:0.37142348 1839:0.40751994 1846:2.5106926 1848:2.0896585 1850:0.15551561 1851:1.5976928 1852:0.73375583 1854:1.6313854 1861:1.919502 1862:2.8620815 1870:2.5063789 1888:1.118802 1893:0.94901371 1895:4.3854222 1901:2.1871114 1902:0.26424503 1904:1.4294788 1908:2.4502091 1914:1.5226679 1918:1.8200052 1925:0.12221189 1942:1.380365 1948:1.3470994 1950:3.6444421 1960:0.30202389 1963:0.75976837 1968:4.6807079 1970:0.03293591 1973:1.2293339 1976:0.32619137 1977:2.2491558 1982:0.51836431 1986:0.34500849 1988:3.8853481 1995:0.031212687 1998:2.2987444 1999:1.0032773 2002:0.070310682 2004:3.3197043 2005:0.17802614 2011:1.5414407 2012:2.7522936 2020:2.709132 2021:1.8250709 2032:1.2306557 2042:0.37295869 2043:0.0037144125 2046:0.042287618 2055:1.9207084 2057:1.0472536 2058:2.3038864 2072:1.4803386 2102:7.8827033 2107:6.1497006 2110:0.43126085 2115:1.3465388 2117:0.03321445 2120:1.6847048 2152:1.7842264 2153:0.70332897 2167:1.4433486 2168:0.58223712 2175:0.24771038 2176:1.4133394 2177:8.2344847 2178:0.037527651 2180:0.097612143 2187:3.4094348 2189:1.9120485 2191:0.32338175 2196:5.4240484 2202:1.5893421 2206:0.46296671 2210:0.087062098 2216:3.1583095 2223:1.3288683 2226:0.99492645 2229:2.399312 2230:3.4436669 2233:3.7883582 2238:2.9090035 2245:0.40841603 2254:1.54475 2255:3.383734 2257:6.0562582 2267:0.48403406 2273:1.3549932 2278:4.5350108 2280:1.2166758 2281:1.3876688 2287:2.2240701 2294:3.806694 2296:0.27948177 2297:0.96995252 2298:1.7407653 2313:0.98128045 2314:0.0058040917 2321:0.96234375 2322:1.9943541 2324:2.5044692 2325:1.8840221 2329:2.111402 2331:0.83741599 2341:0.31173319 2343:1.6167902 2344:0.97634315 2349:1.1549642 2353:0.21084441 2355:1.33246 2360:2.5748653 2362:2.3918545 2369:1.0901415 2374:0.43743178 2378:0.5355233 2383:1.1791905 2388:1.5574408 2390:0.79972327 2392:1.136428 2394:2.6842241 2402:0.60850781 2406:0.12746981 2413:1.4393233 2419:0.074329913 2420:2.2387576 2423:2.4565864 2424:0.60167181 2432:2.3943214 2433:1.0219969 2435:4.9991088 2440:0.75881279 2441:0.40116107 2442:1.3180839 2443:0.6444847 2447:0.60564137 2459:2.5674407 2470:2.7817886 2476:0.53643775 2485:3.054193 2490:0.42350867 2491:0.15212107 2506:0.75278366 2508:6.6287308 2509:1.0654386 2512:1.8266245 2514:3.0912554 2525:0.6168884 2526:1.3560688 2528:0.057666365 2530:1.518556 2531:0.47299957 2535:0.74311197 2549:1.1040825 2552:0.68153077 2561:0.95882672 2562:2.6786211 2563:0.066686071 2567:3.8487728 2568:0.21865728 2570:1.9713418 2571:0.6554054 2576:2.4443579 2583:0.5350517 2589:0.3258571 2594:1.1053052 2595:0.36218259 2610:1.7995654 2611:3.5170391 2617:2.6055627 2621:2.1167169 2623:1.0463095 2625:0.39327216 2626:1.2009909 2630:1.9299403 2632:1.2887447 2634:2.6412833 2635:0.24835682 2636:0.5240767 2638:0.15967774 2646:0.90252876 2649:2.4294341 2651:3.253835 2652:1.3079978 2659:5.1034026 2665:1.5814083 2669:0.75136358 2687:0.77614981 2688:4.8841119 2689:6.3750768 2690:0.52730215 2692:0.0025112033 2704:1.3349679 2705:3.513371 2715:0.61383271 2721:3.9543962 2724:0.34267819 2727:1.8706009 2731:0.80743665 2733:0.79621553 2740:3.2246015 2756:1.944078 2760:1.0405813 2769:3.4957674 2785:0.19830662 2787:1.544402 2792:0.25099599 2800:8.3333845 2804:1.9530863 2806:0.060238868 2811:0.25810599 2816:0.45974177 2834:0.88212383 2835:0.93275952 2836:1.9247522 2837:1.7892324 2840:6.3148255 2842:4.9213653 2843:1.1319358 2852:1.5522637 2860:0.97842246 2864:1.4141045 2866:2.7065325 2870:2.1349332 2878:4.6924534 2879:1.4105223 2888:1.7590404 2891:2.6389363 2892:0.31544292 2894:2.2521191 2910:0.56963378 2917:0.7137146 2921:0.89445955 2930:0.47429878 2937:1.5565672 2948:1.9268892 2949:1.556619 2950:5.5498323 2953:1.9052557 2955:0.25381023 2957:2.7161477 2958:1.5961679 2962:0.024950594 2963:0.092058301 2967:0.76036322 2971:0.47923112 2972:2.2466669 2974:0.4885841 2989:1.1185805 2993:0.7042799 2994:6.2296176 2997:0.89331603 3012:3.3528242 3019:1.7678097 3021:0.89833194 3036:1.7303412 3041:0.68921518 3043:4.5517879 3051:2.7641141 3052:0.98250043 3057:2.4634421 3058:0.29688346 3061:3.3109441 3067:1.7341249 3070:6.1552291 3077:1.5849984 3085:2.2645855 3094:5.3831005 3104:2.4724655 3110:1.7304322 3111:0.078771561 3120:1.5579631 3129:1.3975528 3130:2.759985 3132:1.6154388 3145:2.1464124 3148:0.56841815 3160:0.25006363 3161:0.82964909 3163:1.321027 3164:0.99657136 3166:0.23448557 3170:7.4607315 3178:0.56291276 3179:4.187644 3195:0.97833389 3198:0.52452135 3200:2.5761263 3201:0.14599288 3202:0.52593452 3209:1.4764698 3210:4.0115042 3211:0.34867927 3233:2.7526767 3235:3.392247 3256:1.4326208 3258:0.20674017 3275:2.5252635 3276:0.79263914 3282:1.1162293 3291:4.1105146 3292:2.4446423 3293:0.22940105 3294:0.71233046 3295:0.20524514 3299:0.63005221 3310:3.1045005 3319:2.5747604 3321:0.11336365 3324:0.5431549 3331:0.4978517 3333:3.7823429 3334:3.2525308 3344:2.0422797 3351:0.14401934 3358:0.10020421 3359:0.82683253 3367:2.6072526 3371:3.053283 3381:0.28349477 3387:0.33250347 3390:0.069662184 3394:1.6134562 3396:0.85723704 3397:4.3460932 3399:0.13882294 3417:3.4444742 3431:0.10800272 3437:0.013553739 3438:0.22017597 3442:2.3943748 3446:0.048166931 3458:1.3600407 3471:3.6035869 3474:0.99106246 3475:0.56929076 3478:3.1650696 3482:2.4873245 3489:1.4960766 3493:2.7898638 3494:6.8234019 3496:2.6388257 3504:1.8589782 3507:2.2921572 3517:1.7109441 3522:0.79212594 3526:1.8984457 3528:0.17848223 3534:0.19533402 3536:0.43315864 3547:2.2179267 3548:0.99282473 3549:2.6502197 3554:1.1813323 3555:0.88387454 3569:3.3508756 3570:0.5511499 3578:0.69965434 3580:0.1008426 3582:5.9304633 3586:0.8265506 3588:0.65169603 3592:0.70461023 3593:2.8273866 3602:6.1916475 3608:2.1043594 3614:4.6271691 3616:0.1054122 3617:1.6432867 3626:4.2938194 3627:2.4696944 3630:3.060967 3631:4.144649 3650:1.2033195 3654:0.060776502 3660:0.037776887 3661:0.37085176 3667:0.45846808 3671:0.47280127 3672:5.5655546 3690:2.6226599 3692:1.1792401 3699:0.29603368 3705:0.67554522 3710:0.29342541 3715:2.0700703 3719:2.9315047 3720:1.1200556 3723:0.047852337 3724:0.40199849 3727:0.68255651 3737:1.2323444 3738:0.31551734 3745:2.7449193 3747:0.015342206 3756:2.7119093 3761:2.1083908 3764:1.3014739 3768:3.3798301 3769:0.91611427 3771:0.22389573 3775:1.4800409 3783:0.74300367 3785:1.079571 3789:0.67448103 3793:2.4348214 3804:1.1861207 3824:0.9417786 3834:2.4031518 3835:2.0798583 3837:2.3995099 3845:4.4231315 3848:0.72363865 3856:0.34640443 3860:4.8692155 3862:2.0150645 3864:0.13908345 3867:0.29125568 3871:1.0687377 3881:3.4930599 3888:1.2188866 3889:3.1064844 3893:0.11017299 3901:1.8253648 3903:3.5216589 3907:2.9052289 3910:3.0467753 3911:0.6010024 3913:2.2771728 3918:4.974081 3919:0.95249629 3933:0.37805009 3936:2.2759259 3951:2.2997332 3952:0.011039734 3959:0.43173105 3963:5.2467222 3970:2.5005693 3972:0.40572539 3973:1.3071094 3976:2.3136661 3980:0.76152062 3988:0.36321387 3992:1.276999 3995:4.5180793 4000:0.15083036 4001:1.0266367 4004:1.3017008 4005:0.5060662 4011:4.1613722 4015:1.577401 4016:0.88310343 4018:1.4088304 4020:1.4119589 4021:0.11996049 4024:0.5165711 4026:2.3814054 4031:1.3443234 4032:5.160481 4047:1.9692273 4050:0.4906902 4051:5.0109601 4058:1.2638903 4063:3.1912069 4064:0.80970776 4070:3.0924447 4076:0.85432231 4080:0.90133297 4081:0.55126572 4085:0.12746418 4089:0.71728289 4090:0.33592033 
1 1:0.78661525 3:0.41140914 4:1.2937752 9:0.46689385 11:0.6927138 14:2.8292966 16:4.316431 18:1.3892632 19:2.0306444 21:1.4280955 25:0.51384616 26:0.38532639 33:2.4282718 34:3.5303774 38:2.5732098 39:3.5483313 41:1.4548898 56:2.3832476 57:1.4968786 62:0.86259013 70:0.68429744 71:1.0887994 80:1.1937637 87:1.0474179 90:0.99290675 105:3.0319819 115:1.2361073 122:0.59314626 123:3.9004655 128:0.72205943 130:3.7234306 141:1.5401716 143:0.3637765 144:0.82498884 146:1.9242803 147:0.11707753 155:1.104965 156:1.0986396 167:0.37457648 169:0.9363544 172:2.6005108 190:5.4209948 191:0.0042080432 197:0.29336596 205:1.7891939 210:0.27554971 221:1.9872304 223:1.4776859 232:3.9834573 234:1.4711432 238:0.056286603 245:0.28015959 247:3.879329 248:1.1779685 254:1.9053965 258:2.1770878 259:0.2412678 260:0.31223881 262:1.1339128 263:0.75785196 265:0.1903583 266:1.9676483 267:0.97546494 276:2.6636059 283:2.4166596 287:1.7262726 288:1.7344968 290:0.057683945 297:1.7571641 299:2.7108014 302:0.67542315 308:2.314898 326:1.9688432 329:1.655838 338:2.4317591 342:4.7254038 347:2.2077909 350:3.2032857 361:2.96854 365:2.6302288 372:2.8196375 373:1.8944259 375:0.64063215 379:6.1592989 389:0.10466382 391:2.0871358 393:0.90524811 394:0.35430899 397:0.012704432 404:0.17718987 405:0.20116073 412:1.5183647 413:0.17505446 414:0.54692036 416:1.8225349 421:0.28105134 426:1.3474097 432:5.3737535 434:1.0800933 436:2.5747037 442:1.6375823 444:3.004431 446:1.5207838 449:1.0132217 450:3.1295731 455:0.28552404 457:1.5970055 459:4.5874791 460:4.825748 461:0.20802686 482:2.6731734 484:2.076988 487:1.6758907 491:2.2762141 494:1.3131945 499:0.95369595 500:2.2374246 502:0.21999358 504:0.33707306 505:0.24848381 507:0.5338853 517:0.84910274 527:0.69353026 538:1.4055948 552:2.3799715 555:2.0123546 556:1.0719368 562:5.0810194 567:1.7318264 575:1.867496 577:0.41367349 581:1.3602124 586:0.33873975 592:3.6577597 603:1.680146 614:0.1747586 616:0.89290029 618:0.17339905 619:0.96905178 628:3.3064001 629:2.9314992 635:1.4745295 637:1.7241067 638:0.49130061 639:2.8580055 640:1.8639343 642:2.6619201 645:0.71885419 647:0.82507581 654:2.3201466 659:0.46670651 664:1.8500112 670:3.9340203 671:1.0579644 675:5.1407924 682:0.71313584 684:3.977195 686:1.2727306 687:0.35202491 689:0.3452417 690:0.11122583 698:1.0460173 702:4.0108457 703:0.6176613 705:2.7634969 706:2.0738163 711:0.974087 717:1.4382247 723:2.123831 728:3.1251271 729:0.25965118 732:0.90405202 735:3.0017076 738:1.4576848 739:0.81741917 741:0.35932371 742:0.95024043 743:0.1538038 747:2.6877465 749:2.0067637 750:2.1011221 751:3.5271842 759:3.2708158 760:2.7837355 767:0.5573535 770:0.31987345 775:0.14339647 776:0.52816904 785:4.2793646 787:1.0808578 789:2.7829843 795:1.5041877 796:3.4420478 802:1.4884602 807:0.30537355 808:1.4521987 813:0.73441398 820:0.73402911 827:0.64761043 831:0.58002794 836:0.35003775 839:0.05486688 840:0.39760107 841:0.13780051 842:1.559796 849:2.2328835 853:0.64074969 854:0.57212418 855:0.58196497 857:1.9736198 860:0.45456991 861:0.59895533 862:1.5182943 866:3.0270307 868:1.3763409 873:1.1203907 878:3.7170186 879:0.94423848 881:1.614241 886:0.23782089 889:2.4240437 895:0.60193008 899:2.0257347 904:2.8878562 905:2.3217583 908:2.0847299 919:2.7700469 922:1.0406845 928:2.9104259 929:0.93972802 933:1.4729685 937:1.4968832 943:1.301914 945:1.3415142 946:0.60225046 954:0.41142514 960:0.15451038 961:1.316484 963:1.5756217 971:2.4489181 974:1.5217903 976:3.5214291 978:0.13528648 979:0.12149009 980:0.21269268 988:0.55130637 989:1.8887308 991:2.1985373 993:2.5527439 997:0.47631663 1001:4.8426204 1003:2.5113087 1004:2.3403008 1016:0.041638389 1018:0.48920149 1022:2.679441 1027:3.3967314 1028:0.40959138 1042:5.1967931 1043:0.39580005 1048:0.16707857 1053:2.1070287 1059:1.9036001 1062:1.8947269 1071:0.63382876 1075:1.5344799 1077:1.2783849 1078:3.119287 1095:3.0998092 1096:1.2544175 1097:1.4813017 1100:0.061119378 1105:1.4395833 1111:3.9042366 1130:0.380261 1135:0.027613282 1139:0.3939859 1140:0.52722949 1147:0.62817812 1157:2.9235806 1161:0.59413588 1163:0.54528731 1165:2.7682664 1166:0.48716408 1168:0.73530078 1170:1.307066 1176:0.023289785 1180:2.2914112 1181:1.2809093 1186:2.5612619 1188:1.7053198 1189:1.3241777 1195:0.076249145 1204:0.090438679 1206:2.5824542 1220:1.3089541 1221:5.7282233 1228:2.1412141 1234:1.3352526 1235:1.3257189 1242:2.6975253 1243:2.0259223 1246:1.7453592 1249:1.7669818 1253:2.8094099 1257:1.4648794 1258:1.6263283 1260:1.3914109 1267:2.6431401 1274:0.98603058 1279:0.39321253 1281:0.51604581 1291:3.1111424 1294:0.90249574 1295:3.1691301 1299:1.9070393 1302:3.2862175 1305:0.036002845 1309:2.4097323 1313:2.6936977 1314:0.44420344 1315:1.1202703 1319:0.10298152 1327:3.5951939 1329:0.33195952 1331:0.75172615 1332:2.32019 1341:3.153337 1342:0.80011129 1343:0.99277842 1349:0.72526574 1352:0.64314985 1355:0.23106471 1356:4.9557514 1357:4.3004699 1359:0.51976264 1366:0.43051323 1372:6.3523889 1374:0.36266345 1376:2.6911113 1377:1.0138664 1383:1.9308215 1385:0.55079567 1391:1.3166209 1400:2.2171507 1401:4.17309 1404:2.8792617 1406:2.1605792 1409:0.34600243 1417:2.0348003 1419:1.8819782 1425:0.50077379 1426:0.78585327 1428:2.5605254 1429:2.0616784 1432:0.12340719 1433:0.099101663 1438:0.69796878 1441:0.58159119 1444:1.8655264 1447:0.20119387 1448:0.67640752 1454:0.46514204 1456:3.7842107 1458:2.4782162 1463:0.93900478 1469:0.25273934 1470:0.6070711 1471:1.0189387 1476:2.5796463 1479:5.3632503 1483:0.29911098 1486:1.8397517 1496:4.3196745 1503:0.91296881 1509:0.22142619 1510:2.3187628 1517:0.36117285 1518:0.95372534 1519:0.42314553 1522:0.72268295 1523:4.1274219 1537:0.346232 1544:1.5179381 1551:1.4394763 1552:1.8523599 1555:1.3880128 1556:4.0012836 1557:0.71900916 1558:0.10010541 1573:0.97776997 1574:1.9754514 1580:0.25821108 1582:0.44731188 1583:0.43826175 1586:1.4263537 1587:1.0057492 1588:1.1624118 1590:1.9551334 1595:1.0211202 1602:0.69476765 1604:0.99216789 1608:0.56944358 1613:1.4318442 1615:1.895812 1616:1.5737969 1617:1.2999773 1618:1.4914873 1625:1.6064498 1633:0.046524525 1636:3.7863879 1647:0.59281665 1654:0.87199855 1657:2.6004231 1659:3.2766228 1667:2.8526001 1668:0.31263959 1670:1.8848765 1675:4.2661395 1676:1.0638033 1677:2.8117497 1678:0.4120115 1680:0.20524666 1683:0.73531038 1690:1.312564 1701:1.9552171 1704:0.57472086 1707:0.28369787 1711:4.3406343 1716:2.1558323 1726:4.206511 1727:2.9154372 1730:1.211585 1737:0.81368387 1742:4.1417694 1758:4.4336419 1762:0.68101305 1766:0.95083249 1767:0.060385942 1773:0.99470568 1777:2.7909608 1781:0.11833391 1784:1.3682705 1785:1.3722728 1786:2.606185 1793:2.9423797 1794:0.29041725 1799:1.4150891 1804:1.5578029 1805:2.208642 1807:0.33272079 1808:0.30168146 1817:0.84847492 1822:1.7120761 1823:0.082643837 1824:3.2351427 1825:0.88546813 1830:0.28686053 1831:0.5087927 1832:0.16164806 1833:0.6184662 1842:2.4012094 1847:0.20434222 1848:1.7018028 1850:2.4152792 1851:1.5644846 1852:2.398284 1854:0.3020581 1861:0.18300995 1862:3.1398656 1865:1.4381759 1878:0.33640957 1882:2.6342983 1884:5.0384507 1890:0.059953682 1895:0.31583294 1897:2.5482988 1898:0.70625097 1904:5.1544938 1905:0.12672314 1908:1.7986248 1912:2.2557161 1918:0.54645431 1921:1.0872649 1942:2.23508 1943:1.8295403 1950:5.7282052 1953:3.6653652 1960:1.6890113 1968:3.0077891 1969:0.97084904 1975:1.3742002 1977:2.16834 1978:1.510146 1985:1.0193424 1986:0.14372942 1991:4.5487099 1996:0.61674154 1997:1.0994232 1998:1.6605251 2002:0.9052093 2003:0.7701093 2004:0.82884234 2011:4.4631305 2012:2.4472651 2020:0.94458449 2021:6.4510002 2031:0.01816088 2032:0.4869464 2042:0.31940627 2047:1.0486156 2050:1.0292003 2055:1.8821862 2057:2.3601084 2058:0.85027099 2065:1.2093582 2070:0.79959559 2072:2.2310486 2074:0.5204165 2080:0.34783953 2084:1.5798008 2088:0.63395005 2096:0.14672196 2097:0.82497036 2102:3.536767 2105:1.1000941 2107:6.3944058 2113:2.7899144 2120:0.1095213 2125:0.77109796 2132:0.90021884 2140:0.38338971 2152:2.0288978 2153:1.6469754 2160:2.7757483 2162:0.21613395 2165:4.2052922 2167:1.3347222 2177:5.4210253 2187:1.9180754 2196:2.7874689 2204:0.5138244 2210:1.1008487 2211:0.086565286 2216:3.4818501 2223:0.79922307 2229:4.7155428 2230:1.5118266 2231:0.044246018 2233:0.21130288 2236:2.5304277 2238:1.094373 2246:1.0267289 2247:0.66606128 2254:1.4110913 2255:0.91773725 2257:1.3581568 2270:3.3713307 2274:1.2477967 2275:1.9292378 2277:0.029121578 2278:1.720618 2281:2.5228958 2283:1.2796146 2287:1.0708343 2302:0.90886819 2306:2.4024918 2311:2.1634028 2322:2.8191659 2327:1.7850564 2329:2.6422668 2331:1.9071846 2334:0.89508986 2337:1.5429749 2341:0.078927547 2344:2.410476 2346:1.3808455 2349:2.2762389 2353:0.79102445 2355:3.5499709 2360:1.7410754 2361:4.1008906 2374:0.036569804 2377:1.5429058 2378:0.65360141 2383:0.8060087 2388:1.7889142 2390:0.80998075 2394:1.1412617 2402:1.0462488 2406:1.2926468 2419:3.2209334 2426:0.94625485 2428:0.044087924 2431:0.78922236 2435:3.142628 2438:1.6932112 2440:1.1373022 2441:0.14286827 2453:0.69890606 2459:1.4625943 2466:2.2242765 2467:0.79405832 2470:2.6947732 2471:2.0565357 2474:1.1088645 2485:1.6943322 2487:0.91648936 2491:1.7344604 2497:1.8259923 2503:3.4189925 2507:0.89296985 2508:5.7477212 2509:2.0170755 2512:0.089064568 2514:2.5262403 2516:1.3680758 2527:2.6098533 2528:2.718704 2532:0.83971125 2533:1.108532 2535:3.5624971 2549:0.20672074 2552:0.57825541 2561:2.58237 2567:2.6717319 2570:0.9954102 2571:2.8079464 2573:1.7802734 2578:1.1501446 2583:3.420989 2589:0.33529419 2591:3.8898778 2594:4.6246128 2599:0.89387202 2601:0.36447942 2603:1.7225521 2610:0.51893157 2617:2.6916869 2619:1.5376334 2621:0.55603564 2623:1.6773442 2632:0.32430971 2635:0.19380662 2638:0.41762978 2639:3.4129877 2642:0.38880414 2649:0.87168783 2651:0.64891165 2659:0.75333655 2660:0.2106818 2672:0.38984105 2688:3.0236635 2689:3.7654009 2700:0.074983895 2702:0.030039132 2704:1.3573992 2705:0.34185088 2714:0.93406218 2715:3.124963 2718:3.4618537 2720:2.6168418 2721:1.2999501 2723:0.68374598 2724:0.63133168 2725:0.0020483434 2727:1.3880863 2732:0.13232312 2738:1.2766899 2739:0.015138075 2740:2.3720422 2750:1.0962899 2754:1.3052367 2756:3.80797 2759:2.4323788 2778:0.34754899 2785:4.2380552 2789:1.2040861 2792:1.7897767 2796:0.053595632 2800:3.3066964 2804:2.1462483 2810:0.36241305 2811:0.14442664 2820:1.2041943 2821:1.3355329 2825:0.11806473 2833:1.6297064 2834:2.410254 2836:0.61765611 2837:1.7888893 2840:3.6304464 2849:1.3988883 2856:0.12827626 2860:0.077843793 2866:1.0891294 2869:3.0918791 2870:2.8117483 2878:4.0283742 2881:0.79873812 2882:0.64658546 2887:0.042166531 2888:1.7413986 2891:4.7769175 2892:0.40915573 2894:2.0246847 2895:2.6156871 2896:3.6473913 2902:2.4806066 2903:1.3428565 2913:0.67836046 2917:0.83712828 2919:0.56157094 2921:2.3936298 2931:0.55799377 2937:0.76719362 2938:0.28156173 2949:3.3653717 2950:4.2933564 2953:2.2466645 2961:2.3139472 2962:0.72315454 2963:0.76437187 2965:2.1094179 2971:2.0172052 2973:0.30190533 2977:1.1514423 2979:1.1261901 2981:0.7701087 2985:3.6940184 2989:0.51041573 2994:1.6578218 3009:0.80190945 3012:2.5998998 3015:0.22099245 3019:2.5029378 3033:0.064785957 3034:0.80498815 3043:4.2735729 3046:0.8579582 3051:1.0148839 3052:3.0411029 3057:1.0303675 3058:0.99073946 3060:4.0240855 3067:0.60271835 3068:0.18630472 3070:0.027229041 3077:1.4951625 3081:0.063001931 3085:0.75360006 3094:3.5003283 3099:0.43300346 3101:0.55406219 3111:1.7200478 3118:4.5780935 3120:0.28703469 3124:0.38632154 3129:1.6039871 3132:1.1376159 3139:0.056804508 3144:0.54427975 3145:1.0668169 3148:3.3808591 3149:1.242478 3157:0.093643829 3160:0.82888138 3161:0.87296408 3163:0.12475453 3164:1.3011929 3170:3.7752659 3171:0.072946876 3178:0.44447958 3179:2.4490342 3187:2.2373133 3188:0.55854589 3195:2.2272296 3198:0.75917119 3200:1.0902383 3206:0.89292622 3210:0.33726713 3225:1.2372847 3232:3.8674252 3245:0.15202007 3247:0.78618479 3249:1.8250946 3256:0.31797722 3258:1.329957 3267:1.5466641 3268:0.34901583 3275:1.8310478 3276:2.2475414 3281:1.3142271 3282:0.3301746 3286:1.5299209 3291:6.8115864 3292:1.4502317 3293:2.0429111 3298:2.0503995 3299:2.4526622 3310:5.8091803 3314:0.48793554 3319:1.9513706 3324:0.86737633 3325:1.0431643 3333:1.2092503 3334:0.71482754 3344:3.0587101 3349:1.0939995 3354:0.00056801736 3359:0.99189228 3363:1.1855547 3365:0.37004811 3367:2.0113606 3371:3.3594058 3377:0.81768131 3383:1.8876727 3390:0.064611584 3394:2.2240646 3396:0.19455835 3397:2.2480361 3402:2.3781192 3403:0.43312579 3410:1.0038432 3413:4.6487293 3420:0.59542495 3431:0.55727005 3437:1.7922482 3450:2.11058 3453:3.0296631 3455:0.4888615 3456:4.7968612 3458:0.051981375 3459:0.16839559 3468:0.60104173 3471:3.4931707 3474:0.96100509 3478:1.4123497 3482:3.0207503 3484:1.9236052 3489:0.56081504 3493:1.8893349 3494:3.2955794 3496:0.6316793 3498:0.9253214 3500:0.051974058 3503:2.3727977 3504:1.5175129 3507:0.2536329 3508:1.1141715 3512:2.240675 3517:2.9951115 3525:0.67360127 3526:2.5114441 3528:2.1894979 3531:0.3523379 3536:2.0351903 3547:1.7230117 3548:1.3977435 3549:1.5773342 3554:3.1513677 3555:0.86538142 3556:1.9518371 3564:2.3131104 3572:0.52635568 3577:0.63142782 3578:0.3248961 3580:0.74484241 3582:4.4682455 3588:3.926358 3597:0.19063655 3601:1.4959924 3604:0.25291729 3608:3.4692869 3612:4.0366955 3614:1.6524273 3615:1.5462729 3626:1.7318376 3627:3.6792789 3629:0.015046537 3631:0.039198488 3639:0.29620832 3642:1.9714386 3644:0.68330038 3650:1.6218653 3653:4.6076713 3654:0.25450492 3655:0.60837162 3657:0.39633307 3658:0.7458719 3661:0.55700576 3666:0.58508301 3667:0.61233866 3671:0.73781836 3672:2.491425 3677:0.8034277 3690:1.5345592 3692:1.7583455 3693:1.3200333 3715:3.5475194 3718:0.5222851 3719:2.0797949 3720:2.4576235 3724:1.0639291 3727:1.1205709 3728:2.2543168 3739:0.85418719 3745:1.6037569 3749:1.0360116 3751:0.42891786 3753:0.68604267 3756:1.4309819 3762:0.19906694 3766:0.27398914 3769:3.8660569 3771:2.1925602 3782:0.61676878 3789:0.26046285 3793:1.6576687 3807:1.8790665 3821:0.54247791 3823:1.8042648 3824:3.4627068 3825:1.0246334 3835:2.9725413 3836:0.86323828 3845:5.0361376 3849:0.63398963 3857:2.41277 3860:3.8423927 3862:5.4184513 3865:1.5629259 3866:0.97609985 3868:0.4410432 3872:2.41784 3875:1.5626444 3881:1.1347446 3884:0.6811049 3888:1.2408184 3889:1.1174045 3903:0.22353125 3908:3.1160512 3910:3.7656054 3912:0.45765713 3915:2.002604 3918:1.7271872 3919:2.1054456 3923:0.15943292 3927:1.9368929 3935:0.20634964 3936:2.5539954 3938:2.1492121 3942:1.3995042 3947:0.0011297166 3948:0.69678652 3950:0.31364504 3952:1.5262225 3957:2.4414811 3963:3.1580954 3970:1.7709657 3980:2.2862048 3981:0.90820551 3984:0.75265855 3995:5.1351633 3996:0.040020846 4000:1.1551186 4001:3.0319264 4004:3.2829709 4011:1.6967392 4015:1.208019 4016:2.4688706 4018:1.8207259 4020:0.48659211 4026:1.1741186 4032:4.2962527 4033:1.4718182 4036:3.4903219 4038:1.7691424 4044:1.4679866 4051:0.16693385 4063:2.8614383 4067:2.4074776 4069:1.0154878 4070:2.5023553 4077:0.38333872 4080:0.43891782 4087:0.47419173 4088:0.3930794 4092:0.78601766 4095:0.066586122 
0.8952700039941889 14:1.4885486 16:5.3424129 19:2.3794341 20:0.18690097 21:3.1063387 27:0.091440812 40:1.195001 41:2.6150155 43:1.6593925 49:0.49820817 54:0.25005281 57:1.3629256 60:2.6711998 61:0.99001002 68:1.9208376 70:1.1148837 80:0.58014065 87:0.016626179 94:0.053569704 98:0.8547591 112:1.8715495 115:0.70442522 123:2.1557062 124:0.65051991 125:2.2330875 126:0.31949294 130:1.3307899 131:0.45452356 146:5.8603563 152:0.81527895 155:0.022084326 157:2.4102376 163:1.396322 164:0.25588664 166:1.0187141 167:0.072751954 174:2.3511355 180:0.16857204 190:0.46972722 199:0.48361281 200:3.540941 204:0.14769334 210:1.6257093 212:0.32847714 218:0.016504288 221:2.9971299 223:3.2149959 224:1.3918073 232:1.1351402 234:2.407033 239:2.3774729 240:1.4082798 242:3.3093412 244:1.0088062 254:4.1285338 256:0.19175076 258:2.6079974 262:1.4739877 267:0.7203393 274:0.82878155 283:1.8942385 290:0.60293764 291:1.6965183 299:0.21270046 302:1.2976073 303:0.069564164 306:0.32658589 308:2.9993513 313:1.5634038 329:0.60404432 335:1.0474918 340:2.390183 342:2.0912132 343:1.8475362 347:1.9437748 349:2.1338892 350:2.0995226 351:1.7814646 366:1.37482 372:1.5124143 373:1.0302997 377:2.7604496 379:2.5742044 381:0.37076396 382:0.33519226 391:0.91367435 409:1.2839811 420:0.61427379 426:2.0783236 432:4.515913 442:2.7109878 444:4.0538974 460:2.0716004 461:3.0286782 463:1.3681077 472:1.5179719 482:2.0800445 491:3.5702751 493:0.12163866 494:2.757704 502:0.44301525 504:2.0477557 505:0.55850202 507:1.4671688 514:3.2312689 515:0.3442159 521:0.17730951 524:1.0637879 533:1.5436751 546:0.061642945 550:0.41870153 556:1.1210773 562:3.7905066 566:1.3329147 575:2.4330785 586:3.236295 590:2.8107517 595:1.8736542 603:0.55401683 628:1.2326763 633:1.2897342 635:2.6463041 637:0.8198992 640:0.23981051 644:0.37595412 646:1.8328488 647:0.67931235 656:4.1522779 662:0.31045002 664:0.26338568 670:3.8851683 675:2.700923 684:0.30873775 690:1.7310426 694:0.52035546 697:0.9609772 698:0.17210704 701:0.99703223 702:4.2433577 705:3.6516864 717:0.62486625 724:0.9262706 734:0.35832822 735:0.80366766 737:0.4771975 747:2.1589067 748:4.1689777 751:3.3231299 759:1.9709916 760:0.50916201 773:2.6809709 774:0.88926882 775:0.24214977 776:0.62870061 785:0.012853622 789:2.4654808 794:2.2787812 796:2.6924706 798:2.921443 801:1.0970937 802:2.6389451 811:0.150352 813:0.59525979 818:1.1412125 820:2.3415151 825:0.96982652 836:1.6210353 838:0.34962627 842:1.1741538 848:2.5225861 849:1.4153032 853:2.7630486 855:0.37055045 856:2.6489298 857:2.2994025 868:4.8759561 872:3.2937744 882:4.6582456 883:0.90040219 887:2.4081466 889:3.2606869 895:0.020052837 902:0.68459284 904:2.1116986 905:4.4542327 908:2.2956476 913:4.1443658 915:1.1802571 922:1.1399282 936:0.19335675 942:1.0282736 944:0.63252598 945:1.6990659 954:2.5224812 960:0.071707845 965:4.0998235 968:2.9009979 970:0.86155427 972:0.97297031 974:1.7249365 978:2.3757102 998:0.32263002 1001:4.4046793 1002:1.0305836 1014:0.058553636 1017:0.83706307 1019:0.80639148 1022:0.16400859 1026:0.81687975 1027:3.5394125 1031:0.64292467 1042:4.1196151 1053:0.20781882 1059:3.806946 1062:0.34443736 1064:0.62582564 1073:0.10784435 1075:3.3797848 1077:1.8223472 1080:2.2301433 1095:4.5807209 1100:1.5329148 1102:0.3789416 1105:1.9167163 1106:2.0734742 1121:0.051679194 1130:2.8844709 1137:6.8584566 1140:3.9334052 1147:1.0453221 1152:0.94735551 1157:1.059145 1161:0.75996017 1163:1.1770673 1168:1.4759948 1174:0.39067036 1180:1.9405066 1188:0.41729003 1193:2.9716949 1199:0.1131054 1206:2.2322574 1217:2.6243067 1220:0.10858414 1221:4.0292015 1223:0.67884767 1224:1.1867805 1227:2.3838663 1228:5.9482603 1234:0.25034589 1240:1.0508213 1243:2.1536472 1246:0.45907819 1248:0.26467329 1253:2.2220967 1255:3.7757514 1257:0.58096594 1259:1.5229696 1267:0.58479905 1271:0.81654805 1279:0.97553211 1281:0.54251122 1291:5.1305747 1293:0.95389408 1295:0.88129276 1299:2.8187826 1302:1.3314437 1309:0.016688883 1310:0.71796906 1313:1.8504109 1314:0.74105823 1317:5.9193006 1319:5.4946699 1327:0.91674614 1332:7.3326998 1340:3.0623448 1341:1.4577421 1342:0.68536997 1344:1.3935963 1350:0.047935009 1357:2.1928082 1359:3.1335974 1366:3.5946267 1372:8.43507 1373:0.34840041 1374:2.7752914 1376:1.8866769 1377:2.4734685 1383:0.5003351 1385:2.8322072 1391:0.11691222 1396:0.83851641 1397:0.26965761 1401:3.7141118 1402:2.8998644 1406:6.9594579 1408:2.4537599 1409:3.5794516 1413:2.6068604 1424:0.52965927 1425:1.4867939 1428:2.8893659 1430:1.4695537 1432:0.70917624 1433:1.1750127 1434:0.11806428 1439:1.3323034 1444:0.5820964 1456:2.0747263 1457:0.34443229 1458:0.56955588 1476:0.77692533 1487:1.0603446 1488:1.3456815 1496:4.3071947 1504:0.28486365 1511:2.3301635 1517:1.4722353 1518:0.37559479 1519:1.6343473 1536:0.045513064 1547:1.0545363 1548:0.69772005 1555:0.69470078 1556:0.88492942 1557:0.65290385 1563:0.08859688 1568:0.59098554 1573:2.0469153 1574:2.000953 1582:1.6868327 1586:2.212038 1588:3.1619091 1590:2.4162352 1602:0.84173954 1604:1.7386775 1606:0.29807669 1614:2.6050506 1617:1.642524 1618:1.2721996 1625:2.3110688 1629:2.0535798 1630:3.4583931 1641:1.4717877 1644:2.455265 1647:4.9612026 1654:0.13505846 1656:1.7934616 1657:4.4506421 1658:0.88583601 1659:0.7119512 1663:0.99082768 1667:1.8476951 1670:0.25430617 1675:1.4098777 1676:1.5913779 1677:0.19406989 1680:0.12605757 1690:2.1405311 1693:0.37576273 1704:1.8086946 1706:2.8038635 1711:2.5035317 1720:2.9263575 1722:0.72194874 1726:3.4786973 1727:0.70251608 1730:1.2441099 1736:0.17066702 1746:2.5465713 1752:0.54139555 1759:1.7047662 1762:1.6136277 1774:4.2918224 1775:1.6643789 1778:0.57525831 1780:0.24318156 1782:0.87807292 1784:2.1315565 1785:0.66446579 1786:3.7257173 1794:0.070937335 1795:1.8324698 1802:0.048421293 1804:0.38943589 1805:0.4309625 1817:1.0035884 1822:3.3484497 1825:5.5496373 1831:1.8775434 1832:2.2187245 1834:1.8697162 1842:6.0001645 1848:1.8102704 1850:0.78859937 1851:2.6802139 1852:3.7197616 1862:0.75027657 1869:0.38890451 1870:1.0068568 1872:1.0342995 1878:0.89397597 1881:1.4204696 1882:2.6536183 1890:6.34308 1891:0.77265644 1893:2.5145485 1896:0.75934982 1897:1.8102241 1898:2.8956444 1900:0.83050752 1904:1.8025107 1921:0.35635775 1936:0.08993955 1937:1.0321356 1940:0.21326202 1943:1.6726478 1950:1.9381621 1953:1.965544 1965:1.2057346 1968:3.2754562 1975:2.1831346 1977:1.1204602 1987:0.45681641 1996:0.0085521787 1997:1.3052881 2001:0.084142819 2002:0.48129362 2011:0.31060767 2012:5.139544 2015:0.28329456 2021:2.4941583 2025:1.892854 2030:3.2156825 2033:0.51384306 2035:0.69696695 2038:1.5597219 2042:0.90173429 2043:1.5863219 2051:0.065092593 2058:3.7171841 2062:0.5745458 2066:0.80041283 2070:4.3300419 2074:0.97497511 2078:2.6914577 2097:3.6459763 2107:1.6903164 2109:0.63524336 2112:1.1302742 2115:0.83346719 2132:0.33811194 2134:0.28605112 2139:3.1616673 2140:2.7110353 2152:3.5729141 2153:5.534359 2154:0.20381299 2160:2.1062086 2162:2.7123675 2165:0.61327207 2167:0.24768321 2177:3.1387467 2179:0.77836794 2187:5.1881948 2189:0.025153577 2193:0.84869653 2196:1.0504658 2204:2.9337049 2206:0.023835093 2223:1.7516472 2224:5.3979206 2225:1.112824 2229:0.50848913 2236:0.33607796 2239:2.1989946 2240:2.1878538 2246:2.6641655 2254:0.50452185 2255:1.5085505 2257:1.7418706 2270:4.491538 2276:1.0717601 2280:0.58690417 2281:0.14173698 2283:2.8646283 2290:0.0040643662 2292:0.49073714 2293:0.97211754 2295:1.1520796 2298:0.60908091 2299:0.43842056 2311:3.7264256 2322:4.3580184 2327:0.36817497 2331:3.945601 2333:4.3806524 2340:0.93507242 2343:2.007601 2346:3.6693888 2350:1.5300846 2353:7.4322348 2355:0.50959885 2358:3.0025275 2360:2.7631071 2364:0.36933279 2372:0.79577577 2378:2.2314868 2389:0.4605487 2397:0.76795709 2401:0.66940635 2415:1.9262455 2418:0.34909979 2419:1.1513608 2425:1.6042233 2426:0.94261545 2431:7.8276958 2432:0.65701497 2435:1.5138087 2438:1.4696341 2441:0.72931111 2457:1.1960642 2459:0.57636738 2471:5.1122141 2475:0.72012228 2479:0.54174459 2488:0.028968763 2491:1.442901 2497:1.9754227 2503:1.2907493 2504:1.0791401 2506:0.50099826 2508:3.3401706 2512:2.9938171 2514:0.23714545 2516:2.2565925 2527:3.0898948 2528:0.33395177 2531:1.8101397 2551:1.3734528 2561:0.7608307 2563:1.4788396 2571:3.7750804 2573:0.18959063 2577:2.1070943 2583:0.78630793 2588:0.24717592 2594:3.2794042 2600:0.6239484 2612:0.16817164 2614:1.3041862 2619:2.9307477 2629:0.25714415 2632:1.0577013 2634:2.6022911 2635:0.40143192 2636:0.80303514 2639:5.568265 2660:1.5638928 2672:2.2434692 2682:0.31555524 2685:1.8540827 2687:2.2206244 2688:1.4401481 2691:1.0767423 2702:2.4632566 2704:0.93558437 2706:0.70459682 2708:1.7602502 2713:0.49983692 2714:2.2877381 2715:8.0363474 2718:4.2972975 2719:0.29951447 2720:3.8728223 2723:2.2313867 2724:0.088923797 2726:2.5965767 2727:1.1062583 2738:0.89768887 2739:3.4404857 2740:1.0358198 2741:1.8051391 2745:2.3046827 2752:0.26910362 2754:3.1928291 2756:1.2796869 2765:1.1555027 2766:4.1922121 2768:1.6967226 2774:2.7161667 2775:0.55961633 2777:2.3931615 2778:3.5982363 2785:1.2541831 2789:0.79149675 2793:0.27328497 2799:0.13476063 2800:2.8603997 2817:0.21508253 2818:1.8069293 2821:0.19851798 2829:1.0681243 2833:0.52201772 2837:2.6984668 2840:0.34960636 2844:3.3077083 2849:0.70620757 2851:2.6745262 2855:0.27274495 2860:2.3297272 2862:1.1923773 2865:0.38411856 2869:1.9538689 2878:1.4931456 2882:3.5977664 2883:3.6936595 2889:0.24446726 2891:0.76601768 2894:1.4919512 2895:4.5232239 2896:1.0497363 2898:4.3612633 2902:0.20143251 2903:2.8246307 2907:0.71063912 2909:1.0249385 2910:2.3667233 2917:0.72591078 2919:0.24206474 2921:4.6136255 2922:0.038189091 2931:1.4510732 2934:2.6554997 2937:1.1930349 2946:0.97219694 2947:1.6355891 2950:1.5610625 2952:3.0039921 2962:1.8575879 2965:1.8193679 2968:0.60239059 2973:0.67669559 2974:0.45063514 2977:3.631887 2978:2.6957548 2985:3.3428979 2986:3.826462 2991:3.3862445 2992:2.3911908 2993:3.2504017 3010:0.53931201 3011:0.72077155 3012:1.5490969 3024:2.5908141 3026:0.22662108 3033:1.8320941 3034:1.2060518 3036:1.1712308 3040:1.4211702 3043:3.1009858 3051:0.15788701 3057:0.70062423 3060:4.745852 3067:2.5574985 3076:0.24161389 3085:1.5663954 3101:0.12469292 3108:0.095108151 3109:0.05272162 3118:2.5482433 3119:1.6598419 3120:0.74760085 3124:0.38700333 3129:3.2488647 3139:0.45247853 3144:2.7926147 3147:0.24718446 3148:2.1337059 3152:0.84111613 3161:3.2926495 3162:0.11858166 3164:1.8305533 3170:1.4708773 3178:4.3006449 3188:2.6009312 3195:1.941605 3199:0.15788873 3207:0.78651726 3214:0.89884591 3217:1.0235065 3247:1.7934726 3256:2.033498 3257:1.7750928 3258:0.52790475 3260:4.4307761 3267:2.9922674 3268:3.9107816 3275:0.21088307 3276:0.10764825 3285:0.52440608 3286:2.7176661 3291:2.6790168 3296:0.17400187 3302:1.7131383 3310:4.7383456 3321:0.38931793 3325:0.96237016 3333:0.41499877 3334:0.98899412 3344:2.3552065 3354:6.4296584 3356:0.23534355 3361:0.71915114 3363:0.30669206 3365:0.7135582 3367:2.7043648 3372:0.90897131 3377:1.1961168 3378:1.776468 3385:0.72713822 3396:0.070099443 3397:0.22081101 3399:0.13409588 3401:0.67193514 3402:4.5293169 3407:0.047656015 3410:1.0371678 3413:5.4812489 3418:2.6697986 3420:0.71126091 3424:0.42928144 3428:0.88371396 3436:0.89609754 3445:2.835346 3446:0.15512127 3448:0.89669168 3449:1.3695812 3453:2.5443592 3456:2.4901454 3465:0.62221521 3472:1.4937329 3473:0.72879499 3481:0.4838157 3485:2.3911147 3486:0.34235895 3489:2.1709309 3490:0.016398758 3491:0.096909106 3492:0.5653854 3493:1.5362351 3494:1.0241643 3498:3.13448 3500:2.4838471 3501:0.17538995 3503:2.0827672 3512:1.4731841 3517:1.351143 3521:1.5460352 3523:1.0780607 3525:0.96316493 3526:2.2270894 3528:0.77229643 3529:2.386529 3536:0.31671876 3537:0.92715842 3539:2.2788379 3540:1.742471 3543:0.57052279 3545:1.2627467 3547:1.5418193 3548:1.0241759 3552:0.17070095 3554:3.5819263 3555:1.0885497 3556:1.7888176 3564:1.8564659 3566:1.4777255 3580:1.9104124 3582:0.8276239 3588:4.042192 3602:0.28056142 3604:1.6035047 3607:2.314913 3608:2.8130586 3612:0.60416663 3615:1.0580175 3622:0.42353743 3626:0.84995699 3629:2.8761394 3631:2.619137 3633:0.066895366 3640:0.049469024 3642:0.19750069 3649:0.39784807 3650:1.9615442 3653:5.6459599 3657:2.8035114 3666:1.1362114 3667:2.2018766 3669:1.22752 3671:1.2917384 3672:0.46712765 3677:2.5727911 3690:1.6277804 3691:1.8707757 3695:1.5589306 3715:2.5047734 3719:0.41254747 3720:0.0054142773 3722:0.66249657 3732:1.7212932 3739:0.25632316 3751:1.7282478 3752:0.17327721 3753:1.6753004 3755:0.67929143 3756:0.2449556 3758:2.1212661 3762:0.67983872 3769:0.45351505 3778:1.823127 3792:0.092545792 3806:2.6225643 3807:0.61062229 3818:3.4518504 3823:0.89912689 3824:3.2983673 3829:1.6669573 3836:1.0787427 3845:1.6846943 3857:0.67185622 3860:2.1948793 3861:0.12548009 3862:2.1144962 3868:1.4414144 3872:2.8387935 3875:1.1387415 3876:3.3528543 3880:0.62813455 3888:2.361243 3889:0.0059688389 3906:0.96856636 3908:2.4665647 3915:0.69385195 3927:0.68224734 3935:0.80721784 3936:2.5623374 3940:1.2721262 3941:0.36114067 3942:2.306483 3943:0.22126037 3950:0.28560671 3956:1.181165 3957:4.4007435 3962:0.46304503 3963:5.6089239 3974:1.7652245 3978:2.2827425 3980:1.6664813 3981:0.88514161 3982:1.0748506 3984:0.84281653 3985:4.3006091 3988:1.8486748 3995:1.7129852 4004:2.6849251 4010:3.5094571 4018:2.5387108 4021:0.11479817 4029:0.77203411 4032:4.5017309 4033:1.8469796 4036:2.2419281 4038:1.0330559 4042:0.80860764 4044:1.2949587 4056:0.78459501 4059:0.94306409 4063:1.3077662 4067:0.38802338 4068:0.63644904 4071:2.0321155 4074:1.321957 4076:1.2820172 4084:1.9721041 4095:1.1125264 4096:5.5734434 
0.1002395728899268 3:1.0058868 8:1.0083486 14:1.3852788 16:5.2707529 19:0.28158489 21:2.614291 23:0.56548631 33:3.7866778 34:0.67398763 37:0.61469495 40:2.6267192 41:1.9263626 43:0.5133037 57:3.8377042 68:0.74412531 71:1.1756556 77:2.8073983 84:2.3134651 104:0.10935166 112:2.9362605 123:2.0111666 130:4.001914 140:0.58958369 146:3.1801844 152:0.070936084 155:1.7842312 156:0.85975391 157:0.42728937 163:0.42680091 164:1.4000319 166:0.013914928 169:1.762314 176:0.59476638 190:0.13298669 199:4.397367 200:1.2769054 205:3.5537403 210:1.9493694 221:1.375266 223:1.406904 239:0.75219166 242:2.8167493 247:3.0247245 260:1.2679895 266:5.0862608 267:2.6217043 276:0.42007589 287:0.36580968 290:1.3699751 299:1.2446536 306:1.4112797 313:0.036451355 317:0.7075842 325:1.3931273 340:2.7927871 342:0.34927449 347:3.1068192 350:0.82905805 353:2.7871206 361:0.020904295 365:1.5933425 371:0.014011323 379:2.4804342 391:4.7057409 404:1.1394756 416:0.78274488 422:1.4174579 425:0.6535123 432:3.803802 435:0.4022297 436:0.43336201 444:1.0194663 459:0.73380089 460:3.3670032 461:2.4206326 466:0.48110193 472:0.80702192 474:1.1599336 482:2.0681677 491:2.7012734 494:3.0285175 504:1.3915646 519:1.2715162 524:1.2241255 526:0.80647445 532:1.5956465 555:2.6815076 562:5.2728672 567:2.3555818 575:1.1541579 578:1.7018697 586:1.169872 590:0.32960528 592:0.15631488 603:0.26438087 608:1.2707585 620:2.0971746 628:5.0443115 629:2.0129097 635:2.399051 637:2.9408202 639:0.62972689 644:3.7705405 647:1.8712741 654:0.80313957 656:0.87367284 670:3.361541 676:2.422049 688:1.1625079 698:0.90421087 702:1.5853133 704:0.73608422 706:1.5709587 713:0.64055991 717:0.92699587 723:0.064125001 725:0.86820292 729:0.19103922 735:1.268768 738:1.0062296 747:3.1834002 750:1.732023 776:0.18851927 777:1.0933641 785:2.9141579 794:1.0170933 799:4.0353384 802:0.8670944 813:3.559334 820:3.5142903 830:0.98070633 838:0.52969086 841:0.98295182 842:0.95589685 848:0.11831239 849:1.5551717 851:1.837949 853:0.86510503 856:4.4261932 857:0.83129346 865:0.69115114 867:2.0295444 868:0.9461357 882:3.6124954 889:6.3648 895:2.8293688 902:3.2008829 904:2.5165615 905:2.55548 919:0.012984071 922:1.4405646 928:2.418632 940:1.6705484 944:0.28008491 949:0.78806198 954:3.025744 965:3.7927322 974:1.4857209 975:0.31991646 985:0.45324054 989:2.9218347 1001:4.227715 1004:0.65742505 1010:0.10176028 1019:2.316783 1022:3.5629373 1027:2.1151555 1031:0.80077529 1032:0.19713207 1037:0.40493765 1042:1.9869447 1059:1.8969866 1060:0.353742 1062:1.19408 1063:0.74934924 1072:1.1293299 1105:2.6670749 1130:1.2423493 1137:2.9388447 1139:0.36037421 1140:0.68831134 1147:2.2649667 1163:1.3945581 1165:0.12464678 1168:0.16450638 1173:0.57581764 1174:2.5231056 1186:5.1541753 1189:1.232471 1193:1.6318852 1206:6.7651691 1221:1.977211 1228:4.430088 1231:0.66226846 1234:1.0096469 1248:0.41036016 1250:0.3183175 1255:0.7569536 1259:0.12906751 1260:0.3864581 1267:3.6237097 1269:0.80543196 1279:1.5327327 1291:4.9927325 1295:1.6347721 1299:1.1928685 1302:0.49658284 1313:1.4035122 1314:0.071348742 1327:4.4828529 1329:0.38615933 1331:0.90831381 1332:4.4193554 1340:2.7977598 1341:2.3963146 1342:0.35211837 1353:0.24148762 1356:0.066507369 1357:4.0033388 1366:3.6185372 1371:0.022898644 1372:3.8927701 1374:0.86489046 1383:1.337667 1391:2.0733397 1396:0.95795447 1401:5.0145168 1402:0.11436477 1406:2.8879244 1408:3.2602105 1409:0.97373837 1425:2.4766812 1428:2.3551791 1434:5.5485849 1441:0.33488071 1444:1.1286523 1455:0.085217208 1456:2.3701587 1460:1.219633 1469:2.155498 1476:1.7868744 1479:1.6211519 1483:0.26841313 1487:1.6549997 1496:6.2428446 1499:0.86478746 1517:1.8661778 1544:0.82695967 1547:0.49956161 1548:0.50406569 1551:4.2111516 1556:0.83146238 1558:0.54109097 1573:2.9214811 1574:0.62306786 1576:1.1160798 1586:1.7209257 1587:1.0738606 1588:1.4785227 1594:0.81891483 1596:0.25980479 1601:0.056993932 1604:1.9171519 1613:0.6170491 1616:0.62898666 1618:2.8428969 1625:1.9177654 1627:0.11868326 1629:2.508575 1632:0.11873665 1647:4.3620605 1654:0.65995216 1656:2.95576 1657:4.4504857 1659:2.1436496 1667:0.34656626 1668:0.14564258 1675:5.9671597 1676:1.7304724 1677:2.2446754 1680:1.862601 1690:0.58326674 1704:0.56426895 1711:5.1136656 1713:0.79508799 1718:1.2729757 1720:0.14086872 1725:0.15772566 1726:1.9237247 1727:0.99388874 1742:1.8964056 1743:1.0685059 1746:3.4621906 1752:0.28809723 1762:1.8770177 1774:1.1555164 1777:2.1268678 1780:0.021733731 1785:0.56749678 1786:4.1270223 1793:2.1985846 1795:0.16803779 1803:0.055911779 1817:0.8943578 1822:0.73144978 1823:0.47788668 1824:0.11963683 1826:2.7773507 1831:1.1613655 1832:0.47878197 1840:1.263648 1842:4.2424107 1850:3.8189251 1851:2.4344184 1852:1.472997 1862:3.4319346 1869:1.4663355 1878:1.6643836 1882:4.3303289 1893:4.7503934 1894:0.46897894 1897:3.6383266 1900:0.1599002 1901:0.55582404 1904:0.88385487 1905:0.58512157 1914:0.30994034 1915:2.7600679 1918:1.594629 1921:3.9747193 1940:0.69091463 1943:0.41160089 1944:0.088441454 1947:0.60154271 1953:5.9073257 1960:1.9777298 1968:1.8772582 1977:1.5410962 1978:0.61088037 1983:0.14335702 1985:0.9039064 1996:0.61178607 1999:1.7449858 2002:1.5546541 2003:1.0760274 2011:2.6771796 2012:5.3586287 2015:0.15045738 2028:2.1200497 2031:0.60539436 2033:2.2596695 2037:0.50276721 2042:1.0498967 2054:0.79962885 2055:1.5768784 2057:0.032968909 2058:3.5225272 2063:0.71310729 2070:2.9226356 2078:2.3423378 2097:2.0783062 2101:0.18295607 2102:1.0659574 2107:6.1213264 2112:0.15146491 2152:1.5363948 2153:1.3181288 2162:1.5150571 2177:1.7569629 2180:3.0371046 2187:1.4371967 2188:0.39461303 2196:1.2909085 2201:0.46904457 2204:1.9541547 2223:2.0207844 2224:3.6615622 2225:1.6397257 2227:0.87327242 2229:1.3728386 2236:2.6555812 2245:0.39540899 2254:0.52993155 2255:1.5379727 2257:2.1369143 2267:0.10955715 2268:0.34349421 2276:0.68754214 2281:1.8505744 2287:2.3086264 2295:1.6469578 2298:0.46268886 2310:0.59476429 2322:4.8865104 2331:3.2518957 2332:0.28305113 2334:2.0795224 2340:2.9989023 2341:1.4255688 2343:0.042965703 2344:0.67242491 2346:1.8793079 2350:2.9447751 2353:2.4733942 2357:1.5066377 2360:1.9640723 2372:0.42050281 2374:2.097893 2378:4.9837613 2388:2.0093946 2397:0.26699644 2415:1.4456489 2419:0.11139443 2426:2.1012793 2431:1.6207443 2435:2.7831481 2442:1.8945335 2457:0.393345 2459:1.6969063 2466:1.486305 2468:0.93196058 2471:3.1551447 2483:2.3603978 2490:1.3920052 2495:1.0916809 2497:1.0210814 2506:4.0795126 2508:2.906106 2509:1.9202449 2512:0.91682965 2515:1.2081242 2516:1.0477896 2520:2.1685152 2527:3.8968711 2561:0.36431041 2567:0.82283205 2568:0.30956095 2571:7.7169423 2574:0.18717599 2577:0.1483365 2580:1.3134075 2583:0.040439487 2588:1.2652388 2591:0.87117809 2594:3.4398119 2598:2.225064 2612:0.46189132 2617:0.65398264 2621:1.1832366 2632:1.5229685 2639:1.1046166 2657:1.0161207 2659:5.7885766 2660:2.3222799 2685:2.6280384 2688:0.81089199 2689:0.53875977 2692:0.98186672 2693:1.5004148 2704:1.6685064 2712:1.5412797 2713:0.54279232 2714:6.3730631 2715:2.2281816 2718:0.33762503 2720:2.8840985 2723:0.75570434 2726:0.10821863 2738:1.188316 2740:2.1814718 2741:2.2581582 2752:0.084608555 2756:0.85322541 2763:0.27528542 2765:1.234551 2766:2.4939587 2777:0.59027362 2778:1.5879356 2785:0.34163427 2786:0.57620168 2789:1.0413641 2793:0.38948041 2798:1.6675665 2799:0.97960448 2800:2.2478514 2804:1.9774956 2834:1.6648501 2837:2.8945475 2840:1.1440251 2844:0.72811341 2849:1.9185412 2865:2.9545145 2869:2.6299059 2870:2.7878203 2878:2.3407745 2882:3.9604621 2883:0.0017757714 2893:1.3728142 2894:0.18040493 2895:3.8400149 2896:3.0006042 2907:2.3738813 2910:0.89518821 2917:0.15920688 2920:1.6099846 2921:1.5884026 2922:0.51070094 2934:1.119539 2937:4.9593806 2944:0.36143044 2947:1.0418186 2949:1.3690901 2952:2.1035109 2953:2.0104113 2956:1.1485239 2958:1.6266199 2959:0.14940193 2961:3.5047512 2962:1.4209509 2963:0.042244226 2973:0.68836224 2985:1.054546 2986:0.27049357 2991:3.7585938 2992:0.58682752 2993:2.330677 3012:2.2977977 3013:2.8144515 3035:1.3038168 3036:0.27658617 3040:2.2361062 3042:0.33429474 3043:3.1345296 3060:0.28651559 3067:2.3859892 3076:1.356602 3085:0.88218427 3109:1.1281034 3114:2.1261468 3118:0.2685535 3119:0.083291858 3127:0.0312756 3128:0.92330027 3129:2.963593 3144:0.58265764 3148:0.53625375 3150:1.1136436 3152:0.23491448 3160:1.7521746 3170:3.2759252 3171:3.174377 3178:2.9588492 3188:1.9758097 3193:0.99544692 3195:1.8928405 3197:0.66018367 3202:4.1306753 3208:1.3670025 3215:0.85048985 3219:0.23217896 3225:4.839931 3236:0.041351259 3245:0.15143403 3258:0.18837678 3267:1.4509573 3268:2.7964308 3275:2.7314825 3276:1.4236261 3285:1.2602344 3286:5.125824 3291:2.0390177 3293:0.50902635 3308:0.13762392 3310:2.6911247 3311:0.15943527 3312:0.47498599 3334:2.1055722 3344:0.4535369 3345:0.76498824 3346:0.26499882 3349:2.3510623 3354:1.707139 3357:2.396888 3359:0.44370332 3367:3.1914108 3371:1.6790329 3372:0.95971096 3377:0.35541898 3382:0.73874974 3385:1.7625223 3394:2.7769015 3402:1.5523049 3410:0.24063252 3413:3.875036 3431:3.6418073 3436:3.7466161 3445:0.8391099 3453:0.13287437 3456:1.2334785 3473:0.93005878 3474:1.4478598 3478:0.0034949929 3481:1.4904845 3482:5.1500378 3484:2.4819713 3489:1.1380409 3490:0.360751 3493:1.3649994 3494:2.6913729 3498:2.9503045 3503:4.444211 3504:0.40903214 3507:1.0530775 3512:1.1558735 3514:0.84802628 3521:1.2304984 3525:1.3940308 3526:1.2633433 3528:0.49730015 3529:2.6766009 3538:2.2575438 3539:3.9572566 3540:0.82533312 3543:0.22266741 3548:0.72517186 3554:4.0725083 3556:5.3533511 3560:2.0115101 3564:3.2715123 3570:0.11811009 3572:4.288826 3580:3.0714293 3588:5.0958037 3597:0.22446097 3604:0.25546733 3608:0.7767545 3612:3.8238657 3629:2.8797827 3631:5.8772202 3637:1.4806685 3639:0.043358833 3642:0.9299379 3644:0.078542158 3653:5.3200164 3657:0.50301743 3666:3.2749836 3667:0.30700436 3670:0.92947006 3671:0.81087697 3677:1.051134 3679:1.0076524 3691:1.0815699 3692:1.1961348 3695:2.3953962 3699:0.092329286 3715:4.2502546 3720:0.92150784 3724:1.0313313 3727:1.7532345 3735:0.9629637 3737:0.53889221 3739:0.73290795 3744:0.54339379 3745:3.2244401 3751:2.4340637 3753:2.7473617 3756:2.4387586 3762:2.5061245 3764:0.19589318 3769:2.3418586 3778:1.5284358 3793:0.56328315 3807:3.073024 3818:1.2666878 3819:0.41905916 3824:5.4087281 3829:0.21994996 3834:1.0542579 3860:3.5726161 3862:6.7133651 3866:1.6604369 3872:3.8904941 3875:0.42308676 3889:1.3351281 3896:0.834373 3908:0.55591041 3910:1.3526685 3913:1.2849358 3915:2.0700119 3919:4.1338224 3936:4.1898994 3938:0.04860181 3943:0.69299936 3956:1.7676626 3957:0.13074689 3963:2.9636168 3968:2.8272746 3974:1.3466687 3978:2.5272465 3980:1.6821902 3981:2.7974524 3984:1.7846088 3985:1.7543111 3995:0.73623151 4002:0.19527182 4004:1.4454308 4015:0.16320857 4018:3.2226977 4026:2.0299854 4032:5.195508 4033:3.4737349 4036:0.89330161 4037:2.2764676 4038:0.69294983 4041:1.5984497 4044:0.32255125 4056:1.3486234 4058:0.18460301 4059:0.016666174 4071:3.3803935 4074:1.5439327 4077:0.37277046 4080:3.3734818 4084:3.6312718 4087:1.1052979 4095:1.3807614 4096:4.7522621 
0.7885594982190158 1:0.86915565 3:1.3701383 8:1.8793061 13:0.6601485 14:1.2259122 15:0.14784518 16:5.519887 19:2.2649596 21:1.5567424 33:1.372311 37:0.91799212 40:3.4773538 41:1.7244333 43:1.7114836 45:2.8015463 48:0.5888992 49:0.67162156 52:0.025343269 54:2.7666042 57:1.9788263 70:1.0680895 77:0.63393241 80:2.9124072 84:1.7646923 95:1.4532969 111:1.6451478 112:1.2796209 125:0.56840605 130:2.4216809 133:0.52414232 146:2.4674101 152:1.5090455 155:0.65011287 157:3.0177948 166:0.86211896 186:1.6046259 190:0.48148081 194:0.59922403 199:4.0321798 200:3.2909832 205:1.2133793 210:3.57616 221:2.2277222 223:2.3948913 234:0.94849968 240:1.6461564 247:2.8174016 248:0.15204462 254:3.5874953 256:0.38964972 259:3.5899491 260:0.50756556 266:2.9675503 267:2.5079865 290:2.3745008 291:0.30364561 297:1.3260807 299:1.146347 306:1.834748 313:0.63173652 329:1.877702 340:1.4289391 342:2.673851 347:1.6996276 349:1.6564611 350:0.4803462 351:0.76814348 366:0.33060151 371:0.68551552 372:1.8139765 379:0.73250431 388:2.2740195 391:3.0243192 410:0.29302996 417:1.705266 418:0.19321373 422:0.048624933 425:0.23586759 432:1.3039634 436:0.62254262 442:2.78179 444:0.7146039 460:0.14342177 461:5.0859509 472:1.418047 474:0.13476816 482:1.9575845 487:1.0334904 490:0.16557479 491:1.3930167 494:5.0795317 498:1.0623561 503:0.11051285 504:0.65821803 507:1.0322864 514:0.60038102 532:0.33322582 537:0.00710693 555:0.90753669 562:3.8593233 567:1.8068539 575:0.7730161 581:0.38793641 586:0.68755674 590:0.51870424 592:0.35382998 595:0.12877482 603:0.12165835 608:1.0695251 628:4.098371 629:2.3895032 635:3.0366838 637:1.736972 644:2.9905488 645:0.62014621 647:2.2514243 651:0.72987616 656:1.4969848 662:0.24514169 664:0.0034826696 667:0.52587324 669:0.069658294 670:5.1851668 676:1.1715667 683:1.3196675 688:1.4315501 690:0.70907062 697:0.16987041 698:0.7354843 701:0.87252176 704:2.1951559 706:3.5747666 717:0.40261561 718:0.56943268 723:2.4777191 725:3.2782664 735:2.3302524 737:1.3640069 747:2.2708004 750:1.5059397 759:0.15233833 761:0.67708826 773:0.59308529 776:1.6085767 777:0.82624477 785:0.44022417 789:0.13901266 794:0.69300508 797:1.7131522 799:2.5622206 806:0.041756719 813:1.3203059 820:1.0579853 836:1.5267997 838:1.4956803 839:0.38990062 841:0.54178858 842:1.3329437 846:1.7008859 848:0.7971583 849:4.4550176 851:0.23610103 853:1.8395497 854:0.37910557 856:1.889971 860:1.1729867 865:0.87923706 868:2.3973837 872:1.2727294 882:1.499523 887:3.2374208 889:2.5803518 895:3.2811086 897:0.10979611 902:1.1289884 903:0.76372498 905:4.010191 919:0.37854216 928:2.6634893 937:0.31136999 940:0.42795512 942:1.4237633 943:0.80299556 944:2.6485786 949:1.7005967 954:3.6779826 965:6.8932095 974:0.93646127 976:0.76858234 980:0.085744083 985:1.7385336 989:1.2687074 990:0.56600267 993:1.7209457 997:1.3902756 1001:2.6117473 1004:1.4808161 1019:3.9922783 1022:2.6437571 1026:0.65638554 1027:1.7846081 1031:2.0077589 1042:1.3694379 1046:0.75030887 1049:0.749367 1059:3.9438183 1060:0.97445047 1063:1.4526439 1072:2.1656027 1073:0.077919334 1095:0.8440752 1099:1.3732294 1106:0.14517075 1111:1.7452893 1121:0.13736758 1122:1.2377775 1125:0.96526611 1130:1.7853487 1137:4.166069 1139:0.58929402 1140:1.8674148 1144:2.1001072 1145:0.43380216 1147:0.44326395 1163:2.0806477 1165:0.19536059 1168:0.22655651 1173:0.95919245 1180:2.3461146 1186:3.0647447 1189:1.1847821 1193:0.91850698 1199:0.33648488 1206:3.4285235 1221:2.7917688 1223:1.1959331 1227:1.0779269 1228:5.9356041 1231:0.92267692 1234:2.2946479 1236:0.10946512 1250:0.79896885 1255:1.4753618 1260:1.2280812 1267:1.6174841 1271:0.64678413 1279:0.76733011 1291:2.7627087 1299:0.072895624 1302:1.9178419 1313:1.8641347 1317:1.4499247 1327:1.0410128 1329:0.32100949 1331:1.0210102 1332:3.1217005 1333:0.02270058 1336:1.7160932 1340:1.9579887 1341:2.4533062 1342:0.89766276 1343:0.30067581 1348:1.2524319 1357:0.71528685 1366:3.6689386 1372:2.0036032 1374:1.2643317 1383:0.041767776 1387:2.2293925 1396:1.9292926 1400:0.71047467 1401:1.252414 1402:2.6076133 1406:4.499372 1408:2.4465556 1409:1.0156654 1425:3.3674014 1428:1.919384 1431:0.57754564 1432:0.11632511 1433:0.7608794 1434:2.6171894 1444:1.2130897 1445:0.99821413 1456:1.9517956 1457:0.043403029 1458:0.12194115 1460:2.0401673 1469:3.6648228 1476:1.7468216 1479:1.2478286 1483:0.47399622 1495:0.20105121 1496:5.6128101 1511:1.4632844 1523:0.94508857 1528:0.028464496 1532:1.580484 1537:1.8154569 1544:1.2382565 1551:1.6778262 1558:0.65009701 1565:0.13311951 1567:0.80952513 1573:4.1045299 1574:2.3381717 1576:2.8345954 1580:0.67298442 1581:0.65796584 1586:2.1204555 1594:1.5188057 1604:5.371695 1614:2.2118356 1618:0.55350846 1620:0.22138247 1629:0.46646634 1641:1.7077357 1647:6.5602245 1654:0.3752614 1656:0.64087403 1657:4.4491887 1659:0.86332977 1663:0.43813103 1667:1.3678095 1675:3.3733153 1677:0.82532793 1680:2.0283585 1689:1.3815184 1690:1.0781219 1696:1.7993493 1707:0.36916602 1711:4.5433969 1718:0.33528522 1720:1.4284219 1725:1.0770054 1726:3.0283525 1727:0.82738781 1732:2.4988651 1746:3.156487 1756:0.55981743 1758:0.045411289 1762:2.560827 1766:0.7473132 1774:1.479665 1777:1.4828582 1778:0.35215941 1780:0.077285498 1785:0.33969453 1786:3.9967971 1793:2.7956645 1795:0.99994504 1799:0.46204564 1802:1.5799084 1803:2.4190764 1805:0.61590266 1806:0.52644211 1808:0.25321731 1822:1.8480058 1823:0.18752283 1830:0.29053354 1831:3.168153 1832:1.2012467 1840:1.6792735 1842:3.3289492 1846:0.51033658 1850:2.1369364 1851:1.4811536 1852:0.95235384 1855:1.0269932 1862:2.950969 1869:0.56409889 1872:0.44241148 1878:1.2600758 1882:3.5800028 1890:2.2973175 1893:4.41045 1897:4.5757942 1898:0.55730313 1900:1.487643 1901:1.7848668 1906:0.6596899 1921:2.793303 1944:2.2450194 1953:2.349432 1960:0.75214791 1964:0.64315152 1968:0.52174509 1975:1.9498361 1977:0.70644951 1983:0.29085198 1985:1.9787596 1996:0.88027853 2001:1.0634587 2002:0.50143659 2003:0.7557193 2011:0.082012832 2012:3.8287683 2015:1.6887747 2033:0.50304961 2034:1.6163008 2035:1.5055895 2037:0.077593774 2042:0.35520151 2049:0.76155847 2051:0.33327153 2054:1.6023524 2057:0.023872167 2058:0.98314995 2059:0.18359998 2060:1.2545497 2064:0.38429105 2070:3.3338084 2072:0.65839356 2074:1.9931799 2078:1.4925543 2085:0.13354978 2097:1.5782238 2101:0.94919246 2107:5.3098774 2134:0.12291479 2139:2.3314145 2152:2.6466994 2153:2.7436802 2162:0.8705442 2167:0.30544573 2172:0.79435992 2176:0.43429893 2177:1.6527331 2179:2.572901 2180:2.1132643 2187:1.2444198 2195:0.089141533 2196:2.3090944 2198:0.0010868907 2200:0.83800328 2201:0.0078386534 2204:1.800437 2211:0.63105595 2213:1.6741016 2223:1.1724765 2224:4.4030666 2225:0.43093193 2230:0.64799082 2232:1.7205884 2243:0.10956597 2246:0.56220758 2255:2.9816828 2257:1.182839 2267:0.45625168 2276:2.6138203 2287:1.1480939 2295:3.2112889 2322:0.075722814 2331:3.6557641 2333:1.8807262 2340:0.53815806 2341:1.322374 2343:0.87705159 2346:2.1382055 2347:0.73649549 2349:2.4190459 2350:3.843679 2353:3.3017139 2357:1.3548539 2358:2.9411328 2361:0.024386078 2372:2.0611033 2378:3.6537189 2388:0.099695861 2389:0.55952394 2397:2.6174796 2400:1.0748355 2406:0.052549899 2415:0.88861686 2426:0.027522475 2431:2.5575626 2433:0.21688373 2435:3.6962185 2442:3.0116744 2453:1.6684668 2459:0.46848172 2463:0.51745516 2466:1.2038391 2471:4.4818726 2483:2.1402042 2485:0.23865169 2495:2.7840962 2496:1.6083484 2497:0.62886864 2504:2.6913857 2506:2.3747866 2508:3.300756 2514:0.49000543 2520:1.1415707 2527:2.1675477 2533:1.2493644 2552:1.3665738 2570:0.013699383 2571:4.3553295 2573:0.078835428 2574:0.49210069 2577:1.8588288 2581:1.4903134 2588:0.21214902 2594:2.6326575 2598:0.94403189 2599:1.3780744 2600:0.030824661 2612:1.4778029 2614:0.79192913 2617:0.31795272 2634:1.5808457 2635:0.55466676 2636:0.62583125 2638:0.18831265 2639:0.30579758 2651:0.31740865 2657:1.3192627 2659:5.8645363 2685:1.6495544 2687:0.61713082 2688:2.5182288 2689:0.82633948 2692:0.18766031 2704:0.18583646 2706:2.1949883 2711:0.098010421 2712:0.76696539 2713:1.7127916 2714:1.113539 2715:3.0001087 2717:0.083953522 2720:1.4630747 2723:0.7549907 2724:1.3457079 2726:0.059172936 2727:0.46434861 2739:2.0177233 2740:0.46892637 2741:1.8368731 2745:0.42440522 2754:0.55524862 2760:0.53106403 2766:0.63794911 2768:0.83092338 2771:0.72722948 2777:0.016188741 2778:2.8406439 2793:1.9527649 2799:3.862108 2800:2.0562544 2804:4.644762 2806:1.1165922 2813:0.24219593 2817:2.6978981 2818:1.8521057 2819:1.0958009 2821:0.8072294 2825:0.075332314 2829:1.4666743 2833:0.23013584 2834:2.3452744 2835:1.3691663 2837:3.4613576 2844:1.2634501 2849:2.1013641 2860:1.8837984 2869:3.2037075 2870:2.1990416 2873:1.2302577 2878:4.2175426 2882:1.9031155 2883:1.0076206 2887:0.63272059 2891:2.1598232 2893:1.0482347 2894:1.3524637 2895:4.4463253 2898:1.946856 2902:0.91278648 2903:0.71208233 2909:1.5292608 2910:0.35838136 2918:3.4549367 2920:0.15153858 2921:1.6226794 2927:1.5967525 2934:0.074389398 2937:4.0357933 2944:0.6843971 2946:0.39211667 2952:1.3663754 2956:0.027216285 2961:1.8926449 2962:0.7847563 2963:2.0109 2965:0.2244018 2971:0.79214525 2974:0.11945038 2978:0.73748338 2985:3.383724 2986:0.67944759 2989:0.66347921 2991:2.9528089 2993:0.38473892 3003:2.476124 3012:1.0818321 3013:1.1886719 3033:1.2992332 3035:1.1008186 3036:0.68435168 3040:3.341856 3043:1.2058055 3045:0.029232353 3057:1.441118 3060:0.84122294 3067:0.53091419 3071:1.0757279 3072:0.026026428 3076:0.53553635 3077:0.6143539 3087:0.37572759 3101:1.7712524 3114:2.5230143 3118:1.8102164 3124:1.4756491 3129:4.3088202 3148:0.17927343 3150:0.4749164 3161:0.40836585 3170:0.29615054 3171:1.6914608 3178:2.197963 3187:1.0462697 3188:2.9948819 3192:0.099013209 3193:1.9260489 3195:0.64093792 3197:0.55420524 3199:1.6426427 3202:2.167393 3215:1.1240069 3218:1.5503106 3219:0.1330068 3225:3.3616741 3243:0.44634461 3245:0.00025269389 3247:2.1092672 3257:0.14698352 3258:2.2060571 3262:3.2742884 3268:3.4872661 3275:0.83958733 3276:1.9026581 3286:2.6978085 3291:2.6239688 3295:0.8244822 3308:1.697207 3311:0.568012 3333:0.36827147 3351:0.60813636 3354:2.180948 3356:0.13908657 3357:0.85232866 3365:0.12003624 3367:3.3248105 3377:0.8601796 3378:1.5193102 3384:0.87518662 3385:1.8885071 3394:1.3427799 3396:0.1548925 3401:0.25174922 3402:2.588402 3410:1.8139429 3413:2.3270402 3415:1.0865421 3418:1.726891 3436:3.5338695 3443:0.018673062 3453:0.10901952 3456:2.4804575 3473:2.7397463 3475:1.2752116 3481:1.4106126 3482:1.3083491 3484:0.023661017 3485:0.98717111 3486:0.94156039 3489:3.3512173 3490:1.4867889 3491:0.64440608 3494:2.3289871 3496:0.45308897 3498:3.848598 3500:3.6040974 3503:2.7879229 3507:0.45912462 3512:1.6005313 3517:0.44580844 3521:0.99585688 3522:0.15515342 3523:1.1193018 3525:1.8640333 3526:2.7655389 3528:0.47776562 3529:3.6367111 3539:3.0392516 3540:0.64047664 3543:0.27897069 3547:1.1407809 3548:0.91099656 3554:2.7663031 3556:4.5857849 3560:1.636559 3572:0.25403306 3580:0.47076473 3588:4.5410557 3602:1.2334669 3607:1.9555836 3612:3.6696818 3626:0.49829268 3629:1.4799172 3631:4.0819788 3633:0.2418626 3637:0.69823849 3644:0.53042346 3653:3.6759017 3657:0.098329991 3662:1.2197959 3666:2.2446165 3670:2.0801313 3671:2.2618942 3672:0.35875723 3679:1.4655722 3691:3.1020145 3692:1.9994215 3695:2.443985 3703:2.2759023 3715:0.68892443 3724:1.4105351 3727:0.83974373 3732:0.35969329 3737:0.28207171 3739:0.73638946 3751:2.6909399 3753:0.80206758 3756:0.28067902 3762:2.7640417 3769:0.76983863 3793:1.4417398 3806:1.0378616 3807:3.7157438 3812:1.1346779 3817:0.38100535 3818:0.37877804 3822:0.47092456 3823:0.74190319 3824:3.6315236 3838:0.30035558 3845:1.5940064 3851:0.19788212 3860:2.3912678 3861:3.0115609 3862:7.070219 3872:0.41802511 3875:2.5466111 3889:1.731235 3910:1.1014221 3913:1.050042 3915:0.35021234 3919:3.5205841 3933:1.9713516 3936:0.97621989 3940:0.50420243 3942:1.7632895 3943:1.3865621 3948:0.4590531 3956:0.029538713 3957:0.59427446 3963:3.0243807 3968:1.0268623 3970:0.36768541 3973:0.30340821 3974:0.58839422 3978:2.7113242 3979:0.091313899 3982:0.074134775 3985:2.1485929 3995:1.6921321 4002:1.2124279 4004:3.0699327 4018:1.6604218 4021:0.82226723 4026:1.5963939 4032:3.812429 4033:0.52791941 4038:1.362469 4044:1.6365092 4050:1.7602887 4058:1.9855499 4059:0.047300115 4064:1.2175545 4069:0.16775355 4071:3.6438389 4077:0.67367887 4080:0.48986739 4084:2.0160277 4096:4.3385286 
